{"type":"NeuralNetwork","sizes":[10,20,40,40,20,10],"layers":[{"weights":[],"biases":[]},{"weights":[[-0.6320368051528931,-0.4084014594554901,-0.4205268919467926,0.26012179255485535,1.201937198638916,-0.4136350452899933,-1.3372832536697388,0.38017597794532776,-0.6019027829170227,-0.014908389188349247],[0.4168368875980377,-0.3682761490345001,0.43219417333602905,-0.5963464379310608,1.0890122652053833,-1.0735557079315186,0.0967845544219017,-1.304567813873291,-0.010902154259383678,-0.01043111551553011],[-0.421951562166214,-0.08881992846727371,-0.06594976782798767,0.9661300182342529,0.3733953535556793,0.14921815693378448,-0.9431947469711304,-0.4668629467487335,-0.046536143869161606,0.14771722257137299],[0.29952728748321533,-0.6985192894935608,-0.18108925223350525,-0.05085485056042671,-0.38689643144607544,1.1491299867630005,-0.37969970703125,-0.03224292770028114,0.3186699450016022,0.023512011393904686],[0.6351495981216431,0.1791854202747345,-1.8770921230316162,1.8716528415679932,0.22265543043613434,-0.05558815971016884,-0.2841905653476715,0.391043484210968,0.27348408102989197,-0.5041490793228149],[0.955054759979248,0.3159797489643097,-0.018407123163342476,2.173213481903076,-0.1520988643169403,0.061129748821258545,0.006237933877855539,-0.7971500754356384,0.5743634700775146,-0.026364702731370926],[0.06244932860136032,-0.18092051148414612,0.1502036154270172,0.1474483162164688,-0.17427600920200348,0.013389436528086662,-0.06744098663330078,-0.09702049940824509,-0.10772423446178436,-0.14147745072841644],[-0.02851530723273754,0.16794180870056152,-0.12503650784492493,-0.06826113164424896,-0.07928436249494553,0.08652594685554504,-0.4039744436740875,-0.04843306913971901,0.19936680793762207,-0.18232738971710205],[-0.07106616348028183,0.38343995809555054,-0.3893265426158905,-0.9845456480979919,-0.5872097015380859,1.33827543258667,0.4814528524875641,0.16373826563358307,0.15705236792564392,0.3763561546802521],[0.04395446553826332,-0.8802300095558167,0.0779213085770607,2.4694743156433105,2.292393445968628,-0.6285319328308105,0.04538453370332718,0.006805989425629377,0.3234608471393585,-0.5984501838684082],[-0.015776431187987328,-0.4548931419849396,-1.0509378910064697,0.7250573635101318,-0.06731914728879929,-0.18817810714244843,0.9531837105751038,-0.3785867393016815,0.8366909027099609,0.07439017295837402],[0.061118051409721375,-0.06687650084495544,-0.179423525929451,0.05898641049861908,-0.13434454798698425,-0.13748101890087128,-0.07167654484510422,-0.0178789384663105,-0.15090692043304443,-0.029051583260297775],[-0.031209688633680344,-0.15599818527698517,-1.5214732885360718,1.8762160539627075,0.956139087677002,-0.06018434092402458,0.6493264436721802,0.22413985431194305,0.03528827056288719,-0.30397361516952515],[0.5189607739448547,-0.04824219271540642,0.16194888949394226,-0.2598288059234619,-0.08364030718803406,-0.35326868295669556,-0.2614820897579193,-0.43748176097869873,-0.11975889652967453,0.02678985893726349],[-0.3343602418899536,-0.14233848452568054,-0.04836486279964447,0.6656745076179504,0.3618171811103821,-0.04755084589123726,-0.6186211109161377,-0.18449971079826355,-0.45655620098114014,0.16401036083698273],[-0.47269877791404724,-0.7325369715690613,0.11522813886404037,0.4188997745513916,0.20288114249706268,-0.10495517402887344,-0.6096683144569397,0.06404321640729904,-0.19592562317848206,0.10104885697364807],[-0.5976160168647766,0.2849995195865631,0.09160320460796356,0.2611481547355652,-0.08194559812545776,0.4174436032772064,-1.1511750221252441,-0.5703783631324768,-0.2338443398475647,-0.07777774333953857],[-0.1054670438170433,0.919293999671936,-0.5839234590530396,-0.49478113651275635,1.026831865310669,-0.10447297990322113,-0.013432449661195278,0.028260748833417892,0.05880414694547653,-0.05890529602766037],[0.10043074190616608,0.014593847095966339,2.711591958999634,0.2795606851577759,-0.3405015170574188,-0.4036514461040497,-0.5700202584266663,0.1155107244849205,0.964817225933075,-0.07421381026506424],[0.5191367864608765,-1.2356137037277222,-0.08318682014942169,-1.004725694656372,-0.46213477849960327,0.2336893230676651,0.7723410725593567,0.199148491024971,-0.06525973230600357,-0.141790971159935]],"biases":[0.835392415523529,-0.0023539906833320856,0.4647352695465088,0.05391629785299301,-0.550735592842102,-0.7071424126625061,-0.05509110540151596,-0.009742733091115952,-0.1132059171795845,-0.8145150542259216,0.2623397409915924,-0.1949305236339569,-0.5681459903717041,0.055350225418806076,0.23925690352916718,0.6568418741226196,0.7698813080787659,-0.11535530537366867,-1.1622368097305298,-0.09838657081127167]},{"weights":[[-0.06727544218301773,0.23551209270954132,-0.025550927966833115,-0.1030726209282875,-0.380630224943161,-0.29081037640571594,0.042342133820056915,-0.12726816534996033,-0.07700036466121674,-0.12722992897033691,0.3284664452075958,-0.06663167476654053,0.3473605513572693,0.11564221978187561,-0.26258572936058044,-0.1831476241350174,-0.15052446722984314,-0.1094406247138977,-0.21642816066741943,-0.04497324675321579],[-0.075846366584301,0.6325022578239441,0.3266724944114685,-0.25166067481040955,-0.006750278174877167,0.12869761884212494,-0.09430505335330963,0.1080695390701294,-0.22439324855804443,0.20802675187587738,0.16583481431007385,0.08563417941331863,0.07731101661920547,0.04800603538751602,-0.03356591612100601,-0.20053033530712128,-0.3584596812725067,0.2428554743528366,-0.18076848983764648,0.07831155508756638],[-0.16956155002117157,0.28859391808509827,0.46987205743789673,-0.1585623174905777,-0.08988474309444427,-0.20574255287647247,0.1415175199508667,-0.18463529646396637,-0.07783301174640656,0.203876331448555,0.10694616287946701,-0.09171409904956818,0.2511700391769409,0.0951433777809143,-0.062438756227493286,-0.28768160939216614,0.23425747454166412,0.4604242146015167,0.0958673506975174,0.32718250155448914],[0.09532897174358368,-0.3866443336009979,0.2974729835987091,-0.027776120230555534,-0.21670755743980408,-0.2729471027851105,0.016794169321656227,0.04896775260567665,0.045359376817941666,-0.29199156165122986,0.3348627984523773,0.03686756268143654,-0.25540390610694885,-0.12540647387504578,0.18854425847530365,0.5690691471099854,0.29252737760543823,-0.052440013736486435,-0.02514704130589962,0.3271968364715576],[-0.13931138813495636,0.4347991347312927,-0.016959764063358307,-0.25093355774879456,0.02474500797688961,0.0787065178155899,-0.1055576279759407,0.01798519678413868,0.2007685750722885,0.1048641949892044,-0.11142951995134354,-0.011417177505791187,0.20294189453125,-0.046716563403606415,-0.07110108435153961,-0.09622190147638321,-0.1280747801065445,0.25941231846809387,0.12298478186130524,-0.3025987446308136],[0.154639333486557,0.37443864345550537,0.1287182867527008,0.15090563893318176,0.31927818059921265,-0.40356576442718506,-0.15482914447784424,0.08837104588747025,-0.08421392738819122,0.07713472843170166,0.03799052909016609,0.0076300036162137985,0.2454572170972824,-0.05329905450344086,0.1343972086906433,-0.09379316121339798,-0.2738911211490631,0.035600513219833374,0.3345976769924164,-0.18947665393352509],[0.018321657553315163,-0.4080837368965149,-0.1062609925866127,0.2171851098537445,-0.28439414501190186,-0.7438042759895325,0.06745154410600662,0.22374173998832703,0.28831687569618225,0.36951175332069397,0.030331049114465714,0.03644193336367607,-0.1703770011663437,-0.12325158715248108,-0.0974109023809433,-0.06353303790092468,0.081121064722538,0.33834776282310486,0.2956492304801941,0.10498357564210892],[0.1319032460451126,0.14161403477191925,0.42923033237457275,0.46359002590179443,-0.6064267158508301,0.2864378094673157,0.02379726991057396,-0.08895384520292282,0.3659861087799072,0.01646892912685871,-0.348772257566452,0.0959545224905014,-0.29300588369369507,0.3039936125278473,0.12245015799999237,-0.05860169976949692,0.4686279296875,0.12212502211332321,-0.3813772201538086,0.04633954539895058],[0.11913589388132095,0.058613602072000504,0.10328750312328339,-0.19658638536930084,-0.3298589587211609,-0.15028394758701324,0.08732347935438156,0.021071607246994972,-0.11433327198028564,0.09942176192998886,0.03261648491024971,-0.19832345843315125,-0.37605518102645874,-0.13531048595905304,0.23873868584632874,0.10199394822120667,0.027125170454382896,0.2299518585205078,-0.2404583841562271,0.09886915981769562],[-0.4321219325065613,0.21156452596187592,-0.1616990566253662,-0.20934991538524628,0.43810346722602844,0.19478607177734375,0.05168865993618965,0.13386251032352448,-0.4361223876476288,-0.1547405868768692,0.38596317172050476,-0.14512351155281067,-0.0519360676407814,-0.1954047530889511,-0.058545853942632675,-0.35601770877838135,-0.4608045518398285,-0.013236834667623043,0.31523841619491577,-0.26777395606040955],[-0.5361144542694092,0.08988896757364273,-0.013722634874284267,-0.00010639294487191364,0.561255693435669,-0.14241242408752441,-0.10337495803833008,-0.12308427691459656,-0.23248018324375153,-0.14804935455322266,0.164176806807518,-0.06335914880037308,0.22373244166374207,0.06255868077278137,-0.3287059962749481,-0.020902462303638458,-0.3654734194278717,-0.16837768256664276,0.7041902542114258,-0.017225340008735657],[-0.10805892944335938,0.15468087792396545,-0.14131763577461243,-0.09407315403223038,0.19933432340621948,-0.10010869801044464,-0.040730927139520645,-0.02315387688577175,0.12387623637914658,-0.17999736964702606,-0.16186517477035522,0.12009706348180771,0.1708720475435257,-0.0934021919965744,0.12427566945552826,-0.09418871998786926,0.08502842485904694,0.12161961942911148,0.08011797070503235,0.21051844954490662],[-0.37069323658943176,0.1113651916384697,0.13799376785755157,0.11867066472768784,-0.4051344096660614,0.28905418515205383,-0.06963843107223511,0.16526257991790771,0.13408659398555756,-0.14189667999744415,0.15699651837348938,-0.18615658581256866,-0.3845325708389282,0.2797940969467163,-0.18606838583946228,0.09870206564664841,0.17925047874450684,0.12017747759819031,-0.03210357576608658,0.004842148162424564],[0.05336805805563927,0.39180848002433777,0.4041304290294647,0.5310830473899841,0.02204374596476555,-0.3113372325897217,-0.16189470887184143,0.2772010564804077,-0.3198990821838379,-0.6772317290306091,-0.16085471212863922,0.1589614450931549,-0.27918946743011475,-0.04232532158493996,-0.11801430583000183,0.3025207817554474,0.35158443450927734,0.11463745683431625,0.063839852809906,0.2165117859840393],[0.648630678653717,-0.1429644376039505,0.4763006269931793,-0.11232168227434158,0.21933840215206146,-0.4983091950416565,-0.18932825326919556,0.19427110254764557,0.1344047635793686,-0.6802785992622375,0.0014068877790123224,0.02031935565173626,-0.28736427426338196,0.11992333084344864,0.35113000869750977,0.6228892803192139,0.1283281445503235,0.6234749555587769,0.10597313195466995,0.2600478231906891],[0.03406121954321861,-0.19397380948066711,-0.15721675753593445,0.6128191947937012,0.038717202842235565,-0.23629826307296753,-0.04187953472137451,0.025165975093841553,0.36917611956596375,-1.0262013673782349,0.5101277232170105,0.10394719988107681,-0.676077663898468,0.2074972689151764,-0.07394169270992279,0.23122400045394897,0.05663133040070534,-0.5269367098808289,0.13259059190750122,-0.11506921797990799],[-0.302857369184494,0.4522603750228882,-0.1943853795528412,-0.21830861270427704,0.375550776720047,0.05854294076561928,0.022524351254105568,-0.16986043751239777,-0.11932661384344101,0.016770362854003906,-0.1726263463497162,-0.12134388089179993,0.24861285090446472,0.021137606352567673,-0.3822373151779175,-0.1489298790693283,0.040028344839811325,0.3779049515724182,0.3768599033355713,-0.18796762824058533],[-0.49886462092399597,0.7120457887649536,-0.44602376222610474,-0.08101598918437958,0.04761379957199097,0.04985716938972473,0.15962551534175873,0.014631680212914944,-0.32022371888160706,0.05095626041293144,-0.01891753263771534,0.030033256858587265,-0.15890488028526306,0.31108179688453674,-0.2728847861289978,-0.12395143508911133,-0.46289345622062683,-0.4083584249019623,0.35761508345603943,0.01403186097741127],[-0.36174121499061584,-0.2641361653804779,-0.4296494722366333,-0.015496086329221725,-0.12942320108413696,0.3037779927253723,-0.05536996200680733,0.2030954509973526,0.06729540973901749,0.16392721235752106,-0.23081232607364655,-0.1533912718296051,-0.03375447541475296,0.10102231055498123,-0.16266508400440216,0.19206658005714417,-0.015784841030836105,-0.12654469907283783,-0.10856989026069641,0.2597751319408417],[0.387420654296875,0.33496779203414917,-0.12826970219612122,-0.019183726981282234,0.014153249561786652,0.28319716453552246,0.18788185715675354,-0.19576457142829895,0.27544936537742615,-0.5193418264389038,-0.31589388847351074,-0.0025353163946419954,-0.19974862039089203,-0.09964044392108917,-0.12680044770240784,0.14579017460346222,-0.22986401617527008,0.025808101519942284,0.02364685758948326,-0.10288753360509872],[0.013189518824219704,0.026605108752846718,0.05154877156019211,0.03671088442206383,0.11796843260526657,-0.08392062783241272,-0.13596999645233154,-0.030059264972805977,0.22906646132469177,-0.1955682337284088,0.012098199687898159,0.09763709455728531,0.0991029292345047,-0.0011112100910395384,-0.05052167549729347,-0.1722785085439682,0.16667184233665466,-0.018626948818564415,-0.10819783061742783,0.007207285147160292],[-0.26652777194976807,-0.11550981551408768,-0.2778242230415344,0.04712740704417229,0.18980014324188232,-0.03880416974425316,-0.1531401425600052,-0.16963380575180054,-0.19835199415683746,0.019286498427391052,0.03502360358834267,0.11384366452693939,0.08832093328237534,-0.24267448484897614,-0.11789488792419434,-0.19232575595378876,-0.5967302918434143,0.021851779893040657,0.39599475264549255,-0.2642228603363037],[0.20760294795036316,-0.19725191593170166,0.10277733206748962,0.17750348150730133,-0.26647457480430603,-0.06788736581802368,0.05974140763282776,-0.11078469455242157,0.16087062656879425,0.1427701860666275,-0.20121720433235168,0.11137562245130539,-0.13794603943824768,-0.2100311815738678,-0.05168207734823227,-0.20704558491706848,0.11524324864149094,0.12957529723644257,-0.5150792598724365,-0.2495703399181366],[-0.15562903881072998,-0.3982607126235962,-0.11374464631080627,0.14223475754261017,-0.2487936019897461,0.2857823371887207,-0.02377273142337799,-0.012279020622372627,0.35063406825065613,-0.4295628070831299,-0.007324338890612125,-0.1186300665140152,-0.16122622787952423,-0.06955701857805252,-0.02634618617594242,-0.11309804022312164,0.02361689694225788,-0.42308539152145386,0.2774505913257599,0.31231236457824707],[-0.05441642180085182,-0.16305935382843018,-0.2644946277141571,0.33845943212509155,-0.31297755241394043,0.15157076716423035,-0.07415972650051117,-0.20639990270137787,0.42465683817863464,0.7834126949310303,-0.4405936002731323,0.19597825407981873,0.024369804188609123,-0.07150690257549286,0.13831576704978943,0.040771931409835815,-0.0816265344619751,0.12470932304859161,-0.4819566607475281,-0.22810529172420502],[0.15830719470977783,-0.15012353658676147,0.31238892674446106,-0.43744829297065735,-0.08201858401298523,-0.224485844373703,-0.15138860046863556,0.03126973286271095,-0.07718779146671295,0.5375404357910156,-0.3196339011192322,-0.10668682307004929,0.07323206961154938,-0.022453734651207924,0.22148826718330383,0.1438823789358139,-0.0383448526263237,-0.22461499273777008,-0.26794350147247314,-0.13064751029014587],[0.12572723627090454,-0.107212133705616,0.06038336455821991,0.16236884891986847,-0.2103259265422821,0.1255154013633728,0.10187375545501709,0.19139117002487183,0.30144983530044556,-0.05265650153160095,0.24844706058502197,0.1263734996318817,0.051008932292461395,-0.05634358897805214,-0.28738778829574585,-0.1310809850692749,-0.0011770218843594193,0.04480484127998352,-0.06298154592514038,0.10501023381948471],[0.2236524224281311,0.04871903359889984,0.037373147904872894,0.20134802162647247,-0.4538719058036804,0.2620769441127777,-0.12785999476909637,0.0413702130317688,-0.05530058220028877,-0.18255090713500977,0.21650150418281555,0.15336889028549194,0.014845550991594791,0.02535744197666645,-0.03344307839870453,-0.03292115405201912,-0.06764867156744003,-0.25459006428718567,-0.11113997548818588,0.1523636281490326],[-0.5692833065986633,-0.05774874612689018,-0.5410904288291931,0.061020415276288986,-0.17550741136074066,0.047240644693374634,0.13745945692062378,0.00011268023808952421,-0.15362446010112762,0.5338138937950134,0.5065056681632996,-0.14755205810070038,0.15541020035743713,0.04408561810851097,-0.363298624753952,0.047918036580085754,-0.3946622312068939,0.21645578742027283,0.5255129337310791,0.2480459213256836],[0.20985084772109985,-0.0020233120303601027,-0.1867070347070694,0.07205671072006226,0.06301075220108032,-0.20834842324256897,0.107213594019413,-0.031398504972457886,-0.06687577813863754,0.35284125804901123,0.12765321135520935,-0.11607133597135544,0.2957818806171417,0.017165230587124825,-0.08355256170034409,0.2778395414352417,-0.11000005900859833,-0.3146921992301941,0.3137027323246002,-0.013284550979733467],[-0.10487286001443863,0.018245112150907516,-0.17605462670326233,0.007272043265402317,0.15390172600746155,0.3043007254600525,-0.004029234405606985,0.17272089421749115,0.048576001077890396,-0.06411942094564438,0.02344672381877899,0.01752365753054619,0.3279211223125458,0.05702771246433258,-0.38695603609085083,-0.05591878667473793,0.5092937350273132,-0.4702344834804535,-0.05573839321732521,-0.012032528407871723],[0.1970500946044922,0.16658593714237213,-0.09697820246219635,0.042088042944669724,0.17413221299648285,-0.5210849642753601,0.1895456165075302,0.1046634167432785,-0.10544312000274658,0.10698087513446808,0.007303217425942421,0.09908801317214966,-0.02406366541981697,0.19715015590190887,0.16196686029434204,0.20013415813446045,-0.2264193296432495,-0.3629699647426605,0.2481948435306549,0.2526513934135437],[-0.0782770961523056,-0.712225079536438,0.025666939094662666,0.006614937447011471,-0.22820307314395905,-0.2223757654428482,0.10494620352983475,0.07640662044286728,-0.013566280715167522,-0.5478975772857666,-0.2563733458518982,0.040408480912446976,-0.13254320621490479,0.2802094519138336,-0.1962721049785614,0.39334702491760254,0.06350928544998169,0.06916553527116776,0.06293994188308716,0.8507854342460632],[-0.0630897656083107,-0.13251055777072906,-0.23569779098033905,-0.12727217376232147,0.3270445466041565,-0.26095256209373474,-0.03145544230937958,0.10187142342329025,-0.21582922339439392,0.03301588073372841,-0.14688819646835327,0.07560104876756668,0.14242519438266754,-0.03920538350939751,0.0700773224234581,0.07792948931455612,-0.0043647438287734985,-0.010709511116147041,-0.03274758532643318,0.24074159562587738],[0.022569725289940834,0.18220332264900208,0.1634131371974945,0.31857120990753174,0.41893666982650757,0.1938907355070114,0.1487191766500473,-0.022586628794670105,0.04403314366936684,0.018007362261414528,0.028519263491034508,-0.06735876947641373,-0.3646564483642578,0.17281405627727509,-0.1757270246744156,-0.2552488446235657,0.24378834664821625,-0.051018644124269485,0.36583077907562256,-0.003889113897457719],[-0.36395224928855896,0.024019543081521988,0.017241675406694412,0.16144268214702606,0.46032145619392395,-0.30380645394325256,0.17329193651676178,0.04462183639407158,-0.21820417046546936,-0.11874233186244965,-0.41977983713150024,-0.12092963606119156,0.10386177152395248,0.1340125948190689,0.09925834089517593,0.08205615729093552,0.18345245718955994,0.035383440554142,0.46987566351890564,0.053109318017959595],[-0.16275066137313843,0.3268975019454956,-0.17418724298477173,-0.10246323049068451,-0.16642193496227264,-0.13948963582515717,-0.07817250490188599,-0.15322870016098022,-0.21514011919498444,-0.06566386669874191,0.1288573443889618,-0.19029831886291504,-0.09284461289644241,-0.08740763366222382,0.009004917927086353,-0.06527168303728104,0.016659637913107872,0.09942452609539032,0.4125126898288727,-0.2933569848537445],[0.2570623755455017,0.20847517251968384,-0.01462380588054657,0.09526563435792923,-0.02925403043627739,-0.5565961003303528,0.04679139330983162,-0.18314741551876068,0.28511911630630493,-0.23952728509902954,-0.011874408461153507,-0.19753682613372803,-0.012029158882796764,-0.03724638372659683,-0.040145404636859894,-0.06698312610387802,-0.09894008934497833,0.2280498594045639,-0.3022332191467285,0.061294324696063995],[-0.08396221697330475,-0.03975830599665642,-0.22479461133480072,-0.1987997442483902,0.3736611306667328,-0.0013667914317920804,0.07535842806100845,-0.07550857961177826,-0.23170015215873718,-0.3588438332080841,0.23792627453804016,0.11663151532411575,0.4082900285720825,-0.014668948948383331,-0.12343065440654755,0.1515435129404068,0.037754908204078674,-0.10351062566041946,0.03376602381467819,0.08364876359701157],[0.04085536301136017,-0.13568951189517975,-0.1932365596294403,-0.05183275416493416,0.01428074948489666,-0.19509588181972504,-0.18588024377822876,0.06979107111692429,-0.18932928144931793,0.15446726977825165,0.17213501036167145,-0.15492865443229675,-0.02124921604990959,-0.011484591290354729,-0.11147220432758331,-0.16790403425693512,-0.18437643349170685,0.010292409919202328,-0.18401969969272614,0.009863140061497688]],"biases":[0.13777637481689453,-0.13091686367988586,-0.2703019678592682,0.28790366649627686,-0.1267877072095871,-0.011136412620544434,0.12732337415218353,0.22621627151966095,0.23562081158161163,0.1646854281425476,0.06440787762403488,-0.19992052018642426,0.27482476830482483,0.39325693249702454,0.22407399117946625,0.6080450415611267,-0.07378925383090973,0.22255276143550873,0.21814103424549103,-0.007436467334628105,-0.11612764745950699,0.08479640632867813,0.3808594048023224,0.27619946002960205,-0.1517314910888672,0.197625994682312,-0.21316033601760864,0.39797013998031616,-0.41049808263778687,-0.4809454083442688,0.0011684002820402384,0.06290169060230255,0.48376378417015076,0.11669318377971649,-0.08549188077449799,-0.10441871732473373,-0.5062580108642578,0.39870133996009827,-0.1974489390850067,-0.20882979035377502]},{"weights":[[-0.07992996275424957,0.3174721896648407,0.20816829800605774,-0.27424436807632446,0.23321978747844696,0.14574943482875824,0.027035893872380257,0.057857029139995575,-0.21082375943660736,0.18606053292751312,0.021947046741843224,-0.10959787666797638,0.07683343440294266,-0.5109504461288452,-0.01447325386106968,-0.028332700952887535,0.24092672765254974,0.36387741565704346,-0.0408916138112545,0.06469205021858215,-0.14284519851207733,0.07222245633602142,-0.2849971652030945,-0.2596307098865509,-0.09074479341506958,-0.1549004465341568,0.052113376557826996,0.08424762636423111,-0.4206729829311371,0.22727228701114655,0.1314181387424469,-0.12274997681379318,-0.03075341507792473,-0.02455132268369198,-0.06731302291154861,0.08024514466524124,-0.25485867261886597,0.13181662559509277,-0.12630298733711243,-0.10480255633592606],[-0.09743912518024445,-0.1614418923854828,0.12979406118392944,-0.12414541095495224,0.17263716459274292,-0.042886875569820404,-0.1964266002178192,0.039916232228279114,-0.027335651218891144,-0.1769419014453888,-0.030377861112356186,0.05330030247569084,-0.05515505373477936,-0.0037459195591509342,-0.11055085808038712,0.020116835832595825,0.07832112163305283,-0.2561015784740448,0.06253119558095932,0.15222913026809692,-0.06978818029165268,-0.11701861768960953,-0.24751225113868713,-0.0021488184574991465,0.255219042301178,0.11654391139745712,-0.022093715146183968,-0.004720337688922882,-0.017862996086478233,0.17828369140625,0.1653643101453781,0.10635758191347122,-0.11818753182888031,-0.13565561175346375,0.13941031694412231,-0.12127488851547241,0.027587655931711197,0.09185272455215454,-0.0076550147496163845,-0.16226255893707275],[-0.029570788145065308,0.11284902691841125,-0.03475742042064667,-0.0015040257712826133,-0.1733025163412094,0.035920578986406326,-0.1849542111158371,0.15079525113105774,0.05693802610039711,0.04376359283924103,-0.102968730032444,-0.06807167828083038,-0.029374059289693832,-0.04095716029405594,0.09218823909759521,0.15011939406394958,-0.09941031038761139,0.14197757840156555,-0.14409174025058746,-0.056219734251499176,0.04903995618224144,0.03671075031161308,0.02075902931392193,0.17818810045719147,-0.1233065277338028,-0.1620142012834549,-0.050582483410835266,-0.18993747234344482,0.028779957443475723,0.09125865250825882,-0.10398610681295395,-0.044713038951158524,-0.0028337447438389063,0.18968507647514343,-0.035447780042886734,-0.03371283411979675,0.10409571975469589,0.09972631931304932,-0.0009586326777935028,-0.028242504224181175],[-0.3287525177001953,-0.07480429112911224,0.09166065603494644,0.14093174040317535,-0.1939706951379776,-0.0040054633282125,0.18731911480426788,-0.07708713412284851,-0.018368467688560486,-0.24318905174732208,-0.21638977527618408,-0.13248896598815918,0.07747260481119156,0.14448241889476776,0.21841362118721008,0.2279714047908783,-0.11465135216712952,-0.5679377317428589,0.02860323339700699,-0.30902910232543945,0.12433525174856186,-0.4534374177455902,-0.14177677035331726,0.2743271291255951,-0.197671577334404,0.11571203172206879,0.2526383101940155,0.21822500228881836,-0.6247148513793945,-0.15498211979866028,-0.10663238912820816,0.19820424914360046,0.3349689841270447,0.2501029968261719,-0.16210274398326874,-0.03489954024553299,0.09329299628734589,0.052365563809871674,0.15187327563762665,0.06584891676902771],[0.03595692291855812,-0.14713044464588165,-0.3943859338760376,-0.2511359453201294,-0.21796508133411407,0.16920143365859985,-0.10156860202550888,-0.24350538849830627,-0.05820014327764511,-0.04338054358959198,-0.08841125667095184,-0.1401319056749344,0.2325500249862671,0.06065184250473976,-0.1548958271741867,-0.3786902129650116,-0.34753111004829407,0.3149227499961853,0.14482034742832184,-0.22979635000228882,0.05705130100250244,-0.15047694742679596,0.1263929158449173,0.08922534435987473,-0.27283626794815063,-0.14957872033119202,-0.1147332563996315,0.3350580930709839,0.11272768676280975,0.25881943106651306,0.15800848603248596,0.15286386013031006,0.05248108133673668,-0.15857139229774475,-0.36917439103126526,-0.11573318392038345,-0.1534459888935089,0.22148814797401428,-0.2590974271297455,-0.07748738676309586],[-0.11549200117588043,0.2846068739891052,-0.13583743572235107,-0.28485870361328125,0.3246394991874695,0.245156928896904,-0.17428432404994965,0.05090237781405449,-0.16974982619285583,-0.18544887006282806,-0.20277225971221924,-0.12549418210983276,-0.28261205554008484,0.1992390751838684,-0.1975192278623581,-0.08745463937520981,0.3509007394313812,-0.0865289568901062,0.20257039368152618,0.11386068910360336,0.05852849408984184,0.2457834631204605,0.054680150002241135,-0.0785919576883316,0.07860902696847916,0.15386328101158142,-0.029998760670423508,-0.2621358633041382,-0.14837954938411713,-0.0662546306848526,0.12094027549028397,-0.013584449887275696,-0.3507422208786011,0.01183905266225338,-0.10347118228673935,-0.04091920331120491,-0.06135554611682892,-0.1963893175125122,0.0017420608783140779,-0.13824953138828278],[0.21605359017848969,0.013144944794476032,0.10713519155979156,0.06678780913352966,-0.16122832894325256,-0.08272361755371094,0.1451367437839508,-0.0035699254367500544,0.1670224517583847,0.1312909871339798,-0.16857033967971802,-0.04476459324359894,0.2327527552843094,-0.06376867741346359,0.05909109488129616,-0.06685948371887207,-0.25707903504371643,-0.19748800992965698,-0.008749042637646198,0.2656481862068176,-0.08385872840881348,-0.11172547191381454,0.1158478707075119,-0.10307851433753967,-0.2516922950744629,-0.21890884637832642,0.1418236792087555,-0.0868157297372818,-0.10458485037088394,0.019263867288827896,0.01022313628345728,-0.11246144771575928,0.2239263951778412,0.06739866733551025,-0.050981082022190094,-0.09429413825273514,0.1712752878665924,0.14507947862148285,0.011266060173511505,-0.18767103552818298],[0.0156516432762146,0.024451380595564842,-0.3176518678665161,0.2031921148300171,0.1458810567855835,-0.26987403631210327,-0.5938495397567749,0.103224977850914,-0.15371088683605194,0.41703784465789795,0.053621962666511536,0.0850464254617691,0.22797051072120667,0.17879460752010345,-0.07358967512845993,0.3243750035762787,0.032006390392780304,0.20809262990951538,0.05855570361018181,0.09885340183973312,-0.11945255845785141,-0.008399778045713902,0.2789480984210968,-0.028018893674016,0.11603422462940216,-0.07300213724374771,0.16858187317848206,0.05519920587539673,-0.14863303303718567,-0.22992627322673798,-0.15310832858085632,0.11850958317518234,0.05323861911892891,-0.061825647950172424,-0.08165257424116135,0.10014843940734863,-0.18815912306308746,-0.29422685503959656,-0.12560969591140747,-0.017023198306560516],[0.12428281456232071,0.038316868245601654,-0.03375476226210594,0.028047669678926468,-0.18803222477436066,-0.007412835489958525,-0.23862606287002563,-0.18572884798049927,-0.13651904463768005,-0.169783353805542,-0.050599269568920135,-0.16263510286808014,-0.22086167335510254,0.10854683816432953,0.09585984796285629,0.10255735367536545,0.04667286202311516,-0.3044588565826416,-0.10316679626703262,0.14067307114601135,0.025346312671899796,-0.1908913105726242,0.019946809858083725,0.010445048101246357,0.05769103392958641,0.09338700026273727,-0.013513472862541676,0.15339870750904083,-0.3658730089664459,-0.2592850625514984,0.24205206334590912,0.34918013215065,0.0761500895023346,0.30802515149116516,-0.2394080013036728,0.021307986229658127,0.013233906589448452,0.2927536368370056,-0.08342438191175461,0.03831501305103302],[-0.12213090807199478,-0.381200909614563,0.09854482859373093,-0.05442330613732338,0.10615029186010361,0.005143192131072283,0.5324999094009399,-0.03813913092017174,-0.15726284682750702,-0.3077434301376343,-0.05190138518810272,-0.11916240304708481,0.2014097273349762,0.16369198262691498,-0.001390558434650302,0.1680966466665268,0.1452988237142563,-0.4442882239818573,-0.12976393103599548,0.1174251064658165,-0.1270955353975296,0.07079646736383438,0.014070581644773483,0.10168137401342392,0.014970928430557251,0.05809718370437622,-0.13773885369300842,-0.4128674864768982,-0.04036904126405716,0.11732514202594757,0.16753970086574554,-0.247659832239151,-0.042465224862098694,-0.07039768993854523,0.09142196923494339,-0.14450688660144806,0.18971563875675201,-0.1567290872335434,-0.12375559657812119,-0.06400096416473389],[0.04637450724840164,-0.269540399312973,0.014090048149228096,-0.021213172003626823,-0.07246635854244232,-0.2655063569545746,-0.3899582028388977,0.3706052601337433,-0.2516903281211853,0.02353941835463047,-0.23614318668842316,0.1917422115802765,-0.0017925780266523361,0.1258387416601181,-0.08706716448068619,-0.08347276598215103,0.0255304966121912,0.19236133992671967,0.15440984070301056,0.07991797477006912,-0.12185702472925186,-0.07488670200109482,-0.1403692215681076,-0.27868035435676575,-0.08702875673770905,-0.4573594629764557,0.1660546511411667,0.17692957818508148,-0.10064844787120819,-0.15506665408611298,0.0957457646727562,-0.2749893069267273,0.3337228000164032,-0.09577253460884094,0.229627326130867,0.05711520463228226,-0.03393326327204704,0.22954361140727997,0.18166881799697876,0.04753294214606285],[-0.23380933701992035,0.10129965096712112,0.18239152431488037,0.02011910453438759,0.1686091274023056,0.05322270095348358,-0.17455032467842102,0.24952389299869537,0.050601035356521606,-0.08609426021575928,-0.2089693546295166,0.16123798489570618,0.06438553333282471,0.002961371559649706,0.27129697799682617,0.26349765062332153,-0.14777708053588867,0.31142619252204895,0.08680547773838043,0.25773268938064575,-0.10629019141197205,-0.35228249430656433,-0.2716878652572632,-0.08783462643623352,0.023795858025550842,-0.6469469666481018,0.22994273900985718,0.2516907751560211,0.21424299478530884,-0.21169067919254303,0.22463852167129517,-0.04616563022136688,-0.047433603554964066,-0.2225494682788849,0.14167115092277527,-0.01077450904995203,-0.24338898062705994,-0.31079772114753723,-0.024856721982359886,0.13699647784233093],[0.009245977737009525,0.15945634245872498,0.05574880167841911,-0.023800525814294815,-0.2555692493915558,0.19904214143753052,0.397215873003006,-0.3062324821949005,0.1877417415380478,-0.10688381642103195,0.09514215588569641,-0.04222685843706131,-0.04978324472904205,-0.07362478226423264,0.14001993834972382,0.14133360981941223,-0.3863460123538971,-0.14118723571300507,-0.2254323810338974,-0.03992089629173279,-0.026892628520727158,0.11220275610685349,-0.01862396113574505,-0.0880078449845314,-0.08780636638402939,0.18546627461910248,-0.014965511858463287,-0.17771892249584198,-0.03922632336616516,0.08097820729017258,0.16411751508712769,-0.020553655922412872,0.18123501539230347,0.050675127655267715,-0.09489018470048904,-0.047833461314439774,0.03989320620894432,0.15156283974647522,0.11359190195798874,-0.20448271930217743],[-0.07917526364326477,0.15813608467578888,-0.13416200876235962,0.07432467490434647,0.1127394437789917,0.033130988478660583,-0.1833837777376175,-0.22896133363246918,-0.3209500014781952,-0.2703634202480316,-0.3092726469039917,-0.045307476073503494,-0.1780337244272232,-0.19866342842578888,-0.12031290680170059,0.08911412954330444,-0.2861331105232239,-0.10948415845632553,0.17599798738956451,0.0010482267243787646,-0.16950753331184387,0.03208640217781067,-0.023278310894966125,-0.1579153835773468,0.49513185024261475,-0.0004672678478527814,-0.1431269496679306,-0.0005117520922794938,0.16423657536506653,0.23214885592460632,-0.0299379862844944,0.10887123644351959,-0.01943419873714447,0.030809791758656502,0.1378704011440277,-0.06607090681791306,0.18531864881515503,-0.10429822653532028,-0.11820708215236664,-0.09173725545406342],[0.11310514062643051,0.025690747424960136,-0.22305920720100403,0.25004613399505615,0.12609931826591492,0.10332073271274567,0.11632376909255981,0.02226809225976467,0.10534866154193878,-0.11164328455924988,0.022266020998358727,0.07318253815174103,-0.14136511087417603,-0.15430592000484467,0.35527077317237854,0.019073981791734695,0.26686936616897583,-0.12093198299407959,-0.04383430257439613,-0.03957750275731087,0.14738205075263977,-0.06769344210624695,-0.01326898206025362,-0.027634069323539734,0.11926479637622833,-0.04101650416851044,0.022047992795705795,0.22877998650074005,0.0073909698985517025,0.3064270317554474,0.21070055663585663,-0.034804295748472214,-0.14695855975151062,0.04051970690488815,-0.12881073355674744,-0.035387393087148666,-0.1493108570575714,-0.06317128986120224,-0.029135333374142647,-0.08815427869558334],[0.11888454109430313,0.10158950835466385,0.20090600848197937,0.06825246661901474,-0.1031196117401123,0.19774505496025085,-0.061512745916843414,-0.1866554468870163,-0.24851353466510773,0.16263294219970703,0.11069187521934509,-0.08833879232406616,-0.1933712512254715,-0.20450331270694733,0.01616016775369644,-0.16611669957637787,0.12513859570026398,0.08396071195602417,-0.24088655412197113,0.28946423530578613,-0.04345239698886871,0.023753080517053604,-0.12516064941883087,-0.06533819437026978,-0.2923535406589508,0.13903748989105225,-0.02913380227982998,0.2776419520378113,0.0622691847383976,0.21681423485279083,-0.21189913153648376,0.08533847332000732,-0.28076741099357605,-0.1228843554854393,0.10500885546207428,0.051193661987781525,0.08257073909044266,0.30490589141845703,-0.37741848826408386,-0.11294033378362656],[0.14801111817359924,-0.14682047069072723,-0.13238944113254547,0.011820746585726738,-0.12894216179847717,-0.13438710570335388,-0.005783583037555218,-0.1916930228471756,-0.10328041017055511,-0.07615076005458832,0.0935610756278038,0.053616177290678024,-0.14151932299137115,0.11139035224914551,-0.08705253154039383,-0.1326524168252945,-0.13613878190517426,-0.046930450946092606,-0.14322905242443085,0.12560124695301056,0.1320246160030365,0.0047162603586912155,-0.0374472551047802,-0.03626183420419693,0.11613794416189194,0.0922609269618988,0.0997384786605835,-0.18990524113178253,-0.08206808567047119,-0.07221037894487381,-0.18894681334495544,0.12727434933185577,0.19510148465633392,-0.044040001928806305,0.013685865327715874,-0.062020350247621536,0.18641814589500427,-0.09392695873975754,0.11718545854091644,0.12512171268463135],[0.3281693458557129,0.31885433197021484,-0.011839590966701508,0.07155673950910568,-0.12655359506607056,-0.015117455273866653,0.21257463097572327,-0.09826779365539551,0.012696756049990654,0.005247463006526232,-0.1814136505126953,0.15886229276657104,0.030457066372036934,-0.04355649650096893,-0.017293231561779976,-0.2404392510652542,-0.29343459010124207,0.11720435321331024,-0.06423898041248322,0.308134526014328,0.10237771272659302,-0.18868345022201538,0.015478559769690037,-0.4550778269767761,0.008057551458477974,0.10286931693553925,-0.23740999400615692,0.2084210366010666,-0.045579466968774796,-0.08070208877325058,-0.10915490984916687,-0.19990871846675873,0.31524136662483215,-0.3379885256290436,0.0031368001364171505,-0.39313772320747375,-0.17596089839935303,0.1500374674797058,-0.1824760138988495,-0.05016196519136429],[0.023139039054512978,0.02276110090315342,0.09595426917076111,-0.09314706921577454,-0.12881682813167572,-0.20088037848472595,-0.22952771186828613,-0.1534014195203781,0.09084315598011017,0.1146327555179596,0.16185565292835236,0.1392415463924408,-0.11384399980306625,0.260994017124176,0.062170904129743576,0.2391868531703949,0.1448066681623459,-0.27221205830574036,-0.08301354199647903,0.24131450057029724,0.21526770293712616,-0.02452613227069378,0.14530330896377563,0.04709043726325035,-0.08218754082918167,-0.06477021425962448,-0.031328123062849045,-0.15853089094161987,-0.09673068672418594,0.1017073392868042,-0.053598687052726746,-0.18268129229545593,-0.05717892944812775,-0.06840038299560547,-0.13489477336406708,0.198651522397995,0.12159337848424911,0.057132184505462646,0.10155379772186279,0.1389111578464508],[0.1782311201095581,-0.1371994912624359,-0.07776659727096558,0.06513544172048569,-0.1596982181072235,-0.1170414462685585,0.14304794371128082,0.04909079521894455,0.005388743709772825,0.04284626990556717,-0.11303301155567169,-0.1088172197341919,0.05820072069764137,0.12999947369098663,-0.08282952010631561,-0.035080891102552414,-0.1308571994304657,0.06372330337762833,-0.08844459056854248,-0.16476675868034363,-0.16240878403186798,0.043204415589571,-0.074147067964077,-0.08923790603876114,0.13249947130680084,-0.11095614731311798,-0.18881824612617493,-0.10462915152311325,0.024347446858882904,0.08211886137723923,-0.005304982420057058,-0.07445256412029266,0.0656442865729332,0.02998276613652706,0.08334536850452423,-0.1854037642478943,-0.021932056173682213,-0.155958354473114,-0.011803685687482357,-0.11935926973819733],[0.009751185774803162,0.33385926485061646,0.07505172491073608,-0.1838843673467636,0.08431781083345413,-0.010374109260737896,-0.014889965765178204,-0.02795371599495411,0.060893043875694275,0.1017785519361496,0.2516181468963623,0.02533065713942051,0.050033651292324066,-0.5471956729888916,-0.5399368405342102,-0.3723372220993042,0.3016641139984131,0.022227510809898376,0.11813861131668091,0.08710671216249466,0.0089047746732831,-0.01816210336983204,-0.03471025452017784,-0.3703089952468872,-0.23191125690937042,-0.22001376748085022,0.021452099084854126,0.2151542603969574,0.35671383142471313,0.009529533796012402,0.3183877766132355,-0.3543749153614044,-0.16655471920967102,0.09210500866174698,0.040588218718767166,0.21014991402626038,0.05864772945642471,-0.14746394753456116,-0.024636976420879364,-0.20330184698104858],[-0.0032677657436579466,0.010379618033766747,0.24249309301376343,-0.3554462492465973,0.12689167261123657,0.43356162309646606,-0.5073562264442444,-0.2938050627708435,-0.33938127756118774,0.10198074579238892,0.4208197295665741,-0.09839791804552078,-0.36251339316368103,0.08304160833358765,0.07684829831123352,0.32527366280555725,0.26983562111854553,0.30012011528015137,-0.2618694007396698,0.1593317687511444,-0.020502762869000435,-0.12830844521522522,-0.2842937707901001,0.06263050436973572,-0.18771548569202423,0.17550304532051086,-0.10288514196872711,0.005579172167927027,-0.299243688583374,-0.14076100289821625,-0.14423885941505432,0.22312770783901215,-0.347236305475235,0.26130008697509766,0.17854157090187073,-0.09063364565372467,-0.10620535165071487,-0.02830849401652813,-0.0971873328089714,0.050464775413274765],[-0.0533112958073616,-0.1939951479434967,-0.13326767086982727,-0.19112804532051086,-0.11687253415584564,0.0669083371758461,-0.07281790673732758,-0.12422089278697968,-0.1718589961528778,0.15117207169532776,-0.05772758275270462,-0.1793263852596283,0.14255204796791077,0.17602629959583282,0.20040765404701233,-0.06642709672451019,-0.009196571074426174,0.18680284917354584,-0.1688535362482071,0.0883115828037262,-0.1585388034582138,-0.059106722474098206,-0.14857012033462524,0.04505409300327301,0.18243500590324402,-0.14225275814533234,-0.18355636298656464,-0.20474232733249664,0.030834326520562172,-0.15736298263072968,-0.15446072816848755,-0.1793156862258911,0.12134405225515366,0.1124551072716713,-0.06770797073841095,0.15860773622989655,-0.050404489040374756,0.01109286118298769,0.10800966620445251,-0.08338221907615662],[-0.06987982243299484,-0.08666715770959854,0.02497704327106476,0.10176683962345123,-0.1233975812792778,-0.06531481444835663,-0.0706944391131401,-0.18713055551052094,0.08192962408065796,-0.1544179767370224,0.06185556948184967,0.18319876492023468,0.025809310376644135,-0.17492400109767914,0.08350816369056702,-0.1764545738697052,-0.15738002955913544,0.1963949203491211,0.10573527216911316,0.053673457354307175,-0.15115182101726532,0.19112060964107513,0.1497068554162979,-0.184401735663414,0.04611824452877045,-0.08291839808225632,-0.14188513159751892,-0.19052989780902863,-0.054307688027620316,-0.16021627187728882,-0.0017826177645474672,-0.12339962273836136,-0.08491270244121552,0.040801286697387695,0.13147678971290588,-0.19379445910453796,0.008456144481897354,-0.04074619337916374,-0.09638889133930206,0.008997250348329544],[0.1339416205883026,-0.17336733639240265,0.057539161294698715,0.02635003998875618,-0.24028326570987701,-0.1255262792110443,-0.1744418442249298,0.12566709518432617,0.07124962657690048,-0.18527841567993164,-0.2716067433357239,0.08967564254999161,-0.26835840940475464,0.11113374680280685,0.17514686286449432,-0.3004426956176758,-0.08717281371355057,-0.22157274186611176,0.1962624490261078,0.20561300218105316,0.04769974946975708,0.021834714338183403,0.06423638761043549,-0.14154492318630219,0.1772676259279251,0.08044257760047913,-0.05359761416912079,0.012782308273017406,-0.09583868831396103,-0.07979000359773636,0.0481465682387352,0.18040120601654053,-0.12115374207496643,-0.0726253092288971,0.01865237206220627,0.1652044653892517,-0.1585208624601364,-0.25869014859199524,-0.03918640315532684,-0.18456175923347473],[-0.1820325404405594,0.03819066286087036,0.18679113686084747,0.04456289857625961,0.16384093463420868,-0.24289587140083313,0.16640593111515045,-0.05663087218999863,0.0799020454287529,0.11684595048427582,-0.1299608051776886,0.09039624035358429,-0.19181984663009644,-0.20824487507343292,0.007792350836098194,0.16818079352378845,-0.14869050681591034,0.11155357211828232,0.1742776334285736,0.20864500105381012,-0.17509368062019348,0.024254735559225082,-0.004886948969215155,-0.16644169390201569,0.041864726692438126,0.09282650053501129,0.08200394362211227,-0.09842656552791595,-0.11812297999858856,0.029873020946979523,-0.051566652953624725,0.09333562105894089,-0.12811613082885742,-0.07532483339309692,0.1902340054512024,-0.03625140339136124,0.14643849432468414,-0.11471831053495407,-0.029772024601697922,-0.17433001101016998],[-0.003184151602908969,0.14690673351287842,0.04096140339970589,0.08480114489793777,-0.19492095708847046,0.17123441398143768,0.024821575731039047,-0.17128515243530273,-0.014894545078277588,0.1585829108953476,0.22502876818180084,-0.03091750107705593,-0.04769328981637955,0.21102504432201385,-0.1934920698404312,-0.4761069715023041,-0.12060970813035965,0.23892700672149658,-0.12844832241535187,-0.014408369548618793,0.0051721371710300446,0.01915847323834896,0.18514834344387054,-0.08498236536979675,-0.49605029821395874,0.06924843788146973,-0.03177839517593384,0.05036948248744011,0.3246651589870453,0.12014593929052353,-0.15079593658447266,0.03377172723412514,0.17868873476982117,0.11342670023441315,0.020211059600114822,0.044498149305582047,0.03514349088072777,0.15929779410362244,0.12026652693748474,0.1344601958990097],[0.2002159208059311,-0.29786577820777893,-0.011435318738222122,-0.09576808661222458,-0.07801854610443115,-0.026396479457616806,-0.05857938155531883,0.14984726905822754,-0.26793280243873596,-0.21907785534858704,0.40317150950431824,0.10877799987792969,0.14729620516300201,-0.07995946705341339,-0.14180193841457367,0.2722085416316986,-0.1425514966249466,0.11118713021278381,0.1512403041124344,0.012343257665634155,0.14776821434497833,0.24750074744224548,-0.457146018743515,-0.045739516615867615,-0.17450794577598572,-0.02072078548371792,-0.08951025456190109,0.15029911696910858,0.3605147898197174,0.061645202338695526,0.11311695724725723,0.10609929263591766,-0.3016843795776367,0.12652498483657837,0.14500543475151062,0.23960572481155396,-0.19419190287590027,-0.3179306387901306,-0.1101989597082138,0.16311313211917877],[-0.08455228060483932,0.06280165165662766,-0.14541301131248474,-0.1586228907108307,-0.0268250759691,-0.014609775505959988,-0.08838126063346863,-0.33654406666755676,0.01936408132314682,0.2623179256916046,0.07273349165916443,-0.04353625699877739,-0.052318915724754333,-0.04011945053935051,-0.16726131737232208,-0.27384158968925476,-0.12540513277053833,-0.010434250347316265,-0.03149263188242912,0.1471322923898697,-0.16743037104606628,0.2022714465856552,0.33191779255867004,-0.06223180517554283,-0.19667938351631165,0.018770722672343254,-0.05575881153345108,0.11707846075296402,-0.039780180901288986,-0.2877853810787201,-0.22706829011440277,-0.13083788752555847,-0.01454563532024622,0.06400471180677414,-0.055491723120212555,0.2490869015455246,0.3250153958797455,0.19261044263839722,-0.09381910413503647,0.13105595111846924],[-0.19242610037326813,0.1257704347372055,0.2779969274997711,0.1822216510772705,0.2706219553947449,0.12348303198814392,-0.060208238661289215,0.17610199749469757,0.04812263697385788,-0.3137549161911011,-0.3951265811920166,-0.18768686056137085,0.08262624591588974,-0.016535263508558273,0.2566267251968384,0.4132256507873535,0.1612713634967804,0.11194194853305817,-0.19119004905223846,-0.27336978912353516,-0.05469339340925217,-0.1615552455186844,0.22962850332260132,-0.21781788766384125,0.07631474733352661,0.08525626361370087,-0.03975823149085045,0.12176981568336487,-0.2453986406326294,-0.0015963789774104953,-0.03581000491976738,0.054325032979249954,0.36297962069511414,-0.15129438042640686,0.09367673844099045,-0.21656513214111328,-0.0480102114379406,0.15117760002613068,0.023606209084391594,0.04060113802552223],[0.07848932594060898,0.19286639988422394,0.14804567396640778,-0.15243768692016602,0.15061232447624207,0.272283673286438,0.0749925822019577,-0.17226220667362213,0.0453772097826004,0.13852040469646454,-0.14480993151664734,0.026523228734731674,-0.0304204523563385,-0.013363162986934185,0.0287591852247715,0.17832320928573608,-0.13840369880199432,-0.35865503549575806,-0.08732473105192184,0.03187575936317444,0.13836611807346344,-0.17313097417354584,-0.01595870777964592,0.23548850417137146,-0.256452351808548,-0.0756259486079216,0.14457066357135773,-0.02579334005713463,0.0007046596729196608,0.2279224544763565,0.039647284895181656,0.1312560886144638,-0.09652772545814514,0.1305105835199356,-0.025379234924912453,-0.13312706351280212,-0.13745564222335815,-0.12151223421096802,0.13347218930721283,-0.038710180670022964],[0.11610473692417145,-0.023032190278172493,0.20416930317878723,-0.027467485517263412,0.3406684100627899,0.03785720840096474,0.06192180886864662,-0.22915542125701904,-0.14645905792713165,-0.06895741075277328,-0.001042367541231215,0.1602429449558258,-0.5447375774383545,0.10895604640245438,0.08655472844839096,-0.22259016335010529,0.192049041390419,-0.09378282725811005,-0.12066514790058136,0.041037287563085556,0.052136871963739395,0.10337231308221817,0.005493613891303539,-0.3215242922306061,0.1517278403043747,0.306132972240448,-0.1421375721693039,-0.1184040829539299,0.16884998977184296,0.18852245807647705,-0.37581613659858704,0.09147679805755615,0.24488873779773712,-0.03349021449685097,-0.060767270624637604,0.1020270437002182,0.511221170425415,0.11790528893470764,-0.27307841181755066,-0.11046501249074936],[-0.0028462372720241547,0.24113646149635315,0.26625150442123413,0.22162294387817383,0.0027157259173691273,0.1302262246608734,-0.026609156280755997,0.04046589508652687,0.1919848918914795,-0.1425056755542755,0.16306328773498535,-0.16914106905460358,0.09756126254796982,0.0226613637059927,-0.019052626565098763,0.11614646762609482,-0.07958584278821945,0.1746482402086258,-0.04317021369934082,-0.22904665768146515,-0.07491817325353622,-0.12605854868888855,-0.31981611251831055,0.0004182116244919598,-0.29444628953933716,0.17473699152469635,0.12476130574941635,0.08908355236053467,-0.45839667320251465,-0.13829539716243744,-0.027371220290660858,0.0867123082280159,0.4012904167175293,-0.1942032128572464,0.374897301197052,-0.07731083780527115,0.026803743094205856,0.2860240042209625,0.07479213923215866,0.11981604248285294],[0.32891976833343506,0.23674465715885162,0.4464629888534546,0.09915666282176971,0.2995540499687195,0.023701990023255348,-0.07700297236442566,-0.2941267788410187,-0.18310010433197021,0.09790477156639099,-0.06775801628828049,0.19040246307849884,-0.00955168716609478,-0.5677441358566284,-0.5944472551345825,-0.41177138686180115,0.1410834789276123,-0.2091963291168213,-0.3807945251464844,0.11835108697414398,0.1776382178068161,-0.05975944176316261,-0.1532280296087265,-0.1687091886997223,-0.4008181393146515,-0.15750248730182648,-0.1446664035320282,0.22992239892482758,0.12960486114025116,-0.1822456270456314,0.08842164278030396,-0.05045042559504509,0.1520819067955017,0.062326595187187195,0.3788982927799225,0.16536538302898407,-0.08467550575733185,0.2689870595932007,-0.03294292837381363,-0.09406159073114395],[0.14847087860107422,-0.13653582334518433,-0.25170421600341797,-0.47080197930336,0.18474189937114716,0.24386923015117645,0.22052566707134247,-0.039124470204114914,0.0860307365655899,0.17442604899406433,0.049016524106264114,0.0881553515791893,0.0423092357814312,-0.1194489449262619,-0.15777996182441711,-0.16149228811264038,0.03015071712434292,-0.08025236427783966,0.16444239020347595,-0.0247640460729599,0.040112804621458054,0.07139010727405548,0.11977478116750717,-0.14471720159053802,0.10196475684642792,0.014091129414737225,0.22459016740322113,0.03842642158269882,-0.29378682374954224,0.13745418190956116,-0.06038094684481621,-0.2380937933921814,-0.6285305619239807,-0.13403475284576416,0.43576574325561523,0.29137951135635376,-0.003318829694762826,0.00869806855916977,-0.49229681491851807,-0.03897819295525551],[0.09028703719377518,0.05941114202141762,0.01795080676674843,-0.10720078647136688,0.07663795351982117,0.3447202146053314,0.04241158440709114,-0.13635586202144623,-0.12759527564048767,-0.1767098605632782,0.0028135571628808975,0.015008470974862576,-0.1591624766588211,0.2877999544143677,-0.17242087423801422,0.0019464486977085471,-0.2874981164932251,-0.050283290445804596,-0.21857860684394836,0.018524233251810074,0.189402237534523,-0.21989981830120087,0.02092406339943409,-0.12973463535308838,0.12867002189159393,0.4355775713920593,0.13402923941612244,-0.008000083267688751,0.005642684642225504,-0.07853219658136368,-0.1010049358010292,0.21253320574760437,-0.2034144103527069,0.23527519404888153,-0.0493437722325325,-0.2493857741355896,-0.18602287769317627,-0.05328061804175377,-0.07542095333337784,0.15151505172252655],[-0.15762414038181305,-0.14979958534240723,-0.056779105216264725,0.23301266133785248,0.031655751168727875,0.0040196944028139114,0.23102106153964996,0.15877977013587952,-0.056159183382987976,0.12116146087646484,-0.23401188850402832,0.12401557713747025,0.06284891068935394,0.02622416615486145,0.10322215408086777,-0.10954096168279648,-0.11106982082128525,-0.1872694045305252,0.0713304728269577,0.1257971078157425,-0.01757429726421833,-0.2752271592617035,-0.11349743604660034,0.10603293776512146,0.024783434346318245,0.15462572872638702,0.03182864934206009,-0.15850946307182312,-0.18635952472686768,0.2015940099954605,0.034149087965488434,0.11180638521909714,-0.0064764851704239845,-0.06770788133144379,-0.03774772956967354,0.10169590264558792,-0.0420084148645401,0.024373997002840042,-0.02078058384358883,-0.043523158878088],[0.09758050739765167,-0.19514892995357513,0.14428004622459412,-0.12037162482738495,0.09580540657043457,0.007054910063743591,-0.1078944057226181,-0.03982006013393402,-0.07667434960603714,-0.1587151437997818,-0.1638820767402649,-0.1176844984292984,0.1865243762731552,-0.13975311815738678,-0.10787460207939148,0.04161357879638672,0.04316067323088646,0.08699464797973633,-0.1483711451292038,0.00588206946849823,-0.13755333423614502,-0.08377832919359207,0.08514096587896347,-0.1551360934972763,-0.08694756776094437,0.13225463032722473,0.15790322422981262,-0.13438864052295685,-0.14763878285884857,0.13453029096126556,-0.06057775020599365,-0.19109877943992615,0.14602842926979065,0.05135845020413399,0.06260945647954941,-0.18497531116008759,0.19289185106754303,-0.05877423286437988,0.1540798395872116,0.07685410231351852],[0.06378418207168579,-0.10418844223022461,-0.06962144374847412,-0.05230593681335449,-0.03719441592693329,-0.1598779559135437,-0.14561113715171814,-0.14240461587905884,-0.015404666773974895,-0.11531796306371689,-0.15775828063488007,-0.02680726908147335,0.01374909933656454,-0.11690397560596466,-0.19803044199943542,-0.15458938479423523,-0.30162757635116577,-0.10077603906393051,0.17807558178901672,-0.14438068866729736,-0.16259773075580597,0.10548960417509079,0.05729683116078377,0.020651962608098984,0.2539973258972168,0.02330475114285946,-0.01572614349424839,-0.12036854773759842,0.10101620852947235,0.17794691026210785,-0.08871408551931381,0.32736825942993164,-0.22961702942848206,0.09352877736091614,-0.008037819527089596,-0.043709754943847656,-0.19095316529273987,-0.14263767004013062,0.10442744195461273,-0.005963805131614208],[-0.12958157062530518,-0.12910862267017365,0.12265482544898987,0.19403605163097382,0.10474570840597153,-0.08645126223564148,-0.20283980667591095,0.11936941742897034,-0.14713644981384277,-0.04435223340988159,0.21835476160049438,0.14676234126091003,0.2123119831085205,-0.02357102558016777,0.11242859065532684,-0.11013059318065643,-0.09850829839706421,-0.14825613796710968,-0.18651822209358215,-0.0943816751241684,-0.0261029452085495,-0.01270197331905365,0.05891735479235649,0.008190036751329899,-0.1978176236152649,0.12171697616577148,-0.08882638067007065,-0.031900081783533096,-0.16343563795089722,-0.2410624772310257,0.150384783744812,0.18610641360282898,-0.15848688781261444,0.033727116882801056,0.3037513494491577,0.08688611537218094,-0.15262074768543243,-0.12794648110866547,0.14239078760147095,0.1073332130908966]],"biases":[0.13418816030025482,-0.28686150908470154,-0.14107497036457062,0.269179105758667,0.5002740025520325,0.029857654124498367,0.23310816287994385,0.05984053388237953,0.4087781608104706,-0.035318098962306976,0.43920662999153137,0.049888577312231064,0.056922547519207,-0.14411091804504395,-0.36853793263435364,0.11224950104951859,-0.10756520181894302,0.24689020216464996,-0.08885620534420013,-0.14388839900493622,0.06893225014209747,0.16010716557502747,-0.1271946132183075,-0.11736474931240082,0.06572356075048447,0.13261984288692474,0.048261936753988266,0.21222269535064697,0.23969998955726624,-0.016345785930752754,-0.2187589406967163,0.08610527962446213,0.020969247445464134,0.14318126440048218,0.15796083211898804,0.0962575152516365,-0.17792542278766632,-0.11226697266101837,0.047546617686748505,-0.09225846827030182]},{"weights":[[0.1627044379711151,-0.055570103228092194,0.0017419427167624235,-0.5391877889633179,0.21613074839115143,-0.22877785563468933,0.20889095962047577,-0.2132297158241272,0.16410191357135773,-0.3342161178588867,0.4397682547569275,-0.12725773453712463,-0.09609124809503555,0.25751444697380066,-0.14014668762683868,0.18281349539756775,-0.11134254187345505,-0.0197145976126194,-0.27636563777923584,0.019444411620497704,0.0950409471988678,0.3965556025505066,0.06750404089689255,0.135292649269104,0.3259948194026947,0.08397586643695831,0.2165561467409134,0.04179447516798973,0.005602579098194838,-0.2972501814365387,0.08769573271274567,0.18162943422794342,-0.13427038490772247,0.2881348133087158,0.3043360710144043,-0.2677021920681,0.32695186138153076,0.07032991945743561,0.2207467257976532,-0.3507073223590851],[0.13925068080425262,-0.029637474566698074,-0.17770180106163025,-0.1154690608382225,-0.186777725815773,-0.21208423376083374,-0.1956322193145752,0.05227556824684143,-0.17587125301361084,0.08498789370059967,0.12180756777524948,0.04238003119826317,0.022571109235286713,0.15726338326931,0.17159509658813477,-0.2379450500011444,-0.05145777761936188,-0.20138518512248993,-0.1677067130804062,0.09723951667547226,0.0927443727850914,0.05058222636580467,0.040069811046123505,-0.11326058208942413,0.1752123385667801,0.020976081490516663,-0.12869596481323242,0.09913552552461624,-0.06873680651187897,-0.10681675374507904,-0.23703734576702118,-0.2964183986186981,-0.0031418935395777225,0.027288559824228287,-0.04427283629775047,0.0973024070262909,0.17085771262645721,0.14672011137008667,0.15618710219860077,0.2203468680381775],[-0.16612209379673004,-0.1196339875459671,-0.007761990185827017,-0.19165106117725372,-0.14266718924045563,-0.14058932662010193,-0.08243107050657272,-0.11836928874254227,-0.37357309460639954,-0.4117347300052643,-0.19487227499485016,-0.11115596443414688,-0.17195343971252441,-0.10083644837141037,-0.06666313856840134,-0.11058670282363892,0.12978479266166687,0.019239556044340134,0.03947514295578003,-0.1656884104013443,-0.24739156663417816,-0.08409474790096283,0.05319363251328468,0.19027869403362274,-0.12814605236053467,-0.05797886848449707,-0.27509111166000366,0.2358161062002182,0.10181281715631485,0.05802809074521065,0.08014286309480667,-0.20349286496639252,0.04264017567038536,-0.21357761323451996,0.25475627183914185,-0.14327339828014374,0.11067236214876175,0.0026706235948950052,-0.09323371201753616,0.0033627233933657408],[-0.08917923271656036,-0.1422455906867981,0.11423511058092117,-0.10238698124885559,-0.10264351218938828,0.05471925437450409,0.17140284180641174,-0.13561677932739258,0.1801571249961853,0.05632781609892845,0.05782589316368103,-0.0682840570807457,-0.11000330746173859,-0.10205812007188797,-0.14772266149520874,-0.06575421988964081,0.16448739171028137,-0.13279618322849274,0.13008441030979156,0.09918743371963501,0.0853954330086708,0.013980577699840069,0.16205386817455292,-0.17444781959056854,0.15704628825187683,0.1087675467133522,-0.05667730048298836,-0.06805828213691711,-0.09118159115314484,0.14169085025787354,-0.16605086624622345,-0.17829784750938416,0.0059105101972818375,-0.06032440811395645,-0.03550828620791435,-0.1801544725894928,-0.059355102479457855,-0.19968652725219727,0.1692652851343155,-0.15225577354431152],[-0.04162849858403206,0.1377217024564743,-0.01816140115261078,0.048666633665561676,-0.0023203156888484955,0.063768170773983,0.07546648383140564,-0.2308938056230545,0.2448616474866867,0.16151247918605804,-0.3163417875766754,-0.07152924686670303,0.08420032262802124,-0.05093216896057129,-0.2256419062614441,-0.20531652867794037,0.11148639023303986,0.175420880317688,-0.11506766080856323,0.1030554473400116,-0.521019458770752,-0.19455648958683014,-0.1847163736820221,-0.0030200183391571045,-0.23073682188987732,0.18005311489105225,-0.09195679426193237,0.1432134211063385,0.030642913654446602,0.15822456777095795,0.02278662659227848,0.1383017748594284,0.09628427028656006,-0.15262193977832794,-0.22865287959575653,-0.11307379603385925,-0.006004211027175188,-0.07549245655536652,-0.14754866063594818,-0.07859794795513153],[0.02069777250289917,0.08567355573177338,-0.1320556104183197,-0.03660183399915695,-0.011719156987965107,0.11320306360721588,0.029588403180241585,0.046162284910678864,-0.12901188433170319,-0.05735572427511215,0.1136133000254631,0.06203514710068703,-0.17412705719470978,-0.11250331997871399,-0.04932570084929466,-0.08264250308275223,0.1637781858444214,-0.141997829079628,-0.054147761315107346,-0.17744091153144836,-0.15718375146389008,-0.18090049922466278,-0.08250445127487183,0.10837768763303757,0.07491801679134369,0.09991661459207535,-0.07826078683137894,-0.20269875228405,-0.11095281690359116,0.03376451134681702,0.047135379165410995,-0.13065028190612793,0.10766218602657318,-0.17661423981189728,0.0063889240846037865,-0.10622670501470566,-0.15167270600795746,-0.06094293296337128,-0.16350041329860687,0.10391809791326523],[0.5405985713005066,-0.05373401567339897,0.1661195605993271,0.06631908565759659,-0.42771098017692566,-0.07628495246171951,-0.015323733910918236,-0.3453909754753113,0.30552858114242554,0.10071032494306564,0.34239351749420166,0.4840618073940277,-0.21961365640163422,-0.02599053829908371,-0.0755818784236908,0.44867780804634094,-0.1969297230243683,0.2067907750606537,0.3184821307659149,-0.14263489842414856,-0.052451375871896744,0.36886295676231384,-0.04725915938615799,-0.15415270626544952,0.11977000534534454,-0.12267845124006271,-0.07854712009429932,0.019013330340385437,-0.32910987734794617,0.24890923500061035,-0.28956833481788635,-0.4739338457584381,-0.011721191927790642,0.30570805072784424,-0.38077980279922485,0.3283441364765167,0.02664189413189888,0.01715405285358429,-0.04784286394715309,0.12027211487293243],[0.028180845081806183,0.17515084147453308,0.046966906636953354,0.05849148705601692,0.008669020608067513,-0.015504872426390648,-0.12299106270074844,-0.0055804867297410965,0.05405024439096451,-0.12656833231449127,0.09234019368886948,0.051867615431547165,0.12144901603460312,0.05762938782572746,-0.045460522174835205,0.05052023008465767,0.008997892960906029,-0.09069189429283142,-0.1490686684846878,-0.016860298812389374,0.05604201555252075,-0.0027959435246884823,0.16682133078575134,0.18081459403038025,0.028829684481024742,-0.03399939462542534,-0.00900992564857006,-0.1484631448984146,0.017874188721179962,-0.03214554488658905,-0.17657579481601715,-0.07105214893817902,-0.049345217645168304,-0.06609276682138443,-0.005928362254053354,-0.026960588991642,0.04124709218740463,-0.10506085306406021,0.0743381604552269,-0.09294243901968002],[0.38751348853111267,0.24986687302589417,0.17058062553405762,0.1443767100572586,-0.4518950581550598,0.1939975917339325,0.21360225975513458,0.29761919379234314,-0.022160835564136505,0.07300736010074615,-0.2510087490081787,-0.14497816562652588,0.32207006216049194,0.05770490691065788,-0.25101804733276367,-0.1164763793349266,0.03925592079758644,0.16984301805496216,0.1314770132303238,0.19982880353927612,-0.7872201204299927,-0.6523124575614929,-0.1360059231519699,-0.15892775356769562,-0.18454872071743011,0.15569700300693512,0.17152102291584015,-0.7398244142532349,0.2329137623310089,0.03452347591519356,-0.29834821820259094,0.18827322125434875,0.2594500780105591,-0.4956967532634735,-0.08163861185312271,0.06028364226222038,-0.3127995431423187,-0.17572827637195587,-0.1785023957490921,-0.019487066194415092],[0.08506732434034348,0.23342490196228027,0.05992469564080238,-0.19020584225654602,0.0012088703224435449,-0.1988910585641861,-0.21809586882591248,0.17156310379505157,-0.0340493768453598,0.027215363457798958,0.2037358433008194,0.566353440284729,-0.1516219526529312,-0.0832536444067955,0.388672798871994,0.020979560911655426,0.0991072952747345,-0.5889351963996887,0.12406591325998306,0.006063605658710003,0.15019351243972778,0.08569146692752838,0.16618987917900085,-0.1736886352300644,0.012328808195888996,0.13954278826713562,-0.10156324505805969,0.12477927654981613,-0.15805953741073608,-0.558337390422821,-0.2696387767791748,-0.3019285798072815,0.055311936885118484,0.14038187265396118,0.3157672584056854,0.10689545422792435,0.12329517304897308,0.019942374899983406,0.04748329147696495,0.16644921898841858],[0.2576170861721039,-0.13072621822357178,0.005585954990237951,-0.27697980403900146,0.0714658722281456,-0.2128516584634781,-0.018505584448575974,0.10171792656183243,-0.05657282471656799,-0.10557256639003754,0.17990563809871674,-0.11357724666595459,-0.0909498929977417,0.06097671017050743,0.02699624001979828,-0.07704778760671616,0.10260538756847382,0.0290220994502306,-0.1315552443265915,-0.10294122248888016,0.11051271110773087,0.26631948351860046,-0.10460188239812851,0.1508805751800537,0.041458822786808014,0.15336258709430695,-0.11943560093641281,0.11945346742868423,-0.12477798014879227,-0.253593772649765,-0.05465804785490036,-0.43168318271636963,0.020020557567477226,0.18092916905879974,-0.3145526945590973,-0.04307201877236366,0.11609913408756256,-0.14410509169101715,-0.15377306938171387,-0.1032228022813797],[-0.25741642713546753,0.018122242763638496,0.17610949277877808,-0.33362242579460144,0.17110267281532288,0.20378199219703674,-0.048694413155317307,0.14832225441932678,0.101783886551857,0.047392088919878006,0.38385650515556335,-0.2984120845794678,-0.17139983177185059,0.2569974362850189,-0.04701564833521843,-0.3173586130142212,0.0006038557039573789,-0.2423243373632431,0.17620915174484253,-0.025223197415471077,-0.2691263258457184,-0.22649994492530823,0.0446234866976738,-0.16735348105430603,-0.02319624088704586,-0.12321215867996216,0.18430151045322418,0.045950997620821,0.24743732810020447,-0.14073368906974792,0.1520177572965622,0.02463294193148613,-0.19574499130249023,-0.08040715008974075,0.02834414504468441,-0.18311980366706848,0.1235775277018547,0.05225427448749542,0.27444523572921753,0.0468304269015789],[-0.21659167110919952,0.14983561635017395,-0.1094508096575737,-0.1904103308916092,-0.008087151683866978,0.034060508012771606,0.2679463028907776,0.18974778056144714,0.44390949606895447,0.05872785300016403,-0.037778887897729874,0.045682813972234726,-0.3062852621078491,0.5149298310279846,0.21355794370174408,0.05015524849295616,0.014548074454069138,-0.1982244998216629,-0.23350486159324646,0.12764832377433777,0.05726466700434685,0.04147765040397644,-0.05156399682164192,-0.16863620281219482,0.1815400868654251,-0.17909815907478333,0.04090617224574089,-0.2725108563899994,0.1922702044248581,0.16284586489200592,-0.10169199109077454,0.06607939302921295,-0.24842242896556854,0.2719711363315582,0.033478766679763794,-0.22612585127353668,-0.11981923133134842,0.10890769213438034,-0.0031424988992512226,-0.23607975244522095],[0.3321264684200287,-0.28060832619667053,-0.024381261318922043,-0.2810118496417999,0.1840750277042389,-0.0069421823136508465,0.09258484840393066,0.07978886365890503,-0.6768542528152466,0.15811486542224884,0.48111802339553833,0.38526681065559387,0.23710434138774872,0.038530897349119186,-0.10255236178636551,0.015631550922989845,-0.12361644953489304,0.06088862195611,0.07562783360481262,-0.19489793479442596,0.0786905363202095,0.016873233020305634,0.11534235626459122,0.19123071432113647,0.07399779558181763,0.19839560985565186,-0.2529465854167938,0.1085226759314537,-0.19006384909152985,-0.0041735307313501835,0.14370781183242798,-0.09619928151369095,0.020988764241337776,-0.01896202564239502,-0.10638705641031265,-0.05245259031653404,0.17008331418037415,-0.0006248955614864826,0.05522548407316208,0.10452249646186829],[-0.3016798496246338,-0.15798427164554596,0.10494636744260788,0.28815069794654846,0.19495613873004913,-0.1931377351284027,-0.04248453676700592,0.030562633648514748,-0.18080896139144897,-0.045632023364305496,0.35277414321899414,0.16789604723453522,0.011524413712322712,0.07971680909395218,-0.08737136423587799,0.048382844775915146,-0.04796295985579491,0.013052639551460743,-0.25415724515914917,0.1589057594537735,0.12939141690731049,0.11866641044616699,0.19693216681480408,0.10188882052898407,-0.004445628263056278,-0.3549671769142151,0.28280580043792725,-0.07541763037443161,-0.21367919445037842,0.24569649994373322,0.2590799033641815,-0.025763124227523804,0.2932016849517822,-0.278083473443985,-0.055938076227903366,-0.12591761350631714,-0.0485977940261364,-0.018177716061472893,-0.17922616004943848,0.12336353957653046],[0.03688191995024681,-0.11572475731372833,0.175371453166008,-0.46711793541908264,0.01549239456653595,-0.395107626914978,0.24187910556793213,-0.48810485005378723,0.11746644228696823,-0.23625224828720093,0.21609030663967133,-0.21544510126113892,0.19844575226306915,0.2893737852573395,-0.23747389018535614,0.3102833032608032,0.162283256649971,0.06897956132888794,0.15387177467346191,0.08076843619346619,-0.10432581603527069,0.21752257645130157,0.17525172233581543,-0.010318940505385399,0.03787575289607048,-0.0014894228661432862,-0.11835157126188278,-0.49171409010887146,0.25408869981765747,-0.4247458577156067,0.12210752815008163,0.1908806562423706,-0.4716309905052185,0.11814236640930176,-0.18202732503414154,0.05689113587141037,0.039593301713466644,-0.05349251255393028,-0.06766609847545624,-0.10852804034948349],[-0.1909605711698532,-0.058792196214199066,-0.02850784920156002,0.2267000526189804,-0.0024016916286200285,0.06703867763280869,0.018462220206856728,0.26926684379577637,-0.11603042483329773,0.2602156102657318,0.2803710997104645,0.011729901656508446,0.16004467010498047,-0.026832906529307365,0.10790032893419266,-0.0038926545530557632,-0.008906885981559753,-0.06848496943712234,0.08890334516763687,-0.09198331832885742,0.1605192869901657,-0.16781361401081085,0.05325670167803764,-0.05032522603869438,-0.17077572643756866,-0.03399478271603584,-0.2710753083229065,-0.00948916096240282,0.0451778843998909,-0.35191649198532104,-0.07674231380224228,-0.27911150455474854,-0.045096129179000854,-0.1593881994485855,-0.12026214599609375,0.20030958950519562,-0.03682742267847061,-0.09389208257198334,-0.27073970437049866,0.02195771224796772],[-0.19597554206848145,0.19626839458942413,-0.12021682411432266,0.22291794419288635,0.07402975857257843,-0.23369282484054565,-0.10638483613729477,-0.04429600387811661,0.002707198727875948,0.07741810381412506,0.12121913582086563,0.46551811695098877,-0.0592477023601532,0.10885448008775711,-0.10545825958251953,-0.17517030239105225,0.17937779426574707,-0.10639522224664688,-0.09077446907758713,0.1619768887758255,-0.07174495607614517,-0.34586092829704285,-0.17642176151275635,-0.15923750400543213,-0.21198534965515137,-0.011421631090342999,-0.5057541131973267,0.15195371210575104,-0.11707001179456711,0.24562549591064453,0.04840404540300369,-0.0655655711889267,-0.02171495370566845,-0.35758092999458313,0.06336822360754013,-0.11054776608943939,-0.17575053870677948,-0.020871788263320923,-0.18759161233901978,-0.019611388444900513],[-0.24711695313453674,-0.16799670457839966,-0.11565791070461273,-0.023669645190238953,-0.05290472134947777,0.19424448907375336,-0.23013027012348175,0.10326097160577774,0.076478011906147,-0.0014215174596756697,0.0018796678632497787,-0.06945043057203293,0.13115710020065308,-0.046031758189201355,0.15903346240520477,0.19686949253082275,0.17165449261665344,-0.20628374814987183,0.16832637786865234,0.04190901294350624,-0.1973470002412796,-0.010765023529529572,-0.02098170854151249,-0.12601085007190704,-0.17234478890895844,0.067668616771698,-0.17701110243797302,0.2655565142631531,-0.19160012900829315,-0.1086772233247757,-0.1776653379201889,-0.18290667235851288,0.23359356820583344,-0.059317804872989655,0.03606925159692764,-0.1634920835494995,-0.09089113026857376,-0.0034299655817449093,-0.08600571751594543,-0.07915890961885452],[0.13440898060798645,-0.09834013134241104,-0.14928312599658966,-0.20123577117919922,0.16404202580451965,-0.037725355476140976,-0.2689613401889801,-0.10304677486419678,0.11954917013645172,0.16721951961517334,-0.23464474081993103,-0.16635571420192719,-0.1318545639514923,-0.23956896364688873,0.07081551849842072,0.06751275062561035,-0.09909453243017197,-0.1972476989030838,0.11950011551380157,0.11716349422931671,-0.17771729826927185,-0.030723245814442635,0.0628531277179718,0.05590159818530083,0.14111830294132233,-0.2607251703739166,0.06325146555900574,0.15797275304794312,0.40704482793807983,-0.1111563891172409,0.1362021118402481,-0.00812526885420084,-0.3651001751422882,-0.04040435329079628,0.22674058377742767,0.00859113410115242,0.14249517023563385,0.1097482368350029,-0.0642034262418747,0.11900243908166885]],"biases":[0.24127088487148285,-0.03205741196870804,0.2681233584880829,-0.18929073214530945,0.19188115000724792,-0.2072511911392212,-0.13440848886966705,-0.1612926423549652,0.4636732339859009,0.1864294856786728,-0.07098586857318878,0.025363240391016006,-0.0821337029337883,-0.0744992196559906,-0.2725779712200165,0.07301817089319229,0.3449459969997406,-0.22079867124557495,-0.07378609478473663,0.04731103405356407]},{"weights":[[-0.8744891881942749,-0.10503650456666946,-0.2878733277320862,0.11918766051530838,-0.05026252567768097,0.015426857396960258,-0.11332537978887558,0.05325998738408089,-0.42004087567329407,0.3553265631198883,-0.054512664675712585,-0.03086518682539463,-0.022537734359502792,0.000796964974142611,0.10579051077365875,0.010548530146479607,0.45420774817466736,0.1611524522304535,-0.12916375696659088,-0.18617695569992065],[-0.3057895004749298,-0.06841147691011429,-0.5032572150230408,-0.0124239232391119,0.09166976809501648,0.06276442110538483,0.3438175320625305,-0.013698975555598736,0.35555925965309143,-0.08511348813772202,0.19986984133720398,0.23111125826835632,-0.2790355086326599,-0.5690155625343323,-0.19002263247966766,-0.47788453102111816,0.22424699366092682,-0.28066712617874146,-0.14446985721588135,0.0775897353887558],[-0.03655613958835602,0.19024915993213654,0.00450383173301816,-0.14177599549293518,0.1514526605606079,0.19837655127048492,-0.016519129276275635,0.15457184612751007,0.08978720009326935,0.6855865120887756,0.2059662789106369,0.07690916210412979,0.08586066961288452,-0.18253004550933838,-0.358399897813797,-0.25813671946525574,0.3018237054347992,-0.7059570550918579,0.14154279232025146,-0.040276188403367996],[0.3930058777332306,0.031581439077854156,0.39449360966682434,0.03135014697909355,-0.22204191982746124,-0.0543309822678566,-0.33615225553512573,0.1201120913028717,-0.3344622850418091,-0.24476668238639832,-0.12532688677310944,-0.34260138869285583,0.2551024854183197,-0.027243727818131447,0.2705070674419403,0.2773932218551636,-0.2469085305929184,0.026896659284830093,-0.0744621753692627,0.05162975192070007],[-0.02687869220972061,0.06883459538221359,-0.15783175826072693,0.09058748185634613,-0.010691936127841473,0.06899822503328323,0.039021849632263184,0.18948403000831604,0.011529798619449139,-0.10270538926124573,0.12435880303382874,-0.17303675413131714,-0.18443605303764343,0.06369053572416306,-0.12200179696083069,0.06414005905389786,-0.06935485452413559,-0.06784866750240326,-0.16193832457065582,-0.08292614668607712],[-0.028593650087714195,-0.1802869290113449,0.15457592904567719,-0.08232757449150085,0.09779573231935501,0.1161058247089386,-0.13375559449195862,-0.1847156435251236,0.0778663232922554,0.0206589438021183,0.1828864961862564,-0.10272669047117233,-0.12340395152568817,-0.006320370361208916,-0.04494885355234146,-0.038324031978845596,0.08153115957975388,0.11892776191234589,0.1284513920545578,-0.05519133061170578],[0.3131674826145172,-0.20531965792179108,0.40623167157173157,0.01362148579210043,-0.40456658601760864,-0.16454441845417023,-0.263456255197525,-0.17564904689788818,-0.09745335578918457,-0.7410359382629395,0.32657140493392944,-0.531619131565094,-0.15528659522533417,0.33219513297080994,0.20452436804771423,0.4845038056373596,-0.08565026521682739,-0.024258853867650032,0.12947548925876617,-0.34894853830337524],[0.0704154446721077,-0.355180561542511,0.012592719867825508,0.16245511174201965,0.2501518726348877,0.041884589940309525,-0.14072172343730927,0.06584272533655167,-0.3467450439929962,0.3691839575767517,-0.2565130591392517,0.24531252682209015,0.4806686043739319,-0.3059130012989044,0.16545382142066956,-0.3090253472328186,-0.18097759783267975,-0.09863749891519547,-0.41836753487586975,0.4721556007862091],[0.12437331676483154,-0.13322171568870544,0.002136882394552231,0.17610469460487366,0.13081850111484528,0.0828513577580452,-0.09059753268957138,-0.19932040572166443,0.038388486951589584,0.09769875556230545,-0.09286829084157944,-0.1196971982717514,0.09201625734567642,-0.008833120577037334,0.02456173673272133,-0.20205728709697723,0.02885838970541954,0.013879122212529182,0.12429579347372055,0.012045063078403473],[0.016087660565972328,-0.1229511946439743,-0.017671959474682808,-0.09922555834054947,0.036629945039749146,0.16328150033950806,-0.0350164994597435,-0.11474639922380447,-0.05803057551383972,0.14185889065265656,0.010761145502328873,0.14651061594486237,0.06116729974746704,-0.0672260969877243,-0.036133140325546265,0.037281740456819534,-0.03775736317038536,0.09831211715936661,-0.07839469611644745,0.033398423343896866]],"biases":[0.07809032499790192,0.48402711749076843,-0.34703847765922546,0.5276589393615723,-0.033010851591825485,-0.14028748869895935,0.3742302358150482,0.18472035229206085,-0.15504597127437592,-0.08686666935682297]}],"inputLookup":{"heroInButton":0,"handGroup":1,"HS":2,"PPot":3,"EHS":4,"potOddsH":5,"initiative":6,"villainCheck":7,"villainRaise":8,"villainAllIn":9},"inputLookupLength":10,"outputLookup":{"heroFold":0,"heroCheck":1,"heroCall":2,"heroRaise":3,"heroAllIn":4,"betLevelH1":5,"betLevelH2":6,"betLevelH3":7,"betLevelH4":8,"betLevelH5":9},"outputLookupLength":10,"options":{"inputSize":0,"outputSize":0,"binaryThresh":0.5,"hiddenLayers":[20,40,40,20],"activation":"leaky-relu"},"trainOpts":{"activation":"leaky-relu","iterations":300,"errorThresh":0.01,"log":true,"logPeriod":2,"leakyReluAlpha":0.01,"learningRate":0.001,"momentum":0.4,"callbackPeriod":10,"timeout":"Infinity","beta1":0.9,"beta2":0.999,"epsilon":1e-8}}