{"type":"NeuralNetwork","sizes":[9,20,40,40,20,9],"layers":[{"weights":[],"biases":[]},{"weights":[[-0.10949576646089554,0.21603746712207794,0.6523252725601196,0.06930091977119446,-1.2429616451263428,0.797156572341919,-1.2319176197052002,0.280060350894928,0.14887675642967224],[0.445161908864975,-0.26347488164901733,0.61931312084198,-1.7796413898468018,-1.830312967300415,0.9593505859375,-0.5437554717063904,0.43878963589668274,-0.5406484007835388],[-0.004843949340283871,-0.4700292646884918,-0.3324586749076843,-0.18743324279785156,-0.3425295948982239,0.43067383766174316,1.0411163568496704,0.02008949965238571,0.23500405251979828],[0.19728133082389832,-0.4209442138671875,0.17027227580547333,-0.006771165877580643,0.5213976502418518,-0.1330961138010025,-0.20067442953586578,0.16565854847431183,0.44890931248664856],[-0.12740746140480042,0.35408762097358704,0.06791556626558304,-0.04419867321848869,-0.7824620604515076,0.6332025527954102,0.017323223873972893,0.5859516263008118,0.20825594663619995],[-0.3475894629955292,-0.7665355205535889,0.988960325717926,-0.9063670039176941,-0.2107526957988739,0.29535260796546936,-0.5411754250526428,-0.02251543290913105,-0.4218112826347351],[0.002735794521868229,0.02893773466348648,-0.05741648003458977,0.3252426087856293,-0.1115364283323288,0.3133259117603302,-0.029526976868510246,0.48169755935668945,0.027631960809230804],[0.5295002460479736,0.35197651386260986,0.3101227283477783,-0.26009851694107056,-0.030332764610648155,-0.15515431761741638,0.09053415060043335,-0.3249523937702179,0.08252684772014618],[-0.053984157741069794,-0.01994449272751808,0.38161760568618774,-0.11222352832555771,-0.23968836665153503,0.23680536448955536,0.09612344205379486,-0.19722680747509003,-0.22730652987957],[0.17032109200954437,-0.2937350571155548,0.10177803039550781,0.024669118225574493,-0.06372856348752975,-0.05873984098434448,-0.30842021107673645,-0.02817871980369091,0.19665323197841644],[0.14564453065395355,-0.17193318903446198,-0.10373685508966446,-0.1479184627532959,0.21483226120471954,0.06853954493999481,-0.15969644486904144,-0.01601731777191162,-0.03205345198512077],[0.20244504511356354,-0.09329187124967575,0.13133922219276428,-0.15756340324878693,-0.08739982545375824,-0.2651747465133667,-0.14101570844650269,0.13731297850608826,0.06344348937273026],[0.5538492202758789,-0.08067656308412552,-0.19856806099414825,0.11038476228713989,0.13272443413734436,0.08518557995557785,0.11330730468034744,0.06224958226084709,-0.1339907944202423],[-0.0909656286239624,0.02982666715979576,-1.1664780378341675,1.4244781732559204,0.9422188401222229,-0.0981464609503746,-0.04447724297642708,-0.399503618478775,-0.3265540301799774],[-0.15796253085136414,-0.160777285695076,-0.13902854919433594,0.22809846699237823,0.03775184974074364,0.04879258945584297,-0.0068989163264632225,-0.07927700132131577,-0.07316799461841583],[-0.20394985377788544,-0.5885980725288391,0.08315369486808777,-0.4130017161369324,-0.505783200263977,-0.28756949305534363,0.5920950770378113,0.32814955711364746,0.28720882534980774],[-0.4443134367465973,0.9680288434028625,0.771489679813385,-0.8394901156425476,1.1738848686218262,-0.7854965925216675,-0.028490323573350906,-0.297823965549469,0.01884385384619236],[0.024394391104578972,-0.02678161859512329,-0.04323212429881096,-0.006425480358302593,-0.15084819495677948,-0.19069550931453705,-0.010420244187116623,-0.08963922411203384,0.15423831343650818],[0.16711492836475372,-0.013556736521422863,-0.11051671952009201,0.10392364859580994,-0.144395112991333,0.08595720678567886,0.18347489833831787,-0.12929277122020721,-0.06151174008846283],[-0.12367609888315201,0.7615025639533997,0.22462208569049835,-0.3625101149082184,-1.7472108602523804,1.2262871265411377,0.508053719997406,-0.025965318083763123,0.004324686247855425]],"biases":[-0.034928347915410995,0.2308155745267868,-0.10067568719387054,-0.023489831015467644,-0.09324637055397034,0.1125783696770668,-0.0610974095761776,-0.0474831685423851,0.12164583057165146,0.042516689747571945,-0.16721592843532562,-0.01450841873884201,-0.15529993176460266,0.31779131293296814,-0.05140088498592377,0.1989547461271286,0.04306232929229736,-0.0017451642779633403,-0.14440806210041046,-0.30485403537750244]},{"weights":[[-0.042690541595220566,0.24287672340869904,0.15572583675384521,0.14101940393447876,-0.15798157453536987,0.3531602621078491,-0.3568638861179352,0.2151564210653305,0.15670424699783325,-0.07378000020980835,0.20899200439453125,0.032935112714767456,-0.04348783195018768,0.15120011568069458,-0.15063753724098206,-0.0007310875225812197,-0.010907614603638649,-0.10156518965959549,0.14960908889770508,0.2066945731639862],[-0.09858338534832001,-0.42359569668769836,-0.1153561919927597,0.14264759421348572,0.0327473022043705,0.07898174226284027,-0.1684311032295227,-0.03535360470414162,-0.27485916018486023,0.0002810735022649169,0.13276666402816772,0.117581307888031,-0.014509902335703373,0.31313467025756836,-0.019414503127336502,0.040275245904922485,0.02198653481900692,-0.09412290155887604,-0.16203831136226654,0.075483039021492],[-0.1411992907524109,-0.25581109523773193,0.19204594194889069,0.024602439254522324,-0.32266759872436523,0.15700024366378784,-0.07903259247541428,0.04533062502741814,-0.21189430356025696,-0.03427576273679733,0.11865909397602081,-0.12391456961631775,0.08297163248062134,0.1572922170162201,-0.031020432710647583,-0.12687014043331146,-0.21424522995948792,0.11579634249210358,-0.08074115216732025,0.07012782990932465],[-0.05587557330727577,0.1711735874414444,0.05032616853713989,0.17406770586967468,-0.12792935967445374,0.09490387886762619,0.032943278551101685,0.03210659697651863,-0.020002642646431923,-0.032595377415418625,0.1718142181634903,0.12899111211299896,-0.013235137797892094,0.10536284744739532,-0.034292638301849365,0.18854233622550964,-0.03089832328259945,0.0930764302611351,-0.20213021337985992,0.06224260479211807],[-0.04847162216901779,-0.1060301661491394,-0.07035450637340546,0.01989530213177204,0.06215297430753708,0.2792742848396301,-0.19589318335056305,-0.11322440952062607,-0.1352580487728119,0.051112692803144455,-0.17410561442375183,-0.13963821530342102,-0.1593901515007019,-0.0906381756067276,-0.1669263392686844,0.03577535226941109,0.1775127500295639,-0.07575951516628265,0.15466807782649994,0.2205001562833786],[0.13866011798381805,-0.4209679365158081,0.01709599606692791,-0.09377355873584747,0.07453737407922745,-0.22556984424591064,0.12920813262462616,-0.2496335208415985,-0.2308744192123413,-0.131972074508667,0.11976130306720734,-0.12512829899787903,0.08871676027774811,-0.16607624292373657,-0.14364559948444366,0.03625629097223282,-0.2192610651254654,0.1494719386100769,0.08311949670314789,-0.32498639822006226],[-0.06353884190320969,0.3019740879535675,0.07512938976287842,-0.34853804111480713,0.376356840133667,-0.1480473279953003,0.05003943294286728,-0.2649000585079193,-0.10617848485708237,-0.16396650671958923,-0.04243827611207962,0.0868765339255333,-0.25467821955680847,-0.2965044677257538,-0.16811998188495636,0.14211918413639069,-0.0630168467760086,0.08897871524095535,0.01297059841454029,0.21268026530742645],[0.13694345951080322,0.11378307640552521,-0.05915820226073265,-0.17658337950706482,0.1499992460012436,0.2264288067817688,-0.18109381198883057,0.1215694323182106,-0.06401436775922775,0.1383478045463562,-0.15976038575172424,0.11436838656663895,-0.017806747928261757,0.04643448814749718,0.0322379395365715,-0.1364934891462326,0.042219363152980804,0.13504232466220856,-0.17704761028289795,-0.005340728908777237],[-0.13848409056663513,0.09580416232347488,0.014649184420704842,0.14891095459461212,0.026915444061160088,-0.18702377378940582,0.02776322513818741,0.16236533224582672,-0.10243760794401169,0.022152533754706383,0.1271277666091919,-0.15603500604629517,-0.052453506737947464,-0.03487846255302429,0.161102294921875,0.12427108734846115,-0.05539911240339279,0.08650659024715424,0.002776638139039278,-0.029408447444438934],[-0.0826234370470047,0.018960608169436455,0.1534850001335144,-0.19776077568531036,0.07553289830684662,0.17073993384838104,-0.043049778789281845,0.04464377462863922,-0.0660284087061882,-0.11057160049676895,-0.16103576123714447,0.16865117847919464,0.08326883614063263,-0.18948820233345032,0.13368552923202515,0.05969104543328285,-0.030208807438611984,0.09638610482215881,-0.0036002511624246836,-0.12923115491867065],[0.41010135412216187,0.4083349108695984,0.17966753244400024,0.04401843994855881,0.4624160826206207,-0.5670462846755981,0.376925528049469,-0.16833892464637756,0.15497244894504547,0.17908041179180145,-0.18668413162231445,0.11073184758424759,0.13026902079582214,-0.5995974540710449,-0.08808864653110504,0.30498388409614563,-0.3683185577392578,-0.08627360314130783,0.03817658871412277,0.2362888604402542],[-0.08636510372161865,0.17950068414211273,-0.0525604747235775,0.32976478338241577,0.1800116002559662,-0.07273997366428375,0.19758200645446777,-0.14981375634670258,-0.03987615182995796,0.1439831256866455,0.1384725123643875,-0.15254226326942444,0.03465510159730911,-0.19659873843193054,-0.149380624294281,-0.25308480858802795,-0.25818324089050293,0.017573734745383263,-0.04538057744503021,-0.12229439616203308],[-0.07638511061668396,-0.029694266617298126,-0.13824132084846497,0.2480565309524536,0.18952171504497528,0.05327022448182106,0.12981919944286346,-0.18447522819042206,0.16447152197360992,-0.017668653279542923,-0.15536771714687347,0.10369513928890228,0.10294299572706223,-0.02890489250421524,-0.013454046100378036,0.04921211674809456,-0.04923469200730324,-0.18149368464946747,-0.07603029906749725,-0.02331629954278469],[-0.1757621020078659,-0.18265007436275482,-0.11412324011325836,-0.0748562440276146,0.13783679902553558,-0.2943137586116791,0.32591256499290466,-0.04275646060705185,-0.2695308327674866,0.1544223427772522,0.07194489240646362,0.009857731871306896,0.023586289957165718,-0.06329353153705597,-0.018349578604102135,0.1723245084285736,-0.07137355953454971,-0.1451588124036789,0.17959941923618317,-0.06068486347794533],[0.14844605326652527,-0.10759353637695312,-0.04968489706516266,-0.1968381106853485,-0.14161475002765656,0.10716721415519714,-0.10871811211109161,0.08635371923446655,0.16764068603515625,-0.011391050182282925,0.05132623016834259,0.06053415685892105,0.17893686890602112,0.00895646307617426,-0.029617484658956528,-0.09905768930912018,0.090392105281353,0.06839190423488617,0.14372901618480682,-0.16988956928253174],[0.25316184759140015,-0.12878680229187012,-0.05040595307946205,0.03858906030654907,0.15814492106437683,-0.19692960381507874,0.13112816214561462,-0.3044414222240448,0.12022671103477478,-0.03804883733391762,0.010377172380685806,0.10946276783943176,0.021189408376812935,-0.24152885377407074,0.1185317188501358,-0.05754801258444786,0.15870551764965057,-0.010647397488355637,-0.19076226651668549,-0.0015623036306351423],[0.0671030730009079,-0.09789277613162994,0.1522185355424881,-0.11745890229940414,-0.043239060789346695,-0.19797258079051971,-0.08289805799722672,0.004336066078394651,-0.08619217574596405,0.14449146389961243,-0.016475364565849304,0.12816722691059113,-0.16357479989528656,-0.003732506185770035,0.09141211211681366,0.17792253196239471,-0.10755670815706253,-0.18471413850784302,-0.1677033007144928,0.04372568428516388],[0.09657154977321625,-0.08497821539640427,-0.1998690515756607,-0.013903403654694557,-0.1376415193080902,0.31567224860191345,0.2668675184249878,0.10724194347858429,0.05717276409268379,-0.19621506333351135,-0.10061521083116531,-0.03764154016971588,-0.09002599120140076,0.2884076237678528,0.19474652409553528,0.04482424259185791,0.10798294842243195,0.048616159707307816,0.10194729268550873,-0.23790274560451508],[0.5142388939857483,0.5858309268951416,0.44005444645881653,0.11276093125343323,0.27453893423080444,-0.5942186713218689,0.059610407799482346,-0.025092801079154015,-0.019936559721827507,0.3108192980289459,-0.03169410303235054,0.08603228628635406,-0.2361711859703064,-0.773293137550354,-0.06744762510061264,0.39032161235809326,-0.6571317911148071,-0.1229400634765625,-0.2621876001358032,0.4965965747833252],[-0.16844826936721802,-0.18043215572834015,0.11654999107122421,-0.1223386824131012,-0.07090093940496445,-0.07963260263204575,0.1795664280653,-0.19218842685222626,-0.10917235910892487,-0.030463099479675293,-0.19102516770362854,-0.14628125727176666,0.09275002032518387,0.12870769202709198,-0.07321853935718536,-0.1796506643295288,-0.09846832603216171,0.04892312362790108,-0.11846324801445007,-0.10969749093055725],[0.14907647669315338,0.13289031386375427,0.0633697360754013,0.023129139095544815,-0.152530699968338,-0.061629604548215866,-0.20246338844299316,-0.14981748163700104,0.0535864382982254,0.1138811856508255,-0.0392904132604599,0.10886835306882858,-0.10539928823709488,-0.08398206532001495,-0.14911021292209625,-0.10044369846582413,-0.073933444917202,0.18293040990829468,0.16766342520713806,-0.03784377872943878],[-0.14949479699134827,-0.14349517226219177,0.12289294600486755,0.04011518135666847,-0.18272310495376587,-0.04837550222873688,-0.0032611412461847067,-0.13504524528980255,-0.18719424307346344,0.19160687923431396,0.03246603533625603,0.15829528868198395,-0.03654838725924492,0.002167564118281007,-0.022328859195113182,0.1288665384054184,-0.05459332838654518,0.03344745188951492,0.17473264038562775,-0.00638143764808774],[0.2885109782218933,0.38344916701316833,-0.2636090815067291,0.020128900185227394,0.18079271912574768,0.046176034957170486,0.24102601408958435,0.1941750943660736,-0.02646019123494625,0.1707531213760376,-0.006636639591306448,-0.11551626771688461,-0.18087230622768402,-0.0031038294546306133,0.01560265477746725,0.023958120495080948,-0.5680479407310486,0.1334799975156784,0.12873734533786774,0.16205629706382751],[-0.030837327241897583,-0.028315121307969093,0.05460018292069435,0.028825564309954643,-0.28690341114997864,-0.05645180866122246,-0.24359871447086334,0.1819942742586136,0.14530542492866516,0.20034711062908173,-0.1464080959558487,-0.04264005273580551,0.051231518387794495,-0.1833689659833908,-0.15916985273361206,-0.18899749219417572,0.12292177230119705,0.045358866453170776,-0.13507623970508575,-0.08040718734264374],[0.3385319709777832,0.3773981034755707,0.1568111777305603,-0.40131086111068726,0.26779723167419434,-0.10635871440172195,0.03230354189872742,-0.1582593023777008,-0.028505142778158188,-0.10990501195192337,-0.021420007571578026,0.12580664455890656,-0.12078645825386047,-0.19863517582416534,0.12479700893163681,0.41220131516456604,0.10454171150922775,0.09318096190690994,-0.07251763343811035,0.041451744735240936],[0.19410955905914307,0.18982335925102234,-0.13200882077217102,0.18485289812088013,-0.03572956845164299,0.11716941744089127,0.044188883155584335,-0.10867558419704437,-0.159401535987854,0.06648340076208115,-0.06075790524482727,-0.17428182065486908,0.1085810586810112,0.13529519736766815,-0.04324847832322121,-0.15125514566898346,-0.0012415556702762842,-0.14837712049484253,0.0342872180044651,0.12579448521137238],[0.12999004125595093,-0.14085079729557037,0.130182683467865,-0.033718958497047424,-0.1511983573436737,-0.12019124627113342,0.10306597501039505,-0.009378748945891857,0.12219134718179703,0.0375412218272686,-0.13957378268241882,-0.10268009454011917,-0.07646053284406662,-0.16308781504631042,-0.17521198093891144,0.03226568177342415,0.06201664358377457,0.18758037686347961,-0.15663543343544006,0.08289013803005219],[0.26736924052238464,0.30926206707954407,-0.12529094517230988,-0.16534768044948578,-0.23436643183231354,0.15142443776130676,-0.3295603394508362,-0.14196263253688812,0.12503443658351898,0.18711502850055695,-0.05860862508416176,-0.12487880885601044,-0.07887481153011322,0.07522113621234894,-0.054204270243644714,-0.07982639968395233,0.3605530858039856,-0.08030211925506592,-0.10166362673044205,0.03249746188521385],[0.33513790369033813,0.27738669514656067,0.3433205783367157,-0.21199437975883484,0.07866085320711136,-0.1777084618806839,-0.0488227978348732,0.03537734970450401,0.20112381875514984,-0.0608791820704937,-0.056575093418359756,0.09216874092817307,-0.1921534538269043,-0.17993703484535217,-0.04420912265777588,0.4203001856803894,-0.34635603427886963,-0.04094216600060463,0.11616940051317215,0.49806487560272217],[0.05611457675695419,-0.22251136600971222,0.22015418112277985,0.19326025247573853,0.12374676764011383,-0.1544138491153717,0.16303648054599762,-0.16722317039966583,-0.11885970085859299,-0.06819460541009903,0.0013260081177577376,0.028879184275865555,0.21967172622680664,0.0015885333996266127,-0.16831006109714508,-0.03764217719435692,0.039712123572826385,0.004656173288822174,-0.006908858194947243,-0.0674101710319519],[-0.1894765943288803,0.10703276842832565,0.24157249927520752,-0.22408413887023926,0.05318900942802429,-0.0518839955329895,-0.15802252292633057,0.009218987077474594,-0.19803375005722046,0.1360204964876175,-0.19428928196430206,0.1328718662261963,0.0035776905715465546,0.08438345789909363,0.0852203518152237,0.02698921412229538,-0.19523346424102783,0.16967448592185974,0.013731259852647781,-0.01894453726708889],[0.19708767533302307,0.20818088948726654,0.10265656560659409,-0.007250502705574036,-0.07847655564546585,0.046070851385593414,0.1863931119441986,0.09735728055238724,0.0842369943857193,0.002283869544044137,0.08064161241054535,0.021501896902918816,-0.10343710333108902,0.023380611091852188,0.022266412153840065,0.04012292996048927,-0.30394619703292847,-0.1588420271873474,-0.07208272069692612,0.22456766664981842],[0.22435566782951355,-0.31079351902008057,0.0042982278391718864,0.09616604447364807,-0.14520776271820068,-0.11584367603063583,0.040671467781066895,0.051685579121112823,0.0033129751682281494,-0.16001926362514496,-0.1733270138502121,-0.11687774956226349,-0.3324849605560303,-0.062372662127017975,-0.11215408891439438,0.19005213677883148,-0.23972684144973755,0.18610389530658722,0.17452028393745422,0.1894940435886383],[-0.11333324015140533,-0.12175466865301132,-0.11305692046880722,-0.04995489865541458,-0.02513856440782547,-0.16472822427749634,-0.13646326959133148,0.3460354208946228,-0.005189138930290937,0.06283106654882431,0.16986531019210815,0.24478045105934143,0.14193099737167358,-0.12446857988834381,-0.18281978368759155,-0.17385846376419067,0.3173014223575592,0.11554856598377228,0.15631166100502014,0.10149652510881424],[0.0010391314281150699,-0.1700795590877533,-0.1719673126935959,0.056273289024829865,0.1516788899898529,0.29664069414138794,0.33282461762428284,-0.10977085679769516,0.20152923464775085,-0.1534365862607956,-0.029726676642894745,-0.08920618146657944,0.10587446391582489,0.06024271622300148,0.16146716475486755,-0.24552568793296814,-0.026743445545434952,-0.16100390255451202,-0.04641919583082199,0.007890000008046627],[-0.509695291519165,-0.1482440084218979,-0.23084411025047302,0.17131246626377106,0.035889994353055954,0.46311426162719727,-0.17559979856014252,0.20405568182468414,0.30052003264427185,-0.042666636407375336,0.052213627845048904,-0.12693996727466583,-0.17342068254947662,0.2472008913755417,0.07422037422657013,-0.017192861065268517,0.21820928156375885,-0.17035546898841858,-0.0862554982304573,-0.36558982729911804],[-0.26717543601989746,0.053439170122146606,-0.21383976936340332,0.06244514882564545,0.2670465409755707,0.11208248138427734,0.38915443420410156,0.15550462901592255,-0.054619915783405304,0.12048664689064026,0.08099958300590515,-0.1680787205696106,0.10752531886100769,-0.08871468156576157,-0.1878165602684021,0.0032511106692254543,-0.036394406110048294,0.08744875341653824,0.10142836719751358,-0.1639980971813202],[-0.055869054049253464,-0.26687681674957275,-0.411101758480072,0.21747973561286926,0.24224735796451569,0.2946847081184387,0.004843937233090401,0.009207324124872684,-0.15796126425266266,-0.15318287909030914,-0.01906285621225834,0.05521725118160248,-0.3027315139770508,-0.40130606293678284,-0.08871784806251526,0.055687956511974335,0.2666066288948059,-0.18720786273479462,0.04471931234002113,-0.2931719422340393],[0.19567641615867615,0.006512326188385487,-0.20081259310245514,0.03307611122727394,-0.1325737088918686,-0.028807636350393295,-0.05338660255074501,-0.0207822248339653,-0.10759054869413376,0.05810866504907608,0.026328302919864655,-0.00464818486943841,-0.15735633671283722,-0.03238800913095474,-0.19137652218341827,-0.17542508244514465,-0.07852258533239365,0.06405492126941681,0.017776774242520332,0.21256273984909058],[-0.10730201005935669,0.10679358243942261,-0.12512587010860443,-0.014639505185186863,0.007883269339799881,0.08154071867465973,0.04037875309586525,-0.11016324907541275,-0.1588163822889328,0.15550754964351654,-0.1661459356546402,0.13421744108200073,0.1461496204137802,0.008495478890836239,0.04906470328569412,0.05808373913168907,-0.12458450347185135,0.06005126237869263,-0.029536012560129166,-0.0731317475438118]],"biases":[0.20414316654205322,0.20720960199832916,0.12662744522094727,-0.1639387458562851,-0.1961836963891983,0.3337039053440094,0.24392345547676086,-0.12283637374639511,-0.1294165551662445,-0.12937521934509277,0.2335037887096405,0.1836305558681488,-0.028241649270057678,0.17253033816814423,-0.1782311648130417,-0.11708934605121613,-0.15138038992881775,0.08611767739057541,-0.04973314329981804,-0.2059248834848404,-0.1738121211528778,-0.12632520496845245,-0.11029104143381119,-0.07912187278270721,-0.26202887296676636,-0.11961288750171661,-0.20591242611408234,-0.22510926425457,-0.07006680965423584,-0.009352724999189377,-0.04973786324262619,0.1809689998626709,0.2371758371591568,-0.2608485817909241,-0.16829729080200195,0.33713749051094055,-0.0906820297241211,-0.02525651454925537,-0.00509533891454339,0.018229808658361435]},{"weights":[[-0.13883118331432343,0.10271543264389038,0.1304708868265152,-0.11991118639707565,0.16484130918979645,0.040486179292201996,-0.19331397116184235,0.03363174945116043,-0.10968051105737686,-0.13113348186016083,0.129837304353714,0.14770029485225677,-0.16452622413635254,-0.14233461022377014,0.1123584657907486,0.10972114652395248,0.18360033631324768,0.10513603687286377,0.015740733593702316,0.18786559998989105,0.19638299942016602,-0.14002171158790588,0.19713419675827026,0.14499090611934662,-0.045044075697660446,-0.046099480241537094,0.11752191931009293,-0.18522214889526367,0.02910820208489895,0.14078626036643982,-0.009065117686986923,-0.18063108623027802,-0.00416109012439847,0.053138770163059235,-0.18932370841503143,0.1533789336681366,0.09667694568634033,-0.00019896082812920213,0.06403256952762604,-0.16666457056999207],[0.060787830501794815,-0.07564707100391388,0.12819702923297882,-0.1886988878250122,-0.1483435481786728,-0.33317258954048157,0.005429238546639681,-0.06547214090824127,0.20824867486953735,0.07507944852113724,0.31296810507774353,-0.15336833894252777,0.13149315118789673,0.06042478233575821,-0.10200640559196472,0.1311565488576889,0.17509624361991882,-0.03158879652619362,0.35448649525642395,0.1258946657180786,-0.06592844426631927,-0.12396696209907532,0.1946212500333786,-0.10309778153896332,0.14996802806854248,0.13784946501255035,-0.06077758967876434,-0.03114219754934311,0.2899681627750397,0.0554000549018383,-0.03228410333395004,0.05690009519457817,0.13596691191196442,0.01656353287398815,0.11164946854114532,0.006379155442118645,0.09517715126276016,0.04436954855918884,-0.1531360149383545,-0.04542337357997894],[-0.16669400036334991,-0.14798682928085327,0.021988270804286003,-0.17315036058425903,-0.043607987463474274,0.17571420967578888,0.0440591424703598,0.20268626511096954,-0.1820240169763565,0.09678442776203156,0.04463867098093033,0.19953475892543793,0.15909962356090546,0.1555250734090805,-0.1186804324388504,0.28520482778549194,-0.03318771347403526,0.08978168666362762,-0.07153721153736115,0.17057086527347565,-0.10135212540626526,0.05749496817588806,-0.030772067606449127,-0.12968948483467102,-0.15497443079948425,0.05667783319950104,-0.16283704340457916,0.10478395223617554,-0.21329063177108765,-0.0859936848282814,0.013678866438567638,0.032970987260341644,-0.047520216554403305,-0.10149621963500977,-0.156155064702034,-0.036647528409957886,0.14469818770885468,0.19774866104125977,0.06064270809292793,-0.11170759797096252],[-0.07137491554021835,0.10923899710178375,-0.0024945081677287817,-0.05675463005900383,-0.1384894698858261,-0.15528003871440887,-0.09472053498029709,-0.030511649325489998,-0.05544072762131691,-0.008085434325039387,-0.039858896285295486,0.10311051458120346,0.18821808695793152,-0.07837740331888199,0.16296127438545227,0.13992652297019958,-0.145704984664917,-0.051765501499176025,0.060685403645038605,-0.031212814152240753,0.16848455369472504,-0.05936605855822563,0.1251501739025116,-0.10360345244407654,0.007167580537497997,-0.048730235546827316,0.1488669365644455,0.10130586475133896,0.11331308633089066,-0.19756029546260834,0.02581019513309002,-0.1509213149547577,-0.09586969017982483,0.06646613776683807,0.044958047568798065,-0.04992012307047844,-0.010716198943555355,-0.09307210147380829,0.15143848955631256,-0.008352367207407951],[-0.08113445341587067,0.06706910580396652,-0.07448407262563705,-0.06739414483308792,-0.02020254358649254,-0.13529933989048004,-0.03440812975168228,-0.07587582617998123,0.09329614043235779,-0.17264722287654877,-0.09184721857309341,-0.145748570561409,0.04456034302711487,0.0735553577542305,-0.000584202993195504,-0.16720372438430786,-0.19053667783737183,0.12312617897987366,-0.2589132487773895,-0.13715048134326935,-0.1556374430656433,-0.05447810888290405,-0.19188068807125092,-0.056450843811035156,-0.011468416079878807,-0.021093174815177917,0.10028041899204254,0.10350997000932693,0.09517402201890945,0.1989959478378296,0.15303736925125122,0.13820867240428925,-0.16937947273254395,0.23718877136707306,0.08825019747018814,-0.08961537480354309,0.16113682091236115,0.1735311895608902,-0.1752101629972458,0.01409244816750288],[0.1100398451089859,-0.19852368533611298,-0.15160751342773438,0.13805045187473297,0.09172175824642181,-0.12451519817113876,0.22147972881793976,0.09710422903299332,-0.04518772289156914,0.13206875324249268,0.1497696042060852,0.27669838070869446,0.01635386049747467,0.01431721169501543,0.15874949097633362,-0.1316698044538498,0.11453454196453094,0.1741950660943985,0.1331293284893036,0.01052444614470005,-0.01837477646768093,0.04136567562818527,-0.09821462631225586,-0.13932231068611145,0.039778366684913635,0.1406763643026352,0.019722307100892067,-0.23265193402767181,-0.14999322593212128,0.11637835949659348,0.08132294565439224,-0.15525490045547485,0.008225354366004467,0.00010357884457334876,0.17040689289569855,0.022518200799822807,-0.013103033415973186,0.10656335949897766,0.1134941503405571,0.18574106693267822],[-0.18243297934532166,-0.1711583435535431,-0.14256471395492554,-0.10481654852628708,-0.16952738165855408,-0.21771728992462158,-0.07173046469688416,-0.14557918906211853,0.12529487907886505,0.06599924713373184,-0.08643116801977158,0.162730872631073,0.22851760685443878,0.10256954282522202,-0.05769512802362442,0.19464664161205292,-0.09169179946184158,0.15552058815956116,0.0142778679728508,0.16551481187343597,-0.03705897182226181,-0.05765095725655556,0.14749658107757568,-0.10372108221054077,-0.19371914863586426,-0.04157879576086998,0.12656864523887634,-0.2539767920970917,-0.04208963364362717,0.11971104145050049,-0.08828070014715195,-0.0825641080737114,-0.011662919074296951,-0.0414067804813385,0.08270005881786346,-0.011377040296792984,0.2133706510066986,-0.0837859958410263,-0.22064778208732605,0.1582675725221634],[-0.23757517337799072,-0.11925788968801498,-0.1639280766248703,0.14096452295780182,-0.1649017184972763,0.16580986976623535,0.21388855576515198,0.07747407257556915,-0.12507282197475433,-0.021278852596879005,0.19526006281375885,0.07990799099206924,-0.05915559455752373,-0.07368391752243042,0.029934031888842583,-0.0014705919893458486,-0.1751943677663803,-0.10279165953397751,0.2634482979774475,-0.17720389366149902,0.09073300659656525,0.14098766446113586,0.1988247185945511,-0.011652544140815735,0.19015349447727203,0.1126398965716362,0.18157514929771423,-0.12376523017883301,-0.0904899463057518,0.17786575853824615,-0.10779446363449097,0.05962907522916794,-0.25825947523117065,-0.22748176753520966,-0.08898957073688507,-0.19157740473747253,0.23198337852954865,-0.02775420993566513,-0.14963775873184204,-0.09838195890188217],[-0.0688718780875206,-0.06583638489246368,-0.1886000633239746,0.03790502995252609,-0.1600041687488556,0.04181147366762161,0.2037167102098465,-0.01812547631561756,0.1291896253824234,0.1920478492975235,-0.1499260514974594,0.015514303930103779,0.074702687561512,-0.09749599546194077,0.01364241074770689,0.14511705935001373,-0.0035424830857664347,0.11624620854854584,0.12629330158233643,0.1954258233308792,-0.052274152636528015,0.16117192804813385,-0.23044541478157043,0.031888190656900406,-0.03173649683594704,-0.18120287358760834,0.0761796236038208,0.022597283124923706,-0.03540327027440071,-0.028002217411994934,-0.1575879007577896,-0.032701436430215836,-0.16162069141864777,0.12900643050670624,0.031211262568831444,-0.10596868395805359,0.0013935597380623221,-0.09094402194023132,-0.18569627404212952,-0.14458441734313965],[0.16460052132606506,0.001342317438684404,0.0034867965150624514,-0.1684347242116928,-0.06896639615297318,0.13125944137573242,-0.15146832168102264,-0.11116523295640945,0.06993965059518814,0.10332823544740677,0.1851939857006073,-0.046175792813301086,0.14079612493515015,-0.06275150924921036,-0.14639733731746674,-0.039145804941654205,-0.024140890687704086,0.1449514776468277,0.0657806247472763,0.013708977960050106,0.0886581540107727,-0.062181729823350906,0.13359984755516052,-0.18196021020412445,-0.33816128969192505,-0.06974906474351883,-0.11852409690618515,-0.16731864213943481,-0.32543450593948364,0.04968971014022827,0.05972424894571304,-0.161758154630661,-0.22250723838806152,-0.27385106682777405,0.16878344118595123,-0.05077981576323509,0.09813125431537628,0.29385530948638916,-0.1347331404685974,0.1598278284072876],[0.07056675106287003,-0.18431423604488373,-0.1696251630783081,-0.04021330177783966,-0.13807599246501923,0.06334184110164642,0.18705232441425323,-0.19914226233959198,0.07708723098039627,-0.1256432980298996,0.22563903033733368,-0.1858665645122528,0.1364203840494156,0.06229154020547867,0.053133245557546616,-0.06565240770578384,0.21791212260723114,-0.15294091403484344,0.259738951921463,-0.1915818601846695,0.0457269661128521,-0.07856480777263641,0.02513733133673668,0.032973118126392365,0.23136545717716217,-0.13418012857437134,-0.0900781974196434,-0.16781367361545563,-0.04720659181475639,0.12626291811466217,-0.004796859808266163,0.11331304162740707,0.1662774384021759,-0.09713749587535858,0.04606781527400017,-0.3408878445625305,0.06251643598079681,-0.18941891193389893,0.005568094085901976,-0.12046858668327332],[-0.09836038947105408,-0.007502778898924589,0.22110404074192047,0.15876714885234833,-0.15380485355854034,0.2085912525653839,0.002820039400830865,0.0030130010563880205,0.11843840777873993,0.1296210139989853,-0.057717908173799515,0.10078471899032593,0.016165688633918762,-0.02532815746963024,-0.036571845412254333,-0.06515976041555405,0.10806343704462051,0.0515354685485363,-0.17664656043052673,-0.10303375124931335,-0.05432361736893654,-0.02180364355444908,-0.18366476893424988,-0.14448651671409607,-0.23810848593711853,0.050356775522232056,-0.07757867872714996,0.12218009680509567,0.08625614643096924,0.05747991427779198,-0.062483638525009155,-0.21224462985992432,0.11154714971780777,-0.17169779539108276,0.028076130896806717,-0.1566915214061737,0.029523687437176704,0.06850364059209824,-0.03569648042321205,-0.1302187591791153],[0.1993257701396942,0.11114558577537537,-0.04107267037034035,0.17104670405387878,-0.05542963743209839,0.2500193417072296,-0.11295155435800552,0.11491221189498901,-0.14513427019119263,-0.0944477841258049,0.06914310902357101,0.29051104187965393,-0.11825031787157059,0.07490414381027222,0.011750508099794388,-0.33394643664360046,0.13211363554000854,-0.03473963215947151,0.34296420216560364,-0.16773131489753723,0.13663114607334137,-0.011377847753465176,0.1739465892314911,-0.0025741090066730976,-0.0939648300409317,0.11176351457834244,-0.1101968064904213,-0.03864504396915436,0.3030584454536438,-0.38472309708595276,0.13416768610477448,0.24260413646697998,0.2639182209968567,-0.11642449349164963,-0.1630636602640152,0.257921040058136,-0.3214094936847687,-0.3008926808834076,-0.19149768352508545,0.15720641613006592],[-0.07759237289428711,-0.015711069107055664,0.1204259842634201,0.08114226162433624,0.04254310578107834,-0.08340571075677872,0.31183919310569763,0.02454315312206745,-0.0913257896900177,-0.13715021312236786,0.27164819836616516,0.08995941281318665,0.006254983600229025,0.09112753719091415,-0.12729504704475403,-0.10181889683008194,-0.07760442793369293,-0.1140771135687828,0.34826022386550903,-0.02065170183777809,-0.009135860949754715,-0.07789022475481033,0.16931156814098358,-0.08926486223936081,0.13358473777770996,0.026072852313518524,-0.03467434272170067,0.08271348476409912,0.20705316960811615,-0.14017347991466522,-0.16002260148525238,0.03702584654092789,-0.10688640177249908,0.021641187369823456,-0.01091862190514803,-0.4211201071739197,0.04126964509487152,-0.17006473243236542,-0.1392068862915039,0.14173652231693268],[0.21818260848522186,-0.05152114853262901,0.03097562864422798,0.1414119154214859,-0.010102680884301662,-0.08243481069803238,-0.09561183303594589,-0.031535450369119644,-0.0824444591999054,-0.00007683069270569831,-0.19850662350654602,0.07787635922431946,-0.030384335666894913,-0.04019516706466675,0.16234174370765686,-0.024081295356154442,0.054827842861413956,0.22749392688274384,-0.13754557073116302,-0.14503605663776398,0.06652537733316422,-0.01816738024353981,-0.1409168541431427,-0.05657562240958214,-0.09943298995494843,0.18729005753993988,-0.19016461074352264,0.1765676587820053,-0.027470679953694344,0.09628047049045563,0.0639919564127922,0.20169353485107422,0.11116790026426315,0.1346685290336609,-0.045511502772569656,0.15039120614528656,-0.015621486119925976,-0.008856155909597874,-0.10190079361200333,-0.07902859896421432],[-0.10751073062419891,0.17416629195213318,0.11475224792957306,0.019758742302656174,0.14147505164146423,-0.06068615987896919,-0.054263636469841,0.031166095286607742,-0.08401014655828476,0.045372672379016876,-0.04869203269481659,0.08262869715690613,-0.10225773602724075,-0.13860535621643066,0.14441943168640137,-0.06425387412309647,0.111112579703331,-0.10829473286867142,0.14212892949581146,-0.044881608337163925,-0.10634107887744904,0.1343023031949997,-0.13591735064983368,0.18835271894931793,0.18647627532482147,-0.14066827297210693,-0.01565399020910263,0.09708510339260101,-0.16707845032215118,0.08443621546030045,-0.1154412180185318,0.11214789748191833,-0.1888173222541809,-0.05200978368520737,-0.19489353895187378,0.21451202034950256,0.1350022852420807,-0.168499156832695,-0.05547253042459488,-0.19790588319301605],[0.06899459660053253,0.1484190821647644,-0.07298489660024643,0.16536414623260498,-0.12103050202131271,0.03090459294617176,0.1132153794169426,0.13455070555210114,0.10380539298057556,0.04453089088201523,-0.0353325679898262,0.11361141502857208,-0.10135878622531891,0.07367315888404846,0.01921783946454525,0.08035817742347717,-0.08464258909225464,-0.2040523737668991,-0.24392417073249817,0.14505156874656677,0.0373697392642498,0.020935462787747383,-0.007019693963229656,0.1825004369020462,-0.19969812035560608,-0.13033311069011688,0.140260711312294,0.022286836057901382,0.13266673684120178,-0.06721953302621841,0.14149662852287292,0.13689462840557098,0.17796142399311066,-0.19049285352230072,-0.050330426543951035,-0.04071943461894989,0.04312729462981224,0.04864044487476349,-0.16032037138938904,-0.03931069374084473],[0.06857635080814362,-0.0326058529317379,-0.16760140657424927,-0.14180061221122742,-0.20619574189186096,-0.0482528991997242,-0.005411362275481224,-0.04952634125947952,0.19593770802021027,0.18740005791187286,0.06411997973918915,0.12314846366643906,-0.08613671362400055,0.20149436593055725,-0.18136069178581238,0.08103873580694199,0.12010259926319122,0.23368923366069794,0.0077105434611439705,-0.09780602902173996,-0.15175147354602814,0.12970715761184692,-0.19565752148628235,-0.08904507756233215,-0.10707812756299973,-0.0009608247200958431,-0.14683769643306732,-0.198222815990448,-0.08702961355447769,-0.01753242127597332,-0.044096026569604874,0.11470808833837509,-0.1550380289554596,0.13241247832775116,-0.148371160030365,-0.20428234338760376,-0.04691819101572037,0.03704797476530075,0.050340671092271805,-0.11900811642408371],[0.23944596946239471,0.025468314066529274,0.16833417117595673,-0.16270142793655396,0.1718934327363968,-0.1513204425573349,0.20106622576713562,0.140000581741333,0.017028769478201866,-0.04480614513158798,0.06710588186979294,0.1211087629199028,0.11517585813999176,0.029194066300988197,-0.15776695311069489,0.041862230747938156,0.08642792701721191,0.23047809302806854,-0.06442658603191376,0.0736813172698021,0.03142838925123215,0.1700037568807602,-0.08177812397480011,-0.09955663233995438,-0.07382465153932571,0.01658083125948906,0.14698641002178192,0.14072678983211517,-0.16163420677185059,-0.02410939708352089,0.16184338927268982,0.06954308599233627,-0.17576465010643005,-0.06499422341585159,-0.015192472375929356,-0.12193331122398376,-0.0540105365216732,0.09078552573919296,0.08069317787885666,-0.031299278140068054],[0.0013055993476882577,0.15219825506210327,-0.1352730542421341,-0.09029929339885712,0.14896586537361145,0.033654678612947464,0.3021869659423828,0.14989404380321503,0.10166486352682114,-0.07078683376312256,0.09226665645837784,0.10441133379936218,-0.01807057112455368,0.13325779139995575,0.1706727296113968,0.08170828968286514,0.001323860720731318,0.061542809009552,-0.24084042012691498,0.19338484108448029,0.06753712147474289,-0.039194464683532715,-0.1732466220855713,-0.11149679124355316,-0.29391905665397644,0.1279926896095276,-0.017765523865818977,-0.10072287917137146,0.031015384942293167,-0.06714759767055511,0.19120806455612183,0.04062872752547264,-0.2506382167339325,-0.09440142661333084,0.1388254463672638,-0.2849174737930298,-0.07735344767570496,0.2689743936061859,-0.05323405563831329,0.1680009663105011],[-0.15592262148857117,0.1419823318719864,-0.041394684463739395,-0.0773123949766159,-0.029068317264318466,0.13463862240314484,-0.019508948549628258,-0.11529044806957245,-0.1336410790681839,0.18197374045848846,0.15653501451015472,-0.19344425201416016,0.12833037972450256,0.11588755249977112,0.04950788989663124,0.1653067171573639,-0.1787264049053192,-0.0064637316390872,-0.15416067838668823,0.041034094989299774,0.0018910650396719575,-0.15327845513820648,0.007304706145077944,-0.08403092622756958,-0.004826239310204983,-0.08582164347171783,0.004939539823681116,0.06613088399171829,-0.14050573110580444,-0.10444533824920654,-0.05458459630608559,-0.22368834912776947,0.093338742852211,-0.10216720402240753,-0.1084718257188797,-0.005077204201370478,0.23058393597602844,-0.06203559786081314,-0.13885396718978882,-0.026967665180563927],[-0.04323362186551094,0.04241470247507095,0.13128246366977692,0.18096299469470978,-0.07363370805978775,0.22818030416965485,0.17095322906970978,0.019068758934736252,0.10069037973880768,0.06030973792076111,0.35473471879959106,0.2881486713886261,-0.09323561191558838,-0.06717925518751144,0.15456214547157288,0.16209442913532257,-0.1939985603094101,-0.34770238399505615,-0.20099958777427673,0.17366205155849457,-0.05263570323586464,0.06927105784416199,-0.14098598062992096,0.01834377460181713,-0.19863846898078918,-0.011279447935521603,-0.0317329540848732,-0.21715757250785828,-0.023250853642821312,0.13397321105003357,-0.03333809971809387,-0.1913670152425766,0.1056126207113266,-0.232565775513649,-0.05466916784644127,-0.05899197608232498,-0.17126159369945526,0.2183157056570053,0.025630751624703407,-0.06344951689243317],[-0.0643053725361824,-0.09577027708292007,0.009257636032998562,-0.09565731883049011,0.09102076292037964,0.1395208239555359,-0.12336817383766174,0.16224141418933868,0.02169467881321907,-0.007236525882035494,0.0631292387843132,0.11004568636417389,0.06424333900213242,0.06739295274019241,-0.1800595372915268,-0.053720131516456604,0.1440698653459549,-0.1433490514755249,-0.028609614819288254,-0.001661412650719285,-0.07346394658088684,-0.0280288215726614,0.17771805822849274,-0.1513342708349228,-0.177937850356102,-0.13952475786209106,0.18113981187343597,-0.10625535994768143,-0.12573492527008057,0.09515218436717987,0.11637376248836517,-0.010328209027647972,-0.01605486497282982,-0.06806755810976028,-0.17576900124549866,0.034403711557388306,0.02193685993552208,0.13362863659858704,0.07203342765569687,-0.051125556230545044],[-0.17527657747268677,-0.12096478790044785,0.18006852269172668,0.09961815923452377,-0.16659164428710938,0.26209577918052673,0.26708081364631653,-0.004792697262018919,0.1385607272386551,0.09146026521921158,0.17236143350601196,0.052895836532115936,-0.013107659295201302,-0.01000288501381874,-0.10256972163915634,0.10124672949314117,0.18162433803081512,-0.0637391060590744,-0.17356105148792267,-0.09097129106521606,-0.05789600685238838,-0.1852329820394516,0.044784065335989,0.15574218332767487,-0.002335608471184969,-0.22072744369506836,-0.021783679723739624,-0.17327317595481873,-0.06364531815052032,0.23576006293296814,0.05418097600340843,0.05785122886300087,-0.09081610292196274,-0.1231876090168953,-0.25116756558418274,-0.08788642287254333,-0.16739672422409058,0.029285546392202377,-0.18501676619052887,-0.16144153475761414],[0.10473792254924774,0.1679115891456604,0.27664899826049805,-0.019183017313480377,0.20119759440422058,0.28903159499168396,0.07764054834842682,0.02097836695611477,-0.15694819390773773,-0.01817304454743862,-0.27371183037757874,0.053933218121528625,0.08009815216064453,0.1833169311285019,0.12274789810180664,-0.14072325825691223,0.089331716299057,-0.005791604518890381,-0.31723877787590027,0.07993480563163757,-0.1443527489900589,-0.08071377128362656,-0.30964478850364685,-0.14756254851818085,-0.14038994908332825,-0.06656218320131302,-0.08487867563962936,-0.24041956663131714,-0.25400471687316895,-0.03886948525905609,0.29760608077049255,0.10132098197937012,0.3044532239437103,-0.031062832102179527,0.10164633393287659,0.08691234141588211,-0.20132695138454437,0.031512301415205,0.06516622751951218,-0.039782892912626266],[0.031129581853747368,0.14703425765037537,0.2367059737443924,-0.1161261796951294,0.2320830374956131,0.21641045808792114,-0.11937490105628967,-0.08406383544206619,-0.05989948660135269,0.005797069054096937,-0.07603805512189865,0.2146618813276291,-0.013831239193677902,0.3677714169025421,-0.1115301251411438,-0.1446918249130249,-0.14153610169887543,-0.03858436271548271,-0.3634317219257355,0.15941543877124786,-0.03469029814004898,0.20698224008083344,-0.08598628640174866,-0.20562338829040527,-0.07097668945789337,-0.06917154788970947,-0.09857115894556046,-0.2972550392150879,-0.18588897585868835,0.08292123675346375,0.10806306451559067,-0.132125586271286,-0.10350232571363449,0.012042386457324028,-0.1774168312549591,0.1731247901916504,0.20841993391513824,0.2309437245130539,-0.036193981766700745,-0.028058048337697983],[0.137872114777565,-0.09049063175916672,-0.19906166195869446,-0.027547791600227356,-0.05111420154571533,-0.3485282361507416,0.0555834099650383,0.20074523985385895,-0.15406805276870728,-0.10237417370080948,-0.21863608062267303,0.07360056787729263,-0.14625951647758484,-0.36719322204589844,-0.16047582030296326,0.2396411895751953,-0.11478317528963089,0.09322541952133179,0.1298939734697342,-0.13138744235038757,-0.03530340641736984,0.1691162884235382,0.11700662970542908,-0.1416996270418167,0.3105070888996124,0.17311155796051025,-0.12373460084199905,0.3292926251888275,-0.1787283718585968,-0.1620188057422638,0.16949521005153656,-0.1826896071434021,-0.08074479550123215,-0.1109560951590538,0.15918150544166565,-0.030656035989522934,0.006643373053520918,0.14336206018924713,-0.09720707684755325,-0.11914712190628052],[-0.004218801856040955,-0.19161108136177063,-0.11080086976289749,-0.1761341243982315,0.12448198348283768,-0.022096749395132065,-0.154187873005867,0.08963943272829056,0.19295895099639893,-0.15519748628139496,0.02985531836748123,-0.07071758061647415,0.0026676985435187817,0.055114105343818665,0.12965838611125946,0.09004683047533035,-0.10477768629789352,-0.1679975837469101,0.12884120643138885,0.01571275107562542,-0.07121720165014267,0.1805235594511032,-0.03457280993461609,-0.10709699988365173,-0.14447636902332306,-0.1868034303188324,0.14570212364196777,0.1568119376897812,-0.0037095227744430304,-0.06438775360584259,0.052771300077438354,-0.11491716653108597,-0.14475791156291962,0.016280753538012505,0.03744738921523094,0.13760069012641907,-0.19266192615032196,0.136826291680336,0.013136614114046097,-0.16965614259243011],[-0.05367244407534599,-0.084842748939991,-0.04276438429951668,0.06855127960443497,0.0021321955136954784,-0.03845861926674843,-0.024378076195716858,-0.02315438725054264,0.005080807488411665,0.02807794325053692,0.22033901512622833,0.0705316811800003,-0.06882978230714798,0.23462077975273132,0.00854836031794548,0.14340253174304962,0.1408662647008896,-0.027287742123007774,-0.01235896535217762,-0.17155562341213226,-0.08553413301706314,0.11731291562318802,-0.03894546627998352,0.04179888218641281,-0.16094930469989777,-0.1052466556429863,0.013528192415833473,-0.20024339854717255,0.09966763854026794,-0.12419763207435608,0.036951515823602676,-0.027433358132839203,-0.05474900081753731,-0.2815033495426178,-0.0956510528922081,-0.16644948720932007,-0.08595408499240875,0.12708257138729095,0.1575724482536316,-0.07984701544046402],[-0.08119822293519974,0.038893748074769974,-0.19167892634868622,0.11844158172607422,-0.09725052863359451,0.2706123888492584,0.1650754064321518,0.1180669367313385,-0.17571648955345154,-0.022650741040706635,0.01662396267056465,0.1802118867635727,-0.09137976914644241,0.2511866092681885,0.1786244958639145,-0.14118029177188873,-0.03929430618882179,0.01851203478872776,0.05332174152135849,-0.12637163698673248,0.03620893880724907,0.05836758390069008,0.11463478207588196,0.12314365059137344,-0.14468863606452942,-0.044561609625816345,0.1898571252822876,-0.10539405047893524,0.08163437247276306,-0.039098646491765976,-0.0031266375444829464,0.12506437301635742,0.22263175249099731,-0.12738843262195587,-0.15942469239234924,-0.039804767817258835,-0.10295264422893524,-0.24541425704956055,0.015883591026067734,-0.17928104102611542],[-0.06554187834262848,0.06705913692712784,0.09901834279298782,-0.017643673345446587,0.14562015235424042,-0.15723766386508942,-0.012732182629406452,-0.01706475205719471,-0.14045390486717224,-0.07556109130382538,-0.05743756517767906,0.19276420772075653,0.1359655112028122,-0.19316886365413666,-0.08495079725980759,-0.029470499604940414,-0.20007342100143433,0.08195552229881287,-0.11694416403770447,0.1358475238084793,-0.0017286451766267419,-0.02642313949763775,0.009580752812325954,-0.08594091981649399,-0.2079385370016098,-0.03866712749004364,-0.033556271344423294,-0.18742121756076813,-0.1432032436132431,0.04978613927960396,-0.17994551360607147,0.15772095322608948,-0.13705527782440186,0.21924951672554016,0.23830540478229523,0.09728217869997025,0.20492351055145264,0.1058809831738472,0.041948214173316956,0.15800036489963531],[-0.15707503259181976,0.025078970938920975,-0.10417813807725906,-0.03921939432621002,-0.10303347557783127,0.10309187322854996,-0.15692076086997986,0.19877111911773682,0.05333995446562767,-0.14147473871707916,-0.07816403359174728,-0.0020548051688820124,0.18685895204544067,-0.1741604059934616,0.07867971807718277,0.09306088089942932,-0.000452884822152555,-0.1832873821258545,-0.18168555200099945,-0.061990175396203995,-0.017098428681492805,0.009864804334938526,-0.15848134458065033,-0.06283118575811386,-0.010125604458153248,0.04119308292865753,-0.1267714947462082,-0.10941100865602493,0.13311399519443512,0.04637058451771736,-0.020459026098251343,-0.1697465479373932,-0.1908499151468277,0.07495424151420593,0.02071756310760975,-0.19448982179164886,0.17282311618328094,-0.023859567940235138,-0.13615134358406067,0.009639856405556202],[0.11187495291233063,-0.1366858333349228,-0.014438286423683167,-0.114252008497715,-0.1750493347644806,0.26731088757514954,0.0160561203956604,0.15898534655570984,-0.03282520920038223,-0.0667491927742958,0.18541567027568817,0.2284194678068161,0.1372619867324829,0.0913427397608757,0.09960349649190903,-0.1295844465494156,-0.173296719789505,0.10240314155817032,-0.014033283106982708,-0.1659066379070282,-0.06425899267196655,-0.1199607402086258,0.027359848842024803,0.18075551092624664,0.0850779116153717,0.11508459597826004,-0.07569871842861176,0.1536194533109665,-0.13551244139671326,-0.11388447135686874,-0.17742396891117096,-0.05867456644773483,0.13896316289901733,0.03470171242952347,0.08385289460420609,-0.008175913244485855,0.056695934385061264,-0.15877412259578705,0.10408452898263931,0.0746975839138031],[-0.17390704154968262,-0.10408666729927063,0.15715454518795013,-0.1940177083015442,-0.04891209304332733,0.055533140897750854,0.10357290506362915,0.19241410493850708,0.0358431302011013,-0.1444520801305771,-0.18885016441345215,0.04126712679862976,-0.074055977165699,0.0580662302672863,0.03138314187526703,-0.1345684677362442,0.05054422467947006,-0.19583137333393097,0.035241853445768356,-0.10018432140350342,-0.1187596246600151,-0.1722710132598877,-0.006390074267983437,0.17162467539310455,0.06290826201438904,-0.0564318411052227,-0.10669056326150894,-0.11503002792596817,0.14431501924991608,-0.007989870384335518,0.14103710651397705,0.05621344596147537,0.08712766319513321,-0.06813035905361176,-0.1874944269657135,-0.15878038108348846,-0.11702869087457657,0.0755046084523201,0.04782447591423988,0.07710722088813782],[-0.10232182592153549,-0.14891883730888367,0.011708084493875504,0.056611258536577225,0.007512133102864027,0.04592439532279968,-0.06055103987455368,0.15321874618530273,-0.1807193160057068,-0.12527000904083252,-0.11943192780017853,-0.2020305097103119,0.12111430615186691,0.2265162318944931,-0.16742761433124542,-0.16600202023983002,0.12958775460720062,-0.18837237358093262,0.14959678053855896,0.107093445956707,0.09748528152704239,0.1496535688638687,-0.19149506092071533,-0.16623733937740326,-0.0346943736076355,0.011048849672079086,-0.11765893548727036,0.11413506418466568,0.22594685852527618,0.04948753863573074,-0.0424097441136837,0.15329810976982117,-0.12661661207675934,-0.008420518599450588,-0.17796625196933746,-0.0572255440056324,0.17700307071208954,-0.07642935961484909,0.031112203374505043,-0.027468400076031685],[0.198284313082695,0.0030603387858718634,0.16774651408195496,-0.19363448023796082,0.03349084034562111,0.2961241900920868,0.0109580522403121,-0.1691541075706482,0.048991281539201736,0.1798177808523178,-0.15057611465454102,-0.17131918668746948,-0.07075361162424088,0.25087955594062805,0.13934247195720673,0.09419804811477661,-0.10778535157442093,0.19660373032093048,-0.02280951291322708,-0.18750064074993134,-0.13109935820102692,0.1730930358171463,-0.010389143601059914,-0.07391072809696198,-0.0907386764883995,0.15620087087154388,0.1853252351284027,-0.17427398264408112,-0.20257042348384857,-0.022005219012498856,-0.07713567465543747,0.08325515687465668,0.15148858726024628,0.13485996425151825,0.15945138037204742,0.13807235658168793,0.019744684919714928,0.058013126254081726,0.21325917541980743,-0.18861134350299835],[0.18202410638332367,0.11722255498170853,0.0900319293141365,0.14758078753948212,-0.0697908028960228,0.011690809391438961,-0.03389139100909233,0.13748958706855774,-0.12271469831466675,0.12356724590063095,-0.21841482818126678,0.26197582483291626,0.2571503221988678,-0.14911822974681854,-0.19414454698562622,0.11524353176355362,-0.031141087412834167,-0.10905437171459198,-0.14156708121299744,0.08264821022748947,-0.11082731932401657,-0.1550535261631012,-0.08404632657766342,-0.2577572464942932,0.051808420568704605,-0.08944348245859146,-0.15502069890499115,-0.11644376814365387,-0.17332464456558228,0.020148394629359245,-0.06512419879436493,0.18347100913524628,0.013678849674761295,0.017626650631427765,0.2316354513168335,-0.006286504678428173,0.21846309304237366,-0.061563748866319656,-0.15899153053760529,0.06968584656715393],[0.10609867423772812,0.07440851628780365,0.008476968854665756,0.06040586158633232,-0.13781195878982544,-0.013186831958591938,-0.03637736663222313,0.16142548620700836,0.14282621443271637,0.0752786174416542,0.09248675405979156,-0.03403933718800545,-0.17021773755550385,-0.018030580133199692,0.14674162864685059,-0.22288328409194946,0.12576645612716675,-0.06095505133271217,0.03619470074772835,-0.12227367609739304,0.06905026733875275,-0.129678875207901,-0.19044151902198792,0.19636118412017822,-0.012151249684393406,-0.10547950118780136,0.05094912275671959,0.15735433995723724,-0.0877688005566597,-0.07612145692110062,-0.1061083972454071,-0.0007418119348585606,-0.09091874957084656,-0.0710773915052414,-0.041697319597005844,-0.018793318420648575,-0.2234516739845276,0.03616190701723099,0.12529295682907104,0.09218450635671616],[0.11530140042304993,0.17573411762714386,-0.023100674152374268,-0.11322721838951111,0.15436848998069763,-0.1054970845580101,0.21189165115356445,0.06314398348331451,-0.0762600302696228,0.09113544970750809,-0.1911974400281906,-0.23098371922969818,-0.2708602845668793,0.00012596409942489117,-0.09423317015171051,-0.22187937796115875,-0.09452921897172928,-0.07250874489545822,0.06502332538366318,-0.09711970388889313,-0.11395477503538132,-0.06909177452325821,-0.06441211700439453,-0.02934146113693714,-0.09253396093845367,0.08312810212373734,0.0468866340816021,-0.07750565558671951,-0.15891532599925995,-0.24546371400356293,-0.11404995620250702,-0.019737621769309044,-0.151968315243721,-0.02767006680369377,-0.24681314826011658,0.26147007942199707,-0.33626535534858704,0.11456120759248734,-0.08720699697732925,0.07548767328262329],[-0.3155527710914612,0.05135022848844528,-0.10957273095846176,0.09838706254959106,0.11385432630777359,0.15541113913059235,0.18016797304153442,0.02518363855779171,0.19224891066551208,-0.14389613270759583,0.24260039627552032,0.2172221839427948,0.2213817536830902,0.23165614902973175,0.16142646968364716,0.12520831823349,0.14468194544315338,0.11534609645605087,0.24567875266075134,0.09491732716560364,0.10800068080425262,-0.03161615878343582,0.08236729353666306,0.009848970919847488,-0.16744746267795563,-0.2098873257637024,-0.04252004623413086,-0.23365648090839386,0.007837235927581787,0.12684187293052673,-0.11351926624774933,0.031053168699145317,-0.02343272976577282,-0.18102841079235077,0.07933507114648819,-0.17746871709823608,-0.0671720802783966,-0.03897692263126373,-0.07926517724990845,-0.08702263981103897]],"biases":[-0.030123019590973854,-0.3264230787754059,-0.0074841841123998165,-0.13516831398010254,0.14120519161224365,0.0070243836380541325,0.10076925903558731,0.24264830350875854,0.17639021575450897,-0.08646343648433685,-0.12296979874372482,0.12628628313541412,0.20521362125873566,-0.026057666167616844,0.32014259696006775,-0.0719580203294754,-0.05016008019447327,0.06570164114236832,-0.00600393395870924,0.09953766316175461,0.07808846235275269,0.011249661445617676,-0.18041089177131653,0.18079319596290588,0.2594261169433594,0.11038757860660553,-0.01066664233803749,-0.13909797370433807,0.14785732328891754,0.09054724872112274,0.0910770371556282,-0.17836742103099823,-0.17313936352729797,0.0101817287504673,-0.02939888834953308,0.008481723256409168,0.07799465209245682,0.09304481744766235,0.08818531781435013,0.039283592253923416]},{"weights":[[-0.13791468739509583,0.0755312517285347,0.13188549876213074,-0.16549356281757355,-0.06634102016687393,0.13846904039382935,0.15899065136909485,0.31759214401245117,0.08552979677915573,-0.16289229691028595,0.047284018248319626,0.026106396690011024,0.1589035838842392,-0.16909977793693542,-0.23996907472610474,0.11357665061950684,0.05541057139635086,-0.08323962241411209,0.0599217526614666,-0.03761513903737068,0.3133549094200134,0.12060829252004623,-0.11616984754800797,0.32272806763648987,-0.2335633486509323,-0.2783319354057312,0.2869548201560974,0.020433591678738594,0.05334116518497467,0.1609739512205124,-0.2550094425678253,-0.19042745232582092,0.25577279925346375,-0.017773769795894623,-0.1745099425315857,0.05877068638801575,-0.054640088230371475,0.05899583548307419,-0.020672673359513283,0.006670292932540178],[-0.1575295627117157,-0.06342163681983948,-0.03817553073167801,-0.04688190668821335,-0.19396264851093292,-0.015807950869202614,-0.06205809488892555,0.1293041855096817,-0.04669998213648796,-0.15976063907146454,0.0026294710114598274,-0.06048951670527458,-0.03167140111327171,-0.18410979211330414,-0.12640762329101562,0.011841103434562683,0.15225426852703094,-0.18206794559955597,-0.11045220494270325,0.10789291560649872,-0.01913449354469776,0.06884860247373581,-0.014769576489925385,0.14104321599006653,-0.1895943135023117,-0.1064390316605568,0.03430388495326042,-0.189834862947464,-0.18924126029014587,-0.09025037288665771,0.04307278245687485,-0.19029003381729126,0.14210881292819977,0.027277503162622452,-0.1628435254096985,-0.1857285350561142,0.13137507438659668,-0.016007181257009506,0.12489569932222366,0.17688967287540436],[-0.07856976985931396,-0.21096041798591614,0.06254392862319946,0.13128869235515594,-0.03173913434147835,-0.02078831195831299,0.03165270760655403,-0.1066007912158966,0.030087899416685104,0.15932714939117432,0.09181540459394455,0.15468384325504303,-0.09313942492008209,-0.08714757859706879,0.15314573049545288,-0.111160509288311,0.17857494950294495,-0.13786394894123077,-0.10688689351081848,0.14841565489768982,-0.1576402187347412,0.06783677637577057,0.000032962521800072864,0.19384948909282684,-0.04410532861948013,-0.10153476148843765,-0.17715205252170563,0.19115056097507477,0.06751812994480133,-0.04966048151254654,-0.008673859760165215,-0.04008827358484268,0.05967998877167702,0.12470840662717819,-0.0752372071146965,-0.07418221235275269,0.17569711804389954,0.20484687387943268,-0.03870281204581261,0.06827153265476227],[0.19465026259422302,0.2055005580186844,0.056957393884658813,0.1833341419696808,0.15586024522781372,0.10757637768983841,-0.17966194450855255,-0.05242073908448219,0.011301550082862377,-0.16583354771137238,0.1795065850019455,0.021526668220758438,-0.04630395025014877,-0.12224870920181274,0.146067813038826,0.14949746429920197,-0.11781933903694153,0.1388891637325287,-0.10688980668783188,-0.16455182433128357,0.15265898406505585,-0.11597421765327454,0.0388469435274601,0.12417827546596527,-0.10465472936630249,0.10030597448348999,-0.1269524246454239,0.11464102566242218,0.002463150303810835,0.18806833028793335,-0.060475271195173264,-0.13185490667819977,-0.12926699221134186,0.05555058270692825,-0.07537035644054413,-0.11796121299266815,0.10689783841371536,0.16339288651943207,-0.022797271609306335,-0.023285837844014168],[0.09615875035524368,0.19298875331878662,-0.44680845737457275,-0.08253291994333267,-0.24389885365962982,-0.36629611253738403,-0.5620543360710144,-0.3889721632003784,0.03394549340009689,0.15110377967357635,0.029065372422337532,0.07946961373090744,0.4026074707508087,-0.08626555651426315,0.2954504191875458,0.1523333340883255,-0.054455000907182693,-0.3164881765842438,0.04347524791955948,-0.17544135451316833,-0.38251593708992004,-0.05263758450746536,0.13099853694438934,-0.15561765432357788,0.20759938657283783,-0.024318324401974678,0.056647490710020065,0.06701040267944336,0.07325176894664764,-0.04297195002436638,-0.06555236130952835,-0.0564044751226902,0.10296768695116043,-0.05630568414926529,0.033367156982421875,0.16297082602977753,-0.14878885447978973,0.11324606835842133,0.3856979012489319,-0.40415191650390625],[-0.0053818318992853165,0.07273701578378677,0.08543800562620163,-0.02340359427034855,-0.11699294298887253,0.07697019726037979,-0.12637333571910858,-0.12788492441177368,0.18153002858161926,0.06065838783979416,0.05216926336288452,0.033427655696868896,0.1067277267575264,0.07082507759332657,0.09466370940208435,-0.16344693303108215,0.03569607809185982,-0.06798136979341507,0.0016932134749367833,0.03763619810342789,-0.08262838423252106,-0.19115488231182098,-0.0872657299041748,0.04841982200741768,-0.15027748048305511,0.056773941963911057,-0.12844237685203552,-0.131864994764328,-0.036404166370630264,-0.01201223861426115,0.19964013993740082,-0.08113168925046921,0.005063267424702644,0.0533301904797554,0.015059450641274452,0.05676764249801636,-0.05800406262278557,0.11280213296413422,-0.05934428796172142,-0.06781721115112305],[-0.16169553995132446,0.14124365150928497,-0.351352721452713,-0.11633513867855072,0.1397615373134613,-0.24540497362613678,-0.31572410464286804,-0.12699860334396362,-0.10299888253211975,-0.05164026841521263,-0.14293403923511505,-0.14104768633842468,0.012158879078924656,0.03448326513171196,0.06959202140569687,0.13032957911491394,0.18958020210266113,0.05432386323809624,-0.12002818286418915,-0.07072366029024124,-0.021318787708878517,0.11509694904088974,-0.15645043551921844,0.15622764825820923,0.38494518399238586,0.17249859869480133,-0.20772801339626312,0.049744781106710434,-0.17461256682872772,-0.003256796859204769,-0.17588657140731812,0.01548635121434927,-0.09974405169487,0.05149885267019272,-0.037191811949014664,0.2539464831352234,0.060187336057424545,0.14189696311950684,0.31433042883872986,-0.22866569459438324],[-0.10141384601593018,-0.06008724495768547,-0.030917521566152573,-0.0059879245236516,-0.10056328028440475,-0.1268218755722046,0.042626991868019104,-0.024462053552269936,-0.03406072035431862,0.09977814555168152,-0.01848517917096615,0.08215786516666412,0.10593479126691818,0.19003157317638397,-0.03713851794600487,0.016329104080796242,0.10101471096277237,-0.11648612469434738,-0.09167337417602539,0.11213968694210052,-0.06589572131633759,-0.1567879021167755,-0.06385043263435364,-0.05199763551354408,-0.048244476318359375,-0.1948748528957367,0.20625928044319153,0.1745833307504654,-0.03999286890029907,-0.12106331437826157,-0.14697116613388062,0.12819413840770721,0.19208958745002747,0.1397773027420044,0.04503251984715462,-0.014045131392776966,-0.12011861056089401,-0.174375981092453,0.1580677032470703,0.14838209748268127],[0.02310224063694477,-0.01919107511639595,-0.01508567575365305,-0.09786435216665268,0.006451672408729792,-0.04260146990418434,0.1636618822813034,0.1322328895330429,-0.1652492880821228,0.07026536017656326,-0.14244437217712402,-0.11909256875514984,0.06886883825063705,0.0795479342341423,-0.018294082954525948,0.05180397629737854,0.1274537891149521,-0.16692227125167847,-0.12378078699111938,-0.18550841510295868,0.1045808345079422,-0.13108600676059723,-0.002956005046144128,-0.16049544513225555,-0.0904875323176384,0.1381533294916153,-0.2074825018644333,0.07169366627931595,0.1185954362154007,0.07788555324077606,-0.07481617480516434,0.07635800540447235,-0.18888705968856812,0.15204820036888123,0.04673582687973976,0.023853549733757973,0.05232515186071396,0.030884824693202972,-0.14682577550411224,-0.17552629113197327],[0.13828210532665253,-0.30354124307632446,0.09990695118904114,-0.0016160787781700492,-0.09027721732854843,-0.026601379737257957,0.12468831986188889,0.060200709849596024,-0.08985432237386703,0.3157775104045868,-0.30242612957954407,0.010681936517357826,-0.2771095037460327,-0.16422110795974731,0.09445642679929733,-0.1559775173664093,0.14574573934078217,-0.2208913117647171,0.1565934270620346,0.12818528711795807,-0.05132676288485527,0.2583432197570801,-0.138248011469841,0.07898217439651489,0.08111065626144409,0.08648563176393509,-0.16129270195960999,-0.15105998516082764,-0.11466490477323532,-0.12651427090168,0.19933968782424927,0.17004184424877167,0.11303044110536575,-0.020225180312991142,0.08194927126169205,0.2623990774154663,0.15200819075107574,0.10766110569238663,0.13986259698867798,-0.05531610548496246],[0.1310068964958191,-0.21492253243923187,-0.2053544521331787,-0.17711538076400757,0.11594364047050476,0.06360898911952972,0.03650036081671715,0.05051882565021515,-0.018227815628051758,-0.038651224225759506,0.0053665125742554665,-0.11118738353252411,0.21875229477882385,0.0039427452720701694,-0.1307365745306015,0.04852570593357086,-0.06777243316173553,0.048394061625003815,0.07509354501962662,-0.11936980485916138,-0.0038351817056536674,-0.27624550461769104,-0.19257695972919464,0.16732795536518097,0.027658196166157722,0.07336430251598358,-0.10289590805768967,0.1021762564778328,0.1456357091665268,-0.052344098687171936,0.08666194975376129,0.11823924630880356,-0.012663464993238449,0.20989729464054108,0.008964693173766136,0.08041781187057495,-0.22492413222789764,-0.2189239114522934,0.1254691779613495,-0.15855947136878967],[0.1671513319015503,0.052077390253543854,-0.06605027616024017,0.021974734961986542,0.13936319947242737,-0.060841917991638184,-0.06296517699956894,-0.11533495783805847,-0.1659642457962036,-0.09747296571731567,-0.06985154002904892,0.16029563546180725,-0.0879332572221756,0.013489221222698689,-0.11488941311836243,-0.11645675450563431,-0.03876933082938194,0.009907213039696217,0.0927615761756897,0.1466195285320282,-0.09223353862762451,0.08728377521038055,-0.16195990145206451,-0.004738127812743187,0.156016007065773,0.04803633317351341,0.17396706342697144,0.12841376662254333,0.13484978675842285,-0.20576323568820953,0.11481860280036926,0.07181094586849213,-0.15019473433494568,0.13746291399002075,0.11470554023981094,0.15313011407852173,-0.13314589858055115,-0.017459973692893982,0.019127188250422478,0.08230960369110107],[0.20614531636238098,0.06620589643716812,-0.12680935859680176,0.11242735385894775,0.12470189481973648,-0.2594623863697052,0.19146133959293365,-0.3867247998714447,0.18792983889579773,-0.1263996809720993,0.1354353427886963,0.0041269236244261265,0.0454721674323082,-0.16338375210762024,0.20932231843471527,-0.0993359312415123,0.134116992354393,-0.08496890962123871,-0.011689083650708199,-0.2115236520767212,0.04546380788087845,-0.3707999885082245,-0.1285284459590912,-0.34251683950424194,0.12929783761501312,0.22076186537742615,0.12695632874965668,0.13894984126091003,-0.15716932713985443,0.21714326739311218,0.1662570834159851,-0.011798692867159843,0.21687224507331848,0.1921805739402771,-0.0052304863929748535,0.0399065725505352,0.23061753809452057,0.12875650823116302,-0.07693156599998474,-0.4269901216030121],[-0.012405676767230034,-0.3507230281829834,0.11054851114749908,-0.1646898239850998,-0.13545073568820953,0.08926301449537277,0.230022594332695,0.05940482020378113,0.22245031595230103,0.12086740881204605,0.08264998346567154,0.02809348702430725,-0.25838980078697205,0.1786905974149704,-0.15264935791492462,-0.007229394279420376,-0.03250578045845032,0.16534541547298431,0.12841586768627167,0.4381241500377655,0.008386109955608845,-0.01800818368792534,0.13822408020496368,0.04237455502152443,-0.23903320729732513,-0.2813275158405304,-0.37288612127304077,-0.1685488075017929,0.0572553351521492,-0.08568193018436432,-0.022831564769148827,0.01823004148900509,-0.11016473919153214,0.14538531005382538,0.13831940293312073,-0.018334059044718742,0.10516692698001862,0.006462363991886377,0.037841297686100006,0.1645265519618988],[-0.15164074301719666,0.015293608419597149,-0.01435636356472969,0.20020660758018494,-0.19541911780834198,0.2124512940645218,0.2024390995502472,0.16463033854961395,-0.2036772519350052,0.17280316352844238,0.11755044013261795,-0.17049379646778107,0.04135693982243538,0.08246595412492752,-0.3564743399620056,-0.18464304506778717,-0.0802176222205162,0.10663391649723053,-0.07226106524467468,0.1623537391424179,-0.0504351444542408,0.1565362811088562,0.20884151756763458,0.0325603261590004,-0.44855421781539917,-0.42024925351142883,-0.15098293125629425,0.14598101377487183,0.05806661397218704,0.12482296675443649,-0.0687679573893547,0.12605594098567963,0.23429402709007263,0.10758429020643234,-0.08814224600791931,-0.3659725785255432,0.010349604301154613,0.08883335441350937,-0.13475091755390167,0.2671254873275757],[-0.1859605312347412,-0.18461602926254272,-0.07957203686237335,-0.13012361526489258,-0.06644748896360397,0.01679867133498192,-0.002341544022783637,-0.18292225897312164,-0.08945482969284058,0.1049816906452179,-0.003040062263607979,0.17713642120361328,0.02165931649506092,-0.3718835413455963,0.1651974469423294,-0.10357169061899185,0.12491816282272339,0.19069094955921173,0.18267638981342316,0.21329692006111145,-0.11944735050201416,0.07264416664838791,-0.1082114726305008,0.1794576793909073,0.05055539682507515,0.10313674807548523,0.3291384279727936,0.07347782701253891,-0.11743643134832382,-0.025666015222668648,-0.0022689122706651688,-0.15842768549919128,0.17479057610034943,-0.0732445940375328,0.11204589158296585,0.04656472057104111,0.13917876780033112,-0.2130570411682129,-0.12049887329339981,0.14316502213478088],[0.07235655188560486,-0.2667787969112396,0.1766231805086136,-0.15368962287902832,-0.005758971441537142,0.23083223402500153,0.09067921340465546,-0.0986984372138977,0.11867133527994156,0.12991079688072205,-0.23620542883872986,0.06265256553888321,-0.3601316511631012,-0.19901537895202637,-0.2263706922531128,0.0953458696603775,0.031667500734329224,0.17452463507652283,0.1110340803861618,0.18238888680934906,0.2289579212665558,0.07919011265039444,0.1896754801273346,0.02451210282742977,0.12247657775878906,0.1298193633556366,-0.14943011105060577,-0.18688629567623138,0.22581948339939117,-0.2680807411670685,0.18321360647678375,0.048008184880018234,0.16195465624332428,-0.0021177646704018116,-0.22607044875621796,0.09932611882686615,0.04944033920764923,-0.06529892981052399,0.16856756806373596,0.07975716143846512],[-0.17983900010585785,-0.11618819087743759,0.035773564130067825,-0.06080445647239685,-0.13513416051864624,0.130293607711792,0.20083272457122803,0.1773763746023178,0.04093531519174576,0.27450892329216003,-0.16729319095611572,0.21025538444519043,-0.15594881772994995,-0.07433782517910004,-0.09681893140077591,-0.034238796681165695,0.07433322072029114,-0.11678975820541382,0.07278602570295334,0.29216134548187256,0.21720150113105774,0.07883717864751816,-0.04820799455046654,0.07385504245758057,0.15420588850975037,0.07633934915065765,-0.15406091511249542,-0.1835680603981018,0.13648450374603271,-0.06051579490303993,-0.157296821475029,-0.1537134051322937,-0.2396732121706009,-0.15609601140022278,-0.027897242456674576,-0.12235412001609802,0.20349201560020447,-0.11973033845424652,0.06263457983732224,-0.11031802743673325],[-0.027332914993166924,0.15193964540958405,-0.030748702585697174,-0.1863660365343094,-0.10626383870840073,0.011812801472842693,0.22149932384490967,0.07571982592344284,-0.10924467444419861,-0.12475484609603882,0.08307776600122452,-0.20047058165073395,0.08159306645393372,0.10598526149988174,0.08667025715112686,0.13869959115982056,0.05100003629922867,-0.16132062673568726,0.23371315002441406,0.18471573293209076,-0.14571332931518555,-0.14321911334991455,-0.17562656104564667,-0.11125244945287704,0.012216297909617424,0.11269532889127731,0.08691363781690598,-0.030051590874791145,-0.07646866887807846,-0.0722491443157196,0.005659664515405893,-0.028562571853399277,-0.14111676812171936,0.03391203284263611,-0.102629154920578,-0.005893119145184755,0.09573352336883545,-0.1646982580423355,0.016417790204286575,0.00756837148219347],[-0.21231360733509064,-0.05944854021072388,-0.12434753030538559,0.006365891080349684,0.15645724534988403,0.05532873421907425,0.043862078338861465,-0.4517221450805664,-0.1269616186618805,0.10960866510868073,-0.12988170981407166,-0.06196776032447815,0.3260912001132965,-0.09763852506875992,0.2889394760131836,-0.07971513271331787,0.12459469586610794,-0.17663028836250305,-0.13585834205150604,-0.1040869802236557,-0.174599289894104,-0.4369405210018158,0.13300025463104248,-0.4490039050579071,0.26899680495262146,0.17781901359558105,-0.07399231195449829,-0.05561261996626854,-0.30147072672843933,0.1666606217622757,0.26170286536216736,-0.16765786707401276,0.04243329539895058,-0.14648142457008362,-0.18122541904449463,0.1454760879278183,0.2958957552909851,0.2454032450914383,-0.10203631222248077,-0.5579618811607361]],"biases":[0.024920688942074776,-0.0654008761048317,0.060683462768793106,-0.15651842951774597,0.052110061049461365,-0.13981026411056519,0.047498248517513275,-0.1475021094083786,-0.04388996586203575,0.16726158559322357,0.19190189242362976,-0.17299297451972961,-0.14376652240753174,0.20635448396205902,-0.06731931865215302,0.07866938412189484,0.13812114298343658,0.00332739669829607,-0.0037689930759370327,-0.1225435882806778]},{"weights":[[0.059110455214977264,-0.08238541334867477,-0.27020901441574097,-0.13193069398403168,-0.11984003335237503,0.03211145102977753,-0.26105228066444397,-0.10146230459213257,-0.1574830859899521,-0.31628552079200745,0.2850184738636017,-0.1359667181968689,0.07142705470323563,0.7081965208053589,0.34109845757484436,-0.263123095035553,-0.28913673758506775,-0.3315267264842987,0.018650252372026443,0.1875593215227127],[-0.30895712971687317,-0.16103686392307281,-0.07642818987369537,0.13862822949886322,-0.5479085445404053,-0.20104102790355682,0.2300892323255539,-0.21058395504951477,0.10704049468040466,0.3866480886936188,0.3372223973274231,-0.025811009109020233,-0.4088669717311859,0.07858659327030182,-0.3294454514980316,0.2822878956794739,0.3428537845611572,-0.05668632313609123,-0.06049378216266632,-0.6795297861099243],[0.3937493860721588,0.1991637945175171,-0.061765655875205994,-0.13537515699863434,-0.8893555998802185,-0.1744174361228943,-0.35777419805526733,0.2033417522907257,-0.1452847719192505,-0.07857325673103333,0.18652357161045074,-0.22654224932193756,0.5229921340942383,-0.3094836473464966,-0.45962977409362793,0.13793008029460907,-0.007491745986044407,-0.27143386006355286,-0.09166635572910309,0.5152976512908936],[-0.028431301936507225,-0.09756240248680115,-0.10188181698322296,0.07221640646457672,-0.12907613813877106,0.004946062806993723,-0.019596340134739876,-0.07512514293193817,-0.026740459725260735,0.0030890719499439,0.1448899805545807,-0.12297473102807999,0.20141206681728363,0.004082872066646814,-0.05318291485309601,-0.020562412217259407,-0.015844784677028656,-0.06727293878793716,0.0399291031062603,-0.11200810968875885],[0.022643132135272026,-0.0015423691365867853,0.12183582037687302,0.08077185600996017,0.07391151785850525,0.06525862962007523,-0.04382655769586563,0.018380969762802124,0.14556224644184113,0.06867014616727829,0.1909945011138916,0.0042293318547308445,-0.21539074182510376,0.023853663355112076,0.02462976984679699,-0.012446986511349678,0.04421216621994972,-0.10943982005119324,-0.08618061989545822,0.05523936077952385],[0.13694269955158234,0.046909600496292114,-0.21341478824615479,0.12249628454446793,-0.37341079115867615,-0.17341920733451843,0.15679651498794556,-0.169600248336792,0.1075848937034607,-0.2319561392068863,0.17487941682338715,-0.0391121506690979,0.16330133378505707,-0.21603402495384216,-0.17699465155601501,-0.1260552555322647,0.14009954035282135,-0.055269964039325714,-0.18687129020690918,0.048675961792469025],[0.2436475157737732,0.13488760590553284,-0.12347020208835602,0.037469424307346344,-0.45421597361564636,-0.17239078879356384,-0.3325899541378021,0.16357627511024475,-0.026007406413555145,-0.06011781841516495,0.06379424035549164,0.10052992403507233,0.2380356341600418,-0.1321297585964203,-0.2967277467250824,0.17795656621456146,-0.094840407371521,0.07934563606977463,0.19468845427036285,0.4115220606327057],[0.07227092236280441,0.021063217893242836,-0.13947409391403198,0.044341105967760086,0.004578018095344305,-0.05007218196988106,-0.38264796137809753,0.028872035443782806,-0.1955036222934723,0.036546967923641205,-0.09600767493247986,0.021434122696518898,0.21455557644367218,-0.04443784058094025,-0.11956494301557541,0.1932453066110611,-0.1067696213722229,-0.15431083738803864,-0.09559784084558487,0.03959333151578903],[0.016089212149381638,-0.15759551525115967,0.006736166309565306,-0.05524274706840515,-0.14353983104228973,-0.022886481136083603,0.08566278219223022,-0.03848567232489586,-0.07372929155826569,-0.0806887149810791,0.12107520550489426,-0.11460350453853607,-0.07468286901712418,-0.09182804822921753,0.011902139522135258,-0.11467456817626953,0.13632428646087646,0.048862095922231674,-0.03265158832073212,0.10877829790115356]],"biases":[0.25307175517082214,0.29672932624816895,0.18355946242809296,0.017549972981214523,-0.07708922773599625,0.10529495030641556,0.06966780126094818,0.08300041407346725,-0.012872014194726944]}],"inputLookup":{"heroInButton":0,"handGroup":1,"HS":2,"PPot":3,"EHS":4,"potOddsH":5,"initiative":6,"villainRaise":7,"villainAllIn":8},"inputLookupLength":9,"outputLookup":{"heroFold":0,"heroCall":1,"heroRaise":2,"heroAllIn":3,"betLevelH1":4,"betLevelH2":5,"betLevelH3":6,"betLevelH4":7,"betLevelH5":8},"outputLookupLength":9,"options":{"inputSize":0,"outputSize":0,"binaryThresh":0.5,"hiddenLayers":[20,40,40,20],"activation":"leaky-relu","leakyReluAlpha":0.1},"trainOpts":{"activation":"leaky-relu","iterations":300,"errorThresh":0.01,"log":true,"logPeriod":2,"leakyReluAlpha":0.1,"learningRate":0.001,"momentum":0.6,"callbackPeriod":10,"timeout":"Infinity","beta1":0.9,"beta2":0.999,"epsilon":1e-8}}