{"type":"NeuralNetwork","sizes":[7,20,40,20,9],"layers":[{"weights":[],"biases":[]},{"weights":[[0.02262820117175579,0.1350075751543045,-0.04876575618982315,-0.036665212363004684,0.048823241144418716,-0.1195715144276619,0.1621028035879135],[0.6570238471031189,0.46460607647895813,-1.2802386283874512,-3.4939253330230713,-0.5935737490653992,2.0793933868408203,-0.016224896535277367],[-0.25460436940193176,-4.498574733734131,2.070638418197632,-0.3960975110530853,0.8190912008285522,-0.14998981356620789,0.4595094621181488],[-0.4224236309528351,1.3194808959960938,-0.032848529517650604,1.0867828130722046,-0.3778417706489563,-0.1218690276145935,-1.0060577392578125],[-0.07115481048822403,-0.13968819379806519,-0.10421857982873917,-0.14802700281143188,0.15924561023712158,0.16479073464870453,0.18524891138076782],[-1.954065203666687,4.203361988067627,0.16189171373844147,0.148482546210289,-0.2533572316169739,-0.4233681559562683,-0.34352797269821167],[-0.48123106360435486,-2.3874638080596924,10.404463768005371,-3.062249183654785,-2.259817361831665,-0.0938141793012619,0.1922873705625534],[-1.5468000173568726,-2.714390516281128,9.918771743774414,0.19898618757724762,-1.0446090698242188,-1.524511694908142,-0.7261425256729126],[-0.5373803973197937,3.1461026668548584,0.04957873001694679,-0.7904932498931885,-1.6305512189865112,0.4582866132259369,0.4098399877548218],[-0.14548324048519135,-0.06822996586561203,-0.1064210832118988,-0.1513175666332245,0.046176712960004807,0.035517603158950806,-0.18938741087913513],[0.13561353087425232,0.09762004762887955,-1.8656208515167236,0.7612233757972717,0.5179190039634705,-0.14873699843883514,-0.4549798369407654],[-0.1662845015525818,3.8381893634796143,0.1441519558429718,-0.513441801071167,-0.2505711317062378,-0.9515237212181091,-0.8356180191040039],[-0.032441772520542145,0.8196772336959839,1.4143608808517456,-0.6237785816192627,-0.659700334072113,0.11620806902647018,-0.12188081443309784],[-0.5077261924743652,1.0466997623443604,0.4474938213825226,-0.5455793142318726,0.9489985704421997,-0.8890671730041504,-0.00026395931490696967],[1.0631576776504517,2.2262656688690186,-10.415757179260254,0.5532065629959106,2.1528167724609375,1.9260154962539673,0.6799013614654541],[0.03306037560105324,-0.2043434977531433,-0.17537899315357208,-0.16628922522068024,0.08658783882856369,0.07880798727273941,0.19086281955242157],[0.5705925822257996,-0.14497067034244537,3.820378065109253,-3.417310953140259,-1.6337624788284302,0.6186469793319702,1.2746526002883911],[0.32083868980407715,1.6724927425384521,-7.148703575134277,1.6639337539672852,1.300105333328247,0.9024101495742798,0.758581817150116],[-0.15280531346797943,-1.2847011089324951,-0.3241768479347229,-0.2857975661754608,1.0128560066223145,-0.18811893463134766,0.15902210772037506],[0.20146775245666504,3.424514055252075,0.20315387845039368,-0.03853479027748108,0.216035395860672,-1.7734897136688232,-1.208500623703003]],"biases":[-0.15033526718616486,0.9195772409439087,0.5322828888893127,-0.6065147519111633,-0.18087400496006012,-1.4086828231811523,-1.5973585844039917,-1.9255577325820923,-0.7680290341377258,-0.04900233820080757,0.5134536027908325,-0.7782033681869507,-0.5428811311721802,-0.2767113149166107,2.6214184761047363,-0.09388525038957596,-0.3430080711841583,1.4621907472610474,0.5538898706436157,-0.7346729040145874]},{"weights":[[-0.10392739623785019,-0.40438956022262573,0.44450098276138306,0.46762433648109436,-0.13791954517364502,-1.672995924949646,-0.30832308530807495,-0.3391510844230652,1.219936490058899,-0.18607518076896667,-0.3891177177429199,0.3189174234867096,0.8008601665496826,0.7415093779563904,-0.04396078363060951,0.16238927841186523,0.3284050226211548,-0.16559579968452454,0.41046395897865295,-0.6293857097625732],[0.10329852253198624,0.14119453728199005,-0.19632571935653687,-0.041160136461257935,-0.11047142744064331,-0.09721881151199341,0.12372922897338867,-0.1882348656654358,-0.09866274148225784,-0.016801876947283745,-0.16331326961517334,0.16179779171943665,-0.17609338462352753,-0.04659106209874153,-0.19678349792957306,-0.009765793569386005,0.1709558516740799,0.03230854123830795,0.025815380737185478,-0.042158640921115875],[0.028468865901231766,-0.1118580773472786,-0.36533910036087036,-0.44372814893722534,0.0780799463391304,0.664269208908081,-0.5464720726013184,0.03436269983649254,-0.06002224236726761,-0.10758458077907562,-0.16531029343605042,0.11546041071414948,-0.058121100068092346,-0.05641351640224457,-0.5917136669158936,0.10269059240818024,-0.32788604497909546,-0.40229859948158264,-0.6318455934524536,0.3920598328113556],[0.11979731917381287,-0.2171209305524826,-0.23384849727153778,-0.04179897531867027,0.12247420102357864,-0.10370417684316635,-0.32729965448379517,-0.4533598721027374,-0.0023920407984405756,0.15209536254405975,0.1410418301820755,-0.18685691058635712,-0.15080757439136505,-0.11127972602844238,0.40794527530670166,-0.02082941308617592,-0.14723005890846252,0.20648397505283356,0.20744271576404572,-0.1257869005203247],[0.08032284677028656,0.30836811661720276,0.8309979438781738,-0.08381254971027374,0.04458065703511238,0.14102020859718323,0.938334047794342,1.0009524822235107,-0.38573598861694336,0.14662383496761322,-0.14467033743858337,0.5642023086547852,0.06607934087514877,-0.6255865693092346,-1.4218692779541016,-0.16415171325206757,0.5433899164199829,1.027274489402771,-0.21263545751571655,-0.9077156782150269],[-0.08041172474622726,0.7020803093910217,1.363603949546814,0.35372424125671387,-0.035709887742996216,-1.0047506093978882,0.766026496887207,0.6938164234161377,1.5205078125,-0.13461554050445557,-0.2569787800312042,-0.17541489005088806,0.14912624657154083,-0.05014924705028534,-0.556342363357544,-0.19496741890907288,0.2589658796787262,-0.13884049654006958,0.7410315871238708,-0.562920331954956],[0.10646607726812363,0.305326372385025,-0.41396963596343994,-0.019169434905052185,-0.13147123157978058,0.9706897139549255,-0.18701131641864777,-0.0037164557725191116,-0.44170448184013367,-0.03535068780183792,0.19561368227005005,0.2126852124929428,-0.21757635474205017,-0.41696837544441223,-0.20878750085830688,0.19884119927883148,0.007807323709130287,-0.5002976655960083,-0.31596627831459045,0.7947610020637512],[0.0944041833281517,-0.604702889919281,0.07423340529203415,-0.48684942722320557,0.1101696640253067,0.4441797733306885,0.4900182783603668,0.41041234135627747,0.06071231886744499,0.05085047706961632,-0.12126089632511139,-0.5182334780693054,0.13329419493675232,-0.08228971064090729,-0.49617037177085876,-0.0195788387209177,0.012943894602358341,-0.03783189505338669,-0.14880947768688202,-0.5027876496315002],[0.12123161554336548,-0.3026469349861145,0.34280481934547424,-0.26783061027526855,0.13583996891975403,0.5740281343460083,-1.4170955419540405,-0.3684636652469635,-0.20391060411930084,0.118140310049057,-0.10816873610019684,-0.5114434361457825,-0.2236228734254837,-0.2660827934741974,0.5286270380020142,0.12357152998447418,0.2092268466949463,0.4662848114967346,-0.3770667612552643,0.0953255221247673],[-0.07040423154830933,-0.2377610206604004,0.7708430290222168,0.2645137310028076,0.11634830385446548,0.11132151633501053,0.2951987683773041,0.40715137124061584,-0.0014374542515724897,0.03679497539997101,-0.3092408776283264,-0.29725635051727295,-0.033037252724170685,-1.6123429536819458,-0.3463887572288513,-0.1884976625442505,-0.2066763937473297,-0.6998676061630249,0.15435586869716644,-0.3562554121017456],[-0.15420082211494446,1.293416976928711,-0.47098681330680847,-0.38295111060142517,0.09717077761888504,0.5286982655525208,0.6550217270851135,-0.2496672123670578,-1.35530424118042,0.18930885195732117,0.3221181035041809,1.3952183723449707,-0.2835099995136261,-0.0012149952817708254,-1.4047653675079346,0.025125578045845032,0.42660242319107056,-0.8749485015869141,-0.46764981746673584,-0.9861400723457336],[0.15356826782226562,0.17777621746063232,-0.1440289169549942,-0.6062657237052917,-0.0785043016076088,0.2644743323326111,-0.38886353373527527,-0.7922772765159607,0.4370429813861847,0.17418673634529114,-0.14628629386425018,-0.21334688365459442,0.002695961156859994,0.12697109580039978,0.3176470398902893,0.013933046720921993,-0.2418081909418106,0.39529868960380554,-0.1497829705476761,-0.35243502259254456],[-0.14110364019870758,-0.007617140654474497,0.739572286605835,-1.0610618591308594,0.17430050671100616,-0.8700101375579834,-0.15072807669639587,0.260603129863739,-0.0939888283610344,0.02782338485121727,0.43865129351615906,0.22871778905391693,-1.0635626316070557,0.472721129655838,-0.5756350159645081,0.1775306910276413,-0.5867497324943542,0.08242286741733551,0.33949029445648193,-1.2422281503677368],[-0.10273929685354233,0.849659264087677,0.7192983627319336,-0.5143898725509644,-0.09212704002857208,0.4713260233402252,-1.60812246799469,-1.5747801065444946,-0.36308640241622925,0.057472147047519684,0.2893889248371124,0.16527408361434937,-0.2441062182188034,-0.4273514449596405,1.2500441074371338,0.14663954079151154,-0.3131738007068634,0.8984010815620422,-0.34300774335861206,1.8311145305633545],[0.06821680068969727,0.96700119972229,-0.3528595566749573,-0.11571722477674484,0.10285919159650803,-0.08248825371265411,0.20589789748191833,-0.6625674962997437,0.49604442715644836,0.04085833579301834,0.0751773938536644,-0.002113570459187031,-0.16606706380844116,-0.037852734327316284,0.1713958978652954,0.07929028570652008,0.9126648902893066,-0.3033764958381653,-0.1899692714214325,0.09564942866563797],[0.0834556594491005,-0.1093791052699089,0.05236231908202171,0.03249523788690567,-0.1547832489013672,0.023849155753850937,0.09870198369026184,-0.15381334722042084,-0.08668580651283264,0.03667323291301727,-0.03604499623179436,0.08832516521215439,-0.15598300099372864,-0.15320463478565216,-0.14768855273723602,-0.13371595740318298,-0.052919160574674606,0.014272081665694714,-0.006693507544696331,0.07956439256668091],[0.06889087706804276,0.6590489745140076,-0.10346224904060364,-0.29990169405937195,-0.12658622860908508,-0.45699575543403625,1.1675578355789185,1.0840297937393188,-0.2831217348575592,-0.15137377381324768,-0.6751962304115295,-0.07014449685811996,-0.13158418238162994,-0.023063337430357933,-0.0003272143949288875,-0.14510232210159302,0.2982743978500366,-0.39200717210769653,0.14403660595417023,-1.986068844795227],[-0.1508246511220932,0.18577460944652557,-0.3203285038471222,-0.4221886992454529,-0.08205226063728333,-0.6090093851089478,-1.0685502290725708,-1.1313738822937012,-0.8741648197174072,-0.06966978311538696,0.6229274272918701,0.07620538026094437,-0.6002172231674194,0.10018503665924072,-0.3737642765045166,-0.03944901004433632,-0.5031283497810364,0.03545473888516426,0.14642812311649323,0.0888495147228241],[-0.1053798645734787,-0.0066363210789859295,-0.7718626856803894,-0.15112446248531342,-0.02461596392095089,-0.6861034035682678,-0.7836734652519226,-0.8169296383857727,0.30650973320007324,-0.02558286115527153,-0.2514411211013794,0.1481829136610031,-0.5193289518356323,1.211159586906433,0.7756757736206055,0.010697809047996998,-0.4495745599269867,0.8390867114067078,0.45550939440727234,1.016980767250061],[0.1801251620054245,0.25970959663391113,-0.654396116733551,-0.22955749928951263,0.028403252363204956,-0.7649103999137878,0.09357620775699615,-0.013776196166872978,0.09601891785860062,0.08394845575094223,-0.06527192890644073,-2.0710408687591553,0.393618106842041,0.8183919191360474,1.1284563541412354,0.158598855137825,0.03919088467955589,1.1435829401016235,0.4706728458404541,0.9755814075469971],[0.10296400636434555,-0.2874915599822998,1.23488187789917,-1.0328086614608765,0.11091534048318863,0.9437543153762817,0.5645893812179565,0.5666128396987915,-0.8431206345558167,0.15996690094470978,0.0909038633108139,0.16765879094600677,-0.04877393692731857,-0.08320707082748413,-1.2540340423583984,0.033665165305137634,0.05883130058646202,-1.1027246713638306,-0.046967729926109314,-0.40707772970199585],[-0.15798766911029816,-0.3774265944957733,-0.17514456808567047,0.2396879643201828,-0.11848856508731842,0.23877711594104767,0.473591148853302,0.46632906794548035,-0.8146823644638062,-0.08007735013961792,-0.18585610389709473,0.11614346504211426,0.13372643291950226,0.02056489698588848,-0.2791310250759125,-0.052794501185417175,-0.09873329102993011,-0.15552715957164764,-0.3712248206138611,0.020105203613638878],[-0.15666338801383972,0.9401814937591553,-0.6325596570968628,-0.03137989714741707,0.016314275562763214,-0.059373777359724045,0.2855740487575531,-0.37347230315208435,0.6317845582962036,-0.07461284101009369,0.2627998888492584,-1.004046082496643,-0.2438393384218216,-0.06395291537046432,-0.07723788172006607,0.03048868663609028,0.5914304256439209,-0.34718650579452515,-0.16709168255329132,0.11062610894441605],[0.16280114650726318,0.3004647493362427,0.9419022798538208,0.8888724446296692,-0.05027531832456589,0.7591453790664673,-1.0621031522750854,-0.7403959631919861,-0.5528485178947449,0.1369863897562027,0.2465902864933014,-0.17920459806919098,-0.5966054797172546,0.5048352479934692,0.6658056378364563,0.16638706624507904,-0.8336418271064758,0.6937747001647949,-0.3295086622238159,-0.01743139699101448],[-0.156813383102417,-0.5272839069366455,-0.23707160353660583,0.0011451673926785588,0.050577256828546524,0.7339627742767334,-0.41092103719711304,-0.5820934772491455,0.8301093578338623,-0.14665690064430237,0.011671933345496655,-0.018941698595881462,0.17223642766475677,-0.4741707444190979,-0.4619390666484833,0.040738195180892944,-0.2084973156452179,-0.049447692930698395,-0.52009516954422,0.4534514546394348],[0.09022455662488937,0.5172858238220215,-1.2336478233337402,0.05886901915073395,0.1885487139225006,0.04566274955868721,0.1301872283220291,0.1300399899482727,0.08595414459705353,0.12226401269435883,-0.038635045289993286,-1.0369137525558472,-0.11505649983882904,0.26700523495674133,0.6776253581047058,-0.13361306488513947,-0.1326771378517151,0.2197895646095276,0.1350119709968567,-1.030280351638794],[-0.193237766623497,-1.1857450008392334,-0.27808520197868347,1.0561710596084595,-0.06577421724796295,0.18390434980392456,-0.2600720226764679,0.4746381640434265,0.5148159265518188,0.11623675376176834,-0.04097974672913551,-0.8025259971618652,0.15737515687942505,0.3020244836807251,0.09599510580301285,-0.047148820012807846,-1.322616457939148,-0.22536928951740265,-0.11997586488723755,0.07241278141736984],[0.09767885506153107,-1.394589900970459,-0.16437290608882904,0.21826235949993134,-0.13221237063407898,1.0895358324050903,-0.8650435209274292,0.2994244396686554,-0.32530876994132996,-0.075743168592453,-0.3450881838798523,1.2656561136245728,-0.23759064078330994,0.24011152982711792,-0.6520416140556335,-0.02870066463947296,-0.09151418507099152,0.3347480595111847,-0.29191070795059204,-0.3648688495159149],[0.11103790998458862,0.8012469410896301,-2.1170196533203125,0.3859228491783142,-0.15055429935455322,0.09158426523208618,-0.5916346907615662,-1.3008421659469604,0.24926955997943878,0.020173756405711174,-0.020395582541823387,-1.1865448951721191,0.09688285738229752,0.1064550131559372,0.6904923319816589,-0.06248806416988373,0.33688628673553467,-0.17706193029880524,-0.0699431300163269,-1.2154346704483032],[0.11995802819728851,0.19285766780376434,-0.5751765370368958,-0.04037700966000557,-0.19349735975265503,1.1280033588409424,0.7835798263549805,0.8275640606880188,-0.4348163902759552,0.012425429187715054,-0.41482287645339966,-1.5960179567337036,0.00885163526982069,0.3303692936897278,-0.2672710716724396,-0.13811472058296204,0.6921132802963257,-0.19227281212806702,0.2491232305765152,0.7174225449562073],[0.178548663854599,0.3794282376766205,0.5834593176841736,-1.0331274271011353,-0.08213102072477341,0.43491482734680176,0.3522895872592926,-0.40073320269584656,0.08567913621664047,-0.20170876383781433,-0.27800846099853516,0.10285226255655289,-0.5301148295402527,-0.46447205543518066,0.7451604008674622,-0.13209661841392517,0.3156900703907013,0.17281174659729004,-0.04339752346277237,-0.016264623031020164],[0.10422824323177338,0.42371147871017456,0.03361310809850693,0.19823047518730164,0.03504040464758873,1.2069581747055054,-1.6797912120819092,-1.5075757503509521,-0.416360467672348,-0.135970339179039,0.343744158744812,-0.049652308225631714,-0.14949694275856018,-1.0201528072357178,2.3141446113586426,-0.10199151933193207,-0.9826589226722717,0.35482749342918396,-0.9747797846794128,-1.803215503692627],[0.00014394392201211303,-0.016131993383169174,-0.1441948413848877,0.015458078123629093,-0.04154755547642708,-0.035102881491184235,0.06748251616954803,-0.22445230185985565,-0.01665724813938141,0.14657428860664368,0.21905601024627686,0.03614402562379837,-0.12474141269922256,-0.09052002429962158,0.12065108120441437,-0.09449300915002823,-0.0024267539847642183,0.14017748832702637,0.07826968282461166,-0.11564229428768158],[-0.011514934711158276,-0.9733755588531494,0.3457348942756653,-0.26723939180374146,-0.14124393463134766,-0.14376379549503326,-1.3052244186401367,-1.343263864517212,-2.4255759716033936,-0.18719728291034698,0.6430450677871704,1.2189323902130127,-1.0272624492645264,1.4585992097854614,0.5423427224159241,0.1541733592748642,-0.2658970057964325,0.26885178685188293,0.08861055970191956,-0.981001615524292],[0.1845485419034958,0.010939843021333218,-0.10893376171588898,0.065852090716362,-0.07281481474637985,0.26983240246772766,-0.13143806159496307,-0.3148547112941742,-0.11035767942667007,0.11023114621639252,-0.12854519486427307,-0.049609676003456116,0.006783383432775736,0.10444774478673935,-0.05809031054377556,0.13704264163970947,-0.1383693367242813,-0.07815059274435043,-0.13326776027679443,0.07450543344020844],[-0.13011066615581512,-0.18986278772354126,0.14720343053340912,-0.6832735538482666,-0.05427714064717293,0.7618595957756042,0.40279802680015564,0.6198128461837769,0.1740145981311798,0.12319816648960114,0.2962692379951477,-0.014135572127997875,0.015809502452611923,-0.009089269675314426,-0.6112184524536133,0.08246151357889175,0.5136209726333618,-1.587358832359314,-0.25117799639701843,-0.37646952271461487],[0.14617539942264557,-0.07980838418006897,-0.48261168599128723,-0.2593265771865845,-0.15765608847141266,1.0806100368499756,-0.053622767329216,0.08412410318851471,-0.5789526700973511,0.19622422754764557,0.5551900267601013,-1.1837644577026367,-0.23879937827587128,0.6949669718742371,-0.22537648677825928,-0.13445471227169037,0.09735067933797836,0.024257445707917213,0.8809806704521179,0.3303762674331665],[-0.1332140415906906,-0.9158217310905457,0.11091972142457962,-0.04175105690956116,-0.04179797321557999,0.2158021628856659,-1.4165890216827393,-0.38567957282066345,0.8829832673072815,0.1432291567325592,0.8329237699508667,0.38501912355422974,-0.15392640233039856,0.5105387568473816,-0.02834293432533741,-0.13128261268138885,0.2199031114578247,0.48256057500839233,0.6785180568695068,0.31622081995010376],[-0.1316983550786972,-0.2503809928894043,-0.21715109050273895,0.2960546910762787,0.07504359632730484,0.5060165524482727,-1.3907692432403564,-1.6776138544082642,0.7613486051559448,-0.006492147222161293,0.4950500428676605,-0.019753949716687202,0.344681054353714,0.207090362906456,1.1121089458465576,-0.08356130123138428,0.623036801815033,0.017962971702218056,0.46063920855522156,0.16709081828594208],[0.0944354459643364,0.08047962933778763,0.16478735208511353,0.35164332389831543,-0.17817550897598267,-3.2242205142974854,0.4396815299987793,-0.02578849531710148,0.8937023282051086,0.15932360291481018,-0.40364283323287964,0.6549727320671082,0.39468470215797424,1.0910907983779907,0.7027676105499268,-0.06282832473516464,-0.537135124206543,-0.038947850465774536,0.6735218167304993,-0.8265722990036011]],"biases":[0.3732122778892517,-0.1698514223098755,-0.38928672671318054,-0.1685194969177246,0.05627143383026123,-0.6361408829689026,-0.7379253506660461,-0.37140533328056335,-0.36759263277053833,0.5399948358535767,0.5414521098136902,-0.48024237155914307,0.46804580092430115,-0.4795243740081787,-0.8972299695014954,-0.21039752662181854,-0.8071141242980957,1.2142901420593262,-0.6172242760658264,-0.23412807285785675,0.1839718371629715,-0.7038615345954895,-0.01107513252645731,0.6468608379364014,-0.4198393225669861,0.8561912775039673,-0.17921105027198792,-1.3696420192718506,-0.07985076308250427,-0.33250945806503296,0.13118040561676025,0.6602582335472107,-0.2079315036535263,0.5467790961265564,-0.15500237047672272,0.11818473786115646,0.4705416262149811,-0.6289359331130981,-0.13763493299484253,-0.44263869524002075]},{"weights":[[-0.14053012430667877,-0.18471215665340424,0.05613478273153305,0.27242857217788696,-0.45755699276924133,-0.43804019689559937,-1.6124117374420166,0.07383155822753906,-1.2983684539794922,0.3586922287940979,0.04593601077795029,0.9550484418869019,-0.53656005859375,0.5641769766807556,-0.589335024356842,0.15967153012752533,0.23240438103675842,-0.298174113035202,-0.5124024748802185,0.5528932809829712,0.8964667320251465,-0.1041671633720398,-0.19311633706092834,0.43525999784469604,-0.866523027420044,0.9322423934936523,0.07350905239582062,1.3153164386749268,-0.4996049404144287,-0.8066096901893616,-0.2819063067436218,-0.618046760559082,-0.11994242668151855,0.6820746660232544,-0.13961246609687805,-1.308087706565857,0.726859986782074,0.26113298535346985,0.24428236484527588,-1.1777431964874268],[-0.317685604095459,-0.05041756480932236,0.4163426458835602,0.12216846644878387,0.7807033658027649,-0.4682450592517853,0.6911159753799438,-0.49687284231185913,-0.17513886094093323,0.32773715257644653,-0.6019765734672546,0.49685657024383545,0.4964962601661682,-0.1939624547958374,-0.14195579290390015,0.10945437103509903,0.19164085388183594,-0.3382945954799652,0.8660125732421875,-1.1335722208023071,-0.174552321434021,-0.3967871069908142,0.1891777664422989,-0.270638108253479,0.02659478597342968,0.19109846651554108,-0.7056342959403992,-0.5334991812705994,0.7079797983169556,-0.21285760402679443,1.3135957717895508,0.029456112533807755,-0.12959028780460358,-0.13173836469650269,0.1407393366098404,0.08499379456043243,-0.06056182086467743,-0.12162676453590393,-0.04466322064399719,0.36856111884117126],[0.5252684950828552,-0.18148499727249146,-0.028075752779841423,-0.18216852843761444,-1.5576462745666504,-1.602539300918579,-0.3959466516971588,0.194477841258049,-0.06781109422445297,0.7092585563659668,0.043369363993406296,0.168076291680336,2.0826897621154785,0.038743700832128525,0.13161244988441467,0.13893792033195496,1.9690814018249512,-0.10436154901981354,0.3319980800151825,-1.1514407396316528,0.0015834883088245988,0.14279137551784515,0.29040274024009705,-0.509121835231781,-0.08810044825077057,-0.29769814014434814,-0.023129943758249283,0.2708059251308441,0.05566418915987015,0.3950939178466797,0.7618474960327148,-1.9276825189590454,-0.07673089951276779,-1.0716816186904907,0.07655925303697586,0.5747809410095215,0.4685429334640503,0.01455837395042181,-0.5198066234588623,1.1644842624664307],[-0.09456415474414825,-0.1934528797864914,-0.40459147095680237,-0.5148928165435791,-0.2344922572374344,0.27462252974510193,-0.2996811270713806,0.3582964241504669,-0.1684231162071228,-0.1791391521692276,-0.5015361905097961,-0.24784168601036072,-0.307370126247406,0.373741090297699,-1.0090923309326172,-0.19077782332897186,0.12441752851009369,-0.10431818664073944,-0.5705147385597229,-0.12235759198665619,0.1833740919828415,0.16314879059791565,-0.6603188514709473,-0.36051711440086365,0.13559219241142273,0.23063485324382782,0.845531702041626,0.7661351561546326,-0.13746248185634613,0.29136279225349426,-0.15912558138370514,0.3575749099254608,-0.0208317618817091,0.36036548018455505,-0.175551176071167,-0.22376848757266998,0.1931307017803192,0.269089937210083,-0.5069357752799988,0.10918444395065308],[0.32143452763557434,-0.12609979510307312,0.8566024303436279,-0.16497647762298584,0.45288512110710144,0.7409921288490295,0.12221702933311462,0.7343041300773621,0.44962266087532043,0.259042352437973,0.18961910903453827,-0.2869292199611664,-0.7291853427886963,-0.3003179132938385,0.029200207442045212,-0.10249119997024536,0.1252729892730713,-0.005862495396286249,0.3029971122741699,-0.42886537313461304,-0.11738233268260956,-0.5625457763671875,0.13683445751667023,-0.6485230922698975,0.07077664136886597,-0.7292910814285278,0.5490663647651672,-0.2742597460746765,-0.7688668370246887,0.10275733470916748,-0.39053842425346375,0.9795675873756409,-0.1917112022638321,0.22292642295360565,-0.27696019411087036,-0.9971346855163574,0.8917672038078308,0.009602471254765987,-0.38353466987609863,-0.09244979172945023],[0.6077605485916138,-0.10064604878425598,0.1619749367237091,0.11014378070831299,0.6681889891624451,-0.11820162087678909,0.43842175602912903,-0.10024428367614746,0.2554533779621124,0.5625051259994507,-0.17178724706172943,-0.3482644259929657,0.2664353847503662,-0.16262534260749817,0.10052615404129028,0.13877280056476593,-0.4675518572330475,1.5736099481582642,-0.6421341300010681,-0.8063925504684448,-0.4070192575454712,-0.44311273097991943,-0.5260507464408875,-0.2312793880701065,0.3049164414405823,0.5498742461204529,-0.17582041025161743,-0.8116291165351868,0.35814130306243896,0.21434304118156433,0.13328075408935547,0.4051547944545746,-0.023036202415823936,-2.319634199142456,0.13633960485458374,-0.256078839302063,0.222834050655365,-0.34894731640815735,0.04446384683251381,0.9881705641746521],[0.026585480198264122,-0.0213791336864233,-0.08053692430257797,-0.3668859601020813,-0.15926967561244965,-0.9895489811897278,0.24928106367588043,0.4350830912590027,0.42748770117759705,0.8282647728919983,0.21222838759422302,-0.22007034718990326,0.20390379428863525,-0.22440434992313385,-0.2406017929315567,-0.17391613125801086,-0.28582602739334106,0.9794201850891113,-0.15762916207313538,0.5148702263832092,-0.6710617542266846,-0.34354114532470703,0.5215198993682861,0.9759854078292847,0.33726000785827637,0.6274203062057495,-0.495003879070282,0.10165354609489441,-0.3170545995235443,0.2681608200073242,0.24298495054244995,-0.9848925471305847,-0.20579801499843597,-0.46852338314056396,-0.05253506824374199,0.19814912974834442,-0.6710138916969299,-0.7855337262153625,0.7775603532791138,-0.20262153446674347],[-0.11344192922115326,-0.07446102797985077,-0.08047856390476227,0.0940498411655426,0.08062013238668442,-0.22182998061180115,0.005711124278604984,0.054425839334726334,-0.18557417392730713,-0.10527787357568741,0.08354958146810532,0.043287958949804306,0.1372646689414978,-0.033841121941804886,0.17531462013721466,0.12592066824436188,0.054949190467596054,-0.08087798953056335,-0.19301122426986694,0.07161282747983932,0.13600172102451324,-0.027949946001172066,-0.06839534640312195,-0.07979888468980789,-0.03445342555642128,-0.08246420323848724,0.059276554733514786,-0.05212864652276039,-0.04230805113911629,0.17475126683712006,-0.09212541580200195,0.09990192204713821,-0.08315464109182358,0.2160683274269104,0.05521104857325554,-0.15229113399982452,-0.12805892527103424,-0.09840375185012817,-0.08266773074865341,-0.07395847886800766],[-0.40779757499694824,0.14435826241970062,0.3941134214401245,0.00585261732339859,0.3542632460594177,0.47449791431427,0.2596055567264557,0.10972478985786438,0.09760239720344543,0.24918079376220703,-0.21344538033008575,-0.2843802869319916,0.5966300368309021,-0.31816399097442627,-0.37021639943122864,-0.011505539529025555,0.7178922295570374,-0.29455411434173584,0.9070490002632141,-0.7133215665817261,-0.042022254317998886,0.26962554454803467,0.032807327806949615,-0.4128870368003845,0.19767014682292938,-0.8028068542480469,0.10138363391160965,-0.35766640305519104,-0.22886720299720764,-0.4844934642314911,0.26053932309150696,0.5175055861473083,0.06787669658660889,-0.532616138458252,0.21177780628204346,-0.5823806524276733,1.0956529378890991,-0.26240813732147217,-0.1446153074502945,-0.3550378084182739],[-0.8433766961097717,0.021713385358452797,-0.8428467512130737,-0.2865588665008545,-0.06966310739517212,1.1357465982437134,-1.006436824798584,0.5229352712631226,0.12364012748003006,-0.886976957321167,-0.10328612476587296,-0.2312011867761612,-0.24365518987178802,-1.1624653339385986,-0.11758474260568619,0.1281663328409195,-0.009745526127517223,0.12582114338874817,-0.038003869354724884,0.485517293214798,-0.9795336723327637,-0.4804438352584839,-0.8451349139213562,0.8395599126815796,-0.02951533906161785,0.17561601102352142,0.0888947993516922,0.08926042169332504,-0.7049201130867004,-0.21491432189941406,0.837801456451416,-0.3396590054035187,0.1610857993364334,-0.24886970221996307,0.0731431171298027,0.09865153580904007,1.2702374458312988,-0.04689466580748558,0.6817341446876526,-1.0544613599777222],[0.3537805378437042,0.13341863453388214,-0.1711050271987915,-0.14378903806209564,-0.0929996520280838,-0.037380896508693695,-0.3370167911052704,-0.03670327365398407,0.06634456664323807,0.15181775391101837,0.17107555270195007,-0.381588339805603,0.4795566201210022,0.13670100271701813,0.36217719316482544,-0.09206362068653107,-0.02989243157207966,0.08436581492424011,-0.16190695762634277,-0.41137099266052246,-0.25973400473594666,-0.058043722063302994,0.4977134168148041,-0.9182019233703613,-0.02683248743414879,-0.05055001750588417,-0.5919780731201172,0.13809050619602203,-0.6556596755981445,0.34577706456184387,0.27019479870796204,0.7518815994262695,0.08506269007921219,-0.7953200936317444,0.06728469580411911,-0.14069727063179016,0.33355626463890076,0.7852274179458618,-0.6495135426521301,-0.38897427916526794],[0.26977455615997314,0.03719552978873253,-0.3489587604999542,0.03696387633681297,0.4917285144329071,-0.2520352900028229,-0.1264515370130539,-0.08772137016057968,0.5300045013427734,0.1037953644990921,-0.36324185132980347,-0.21449314057826996,-0.5662242770195007,0.015780990943312645,-0.5300559401512146,-0.09673710912466049,0.05803820863366127,-0.30238959193229675,-0.3158576488494873,0.08952014893293381,0.2986624836921692,-0.08078957349061966,0.04000850021839142,0.7134625911712646,0.48927024006843567,0.040381502360105515,0.19941718876361847,-0.5614334940910339,-0.035552822053432465,-1.3300012350082397,0.5468082427978516,-0.4286652207374573,-0.13390327990055084,-0.2592582404613495,-0.07287121564149857,-0.4138261377811432,1.1275694370269775,0.03671938553452492,-0.27418017387390137,-0.6621612906455994],[0.020691940560936928,-0.1139349490404129,0.4948837161064148,-0.18294496834278107,0.287137508392334,-0.16510136425495148,0.3949081599712372,0.090834841132164,0.06465259194374084,-0.6960824131965637,-0.16283957660198212,0.18859894573688507,0.6150372624397278,-1.0955044031143188,-0.15892556309700012,0.16302438080310822,0.26523101329803467,-0.18132032454013824,0.8622227907180786,0.23339934647083282,-0.6718850135803223,-0.2870444357395172,0.20769362151622772,0.7915741205215454,-0.3773002624511719,-0.529517412185669,-1.4561078548431396,0.34775108098983765,0.520814836025238,0.18065698444843292,0.5335060954093933,-0.6494673490524292,-0.13913848996162415,-0.5367434620857239,0.16718241572380066,0.22576214373111725,0.3514687418937683,-0.6984770894050598,0.49816688895225525,-0.0022678719833493233],[-0.07740260660648346,-0.19987332820892334,0.22192597389221191,-0.06967267394065857,-0.11069248616695404,0.2721928358078003,-0.6932479739189148,-0.3815543055534363,-0.08274123072624207,0.09005172550678253,0.10317298024892807,-0.1537235677242279,-0.2882194221019745,0.034380339086055756,-0.02105141617357731,-0.04617277532815933,-0.3690710961818695,-0.013041540049016476,0.036579519510269165,-0.2268732786178589,0.7273695468902588,0.256707102060318,0.11155502498149872,-0.11107182502746582,0.12425476312637329,-0.32984140515327454,0.4849958121776581,0.11080974340438843,0.1767476201057434,0.10059729963541031,0.15422910451889038,-0.15815331041812897,-0.1354576200246811,-0.3262552320957184,0.10916529595851898,-0.176141619682312,-0.03395598381757736,-0.24210003018379211,-0.15981292724609375,0.008314362727105618],[-0.6739481687545776,0.045195601880550385,-0.08741650730371475,0.21206390857696533,0.2079310566186905,0.12581191956996918,-0.13527607917785645,-0.053785908967256546,-0.8134369254112244,0.10740555077791214,-2.679029703140259,0.17101970314979553,-0.4708145558834076,0.9207687377929688,-0.13327094912528992,-0.18610388040542603,0.7829950451850891,0.16144460439682007,-0.5618765354156494,-0.5200960040092468,-1.1776174306869507,-0.0896550863981247,-0.3510384261608124,0.733027458190918,0.33431267738342285,0.8784970641136169,0.39824649691581726,0.26649099588394165,1.4154937267303467,-0.7151282429695129,0.39848658442497253,-1.0806292295455933,0.08266869187355042,0.23477602005004883,-0.07593479007482529,-0.4340619444847107,0.3153083920478821,-0.9766138195991516,0.4500730037689209,-0.7756544351577759],[0.12896430492401123,-0.18778155744075775,-0.09823447465896606,0.08851830661296844,0.18136562407016754,-0.12828220427036285,-0.2070312649011612,-0.19530537724494934,0.00038731927634216845,0.058369532227516174,-0.029306700453162193,0.05417371541261673,-0.18259607255458832,0.05915505811572075,0.04938870668411255,0.07081463187932968,-0.12426555156707764,-0.05270735174417496,0.1480904072523117,-0.012272822670638561,-0.0709218680858612,0.13305629789829254,-0.1603265255689621,-0.06733361631631851,-0.012277527712285519,-0.18168334662914276,0.055512987077236176,-0.08815725892782211,-0.17392410337924957,-0.19999288022518158,-0.11995835602283478,-0.009070537984371185,0.12295419722795486,0.10289432853460312,0.15114367008209229,-0.14549797773361206,0.010871073231101036,-0.16029170155525208,-0.14567363262176514,-0.11367756128311157],[-0.5136589407920837,-0.06576856970787048,-0.04905352368950844,0.08775864541530609,-0.05695437639951706,0.35649797320365906,-0.15869130194187164,-0.2879645824432373,-0.13052751123905182,-0.2771466076374054,0.04237092286348343,0.0642707496881485,0.13284753262996674,-0.6624214053153992,-0.19883625209331512,0.040399108082056046,0.9997183680534363,-0.6772242784500122,-0.1270996332168579,-0.739304780960083,0.18383698165416718,0.07260990142822266,-0.2725394666194916,-0.48177704215049744,-0.3859866261482239,-1.0400199890136719,-0.5158788561820984,0.06501521170139313,-0.2565642297267914,0.29531794786453247,0.8755930066108704,-1.0497740507125854,0.11513396352529526,0.18426178395748138,-0.07904169708490372,-0.02841445989906788,0.03074219822883606,0.02709195204079151,1.2298167943954468,0.21394722163677216],[-0.38219067454338074,-0.1945887953042984,0.30783596634864807,0.03635686635971069,-0.5197032690048218,-0.018853241577744484,0.26849809288978577,-0.051874056458473206,-0.13123981654644012,-0.6372081637382507,-0.053016144782304764,-0.12839210033416748,0.041820842772722244,0.5391177535057068,0.18781661987304688,0.1904926300048828,0.09797188639640808,0.1446690410375595,-1.0189719200134277,-0.1436951905488968,0.17000028491020203,0.024031108245253563,-0.06292048841714859,1.1262695789337158,0.1888788342475891,-0.28431278467178345,0.1736518144607544,0.3473271429538727,-0.04680899158120155,-0.2415073812007904,-0.6450642943382263,-0.2736472487449646,0.04954211786389351,-0.7454882860183716,0.19779838621616364,0.5281040668487549,-0.37006938457489014,0.30892184376716614,-0.8244936466217041,-0.06976275891065598],[-0.061016567051410675,0.07260040938854218,0.032435014843940735,-0.16629202663898468,-0.03381907939910889,-0.0800764262676239,0.16209536790847778,-0.2846114933490753,-0.18070180714130402,0.40817245841026306,0.1676694005727768,-0.13809874653816223,-0.07776984572410583,-0.009713445790112019,-0.08679071813821793,0.13064022362232208,-0.5634496808052063,-0.8861531019210815,-0.8514543175697327,1.1657013893127441,-0.655667781829834,-0.4374091327190399,-0.12336044758558273,0.5603230595588684,0.4242061376571655,-2.8184475898742676,0.25248515605926514,0.14528800547122955,-0.08489857614040375,0.30138176679611206,0.044689249247312546,-0.3428352177143097,-0.14702872931957245,0.14578866958618164,-0.06078965961933136,0.17782601714134216,0.171960711479187,0.14338959753513336,-0.3282559812068939,-0.1820654571056366],[-0.1568811535835266,-0.07559362053871155,-0.09788573533296585,-0.3025722801685333,-1.1189056634902954,0.1667625457048416,-0.727787435054779,0.006573949009180069,-0.48416730761528015,0.5818328261375427,0.05295500531792641,-0.355450838804245,0.5443605780601501,0.9279664754867554,-0.9339609742164612,-0.018039675429463387,-0.39072540402412415,-0.14694209396839142,-0.65204256772995,0.6042543649673462,0.5949794054031372,-0.17530423402786255,-0.13638602197170258,0.32344692945480347,-2.7367541790008545,1.6421732902526855,-0.21887628734111786,0.13802938163280487,-0.02060139738023281,0.4696553349494934,-0.25028589367866516,-1.0146448612213135,-0.23472221195697784,0.013639074750244617,0.018913857638835907,0.48744094371795654,0.29337626695632935,-0.5120947360992432,1.201289415359497,-0.8666175007820129]],"biases":[0.11774527281522751,-0.3798955976963043,0.1087462529540062,-0.06480514258146286,-0.10479923337697983,-0.808086633682251,-0.02419949695467949,-0.2375180721282959,0.5843160152435303,-0.26890891790390015,0.28693923354148865,-0.008792832493782043,0.15030314028263092,-0.5637286901473999,-0.6804614067077637,-0.1635100096464157,-0.40644630789756775,-0.9434046149253845,0.3028114438056946,-1.0002936124801636]},{"weights":[[0.1284630000591278,-0.21362128853797913,0.09753254801034927,-0.05953466519713402,-0.4037257730960846,0.26352640986442566,-0.21310903131961823,-0.21863700449466705,0.32340312004089355,-0.27788418531417847,0.20498546957969666,-0.14791084825992584,-0.08683396875858307,0.41900700330734253,0.43501201272010803,0.055479127913713455,0.24109482765197754,-0.18007321655750275,0.2577224671840668,-0.4179977476596832],[-0.6509650945663452,-0.3802362382411957,-0.8963743448257446,0.3575004041194916,-0.3021617829799652,0.2957048714160919,0.33628594875335693,0.05393863096833229,0.3887099325656891,0.11313419044017792,0.4274478852748871,0.15606020390987396,0.2803792357444763,-0.6850878596305847,-0.37643757462501526,0.05592431128025055,-0.17360571026802063,0.3705780804157257,-0.306329607963562,0.13488996028900146],[0.10641735047101974,-0.05907856673002243,0.15373966097831726,-0.09259349852800369,-0.26002049446105957,-0.41098514199256897,-0.5836640000343323,0.19202275574207306,0.23624686896800995,0.25370919704437256,-0.2661932408809662,-0.3082349896430969,0.11061104387044907,-0.0913567766547203,-0.6834328770637512,-0.06644836813211441,-0.7497572898864746,-0.6341723799705505,0.10553407669067383,0.11799579113721848],[0.22341488301753998,0.6466476917266846,1.1522384881973267,-0.053505655378103256,0.6341033577919006,-0.5360037684440613,0.28728094696998596,0.06339433044195175,-1.296168565750122,0.038206469267606735,-0.7151834964752197,-0.010651836171746254,-1.0928817987442017,-0.18425364792346954,0.14725036919116974,-0.0009816060774028301,0.2069685310125351,-0.7598289847373962,-0.1380426436662674,0.005997344385832548],[0.07522037625312805,0.11007048189640045,0.15745314955711365,-0.10042676329612732,0.07037683576345444,-0.06277329474687576,0.05294329300522804,0.03057040087878704,-0.046162448823451996,-0.060829125344753265,0.10987294465303421,0.0761306881904602,-0.05689668282866478,0.006380979437381029,-0.10882135480642319,-0.06468559801578522,-0.3336910009384155,-0.22785049676895142,0.09123427420854568,-0.22201812267303467],[0.007593526970595121,0.027254218235611916,0.05470854789018631,-0.09802132844924927,0.02441442385315895,-0.0310121588408947,0.01816656067967415,0.1600802093744278,-0.023125171661376953,0.020833522081375122,-0.015775151550769806,-0.02680390328168869,-0.021908914670348167,0.08576882630586624,0.023990824818611145,0.12870527803897858,-0.014247632585465908,0.012052065692842007,-0.0010078178020194173,-0.0032898408826440573],[0.06795527786016464,-0.2342875599861145,0.03126346692442894,-0.10641411691904068,-0.22080278396606445,-0.007845074869692326,-0.10858797281980515,-0.19460232555866241,0.22237713634967804,-0.3350300192832947,0.13200664520263672,0.11844880878925323,0.20430567860603333,0.42992112040519714,0.3035314977169037,-0.009517236612737179,-0.005641154013574123,0.11559935659170151,0.03182453289628029,-0.15800970792770386],[0.048551157116889954,-0.06916427612304688,0.0675654485821724,-1.7607117891311646,-0.2314668595790863,0.2885567247867584,-0.06727810204029083,0.1173933744430542,0.18094128370285034,-0.21155127882957458,0.09118443727493286,-0.2906951308250427,-0.2564067542552948,-0.16809365153312683,0.394833505153656,-0.13740967214107513,0.26718589663505554,-0.17569687962532043,0.22357991337776184,-0.2894885241985321],[0.22237977385520935,-1.0243488550186157,0.07618368417024612,0.1005348190665245,-0.24816159904003143,0.34941211342811584,-0.10789815336465836,-0.12773309648036957,0.22132204473018646,-0.10653623193502426,-0.7139030694961548,-0.2802233397960663,-0.481510192155838,0.07574833184480667,0.2641545832157135,0.061701007187366486,0.24619221687316895,-0.40544912219047546,0.2656349241733551,-0.34393513202667236]],"biases":[0.47350209951400757,0.07540814578533173,-0.06992476433515549,0.29963740706443787,-0.23680806159973145,-0.04580261558294296,0.15181876718997955,0.27960583567619324,0.03660484403371811]}],"inputLookup":{"heroInButton":0,"handGroup":1,"preflopHS":2,"potOddsH":3,"villainCheck":4,"villainRaise":5,"villainAllIn":6},"inputLookupLength":7,"outputLookup":{"heroRaise":0,"heroCall":1,"heroCheck":2,"heroFold":3,"heroAllIn":4,"betLevelH2":5,"betLevelH3":6,"betLevelH4":7,"betLevelH5":8},"outputLookupLength":9,"options":{"inputSize":0,"outputSize":0,"binaryThresh":0.5,"hiddenLayers":[20,40,20],"activation":"leaky-relu"},"trainOpts":{"activation":"leaky-relu","iterations":1000,"errorThresh":0.01,"log":true,"logPeriod":10,"leakyReluAlpha":0.01,"learningRate":0.001,"momentum":0.5,"callbackPeriod":10,"timeout":"Infinity","beta1":0.9,"beta2":0.999,"epsilon":1e-8}}