{"type":"NeuralNetwork","sizes":[6,20,40,20,8],"layers":[{"weights":[],"biases":[]},{"weights":[[0.20851176977157593,0.8842368125915527,-2.162102460861206,-0.10391072928905487,0.40030261874198914,-0.3441474139690399],[-0.5015613436698914,-0.05196483060717583,0.18890532851219177,0.107853963971138,-0.02031608857214451,0.4627336263656616],[-0.04545791447162628,-0.04006807133555412,-0.0896369218826294,-0.051325615495443344,0.05425571650266647,0.10704497992992401],[-0.11946297436952591,-1.1783654689788818,2.6171560287475586,2.875305414199829,-1.2030671834945679,-1.3050004243850708],[-0.09043783694505692,-0.08366820961236954,0.11577531695365906,0.02826949954032898,-0.015726976096630096,-0.08846202492713928],[-0.4967744052410126,-3.38047194480896,0.7877063155174255,-0.25695881247520447,1.1668843030929565,-0.28123143315315247],[-0.5114535689353943,0.01914757862687111,0.24694210290908813,0.26864364743232727,-0.16734051704406738,0.48851674795150757],[-0.12470882385969162,-0.030834602192044258,0.1629088968038559,-0.05215282365679741,-0.17122000455856323,-0.0629551038146019],[-0.15561223030090332,0.016745485365390778,-0.12769271433353424,-0.1045781672000885,-0.017034733667969704,0.017258435487747192],[0.1489194631576538,-0.13297052681446075,-0.17733187973499298,-0.0014157495461404324,-0.20312397181987762,-0.16809409856796265],[0.11953499168157578,2.28962779045105,2.449302911758423,-0.5182846188545227,-0.9308333992958069,-0.5995142459869385],[-0.2366836816072464,-0.13884027302265167,-0.9737027883529663,1.5033854246139526,0.07688433676958084,0.8639660477638245],[-0.7602198719978333,0.866011381149292,-2.9805736541748047,1.0029654502868652,0.7929338812828064,-0.1991187334060669],[-0.19155453145503998,-0.15394355356693268,-0.1973598450422287,-0.14463499188423157,-0.03631366416811943,-0.0011178330751135945],[-0.14241251349449158,0.17075471580028534,-0.09541890770196915,0.11898898333311081,-0.07179470360279083,0.15173722803592682],[-0.604060173034668,-0.6724686026573181,0.3554781675338745,0.28043466806411743,0.20694324374198914,-0.32396915555000305],[-0.10101266205310822,-0.1886003017425537,-0.010568970814347267,0.12074130028486252,0.1094026044011116,-0.11931554973125458],[0.00556554738432169,1.6039570569992065,-3.7893588542938232,1.7635141611099243,0.091298408806324,-0.43994244933128357],[0.19434402883052826,-0.04965529590845108,-0.20850729942321777,0.0455782413482666,-0.07810582220554352,0.2910082936286926],[0.15340299904346466,0.050731904804706573,-0.17921742796897888,0.000037520763726206496,-0.19215154647827148,-0.05638277158141136]],"biases":[0.33255255222320557,-0.14297614991664886,-0.07047800719738007,-1.0306358337402344,-0.16703826189041138,0.6521584391593933,-0.2216256707906723,-0.02403382584452629,0.12041676044464111,0.09970984607934952,-0.5596154928207397,-0.09963249415159225,0.5299147963523865,0.06393318623304367,-0.12246095389127731,0.24269573390483856,-0.1080746278166771,0.23589462041854858,-0.06985294073820114,0.08516126871109009]},{"weights":[[-0.11163656413555145,0.025225680321455002,-0.19538447260856628,0.07668554782867432,-0.16202442348003387,-0.003550376743078232,-0.043681491166353226,0.09774298965930939,0.18291907012462616,0.17686019837856293,-0.0412360243499279,-0.07121273130178452,0.04060057923197746,0.09530568867921829,0.12387418746948242,0.08185412734746933,-0.1086907610297203,0.028570998460054398,-0.010325036011636257,-0.03652795031666756],[0.26134246587753296,-0.3006812632083893,-0.10358972102403641,0.055286191403865814,-0.1864578276872635,-0.6460980772972107,-0.3200133740901947,-0.03579835221171379,0.03751393407583237,0.0819716826081276,-0.5512999296188354,-0.08439823240041733,0.3562444746494293,0.1281966269016266,-0.21687528491020203,-0.05501241981983185,-0.1594143807888031,0.5156506299972534,0.12858659029006958,-0.04135157912969589],[0.21820755302906036,0.031205948442220688,0.10233525931835175,0.06316264718770981,0.17410653829574585,0.05461195483803749,-0.09440106153488159,-0.02695557475090027,-0.13591034710407257,0.11827782541513443,0.33787018060684204,-0.28359106183052063,-0.23943732678890228,0.18112727999687195,0.1302100270986557,-0.18894724547863007,-0.0528995655477047,0.30505818128585815,0.15061672031879425,0.14541156589984894],[-0.16189078986644745,-0.43931713700294495,0.14277835190296173,-0.08651753515005112,0.11896824091672897,-0.9167344570159912,-0.10066904872655869,0.18465065956115723,0.017715327441692352,-0.12390071153640747,-0.843408465385437,0.22375085949897766,-0.13988012075424194,-0.16627652943134308,-0.1598583459854126,0.03214528039097786,-0.012407929636538029,-0.152069091796875,0.2920002341270447,0.051806025207042694],[0.2492615431547165,0.1869862973690033,0.0932801216840744,-0.518355667591095,-0.05559142306447029,0.7795896530151367,0.3189834654331207,0.040638234466314316,-0.1684257537126541,-0.1503370702266693,0.9042907953262329,-0.47047266364097595,-0.09096235781908035,-0.14669395983219147,-0.01334325224161148,-0.2376021444797516,-0.19595001637935638,-0.03494323790073395,-0.05830535665154457,-0.1275181621313095],[-0.1113152727484703,0.09490243345499039,0.07893505692481995,-0.02952396124601364,0.06185818463563919,-0.05877626687288284,-0.11551454663276672,-0.1748809814453125,-0.010419167578220367,-0.0353836864233017,-0.13684944808483124,-0.054788053035736084,0.07571565359830856,-0.022533949464559555,0.032264333218336105,-0.1994081735610962,0.08471166342496872,0.1447111964225769,-0.05968250334262848,0.03588491305708885],[0.33570823073387146,0.07791569828987122,0.002623489359393716,-0.47371020913124084,-0.11358539760112762,0.11322907358407974,-0.0562632791697979,-0.17289413511753082,-0.03944507986307144,0.1259431540966034,-0.013896489515900612,-0.21544787287712097,0.04904725030064583,-0.08320856094360352,-0.05555299296975136,-0.3169807195663452,0.13889223337173462,0.21925219893455505,-0.12750430405139923,-0.05861821398139],[-0.16184461116790771,-0.04376380890607834,0.11741790175437927,-1.5462948083877563,0.0737244039773941,0.18406522274017334,0.2295261174440384,0.12866364419460297,0.08390557765960693,0.17234578728675842,0.2808476686477661,-0.09685851633548737,-0.13686592876911163,-0.19963188469409943,0.20278699696063995,0.4700293242931366,0.00034100888296961784,-1.0013669729232788,-0.08165491372346878,0.10403211414813995],[0.1096746101975441,-0.12880706787109375,-0.05866003409028053,0.6614598631858826,0.1406422108411789,0.06543651968240738,-0.08354829251766205,0.003539017168805003,-0.15146104991436005,0.043426819145679474,0.008508983068168163,0.0483410507440567,-0.5328987836837769,0.04004610702395439,0.17470893263816833,0.12831683456897736,0.0437127985060215,-0.29364198446273804,-0.03704118728637695,-0.033926043659448624],[-0.20770902931690216,0.07669272273778915,-0.08492440730333328,0.7094351649284363,0.19315341114997864,0.19963273406028748,0.3228524923324585,0.08718397468328476,-0.09278549253940582,0.04835207015275955,0.25036537647247314,-0.026314016431570053,0.053597889840602875,-0.12433601170778275,-0.07222799211740494,-0.05296999216079712,-0.14953885972499847,-0.22106105089187622,-0.1441403478384018,0.0138207683339715],[0.28541475534439087,-0.10872067511081696,0.19533783197402954,0.1127275750041008,0.03944624215364456,-0.039534177631139755,-0.044478923082351685,-0.17291639745235443,-0.031589508056640625,-0.08760737627744675,-0.3308701515197754,-0.20399558544158936,-0.2450839728116989,-0.022924665361642838,0.12313061207532883,0.07901826500892639,-0.13614881038665771,0.0749455913901329,0.000960214005317539,-0.06499248743057251],[-0.013670644722878933,-0.16200865805149078,0.07392451912164688,0.6971926689147949,0.07531443983316422,0.3417796492576599,0.04428870975971222,-0.09278993308544159,0.037522751837968826,0.1642807275056839,0.16439153254032135,-0.18063540756702423,-0.3406095802783966,0.062268804758787155,0.008359321393072605,0.4054224491119385,-0.06605549156665802,-0.6531355977058411,-0.11393006145954132,0.06942453980445862],[-0.4686630070209503,0.10110794007778168,-0.18777750432491302,0.15856491029262543,-0.18880420923233032,-0.264116495847702,0.0026887101121246815,-0.14630410075187683,-0.06278986483812332,-0.12981438636779785,0.8088343143463135,-0.46034300327301025,0.06819969415664673,-0.12470439076423645,0.16887761652469635,0.2966145873069763,0.1889188438653946,-0.3999079167842865,-0.13848985731601715,-0.1879158467054367],[0.17593498528003693,-0.1548691689968109,-0.0015636392636224627,-0.4863358438014984,0.1272120326757431,-0.0008541293791495264,-0.11662032455205917,0.1419142186641693,-0.09010782837867737,-0.07631020247936249,-0.022454233840107918,-0.14364203810691833,0.26678919792175293,0.024404453113675117,-0.11148061603307724,0.0455753393471241,0.013922461308538914,0.6844490170478821,-0.14266692101955414,-0.05007706582546234],[-0.06869228184223175,-0.05680019408464432,0.009455089457333088,-0.15213017165660858,0.005464780144393444,0.027849173173308372,-0.07570347189903259,0.18467402458190918,0.1392870843410492,-0.050391796976327896,-0.049378652125597,-0.11521837115287781,0.10065003484487534,0.12219660729169846,0.1127978190779686,-0.18868915736675262,-0.004479534924030304,-0.11713678389787674,0.01960768550634384,-0.04628574103116989],[-0.06536002457141876,0.11243260651826859,-0.08972731977701187,0.27396360039711,0.0051121897995471954,0.13424380123615265,0.22889025509357452,0.052943211048841476,-0.02597743831574917,0.011244463734328747,-0.04093116894364357,0.21555474400520325,-0.2963615953922272,0.05556073039770126,-0.12674762308597565,0.010061884298920631,0.05473562702536583,0.43180832266807556,0.01508700754493475,-0.0426613911986351],[-0.25298649072647095,0.022773094475269318,0.043912142515182495,0.8045346736907959,-0.043890055269002914,-0.023163210600614548,0.04504307359457016,0.17051343619823456,-0.12539741396903992,0.09576916694641113,0.32279708981513977,-0.4864664673805237,-1.0623358488082886,-0.14363645017147064,0.1174728199839592,0.006734420545399189,0.02474040724337101,-0.2509307563304901,-0.11470185965299606,0.02343158982694149],[0.4103769361972809,-0.35816308856010437,0.0024234873708337545,0.08919643610715866,0.006674947217106819,-0.45043718814849854,-0.4156244397163391,-0.02734849788248539,-0.11566553264856339,0.04176252707839012,-0.6322843432426453,0.11323045939207077,0.5398406386375427,0.08624158054590225,0.00755532318726182,-0.00026432148297317326,-0.14092373847961426,0.7131220102310181,-0.116729237139225,0.1567784547805786],[0.3243003189563751,-0.16222290694713593,0.19200396537780762,-0.3338356018066406,-0.14949360489845276,-0.33812156319618225,0.15864111483097076,0.09994392096996307,-0.12582208216190338,-0.00024533068062737584,-0.2226015031337738,-0.11285653710365295,-0.20197105407714844,0.008245431818068027,0.057153794914484024,-0.16184140741825104,0.12006696313619614,0.07142797857522964,0.061403147876262665,-0.1843959093093872],[0.1270734667778015,-0.03301567956805229,0.01957254856824875,-0.0900733470916748,-0.10499358177185059,0.24892544746398926,-0.07623458653688431,0.1318737119436264,0.13274087011814117,-0.06293173134326935,0.019860906526446342,-0.07805193215608597,-0.09696072340011597,-0.0268325824290514,0.02011856622993946,-0.03652261197566986,0.06088007986545563,-0.10151488333940506,0.12534792721271515,0.0645255595445633],[-0.21444328129291534,-0.1888292133808136,-0.0576770044863224,0.215864896774292,0.0936560332775116,-0.1626311093568802,-0.1127927377820015,-0.14726676046848297,0.01265569869428873,-0.11477211117744446,0.0644993707537651,-0.2338382452726364,-0.33164504170417786,0.15938231348991394,0.16599462926387787,-0.15832756459712982,-0.07747390866279602,-0.11760947108268738,-0.1582159399986267,0.18234702944755554],[0.49309298396110535,-0.13620923459529877,-0.18595248460769653,-0.15362891554832458,0.03096487745642662,-0.6405665874481201,-0.06581403315067291,-0.11380355060100555,-0.00643364991992712,0.06125614419579506,-0.19163885712623596,-0.22032399475574493,0.30412375926971436,-0.08914069086313248,-0.17776760458946228,0.007799594197422266,-0.06915492564439774,0.18417757749557495,0.07812763750553131,-0.1737901121377945],[0.05074533820152283,-0.08406250178813934,-0.07220608741044998,-0.12848980724811554,0.0611344613134861,0.11061646789312363,-0.09627100080251694,0.01428090501576662,-0.1959514617919922,-0.10830812156200409,-0.2210722714662552,0.08390151709318161,-0.008673213422298431,-0.1877211183309555,0.046354569494724274,0.27555161714553833,-0.028738917782902718,-0.2921369671821594,-0.0025639357045292854,0.1852734386920929],[-0.19132952392101288,0.07755539566278458,-0.11205022782087326,0.1924324780702591,0.12672235071659088,0.1710936725139618,-0.03474408760666847,-0.004967028275132179,0.15430234372615814,0.066786989569664,0.01509223971515894,-0.02810642495751381,-0.0006687320419587195,-0.1996961385011673,0.1112651452422142,0.21705742180347443,-0.12378537654876709,-0.16405397653579712,-0.12610025703907013,-0.03823113813996315],[0.18641535937786102,0.18076978623867035,0.1326036900281906,-0.3305853307247162,-0.12993399798870087,0.03933561220765114,-0.10318662971258163,-0.014172983355820179,0.08125188201665878,-0.0665702298283577,-0.07381971180438995,0.28961998224258423,0.29574546217918396,-0.03949100151658058,-0.010622446425259113,-0.01634387858211994,0.18968157470226288,-0.04385790601372719,-0.034976527094841,0.08558956533670425],[-0.4321187734603882,0.04764538258314133,0.05103868991136551,0.7618691325187683,0.1353628784418106,0.16519522666931152,-0.06263264268636703,-0.06139751523733139,-0.1070370227098465,0.07070548832416534,1.065730333328247,-0.08612821251153946,-0.5594474673271179,-0.08972423523664474,0.19082681834697723,0.15629854798316956,-0.16771870851516724,-0.5259263515472412,-0.00009786500595510006,-0.1906231790781021],[0.015013200230896473,-0.10699155181646347,0.008073467761278152,-0.08603621274232864,-0.1527179479598999,-0.1253652125597,-0.18400391936302185,-0.12262624502182007,0.0063225869089365005,-0.12040131539106369,-0.13718417286872864,-0.11619289964437485,0.05874071642756462,-0.09392375499010086,0.14709165692329407,0.16377829015254974,-0.19674257934093475,-0.10787897557020187,0.03009798377752304,0.05716019868850708],[-0.27449169754981995,-0.12416496872901917,0.17923679947853088,0.12552356719970703,-0.12643349170684814,-0.1318943053483963,-0.031160863116383553,0.18667002022266388,-0.08793110400438309,0.19069890677928925,0.9017853736877441,0.6075565814971924,0.16943824291229248,-0.09759052097797394,-0.035447388887405396,-0.4488576650619507,0.0757908746600151,-0.1262054741382599,0.04429566487669945,0.08551210165023804],[0.3875620365142822,0.08366558700799942,0.1537938117980957,-0.13122998178005219,-0.1874495893716812,0.05861292779445648,-0.19740435481071472,0.06754200160503387,-0.17075376212596893,0.03439347445964813,0.048940956592559814,0.144211545586586,0.16554392874240875,0.051946982741355896,-0.13290508091449738,-0.06199155002832413,-0.0757874995470047,0.5193012952804565,-0.1509009152650833,-0.07622009515762329],[0.33651769161224365,0.0292220301926136,-0.09309358894824982,-0.13848556578159332,-0.026778822764754295,-0.20416633784770966,-0.09559519588947296,0.1522333174943924,0.18958906829357147,-0.1692766398191452,-1.2988662719726562,-0.03003823570907116,0.22919781506061554,0.01906120404601097,-0.16773410141468048,-0.03821159526705742,0.27554771304130554,0.20351332426071167,-0.1569732129573822,-0.12399222701787949],[0.15741564333438873,0.1041913628578186,-0.1399267613887787,-0.13225708901882172,0.16818642616271973,-0.118916817009449,0.07170448452234268,-0.14242860674858093,0.061376236379146576,0.04462367668747902,0.5224506258964539,0.08835103362798691,0.44228145480155945,0.044483475387096405,-0.11768016219139099,-0.2119244486093521,0.09003451466560364,0.8056096434593201,0.07089890539646149,0.001099632354453206],[-0.16007395088672638,-0.1475452333688736,0.05320880562067032,0.004553235601633787,-0.011981718242168427,0.1137048676609993,-0.12591174244880676,-0.1695510596036911,-0.1468128114938736,-0.1680660843849182,-0.14847993850708008,0.22738125920295715,0.30472683906555176,-0.03587908297777176,-0.2251182645559311,0.07119099050760269,0.17681489884853363,-0.013316874392330647,0.2026032954454422,-0.006011281628161669],[-0.06529619544744492,-0.0996536910533905,-0.1185833290219307,0.18650022149085999,0.06648903340101242,-0.10415714979171753,-0.08410896360874176,0.18588678538799286,-0.13127006590366364,0.09608389437198639,-0.018270250409841537,-0.014329983852803707,-0.11746148765087128,0.04944050312042236,-0.06240413710474968,-0.16674722731113434,-0.008719855919480324,0.058788832277059555,-0.19565832614898682,0.01301832776516676],[-0.10149148106575012,0.0636642724275589,0.006561979651451111,-0.025725366547703743,0.04212513938546181,-0.19552046060562134,0.1071413904428482,-0.1879172921180725,-0.1494983732700348,0.16661415994167328,-0.16714666783809662,-0.10103575885295868,-0.03849218785762787,0.0905369222164154,0.0484134703874588,0.12964537739753723,0.10255024582147598,0.006544383708387613,-0.03108319267630577,-0.10535154491662979],[0.019859174266457558,-0.11507634073495865,-0.02933470718562603,0.05114904046058655,0.048004165291786194,-0.01665436662733555,0.12188982218503952,0.07078294456005096,-0.15132257342338562,0.18773551285266876,0.10217434167861938,-0.20936889946460724,-0.1084059476852417,0.015740741044282913,0.020485833287239075,-0.0733012780547142,-0.09590908139944077,-0.1822848618030548,0.042914919555187225,-0.10240940749645233],[-0.014222907833755016,0.015453510917723179,-0.1398925632238388,0.05714242905378342,0.08623205870389938,-1.5560237169265747,0.005763092078268528,-0.13421979546546936,-0.01958632841706276,0.07099726796150208,0.5927869081497192,-0.176385298371315,0.13474123179912567,-0.18193694949150085,0.08803480863571167,0.14872756600379944,0.06547924876213074,-0.03265839070081711,0.136582612991333,0.027133425697684288],[-0.12335444241762161,0.06542576104402542,0.04641280695796013,0.12416267395019531,-0.0038968650624156,-0.0493861548602581,-0.037483956664800644,0.11122579127550125,-0.04455019533634186,0.09799676388502121,-0.012342593632638454,0.024206679314374924,-0.1543278992176056,0.09102309495210648,-0.16237100958824158,0.17962342500686646,0.11990485340356827,0.14613641798496246,0.009737320244312286,-0.16828736662864685],[0.3232414126396179,0.007990105077624321,-0.1190311536192894,-0.27717944979667664,-0.16540050506591797,-0.11996865272521973,-0.3127502501010895,0.10066359490156174,-0.16581355035305023,0.05750253424048424,-0.4292740225791931,-0.054175637662410736,0.5000149607658386,-0.10742554813623428,0.04946577176451683,0.13369326293468475,-0.11921792477369308,0.5934386253356934,0.19094958901405334,0.1523672640323639],[-0.0205058716237545,0.12961818277835846,-0.15957246720790863,0.1263120323419571,0.13052380084991455,-0.1549243927001953,0.05755885690450668,0.005736795719712973,0.07947190850973129,-0.11736495792865753,-0.06912679970264435,0.06689251959323883,-0.14166536927223206,0.1326608806848526,-0.11708531528711319,0.1275901049375534,0.12475090473890305,-0.07678405195474625,-0.18955087661743164,0.084264375269413],[0.11039939522743225,0.20136958360671997,-0.18348266184329987,0.3549305498600006,-0.030860640108585358,0.16100642085075378,0.019481880590319633,-0.12578850984573364,-0.07672803103923798,0.1283188760280609,0.030521919950842857,0.19032707810401917,-0.19132082164287567,-0.1963663548231125,-0.025854909792542458,0.023823851719498634,-0.175588458776474,-0.017130304127931595,0.0590239018201828,-0.08412379771471024]],"biases":[-0.10730759799480438,0.4596582055091858,-0.6523654460906982,1.0067204236984253,-0.25933030247688293,-0.1989787518978119,0.2325490117073059,0.45677268505096436,0.20380191504955292,-0.10313327610492706,0.25807663798332214,0.06770803779363632,-0.7730265259742737,0.24816690385341644,-0.09448754042387009,0.0298543069511652,-0.4697287678718567,0.38148635625839233,0.5236033797264099,-0.11713850498199463,-0.03107454441487789,0.5049593448638916,0.5524349212646484,-0.0033711197320371866,0.000793429440818727,-0.40572506189346313,-0.12564495205879211,-1.6372876167297363,-0.06647669523954391,1.107524037361145,-1.3399596214294434,0.04986754432320595,-0.13470984995365143,-0.030015330761671066,-0.20863927900791168,0.2550923526287079,-0.13897940516471863,0.20633317530155182,-0.07993585616350174,0.02312750369310379]},{"weights":[[-0.1505185067653656,0.05543430149555206,0.09207683056592941,0.10705850273370743,0.014943552203476429,-0.06214144825935364,-0.11942582577466965,0.038219552487134933,-0.05950888618826866,-0.12140347808599472,-0.12617133557796478,-0.08075816184282303,0.010589642450213432,0.07504257559776306,-0.16771431267261505,-0.066685751080513,-0.14631807804107666,-0.035391468554735184,0.02628682740032673,0.1981460303068161,0.051469191908836365,0.09461181610822678,0.03480648249387741,0.09363161027431488,-0.027493881061673164,0.10451644659042358,0.15938937664031982,-0.12164272367954254,-0.13742780685424805,-0.1639789491891861,-0.09293416887521744,0.011405522003769875,0.06375923752784729,0.19351434707641602,-0.06362828612327576,0.008866035379469395,-0.11958055943250656,0.1892380565404892,-0.19497855007648468,0.01978035271167755],[0.13333386182785034,-0.1991608440876007,-0.3071383535861969,-0.26790377497673035,0.028000617399811745,0.13872909545898438,0.015204500406980515,0.5933560132980347,0.1697435826063156,-0.23681733012199402,0.14650021493434906,-0.12549839913845062,-0.6201264262199402,0.002531263744458556,0.07756512612104416,-0.11096525192260742,-0.898377537727356,0.4949512183666229,-0.19779038429260254,0.2050289362668991,-0.2894481122493744,0.00002400818448222708,0.24271824955940247,-0.2307441681623459,0.29281121492385864,0.2019936740398407,0.10411282628774643,1.2427127361297607,0.08274191617965698,0.29706770181655884,0.6845285892486572,-0.015906453132629395,-0.13590547442436218,-0.08011185377836227,-0.01630156859755516,0.21430093050003052,0.1273493617773056,0.23560070991516113,-0.17213718593120575,-0.13678790628910065],[0.1341841071844101,-0.021984457969665527,-0.004629227798432112,0.14429043233394623,-1.0579475164413452,-0.09915778785943985,-0.46691563725471497,-0.7078806161880493,-0.5910854339599609,0.07217710465192795,0.07860039919614792,0.19743338227272034,0.7876495718955994,-0.06659305840730667,-0.12075427919626236,0.061421725898981094,-0.017015958204865456,-0.12177908420562744,0.31941598653793335,-0.24482281506061554,0.1377738118171692,-0.18980276584625244,0.17811690270900726,0.15370267629623413,-0.14116649329662323,-0.18959787487983704,0.05897105112671852,-0.5386630296707153,-0.11645840108394623,0.6064359545707703,0.14536821842193604,0.12959124147891998,-0.1219148188829422,-0.04362862557172775,-0.070731520652771,1.0531201362609863,-0.15775083005428314,-0.12366282194852829,0.1978091299533844,-0.06778109073638916],[-0.018339261412620544,-0.1949092149734497,-0.049757443368434906,0.09518344700336456,-0.15661627054214478,0.11899956315755844,-0.21509987115859985,-0.14032688736915588,-0.11823706328868866,0.034734923392534256,0.038482651114463806,-0.15017516911029816,0.04477449879050255,-0.10803818702697754,0.16867612302303314,0.14814957976341248,-0.09653410315513611,-0.08500799536705017,-0.038079336285591125,-0.11584600061178207,0.0942956879734993,0.0062066721729934216,-0.06613411754369736,0.10702375322580338,0.07312662899494171,-0.13060469925403595,-0.13845650851726532,-0.09842439740896225,-0.14954502880573273,0.08233744651079178,0.09728796035051346,0.16802872717380524,0.025940896943211555,0.1966143399477005,0.07147066295146942,0.12450125813484192,0.11486096680164337,-0.052105266600847244,0.18807415664196014,-0.004402394872158766],[-0.026144618168473244,0.23425982892513275,0.025529470294713974,0.3937307894229889,0.0395500473678112,-0.1552872508764267,-0.03995799273252487,-0.044307395815849304,-0.22842872142791748,-0.3062302768230438,0.15196959674358368,-0.3023255169391632,-0.07159538567066193,-0.03892076760530472,0.18460863828659058,0.04700266942381859,-0.07347681373357773,0.04378340765833855,-0.03446530923247337,-0.026950441300868988,0.1605600267648697,0.17830392718315125,-0.002397491130977869,0.004749531392008066,-0.1135697215795517,-0.15383388102054596,0.14079298079013824,0.14987605810165405,-0.01831693947315216,0.016902737319469452,-0.004307609051465988,0.1353812962770462,-0.09646479040384293,0.14092600345611572,0.09681949019432068,-0.3216628134250641,0.19855758547782898,-0.09496554732322693,-0.03434309363365173,-0.1122572124004364],[-0.052096735686063766,-0.30798351764678955,0.05970390886068344,-0.038049958646297455,-0.1107046902179718,-0.133585125207901,-0.17116616666316986,0.03955182805657387,0.11877742409706116,-0.1663276106119156,-0.12164241820573807,0.2005055546760559,-0.18962588906288147,0.10316157341003418,-0.1000615581870079,-0.1145116537809372,0.018041148781776428,-0.11962366849184036,-0.28854885697364807,-0.02308032661676407,0.03850885480642319,0.08104274421930313,0.19807137548923492,0.055587492883205414,-0.12005359679460526,0.23266161978244781,0.06284907460212708,-0.13288459181785583,0.0863698422908783,0.2521859109401703,0.03720780462026596,0.16238969564437866,0.03552105277776718,-0.1873982548713684,-0.06076003611087799,-0.1720483899116516,-0.005791864823549986,0.09583012014627457,-0.17782694101333618,-0.074672169983387],[0.018179018050432205,-0.2246653288602829,0.038536351174116135,-0.03508622944355011,-0.17347507178783417,-0.10539814084768295,-0.1255410611629486,-0.1490640938282013,-0.0740613117814064,0.047823019325733185,0.024849921464920044,-0.06341508030891418,-0.10674604028463364,0.03902812674641609,-0.01885414496064186,-0.16271275281906128,-0.014586423523724079,0.20957109332084656,-0.20909428596496582,0.12144697457551956,0.055727481842041016,-0.2353566288948059,0.17870810627937317,-0.024980347603559494,0.21848724782466888,0.0670635849237442,0.033601172268390656,0.17879651486873627,-0.17295876145362854,0.2375359684228897,-0.01707633025944233,-0.11924141645431519,-0.16503572463989258,0.10241051763296127,0.030861571431159973,0.028478773310780525,0.19137036800384521,-0.15470027923583984,-0.04187978431582451,0.1897066831588745],[-0.17642270028591156,-0.13031147420406342,0.17403177917003632,-0.06371045857667923,0.18416154384613037,0.08756804466247559,-0.06182402744889259,-0.13289225101470947,-0.126970574259758,-0.1955338418483734,0.07742005586624146,0.06811251491308212,0.07313668727874756,-0.16935893893241882,0.10723274201154709,0.10511650145053864,0.05124683678150177,0.17296499013900757,-0.17590630054473877,0.05170122906565666,-0.026139624416828156,0.03131478279829025,0.018532101064920425,0.14643390476703644,0.029642393812537193,-0.09820381551980972,-0.016999047249555588,-0.055398665368556976,-0.18748001754283905,-0.12415999919176102,0.1447245329618454,0.15445353090763092,0.12058630585670471,0.06835371255874634,-0.10296415537595749,-0.1414894312620163,0.06091625243425369,0.16547207534313202,0.09904886037111282,-0.10048893094062805],[-0.059133730828762054,-0.11626873910427094,0.22602909803390503,0.14244066178798676,0.3458916246891022,0.0285127405077219,0.037766989320516586,0.3635939955711365,0.03335108235478401,-0.1396014541387558,0.16459357738494873,0.0705893263220787,0.19522599875926971,0.08579179644584656,0.03984377533197403,-0.26986971497535706,0.015589525923132896,-0.08642908185720444,-0.017528625205159187,0.09819531440734863,0.10486642271280289,-0.23187120258808136,-0.21553756296634674,0.0097236018627882,-0.08616239577531815,-0.1830233335494995,0.19198733568191528,0.2470862865447998,-0.1774604767560959,-0.056762583553791046,0.10733874887228012,-0.01739453338086605,0.05467148497700691,0.1111312285065651,-0.059610359370708466,-0.2446628212928772,-0.008086655288934708,0.007372490130364895,0.04697912558913231,-0.22338750958442688],[-0.004797765985131264,0.0001915962784551084,0.023182425647974014,-0.01598021760582924,0.024095313623547554,0.00765239167958498,-0.0892169401049614,0.27739638090133667,0.16005583107471466,0.019662437960505486,0.10526256263256073,0.06667528301477432,0.004505558405071497,-0.16625364124774933,-0.169629767537117,-0.14112362265586853,0.042573925107717514,0.11910738050937653,0.12800833582878113,0.01656218059360981,-0.15254464745521545,-0.2918007969856262,0.046989232301712036,0.16513291001319885,-0.12309876829385757,-0.09201206266880035,-0.049740687012672424,0.3753652572631836,0.05293929576873779,-0.1931842416524887,-0.1346224993467331,-0.015187093988060951,0.12295334041118622,0.14659856259822845,0.18277178704738617,0.061686012893915176,0.11564328521490097,0.15111663937568665,-0.0784553736448288,-0.003963729366660118],[0.17762728035449982,-0.08322498947381973,-0.06489246338605881,-0.06728141009807587,-0.12858636677265167,-0.03613889589905739,0.10879909992218018,0.11191845685243607,-0.16818997263908386,-0.06478428840637207,-0.12618359923362732,0.009710393846035004,0.11416465789079666,-0.15680153667926788,0.1362922638654709,0.09339830279350281,0.04167545959353447,0.02130052074790001,0.19022981822490692,0.044642653316259384,-0.1794947236776352,0.12096958607435226,-0.19738146662712097,-0.16338331997394562,0.17203271389007568,-0.07807743549346924,-0.10032685846090317,-0.14639495313167572,-0.17239418625831604,-0.18998746573925018,-0.06599778681993484,0.18199890851974487,0.17801333963871002,0.027890382334589958,-0.12218455970287323,-0.06498846411705017,-0.018429581075906754,-0.1392369419336319,0.016685601323843002,0.18649284541606903],[0.03888595849275589,0.311039537191391,-0.08249974250793457,0.07646089047193527,0.059568725526332855,0.10472911596298218,0.06713849306106567,0.2190452516078949,-0.053077880293130875,-0.10440997034311295,0.08884379267692566,0.11507339030504227,0.2301972359418869,0.06467296928167343,0.05788261443376541,0.3272365927696228,-0.17404396831989288,0.23745454847812653,-0.12459392845630646,-0.014892560429871082,0.15735016763210297,-0.28868627548217773,0.024603866040706635,-0.06486236304044724,-0.23551546037197113,-0.09456433355808258,-0.11215366423130035,-0.16412101686000824,-0.08514071255922318,-0.04861467704176903,-0.0700930804014206,0.11637204140424728,-0.025617148727178574,-0.15941745042800903,0.0706937164068222,-0.00725264148786664,-0.07297588884830475,-0.1419558823108673,-0.16504257917404175,0.16359083354473114],[-0.1750485897064209,-0.07305707037448883,-0.5699400305747986,0.6191293001174927,0.019521445035934448,0.15985776484012604,-0.057100530713796616,-1.00858736038208,0.16178512573242188,0.5411396622657776,0.264428973197937,0.17690281569957733,-0.6066256165504456,-0.14216002821922302,-0.05843169242143631,0.09663804620504379,0.3935509920120239,-0.11970143765211105,-0.10522237420082092,0.10754502564668655,0.2619969844818115,-0.1772577464580536,-0.3710305392742157,0.001652408391237259,0.045457884669303894,-0.2413400262594223,0.00018941507732961327,0.23914410173892975,0.09523576498031616,0.6522799730300903,-0.5062376856803894,-0.017252760007977486,0.0004522071685642004,0.19552555680274963,-0.123454250395298,1.0101066827774048,-0.1342499703168869,0.00451368885114789,0.015655910596251488,0.24689626693725586],[0.12598463892936707,-0.07972504943609238,0.18204262852668762,-0.09402576088905334,0.2390580177307129,0.19374676048755646,0.2797180712223053,0.2484760731458664,-0.25135764479637146,-0.23792286217212677,0.2779291868209839,-0.3331820070743561,-0.09035953879356384,0.39235368371009827,0.14216360449790955,-0.28936856985092163,0.022068418562412262,0.06779136508703232,-0.18878304958343506,0.1388145089149475,0.02015378512442112,0.10346899181604385,-0.08057856559753418,-0.1819908767938614,-0.01848580129444599,-0.33511513471603394,-0.10571650415658951,-0.13978581130504608,0.12313903868198395,0.05653954669833183,0.07519278675317764,0.06505340337753296,-0.041547827422618866,-0.05033797025680542,-0.06613799929618835,-0.2701837122440338,0.009170386008918285,0.2264590561389923,0.028185104951262474,-0.1813972443342209],[-0.05433573201298714,-0.46843421459198,0.3475686013698578,0.07610239833593369,-0.10669472068548203,0.07667286694049835,-0.2583625018596649,0.03351358696818352,-0.04683293402194977,0.3005535900592804,-0.20318444073200226,0.2129276841878891,-0.1601327359676361,-0.3498954176902771,0.14823757112026215,-0.04204550385475159,0.26617431640625,-0.5129597187042236,-0.5869848728179932,-0.10192637890577316,-0.0458032451570034,-0.183926522731781,-0.2255641669034958,-0.0415373295545578,-0.17849195003509521,0.7605307698249817,0.1721125692129135,-1.2190992832183838,-0.14339138567447662,-0.10496968775987625,-0.3605733811855316,0.19500097632408142,0.19947421550750732,0.19793088734149933,0.08201052248477936,0.2797880470752716,-0.023823890835046768,-0.08134658634662628,0.07558467239141464,0.018319061025977135],[0.18463239073753357,-0.20058581233024597,-0.03983249515295029,0.031560249626636505,-0.11687655001878738,-0.09481140971183777,-0.2447167932987213,0.11125820130109787,-0.22359810769557953,0.15725965797901154,0.04937692731618881,-0.1037035807967186,0.10427770018577576,-0.17906464636325836,-0.000897206540685147,0.09831760823726654,0.021021731197834015,-0.21049067378044128,-0.12134455144405365,0.06238095462322235,-0.19015231728553772,0.04141416400671005,-0.14796936511993408,0.0374031700193882,-0.12265051901340485,0.14945465326309204,0.19632165133953094,-0.10525982081890106,-0.11931289732456207,-0.039479635655879974,0.17737337946891785,0.17058472335338593,-0.034091539680957794,-0.06438108533620834,0.005633863154798746,0.020468495786190033,-0.00385112757794559,0.1254892349243164,-0.14467792212963104,-0.024267949163913727],[0.1964358687400818,-0.7595947980880737,0.3464769423007965,-1.1026999950408936,-0.36210697889328003,-0.030800379812717438,0.021284205839037895,-0.4370046555995941,0.32425135374069214,0.25594279170036316,-0.20375129580497742,0.5746080279350281,0.4283294975757599,-0.32581382989883423,-0.173043891787529,0.22501695156097412,-0.339630663394928,-0.6957368850708008,-0.04774905741214752,-0.06046735495328903,-0.14144228398799896,-0.15405693650245667,0.13902948796749115,0.21698664128780365,0.03771902620792389,0.062240175902843475,-0.05914318561553955,-0.3830322325229645,-0.11034801602363586,-0.7332882881164551,0.6520417928695679,0.022475291043519974,-0.13124434649944305,0.14538773894309998,-0.07487692683935165,0.40338006615638733,-0.03604285418987274,-0.5556639432907104,0.14736272394657135,0.3106083273887634],[-0.09692148864269257,0.02010735496878624,0.19176897406578064,0.17160160839557648,-0.22121596336364746,-0.18681199848651886,-0.08428124338388443,0.44605931639671326,0.20175117254257202,-0.15017181634902954,-0.15472747385501862,0.2688414752483368,0.052600108087062836,-0.7658315896987915,-0.14029563963413239,-0.24526599049568176,0.29911261796951294,-0.1846241056919098,-0.1621614396572113,-0.05334363505244255,0.08298393338918686,-0.3215571641921997,-0.1789647936820984,-0.06385014206171036,-0.09025369584560394,0.29809656739234924,0.17451168596744537,0.3988800048828125,-0.4051041603088379,0.14464837312698364,-0.2789676785469055,-0.07328157871961594,-0.07413485646247864,0.13333454728126526,0.25462982058525085,-0.19026809930801392,-0.004221729468554258,0.026639681309461594,0.15485438704490662,-0.10817965865135193],[0.14813515543937683,-0.080765001475811,-0.16957232356071472,0.08840088546276093,0.16334298253059387,0.08050702512264252,0.002118949545547366,-0.36442920565605164,-0.05786452442407608,-0.1707780659198761,0.09278329461812973,-0.44145891070365906,-0.24514199793338776,0.29525482654571533,0.08125650882720947,0.17957031726837158,-0.14139167964458466,0.25540804862976074,0.25526735186576843,0.06378795951604843,-0.08626525104045868,0.23445621132850647,-0.34302401542663574,0.046193093061447144,0.025157935917377472,-0.01469467394053936,-0.03284969553351402,0.05759383738040924,0.3538333475589752,-0.18308025598526,-0.022081075236201286,-0.08872675895690918,0.1691541075706482,-0.07954500615596771,-0.08257345855236053,0.01985902339220047,-0.1876666247844696,-0.08400663733482361,-0.030037719756364822,-0.06751649081707001],[0.05724616348743439,0.0013515509199351072,0.048989053815603256,-0.16863280534744263,-0.592552900314331,0.19599390029907227,-0.19277918338775635,-0.14823906123638153,0.0717168003320694,-0.2175406515598297,-0.07855643332004547,-0.006262761075049639,0.23890703916549683,0.05981868505477905,0.09779908508062363,0.3093952238559723,0.12568329274654388,0.02716127038002014,-0.0505102202296257,-0.04956594854593277,-0.09815271198749542,-0.46872246265411377,0.3300931453704834,0.147928386926651,0.2469170242547989,-1.168038010597229,0.14793872833251953,-0.30944252014160156,0.21904876828193665,0.1505793035030365,-0.16676868498325348,0.22619317471981049,-0.052677351981401443,-0.052061956375837326,0.15640349686145782,0.3809163272380829,-0.05335243418812752,-0.023652873933315277,-0.18743763864040375,0.2733376622200012]],"biases":[-0.18899036943912506,0.017800381407141685,-0.3295553922653198,0.004277119413018227,-0.06975214928388596,-0.184309720993042,-0.13033278286457062,-0.09741060435771942,-0.18042244017124176,-0.23479598760604858,-0.19687429070472717,-0.16696494817733765,-0.2917565703392029,-0.0880834311246872,-0.3249998986721039,-0.16989482939243317,0.2799358069896698,-0.5550199151039124,-0.3642498552799225,-0.06923766434192657]},{"weights":[[-0.1909646987915039,-0.4056337773799896,0.2017248123884201,0.13060562312602997,0.023962045088410378,0.04083859920501709,0.008275682106614113,-0.0746082291007042,0.4420813322067261,0.12618760764598846,-0.08927731961011887,0.3732073903083801,-0.24325738847255707,0.07011441141366959,0.28373000025749207,-0.24714295566082,0.05078049749135971,0.6883363127708435,0.14750730991363525,-0.1726449728012085],[0.10604825615882874,0.12275063991546631,-0.670465886592865,0.01371151302009821,0.4065825939178467,0.41378048062324524,0.05431409925222397,0.17320337891578674,-0.2499896138906479,-0.06332538276910782,-0.03847839683294296,-0.18763047456741333,-0.345352441072464,0.6849074959754944,-0.6845576167106628,0.03054455667734146,0.6819592714309692,-0.8315634727478027,-0.37529459595680237,-0.6249982714653015],[0.08798728883266449,-0.005577028263360262,0.5676168203353882,-0.12349248677492142,-0.4554115831851959,-0.08335714787244797,-0.3847254514694214,-0.0008782076765783131,0.13618715107440948,0.08486426621675491,-0.17993466556072235,-0.21837098896503448,0.6068337559700012,-0.4997577667236328,0.30642542243003845,0.1324937492609024,-0.8456586003303528,0.13802176713943481,0.28165358304977417,0.654365599155426],[-0.12249331921339035,-0.4994199275970459,0.6123189330101013,-0.07353919744491577,-0.09155451506376266,-0.13767217099666595,0.18201060593128204,-0.011703523807227612,-0.06510373204946518,0.13445572555065155,-0.10408250242471695,0.03131011128425598,-0.38146647810935974,0.09172851592302322,0.0771096870303154,0.16793620586395264,0.1672755777835846,-0.15943196415901184,-0.24405957758426666,-0.21088624000549316],[-0.069430410861969,0.22114460170269012,-0.06434975564479828,0.13246609270572662,0.18484579026699066,-0.08319862186908722,0.1376287192106247,0.12624527513980865,-0.06896702200174332,0.06430012732744217,0.004814217332750559,0.1554732620716095,-0.4398306608200073,-0.32533130049705505,0.2982262969017029,-0.10407041758298874,-0.28956013917922974,-0.22509163618087769,0.06372011452913284,-0.06693250685930252],[0.15076877176761627,-0.07340530306100845,0.09853801131248474,0.18157729506492615,-0.17093028128147125,0.1121475026011467,0.1817684769630432,0.13507632911205292,0.014880655333399773,-0.08943096548318863,0.14598093926906586,0.07706471532583237,-0.06699975579977036,-0.0019631816539913416,0.09911742806434631,0.16164302825927734,-0.035827990621328354,-0.08135783672332764,-0.1187690794467926,-0.13143955171108246],[0.16202476620674133,-0.2587714195251465,0.044401634484529495,0.026966312900185585,0.11198674887418747,-0.24757522344589233,-0.10984477400779724,0.01389008667320013,0.18732406198978424,0.44630730152130127,0.03579249233007431,-0.17786747217178345,-0.5303969979286194,-0.1906386762857437,0.26835301518440247,-0.07305213063955307,-0.27342507243156433,0.4592066705226898,0.25165557861328125,-0.16869744658470154],[0.11492501199245453,-0.6650151014328003,0.2088990956544876,-0.14553336799144745,0.04890543222427368,-0.008750253356993198,0.07991677522659302,-0.013837392441928387,-0.5119706392288208,0.116130031645298,0.139551043510437,0.0667615607380867,-0.14004802703857422,-0.11920765042304993,0.1218787357211113,-0.09907588362693787,0.12990230321884155,0.5574957728385925,0.37439271807670593,-0.3804595172405243]],"biases":[0.3100208342075348,0.7134765386581421,0.07085246592760086,0.15220174193382263,-0.08721326291561127,0.04980325326323509,0.27021124958992004,0.2830162048339844]}],"inputLookup":{"heroInButton":0,"handGroup":1,"preflopHS":2,"potOddsH":3,"villainRaise":4,"villainAllIn":5},"inputLookupLength":6,"outputLookup":{"heroRaise":0,"heroCall":1,"heroFold":2,"heroAllIn":3,"betLevelH2":4,"betLevelH3":5,"betLevelH4":6,"betLevelH5":7},"outputLookupLength":8,"options":{"inputSize":0,"outputSize":0,"binaryThresh":0.5,"hiddenLayers":[20,40,20],"activation":"leaky-relu"},"trainOpts":{"activation":"leaky-relu","iterations":1000,"errorThresh":0.01,"log":true,"logPeriod":20,"leakyReluAlpha":0.01,"learningRate":0.001,"momentum":0.3,"callbackPeriod":10,"timeout":"Infinity","beta1":0.9,"beta2":0.999,"epsilon":1e-8}}