{"type":"NeuralNetwork","sizes":[7,20,40,40,20,9],"layers":[{"weights":[],"biases":[]},{"weights":[[-0.11461865901947021,0.11785305291414261,-0.13228599727153778,0.09389004856348038,-0.06793642789125443,-0.20160889625549316,-0.13328848779201508],[0.10357312858104706,1.1699681282043457,-3.043341636657715,4.429226398468018,1.3828874826431274,-0.9234665632247925,0.4690457582473755],[-0.264229953289032,-0.36141034960746765,5.161547660827637,3.813589334487915,0.6634940505027771,-4.902133464813232,-1.425479769706726],[-0.5107030272483826,-1.1772239208221436,-2.1957857608795166,1.4693917036056519,-0.06732867658138275,1.4243019819259644,-0.31218841671943665],[-0.43041732907295227,-0.04255075752735138,-5.255723476409912,0.16472621262073517,-0.10357404500246048,4.643123626708984,-0.8768405914306641],[0.1979777067899704,0.16732831299304962,-0.07667679339647293,-0.15943312644958496,0.060148026794195175,-0.1492753028869629,0.16687019169330597],[1.0904310941696167,-0.10541887581348419,-0.9692390561103821,-1.3439974784851074,3.137155294418335,-0.20647697150707245,-0.6753112077713013],[-0.18102985620498657,1.443216323852539,6.996494293212891,-1.559613823890686,0.6572846174240112,-5.082152366638184,-0.14389118552207947],[-0.3109055161476135,0.3708038330078125,1.7445961236953735,-2.342583179473877,0.7232416272163391,-0.18537740409374237,-0.8591312170028687],[-0.715518057346344,1.6890289783477783,0.28194519877433777,-4.277439594268799,0.9190722703933716,1.3769886493682861,0.6981937289237976],[0.13293974101543427,-0.18304891884326935,0.1534983068704605,-0.018890289589762688,-0.11291363835334778,-0.15614375472068787,-0.05965912714600563],[-1.0036232471466064,-3.4032578468322754,2.70210599899292,-0.11664266884326935,0.08601921051740646,0.8061817288398743,-1.1666136980056763],[-0.1948002278804779,0.550485372543335,-1.4661017656326294,2.252786159515381,-3.442404270172119,0.8717572093009949,0.20122916996479034],[-0.8877527117729187,2.3596222400665283,2.271254539489746,1.4359822273254395,0.3521961569786072,-3.118844747543335,-1.0288068056106567],[2.1171584129333496,0.7135326266288757,-3.307335376739502,3.9661552906036377,-1.6001871824264526,0.21400174498558044,-2.335785388946533],[-0.1753556728363037,-0.5883888602256775,-0.06796453893184662,0.38304832577705383,0.28083881735801697,-0.275081068277359,0.029126295819878578],[-0.10247406363487244,-0.03495253622531891,0.1392795294523239,-0.1530751734972,0.08100388944149017,-0.1262015998363495,0.15821978449821472],[-0.036432817578315735,-0.09598986059427261,-0.049424078315496445,-0.006708805449306965,0.19236598908901215,-0.20316089689731598,0.11085452139377594],[0.9726637601852417,-1.0507707595825195,0.6331512928009033,-4.335951805114746,-0.10425341874361038,2.9721453189849854,2.077895402908325],[-1.4137388467788696,-2.9326908588409424,-1.1324362754821777,1.2825695276260376,3.606321334838867,-0.7141577005386353,1.2989745140075684]],"biases":[0.07534786313772202,0.10535839945077896,-0.4731637239456177,0.15160901844501495,0.5904067158699036,-0.05290432646870613,-0.12900888919830322,-0.6344971656799316,0.16884593665599823,-0.019475331529974937,-0.12146828323602676,0.14336688816547394,0.24941466748714447,-0.3243693709373474,0.15231968462467194,-0.1176275759935379,-0.19427348673343658,-0.13581980764865875,0.23664024472236633,0.059394706040620804]},{"weights":[[0.18551890552043915,-0.3296583890914917,0.9180415272712708,0.3407379686832428,0.46830421686172485,0.03409922122955322,-0.025199713185429573,-0.5840185284614563,-0.3798876106739044,-0.19928064942359924,0.1822524070739746,-0.6292887330055237,0.43076279759407043,-0.855275571346283,0.210578054189682,-0.025835592299699783,0.055697426199913025,-0.043228380382061005,0.007964142598211765,-0.05116121470928192],[-0.2009103000164032,-1.2731645107269287,0.3820944130420685,0.11162371188402176,-0.5228868126869202,-0.15938317775726318,-0.0833955630660057,0.4954063296318054,0.3011128008365631,0.27541211247444153,0.07368243485689163,1.008029580116272,-1.2540642023086548,-0.5956174731254578,-0.38032060861587524,0.08549321442842484,-0.19033712148666382,-0.008678283542394638,0.4780285656452179,0.6817529797554016],[0.15651486814022064,0.47929394245147705,0.15040214359760284,-0.37674206495285034,-0.8696413040161133,0.10731056332588196,1.1166672706604004,0.5024155378341675,0.1234913319349289,0.041559066623449326,0.08371617645025253,-1.0977455377578735,-0.3603890836238861,1.1732239723205566,0.29180654883384705,0.05804552137851715,0.13457037508487701,0.03202317655086517,-0.30734726786613464,0.6167762279510498],[-0.05409986898303032,-1.155853033065796,-0.0700964406132698,-0.5790270566940308,-1.2585301399230957,-0.11989006400108337,-0.32333678007125854,1.2862870693206787,0.5847183465957642,-0.03438456729054451,0.13680604100227356,0.005930732004344463,-0.6965523958206177,0.3670780658721924,-0.5083307027816772,-0.13799196481704712,-0.04791870340704918,-0.08950735628604889,0.34162637591362,-0.7362552881240845],[-0.03699469938874245,-0.16085681319236755,-0.5145130753517151,0.005513499025255442,0.4479619860649109,0.012301769107580185,0.21917152404785156,-0.2802383005619049,-0.1067134439945221,0.193412646651268,-0.036759890615940094,-0.26260295510292053,-0.5721216797828674,0.5228342413902283,-0.615314245223999,-0.07085622102022171,-0.07732410728931427,0.06319174915552139,-0.44450029730796814,-0.10802680253982544],[-0.043923333287239075,-1.512259840965271,-0.976640522480011,-0.3352777063846588,-0.025367747992277145,-0.11311189830303192,0.9099290370941162,-0.8307802081108093,0.1870914250612259,0.3257104754447937,0.14214417338371277,-0.3367776572704315,0.32054921984672546,-0.5608646869659424,-0.04916026443243027,-0.06724635511636734,-0.060055721551179886,-0.09587246924638748,1.2165422439575195,0.09365325421094894],[0.11320800334215164,0.4863273501396179,-0.2453574538230896,-0.2645798325538635,-1.3607378005981445,0.03224015235900879,-0.21156270802021027,0.15997500717639923,-0.27805155515670776,-0.2755652368068695,0.15703457593917847,0.08628159761428833,0.1264420598745346,-0.32384827733039856,1.0748069286346436,0.1819666177034378,0.0379839725792408,-0.15239575505256653,0.7863932847976685,-0.09285712987184525],[-0.03669854626059532,-0.6936812996864319,0.4186190366744995,0.22391334176063538,-0.3892432153224945,-0.08853460103273392,-0.01986681856215,-0.5717689990997314,-0.5021535754203796,-0.1219487264752388,-0.04163656011223793,0.8004786372184753,-0.9479906558990479,-0.7809036374092102,-0.26260367035865784,-0.062183231115341187,-0.043007832020521164,-0.0938410833477974,-0.33378922939300537,-0.2509287893772125],[0.0684901550412178,-0.3570394515991211,1.0438121557235718,-0.3078697621822357,-1.2794451713562012,0.1850334256887436,0.19832710921764374,0.6407603025436401,-0.17385661602020264,-0.8796578049659729,-0.14750587940216064,-0.5413714051246643,0.8810899257659912,0.08295346051454544,0.7444602847099304,-0.00399160897359252,0.06098329648375511,0.03784188628196716,-1.567794680595398,0.2053290605545044],[-0.08537522703409195,-0.320105642080307,-0.02351291850209236,0.43300706148147583,0.5254772305488586,0.013545661233365536,-0.3307971954345703,-1.2216770648956299,-0.35652655363082886,-0.0931190773844719,-0.19703872501850128,1.1996089220046997,-0.2356056123971939,-0.5098042488098145,-0.40549078583717346,0.13073857128620148,-0.14239895343780518,0.012937432155013084,-0.632798969745636,0.2205466330051422],[-0.1269293576478958,0.3874799907207489,-0.07054736465215683,0.05703235790133476,-0.31745216250419617,-0.1051396057009697,0.871579647064209,-0.9919782876968384,0.0494527742266655,-0.1407160758972168,0.02378065325319767,-0.4070361852645874,0.0726204365491867,-0.5914162993431091,1.0756510496139526,-0.12622295320034027,-0.19156768918037415,0.11564551293849945,-0.21918617188930511,2.2131810188293457],[-0.12180403620004654,-0.9323003888130188,-1.9854347705841064,-0.26678842306137085,0.5216249227523804,-0.022086666896939278,-0.42841556668281555,-1.483696699142456,0.2284983992576599,-0.2402990460395813,0.002921181032434106,0.547817587852478,0.2702021598815918,1.0768249034881592,-0.6379566192626953,-0.2084660679101944,0.05764147266745567,0.1406366378068924,-0.0077614993788301945,-0.1687566637992859],[0.10856801271438599,-0.13100039958953857,-1.8083478212356567,0.13425341248512268,-0.3218734562397003,0.16911670565605164,0.25482648611068726,-1.8234270811080933,-0.3704831898212433,-0.09663427621126175,0.052502479404211044,-0.20215637981891632,0.19006545841693878,-1.3674145936965942,-0.9725324511528015,0.4287310242652893,0.1744953840970993,0.18467126786708832,1.1562334299087524,0.9897582530975342],[-0.14465509355068207,-1.1018426418304443,0.4384155869483948,-0.6636866927146912,-0.45437636971473694,-0.1095765233039856,-0.36024048924446106,1.017470359802246,0.4207276999950409,0.1713220328092575,0.14879469573497772,-0.27832624316215515,-0.8289375305175781,0.3680514395236969,-1.1266318559646606,0.145105242729187,0.059796568006277084,-0.06074903905391693,-0.4636680483818054,-0.7877936363220215],[0.016405096277594566,0.16016779839992523,0.02831535041332245,-0.40023142099380493,0.37184232473373413,0.136898010969162,0.5885306596755981,-0.5444828867912292,-0.08624859899282455,0.7385630011558533,0.05512816086411476,-1.4151288270950317,0.6676509380340576,-0.019310742616653442,0.25940075516700745,0.02748679369688034,0.05566136911511421,0.1737333983182907,-0.9144313335418701,-0.2004694640636444],[0.0003872369125019759,0.8525415658950806,-0.14854295551776886,-0.2735631763935089,-0.24212409555912018,0.012356453575193882,0.8539391160011292,-1.002554178237915,-0.22067272663116455,-0.6087321639060974,0.1346588283777237,0.5747068524360657,0.481473445892334,0.48590025305747986,0.7669591903686523,0.23834937810897827,-0.04561471939086914,-0.06766965240240097,-0.9622640013694763,0.5054226517677307],[0.06779180467128754,-0.5965380668640137,1.0063121318817139,-0.04152355343103409,0.518220067024231,0.04941156506538391,-0.7215810418128967,-0.09980803728103638,0.23629754781723022,0.24870774149894714,-0.18251213431358337,-0.3271731734275818,-0.5857155323028564,-0.2847972810268402,-0.2276991605758667,-0.006696545053273439,0.15050198137760162,-0.07808643579483032,-0.527969241142273,-0.7234038710594177],[-0.14647218585014343,-0.5980822443962097,-0.2713845670223236,-0.13382823765277863,-0.859865665435791,-0.024830222129821777,0.2407131940126419,0.7657352089881897,0.4165562093257904,0.19584915041923523,0.025790294632315636,-1.5786784887313843,0.026396745815873146,0.19240592420101166,-0.192182257771492,-0.09333271533250809,-0.15709994733333588,0.09469377994537354,-0.007450778502970934,-0.368463933467865],[-0.1415403187274933,0.9895034432411194,0.43765443563461304,0.18204961717128754,-0.09100676327943802,-0.08380237221717834,-0.37044966220855713,0.012026646174490452,0.2199612706899643,-0.13067688047885895,-0.09606306254863739,-0.40527939796447754,-1.1927456855773926,0.045498065650463104,-1.2192919254302979,0.10777902603149414,0.02870207093656063,0.1434631496667862,-0.20517085492610931,-1.6559650897979736],[-0.06737722456455231,1.1882699728012085,0.03957357257604599,0.776688814163208,0.4780515134334564,-0.18427562713623047,-0.2051497846841812,-0.830447793006897,-0.5806294679641724,-1.1560999155044556,0.1296580582857132,-0.371744304895401,-0.5691060423851013,-0.03063814714550972,-0.9961315989494324,0.16374361515045166,0.009558035992085934,0.12353615462779999,-0.49794796109199524,0.361978143453598],[0.10307718068361282,-1.7558144330978394,0.11117540299892426,-0.959339439868927,-1.0002983808517456,-0.1799231618642807,-0.4538663327693939,0.5851354598999023,0.5930584669113159,-0.18621808290481567,-0.06666593253612518,0.4867519438266754,1.0452507734298706,-0.005216309800744057,0.008723270148038864,0.1430770456790924,0.17532505095005035,-0.1371392160654068,0.14691291749477386,0.08421844989061356],[-0.11102757602930069,0.1797240972518921,0.6340409517288208,0.09851650893688202,-1.2209253311157227,-0.047411974519491196,-1.4084527492523193,-0.08007436245679855,-0.3947809934616089,-0.9268161654472351,0.14305256307125092,1.2832280397415161,-0.4183589816093445,0.29272592067718506,-0.9335756897926331,0.12431766092777252,-0.13427139818668365,0.11528018862009048,0.00396762927994132,-0.39171409606933594],[-0.10354326665401459,0.6399347186088562,-0.9243597388267517,-0.568587601184845,0.12134932726621628,-0.05289167910814285,-0.45522764325141907,-0.2656761705875397,-0.7437105774879456,0.1844685673713684,0.1726689338684082,-0.4945347011089325,-0.8456019759178162,-0.3823404312133789,0.2416878193616867,0.17400561273097992,0.0838252380490303,-0.1634257584810257,0.4013713598251343,-0.7687035799026489],[0.12598426640033722,-0.27323493361473083,-0.14550812542438507,-0.24322623014450073,0.11886987835168839,-0.0774608626961708,-0.06501735001802444,-0.10479018092155457,-0.17790915071964264,-0.9701769948005676,-0.058945707976818085,-0.8100391030311584,0.7538943886756897,1.216506838798523,-0.14598530530929565,0.11441386491060257,0.01957019977271557,-0.20067043602466583,-0.41461536288261414,0.0329241007566452],[-0.04355292767286301,1.1856998205184937,0.6037763953208923,-0.43101757764816284,-1.0188708305358887,0.09421716630458832,-0.6988831758499146,-0.6361485719680786,-0.24182073771953583,-0.6262019872665405,0.010647803544998169,-1.4233204126358032,-0.3478514552116394,1.3769468069076538,-0.007169588468968868,-0.09955815225839615,-0.1824859082698822,0.03777632862329483,-1.2941532135009766,-0.5165985226631165],[-0.1615961194038391,-0.02472817152738571,-0.19806008040905,-0.16837076842784882,-0.04188031330704689,-0.04552547261118889,0.18096821010112762,-0.24906547367572784,0.05797895789146423,-0.022692188620567322,0.01830093003809452,-0.14861050248146057,-0.00029631805955432355,-0.10024917125701904,0.13667167723178864,-0.12546372413635254,-0.1758231222629547,-0.017306221649050713,0.044935442507267,-0.13319258391857147],[-0.10787659883499146,-0.7026721239089966,-1.6793197393417358,-0.5423620939254761,-0.452364057302475,0.026059620082378387,0.8547167181968689,0.24504876136779785,0.8602904081344604,1.0828429460525513,-0.0018892530351877213,0.06642942875623703,0.1530141979455948,-0.42006704211235046,-0.3675369322299957,-0.013011044822633266,0.14645197987556458,-0.14236204326152802,1.0201951265335083,-0.7576383352279663],[-0.035048700869083405,0.1882975846529007,1.0187803506851196,-0.252539724111557,-0.7498598694801331,0.03572975471615791,-0.4911823868751526,0.8108229041099548,-0.23166845738887787,-1.349880337715149,0.14667972922325134,-0.3916934132575989,-0.6324416995048523,0.753790557384491,0.06916191428899765,-0.19718705117702484,0.1448790729045868,-0.04196549579501152,-1.0883651971817017,-0.19883111119270325],[-0.021066579967737198,-1.083012342453003,-1.3019561767578125,-0.12450490891933441,0.7554811239242554,0.14461100101470947,0.768397867679596,-2.4149603843688965,-0.02909969538450241,0.9117865562438965,-0.15470781922340393,-0.8267902731895447,-0.9818880558013916,-1.6379531621932983,-1.8070887327194214,-0.3893597722053528,-0.05470854416489601,-0.0870034471154213,1.3411494493484497,1.6228306293487549],[-0.13730962574481964,-0.4267287254333496,-0.6813178658485413,-0.08260129392147064,0.707211434841156,-0.1830749660730362,-0.10938084870576859,-0.3401598036289215,-0.3539307713508606,-0.19540342688560486,-0.02627960592508316,-1.0819228887557983,0.5113269686698914,-0.7520356774330139,0.8796731233596802,0.10723590105772018,-0.11413147300481796,-0.17467382550239563,-0.2715853154659271,-0.1616075485944748],[0.030094243586063385,0.03072684071958065,0.01654553972184658,-0.13442876935005188,-0.8406068086624146,-0.13144400715827942,-0.008994720876216888,0.12011992931365967,-0.0323391929268837,0.03757685422897339,0.05332224816083908,-0.06113655865192413,-0.0663280040025711,-0.36783990263938904,-0.32559338212013245,0.14836843311786652,0.056151531636714935,-0.19658175110816956,0.578557014465332,0.771137535572052],[0.10996991395950317,-0.48694372177124023,0.1638474315404892,0.3939010798931122,0.31259357929229736,0.13118332624435425,-0.673129677772522,-0.8592223525047302,0.10184837877750397,0.13865509629249573,-0.11470802128314972,0.8320479989051819,-0.7655547857284546,-0.014743797481060028,-1.2283438444137573,-0.16362887620925903,-0.023030433803796768,-0.17105060815811157,-0.006424820516258478,-0.37819230556488037],[-0.09670863300561905,-1.0826232433319092,0.41266798973083496,-0.11151093244552612,-0.38570308685302734,0.1542956829071045,0.1187126561999321,-0.19952145218849182,-0.740537166595459,-1.3686383962631226,-0.005768027156591415,-0.03433099016547203,1.444815754890442,-0.8829477429389954,-0.12630875408649445,-0.047898583114147186,-0.10428259521722794,0.0021333384793251753,0.4145525395870209,0.7663694024085999],[-0.0043701590038836,0.4511633515357971,1.553259015083313,-0.3392946422100067,-2.132812023162842,0.174115389585495,-0.9332769513130188,0.8478406071662903,-0.8701733350753784,-1.7340482473373413,-0.09475302696228027,0.1455674171447754,-0.406581848859787,0.5548707842826843,-0.8059169054031372,0.13243983685970306,-0.08489610254764557,-0.07945871353149414,-1.3995721340179443,-0.6101409196853638],[0.08852507919073105,-1.200026512145996,0.20327243208885193,0.1137196272611618,-0.4045216143131256,-0.04924684390425682,0.04007840156555176,-0.2840522229671478,-0.2741098701953888,-0.6147579550743103,0.19350752234458923,0.8386312127113342,-0.13270303606987,-0.3502779006958008,-0.9218152761459351,0.006475773174315691,-0.03567366674542427,0.04052306339144707,0.3923332989215851,-0.3596421182155609],[-0.10542257130146027,-0.3719533681869507,-0.08661495894193649,-0.05969719961285591,-0.40770047903060913,-0.18165437877178192,0.1165294200181961,-0.31742945313453674,-0.1092325821518898,-0.5916069149971008,-0.06035158783197403,0.337426096200943,-0.17328649759292603,0.018323149532079697,-0.13188901543617249,0.17376777529716492,-0.13558682799339294,-0.041062790900468826,0.5128608345985413,0.39503273367881775],[-0.04451759532094002,0.20383745431900024,-0.42845436930656433,-0.3788624405860901,-0.6481710076332092,0.07785462588071823,-0.5452732443809509,-0.5882271528244019,-0.04160798341035843,0.20985828340053558,-0.1423647701740265,-0.42538323998451233,0.446940153837204,-0.8472077250480652,-0.40569016337394714,0.14750953018665314,0.19641175866127014,0.059912219643592834,1.1412324905395508,-0.3437440097332001],[-0.09619273990392685,0.3171055316925049,-2.164186477661133,0.234293594956398,0.8596724271774292,-0.16890005767345428,0.5929858684539795,-0.419563889503479,-1.5093265771865845,-0.978655219078064,0.022854965180158615,-0.7957266569137573,1.4384132623672485,-1.493459701538086,0.34823015332221985,0.22015537321567535,-0.08362744748592377,0.11033553630113602,-0.45560213923454285,0.41653355956077576],[-0.09863311797380447,-0.8523172736167908,0.32676640152931213,0.4355006217956543,0.418610155582428,0.18943068385124207,0.045598674565553665,0.33151766657829285,-0.21936500072479248,-1.1489078998565674,0.0901292935013771,-0.7478285431861877,0.7340885996818542,-1.1319472789764404,0.5853596329689026,0.008733522146940231,0.1300567388534546,0.18416443467140198,-0.29990294575691223,1.0876628160476685],[0.11466480791568756,-1.1578900814056396,1.0617620944976807,-0.8997243642807007,-2.6179349422454834,0.014134171418845654,0.12263818085193634,1.6789087057113647,-0.02295757457613945,-0.3005957305431366,-0.06047943979501724,0.08192498236894608,-0.6980124711990356,-0.29596415162086487,0.09686455875635147,-0.09839330613613129,0.10263847559690475,0.06291783601045609,0.30160173773765564,-0.14565782248973846]],"biases":[0.2064509391784668,0.004396211355924606,-0.5163401961326599,-0.2519581615924835,-0.10393978655338287,0.26250016689300537,0.13852660357952118,-0.18720003962516785,-0.43939700722694397,0.16232611238956451,-0.07508639246225357,0.5276587009429932,-0.10034224390983582,0.06952494382858276,-0.29900825023651123,-0.12048221379518509,0.2709437608718872,-0.19305293262004852,0.15093544125556946,-0.10338456183671951,-0.30801519751548767,-0.010938256978988647,-0.16196028888225555,-0.2032974660396576,-0.22907505929470062,-0.18566180765628815,0.24197474122047424,-0.2877388596534729,0.0347680002450943,-0.1961076408624649,-0.03931672126054764,0.4996648132801056,0.1281365603208542,-0.16280965507030487,-0.12078550457954407,-0.18923035264015198,-0.0778675377368927,-0.22912214696407318,-0.03681161627173424,-0.4514077603816986]},{"weights":[[-0.3360599875450134,0.5175307393074036,-0.21885989606380463,0.39934241771698,-0.07801852375268936,-0.2754291296005249,0.1860203891992569,-0.021512484177947044,0.245234414935112,-0.12213383615016937,-0.06706708669662476,-0.43999147415161133,0.04515398293733597,0.28151145577430725,-0.42474034428596497,-0.06847546994686127,-0.1650867760181427,-0.1112671047449112,-0.07413915544748306,-0.1358875334262848,0.028665240854024887,-0.484994500875473,-0.13738396763801575,0.6420808434486389,-0.3597885072231293,0.005958260502666235,-0.12686806917190552,0.2472730427980423,-0.601399838924408,0.05662795901298523,-0.006112145725637674,-0.47606292366981506,0.40920379757881165,0.34543976187705994,0.03331756964325905,0.25035330653190613,-0.07231580466032028,-0.2057809829711914,0.293251633644104,-0.0016104093519970775],[-0.4091643691062927,0.3416561782360077,0.46082401275634766,0.08364302664995193,-0.08530736714601517,0.5871789455413818,0.12435893714427948,-0.10398359596729279,-0.11840105801820755,-0.14204859733581543,-0.6409124732017517,-0.3110765516757965,0.41884973645210266,-0.2221551537513733,-0.7017802000045776,-0.607330858707428,-0.3849305510520935,0.32297471165657043,-0.5303508639335632,-0.18040738999843597,-0.37401625514030457,-0.6994180679321289,0.16774822771549225,-0.07405856996774673,-0.10014209151268005,0.06661319732666016,0.01851940155029297,-0.07732024788856506,-0.12646763026714325,-0.3620912432670593,-0.200333371758461,0.4526653289794922,0.16943447291851044,-0.09218932688236237,-0.24299532175064087,0.12304521352052689,0.2239844650030136,-0.34160202741622925,-0.4825158715248108,0.1517936885356903],[0.1924344301223755,-1.2706663608551025,-0.2486904412508011,0.34624478220939636,0.011507472023367882,-0.6130671501159668,0.2709224224090576,0.1843212991952896,0.5740960836410522,0.24747756123542786,-0.2318493127822876,-0.7379167079925537,0.7539523243904114,-0.3017447292804718,-0.7354874610900879,0.45908984541893005,-0.5357887744903564,0.0863393172621727,-1.106386423110962,-0.2684985101222992,0.005159060005098581,0.23570914566516876,-0.30852413177490234,0.47421979904174805,-0.33544042706489563,0.11937358975410461,-0.4468769431114197,0.5605639815330505,0.7492649555206299,-0.12641169130802155,-0.22693948447704315,-0.3578792214393616,0.04652063921093941,-0.14569106698036194,-0.24704137444496155,0.2690083384513855,-0.2019769549369812,0.3527350425720215,0.05457005649805069,-0.18070290982723236],[-0.3468106985092163,-0.4047323167324066,0.7980365753173828,0.20937924087047577,-0.022333545610308647,-0.32914498448371887,-0.35106414556503296,-0.1906086504459381,-0.29056406021118164,-0.061466820538043976,-0.5565863251686096,0.33466461300849915,0.17763546109199524,0.3599972128868103,-0.7579333782196045,-0.3112122416496277,-0.163141131401062,0.23763735592365265,-0.008303980343043804,-0.2663908004760742,0.4845408499240875,0.22463227808475494,-0.3271653652191162,-0.13384005427360535,-0.28712478280067444,-0.04513271898031235,-1.3012217283248901,-0.07735501974821091,0.9301238656044006,0.23787683248519897,-0.01914501003921032,-0.27531567215919495,0.4815404713153839,-0.33492693305015564,0.014210481196641922,-0.09491126239299774,-0.3363713324069977,0.19600403308868408,-0.01651890017092228,-0.7147868275642395],[0.3017568290233612,0.26397618651390076,-1.3613730669021606,-0.11497679352760315,-0.22519800066947937,-0.09161379933357239,-0.01578867994248867,0.2868472635746002,1.0302332639694214,-0.20820261538028717,0.13715073466300964,-0.09044154733419418,0.5967288613319397,-0.006651898846030235,-0.2049718201160431,0.21206282079219818,-0.21383127570152283,-0.17330855131149292,-0.1321759670972824,0.25027787685394287,0.03582693263888359,-0.5603231191635132,-0.3550938069820404,0.7626187205314636,-0.1812775731086731,0.03028200939297676,0.22521094977855682,0.13621391355991364,0.39323607087135315,-0.16253571212291718,-0.03508690372109413,-0.16298872232437134,0.027955640107393265,-0.43767049908638,-0.4949886202812195,-0.2489778697490692,0.6880351901054382,-1.7116036415100098,-0.15100672841072083,-0.03171169012784958],[0.34145423769950867,0.9393323659896851,-0.6527221202850342,-0.7374210953712463,-0.1359213888645172,-0.008744584396481514,-0.1884005069732666,-0.31189656257629395,0.14114725589752197,-0.7603501677513123,-0.4196920692920685,-0.31363120675086975,-0.13910146057605743,0.12637820839881897,-0.09750472754240036,0.3648664355278015,0.07113418728113174,-0.36130520701408386,-0.005539426114410162,-0.13002382218837738,0.08799152821302414,0.12711308896541595,0.14389194548130035,-0.6812443733215332,0.5453431010246277,-0.014703375287353992,-0.1265701800584793,-0.8796020746231079,-0.23895584046840668,0.016256006434559822,-0.004599010106176138,-0.13486528396606445,-0.012656046077609062,-1.431297779083252,-0.0013944837264716625,-0.19997647404670715,0.25395798683166504,-0.8322975635528564,-0.040690984576940536,-0.42472177743911743],[-0.2978248596191406,-0.113992840051651,0.34805747866630554,-0.12182608991861343,-0.29201218485832214,0.11595560610294342,0.6106996536254883,0.43827369809150696,0.1363849937915802,0.6538645625114441,0.345323383808136,-0.02826598659157753,0.3307616710662842,-0.6454857587814331,0.3630998134613037,-0.052293356508016586,0.029455915093421936,-0.14513064920902252,-0.19167684018611908,-0.11421621590852737,-1.1637660264968872,-0.08762066811323166,0.18466785550117493,0.11133493483066559,0.20981931686401367,-0.029539398849010468,-0.18562962114810944,0.5675387978553772,-0.6363755464553833,-0.38891246914863586,-0.3375585377216339,0.2810367941856384,0.5121320486068726,-0.11389510333538055,0.008832025341689587,0.18634699285030365,-0.10709236562252045,-0.543083667755127,0.15259432792663574,-1.0658208131790161],[-0.08594167977571487,-0.3785487115383148,0.447694331407547,0.3682461678981781,-0.09442466497421265,0.23130124807357788,-0.3794240653514862,0.19514600932598114,-0.10572599619626999,-0.3666370213031769,-0.8521159291267395,-0.6936946511268616,-0.01452555600553751,0.6191685199737549,-0.0989656150341034,-0.31824904680252075,-0.19163982570171356,0.5359031558036804,0.10646358132362366,0.1036347895860672,-0.3921182155609131,-0.7862794995307922,0.22089220583438873,0.00025884827482514083,-0.1948166936635971,-0.053322684019804,-0.28572651743888855,-0.6240273714065552,-0.05663333088159561,0.12158768624067307,-0.026109250262379646,-0.6719424724578857,-0.43912914395332336,-0.7807559370994568,-0.1548108160495758,-0.10897644609212875,0.5570747256278992,0.2942977249622345,-0.14773571491241455,-0.03740818798542023],[0.036204006522893906,-0.35615357756614685,-0.12495671212673187,-0.6507536172866821,-0.23306237161159515,-0.41751086711883545,-0.10143815726041794,0.030583560466766357,0.9104838371276855,-0.26083898544311523,0.6000947952270508,0.5556885600090027,-0.5141559839248657,0.07770951837301254,-0.4948062300682068,0.41370388865470886,0.3350309133529663,0.09573956578969955,-0.34856900572776794,-0.7385679483413696,-0.07227811217308044,-0.6356084942817688,0.9118474721908569,0.023118959739804268,-0.484928697347641,-0.004950404167175293,0.47617316246032715,-0.381532222032547,-0.03839769586920738,-0.1563146412372589,-0.3526383936405182,-0.6962131857872009,0.05479693040251732,-0.13585779070854187,0.11510901153087616,0.01839318871498108,-0.21225570142269135,-0.6539296507835388,-0.07190527021884918,-1.3758885860443115],[-0.5269954800605774,0.028073782101273537,-0.0569608211517334,-0.21823467314243317,-0.12665271759033203,-0.8936470746994019,-0.3463207185268402,0.9028283357620239,0.523233950138092,-0.7069846987724304,-0.6274738907814026,-0.27288228273391724,0.1429803967475891,-0.667588472366333,-0.0666816383600235,-0.8471716046333313,-0.25064757466316223,-0.4442232549190521,-0.5278033018112183,-0.30401381850242615,0.5607184767723083,0.09867524355649948,0.0833473801612854,-0.2051762193441391,-0.2794973850250244,-0.06717295199632645,-0.7320446372032166,0.36733752489089966,-0.13710622489452362,0.1198374405503273,0.1286725103855133,0.10196935385465622,-0.6746051907539368,0.38665008544921875,0.5092546939849854,-0.208487868309021,0.14878606796264648,0.10285191237926483,-0.30216389894485474,0.8175668120384216],[-0.42218655347824097,0.27666157484054565,0.1853165328502655,-0.9031585454940796,-0.034864604473114014,0.6591737270355225,-0.07173538208007812,0.1436864733695984,0.3566707372665405,0.26192906498908997,-0.3283185660839081,-0.10451626032590866,0.14278121292591095,0.3443172574043274,0.3892911374568939,-0.6460800766944885,0.20181328058242798,-0.24857795238494873,0.5065993070602417,-0.007297946140170097,-0.8675711154937744,-0.21486005187034607,0.08466199785470963,0.08624841272830963,-0.09771516174077988,-0.1818927824497223,-0.6630416512489319,-0.25999781489372253,-1.4490104913711548,0.033796198666095734,-0.1804933100938797,0.2560730576515198,0.917425274848938,0.2014697641134262,0.6163013577461243,0.2796911597251892,-0.24970567226409912,0.17024296522140503,-0.05731353908777237,-0.6003318428993225],[0.021001264452934265,0.06331875920295715,0.15450359880924225,-0.5448094606399536,0.1960979849100113,0.1264817714691162,-0.22292646765708923,-0.16852137446403503,0.09668120741844177,-1.0260626077651978,-0.23478008806705475,-0.0664975494146347,0.6293597221374512,0.15233109891414642,0.7095131278038025,-0.23429733514785767,-0.040075432509183884,-0.23290950059890747,0.2540542781352997,0.22877267003059387,-0.355252742767334,-0.22192049026489258,-0.06962686032056808,-0.12506203353405,0.47841066122055054,0.17060673236846924,0.46523576974868774,0.5199861526489258,-0.907863199710846,-0.4675048291683197,0.008660586550831795,-0.5867387652397156,-0.0817260891199112,-1.1274315118789673,-0.10366542637348175,0.1373712420463562,-0.025177333503961563,0.2541077136993408,0.2783232033252716,-0.7069068551063538],[-0.23029957711696625,-0.05857069045305252,0.2722032070159912,-0.3398648798465729,0.17100927233695984,0.3165299594402313,-0.37167248129844666,-0.2799898386001587,-0.0468234121799469,-0.46845734119415283,0.5033265948295593,-1.0692898035049438,0.851486325263977,-0.4762476682662964,0.25945720076560974,-0.15598569810390472,-0.4689027965068817,0.1430141180753708,-0.25172853469848633,-0.32304149866104126,-0.254570335149765,-0.9542616009712219,-0.00578759191557765,0.034460362046957016,0.8664363622665405,0.14131289720535278,-1.0636112689971924,0.01975313201546669,0.24754513800144196,0.030563343316316605,0.374500572681427,-0.20032109320163727,-0.15841437876224518,-0.4385690987110138,-0.10366707295179367,0.4759733974933624,-0.08436628431081772,0.24827198684215546,0.2333509474992752,-0.6707875728607178],[-0.2613707482814789,0.5984618663787842,0.13451579213142395,-0.5399909019470215,-0.1951598972082138,0.7343809008598328,0.2466956526041031,-0.2518852949142456,0.8861769437789917,0.40738946199417114,0.17793360352516174,0.11997807025909424,0.17498508095741272,-0.3137977719306946,0.16489212214946747,-0.6910219788551331,-0.04194061458110809,-0.18918658792972565,-0.8668148517608643,0.33189868927001953,-1.5832582712173462,-0.7508650422096252,0.1986244171857834,-0.3513876795768738,0.777597188949585,0.051321908831596375,0.47553569078445435,0.16767336428165436,-2.2165913581848145,0.3191721737384796,0.27161410450935364,-0.21203017234802246,-0.21690981090068817,-1.2327467203140259,0.16153046488761902,0.042181629687547684,-0.18193574249744415,0.2889450490474701,-0.11058108508586884,-1.3042353391647339],[-0.9027611613273621,0.5210261940956116,-0.0907077044248581,-0.6703802347183228,0.05852267146110535,0.10392607003450394,-0.18212240934371948,-0.19057902693748474,0.10993945598602295,0.2014264166355133,0.05247526988387108,-0.19531939923763275,0.38340523838996887,-0.4077152609825134,-0.43622148036956787,-0.6883208751678467,0.2466609627008438,-0.0286615751683712,0.3101966977119446,-0.7595289945602417,-0.6126136779785156,0.48671090602874756,0.04176993668079376,-0.21625719964504242,0.044874630868434906,-0.08308477699756622,-0.6833776831626892,0.33704546093940735,0.1935546100139618,-0.16598275303840637,0.36640605330467224,-0.2488364726305008,-0.023101430386304855,0.7153992056846619,0.18046900629997253,0.15661130845546722,0.12393894791603088,-0.08344417065382004,0.4290103316307068,-0.24034559726715088],[-0.411971777677536,0.368293821811676,0.3530937731266022,0.18338643014431,-0.0071222614496946335,-0.126419797539711,-0.0525258332490921,-0.17475871741771698,0.009290462359786034,-0.16075918078422546,-0.9840784072875977,0.09755296260118484,0.09357408434152603,-0.2106640487909317,0.554522693157196,-0.41554903984069824,0.08092217147350311,-0.16015423834323883,0.19642141461372375,-0.8757032155990601,-0.6194319725036621,-0.5697043538093567,0.12702912092208862,0.008644500747323036,0.1282190978527069,-0.15855719149112701,0.24043701589107513,-0.07427871972322464,0.3545311391353607,0.19679175317287445,-0.020111897960305214,-0.3425285220146179,-0.3334845006465912,-0.6944294571876526,0.26090845465660095,-0.11179617047309875,-0.12401744723320007,-0.3876883387565613,0.25895777344703674,-0.5646226406097412],[-0.1159512847661972,-0.9414368271827698,-0.4662680923938751,0.01767040602862835,-0.21238179504871368,-0.3527873456478119,0.7453134059906006,-0.14688995480537415,-0.3479955792427063,0.5061821341514587,-0.6305949091911316,-0.010034549981355667,-0.2214982956647873,-0.10065764933824539,-0.5098206996917725,-0.3299281895160675,-0.12053713947534561,-0.1321004033088684,-0.272863507270813,0.6369877457618713,-0.6121354699134827,0.556642472743988,-0.3647913634777069,-0.1567414104938507,0.10811339318752289,-0.07698307931423187,0.24320194125175476,0.19487926363945007,-0.30581313371658325,-0.34601011872291565,0.20754460990428925,0.4448593854904175,-0.0853557139635086,-0.6677411794662476,0.2873815596103668,0.3346049189567566,0.28188374638557434,-0.15620681643486023,-0.655820369720459,-0.365898072719574],[-0.4323042631149292,-0.4712989628314972,0.40268659591674805,-0.18940816819667816,-0.22056686878204346,-0.7475815415382385,-0.19049184024333954,-0.1692773699760437,-0.27030667662620544,-0.619858980178833,-0.15188118815422058,-0.6485669016838074,0.4425569176673889,0.07552757859230042,0.08161959052085876,-1.0911741256713867,-0.32825967669487,-0.3427583575248718,0.25295379757881165,-0.07955474406480789,-0.4517357051372528,-0.1800881326198578,0.04379436746239662,-0.0784757062792778,-0.3986683785915375,0.07068458944559097,0.21312691271305084,-0.03603418916463852,0.43976008892059326,-0.18879002332687378,0.053219303488731384,-0.404375284910202,0.24601934850215912,0.19400596618652344,0.2055549919605255,0.36135637760162354,-0.1320892572402954,0.2563929259777069,-0.41165831685066223,-0.19191548228263855],[-0.29243218898773193,-0.17409494519233704,-0.07840827852487564,0.15817463397979736,-0.04835748299956322,-0.21526528894901276,-0.11563914269208908,-0.18497274816036224,-0.011355976574122906,0.1986209601163864,-0.3939081132411957,0.2950288951396942,0.4605061113834381,-0.09471988677978516,-0.5036059021949768,0.14670312404632568,-0.015803584828972816,0.08588879555463791,-0.2575167417526245,-0.06976967304944992,-0.020572608336806297,-0.031107719987630844,-0.21645444631576538,-0.2770560085773468,0.040651194751262665,-0.012250971980392933,-0.279552698135376,0.056055162101984024,-0.6027011871337891,-0.1755283921957016,-0.021874241530895233,-0.08238190412521362,0.11556418985128403,-0.09703072905540466,-0.05229273810982704,-0.04840438812971115,-0.1691712886095047,0.7411665320396423,-0.115050308406353,-0.2909361720085144],[-0.22207558155059814,-0.9275811910629272,0.14532284438610077,0.32668983936309814,0.13157205283641815,-0.2669091522693634,-0.04423549398779869,-0.018279897049069405,-0.6216336488723755,-0.16891413927078247,-0.1162060871720314,-0.050034135580062866,-0.14574503898620605,0.12094612419605255,0.06494612991809845,-0.4422103762626648,-0.34936773777008057,0.5107036828994751,-0.09201984107494354,0.07619273662567139,0.13841018080711365,0.04546588286757469,0.07986598461866379,-0.09292164444923401,0.11091013252735138,0.04842584207653999,0.2002064287662506,0.1886308491230011,-0.029934046790003777,-0.1858678013086319,-0.134341299533844,-0.43725425004959106,-0.14524123072624207,0.3624328374862671,0.10545550286769867,-0.029905477538704872,-0.006863260641694069,-0.13939060270786285,-0.2609197497367859,0.12994252145290375],[-0.3088585436344147,-0.29867205023765564,-0.07633823901414871,0.37799033522605896,-0.15687108039855957,-0.07117261737585068,-0.19482116401195526,-0.04099080339074135,-0.6019706130027771,-0.1804109662771225,-0.2818039655685425,-0.2910520136356354,0.2945633828639984,1.0255218744277954,-0.21263183653354645,-0.27866819500923157,-0.07979603856801987,0.23454923927783966,0.07259459048509598,-0.02378908358514309,0.039339154958724976,0.5342273712158203,0.5167446732521057,-0.24367843568325043,-0.077569380402565,-0.13056375086307526,-0.28488558530807495,-0.1544707715511322,0.3023121953010559,-0.11228331923484802,-0.0216089878231287,-0.21873235702514648,-0.3319816589355469,-0.6820090413093567,0.5730141997337341,0.2730924189090729,0.2524440288543701,-0.010451272130012512,-0.20678797364234924,-0.7087422609329224],[-0.1458694189786911,-1.52765953540802,0.9567469358444214,-0.12181741744279861,-0.18413838744163513,-0.033043473958969116,-0.4421180784702301,-0.0024600434117019176,0.10705916583538055,-0.06728406995534897,-0.7442722916603088,-0.3323404788970947,0.06923553347587585,0.07007885724306107,0.3930235803127289,-0.8415692448616028,-0.4416559338569641,-0.2744687497615814,-0.029774213209748268,0.22108058631420135,-0.10754627734422684,-0.6260930299758911,-0.10020802915096283,0.027324102818965912,-0.06489285826683044,-0.07553534209728241,-0.4565475881099701,0.22770076990127563,-0.07345712184906006,-0.050137538462877274,-0.008517051115632057,-0.6546025276184082,-0.2742147743701935,0.24365760385990143,-0.0024278326891362667,-0.16898104548454285,-0.1829673945903778,0.19937221705913544,0.3313705325126648,-0.1320033222436905],[-0.7234225869178772,0.0790732279419899,-0.12622040510177612,-0.6808034777641296,0.20417344570159912,0.34609031677246094,-0.3012084662914276,-0.2901817858219147,0.6687092185020447,-0.31896162033081055,-0.29287469387054443,0.43581825494766235,0.25465282797813416,-0.9835577607154846,0.06527993083000183,-0.07639069110155106,-0.21744628250598907,0.060965463519096375,0.08984319865703583,-0.491487056016922,0.011450870893895626,-0.08647523075342178,0.03994084149599075,0.5892833471298218,-0.5782120823860168,0.14264443516731262,0.5442121624946594,0.7837652564048767,-0.3738109767436981,-0.65227210521698,0.5500820875167847,0.5112354159355164,-0.17425578832626343,0.2570629417896271,-0.1534000039100647,0.4972783029079437,-0.1404365450143814,0.32667025923728943,0.05468957871198654,0.36671164631843567],[-0.06788311898708344,0.5443407893180847,0.43636462092399597,0.02809946797788143,-0.18217208981513977,0.08779396116733551,-0.425855427980423,0.19779138267040253,-0.2906516492366791,0.07717112451791763,0.17597374320030212,-0.6713187098503113,-0.2838189899921417,-0.0928097814321518,-0.037768106907606125,-0.00928189791738987,-0.07638367265462875,0.107139453291893,-0.008440624922513962,-0.22410118579864502,-0.5407754778862,-0.3433259427547455,0.34718599915504456,0.32735899090766907,-0.022449037060141563,-0.07720617949962616,-1.114953637123108,-0.20525199174880981,-0.3681565523147583,0.08016663789749146,-0.221760094165802,-0.28765004873275757,-0.14227275550365448,0.05041595175862312,-0.13582585752010345,-0.19373297691345215,-0.06791666895151138,0.5486544966697693,-0.2661507725715637,-1.0422040224075317],[0.08467079699039459,0.49554041028022766,0.20654058456420898,-0.356247216463089,0.10946469753980637,-0.01140928827226162,0.26271697878837585,-0.3089396357536316,-0.3122880756855011,-0.13892337679862976,0.10626517236232758,-0.2523861825466156,-1.1531245708465576,-0.9101982712745667,-0.8158054947853088,-0.3805074393749237,-0.16163790225982666,-0.23112404346466064,-0.05742569640278816,0.15479525923728943,-0.10040551424026489,0.22984211146831512,0.2123180478811264,0.04034272953867912,-0.4351050853729248,0.19381925463676453,-0.37347978353500366,0.06287359446287155,0.2903458774089813,0.15827974677085876,-0.03002132847905159,0.3640598654747009,-0.9389902353286743,0.4441041946411133,-0.0672694742679596,0.053108129650354385,-0.08987540006637573,-0.09563072770833969,-0.5536531209945679,-0.5722882151603699],[-0.6488082408905029,0.3675176203250885,0.045784708112478256,0.015796346589922905,-0.34826093912124634,-0.0821450799703598,0.2995487451553345,-0.0164807066321373,0.1179344654083252,-0.4821837544441223,-1.056533694267273,-0.4119776487350464,0.08673013746738434,0.6582410931587219,-0.049341440200805664,-0.23997116088867188,-0.15986035764217377,-0.9350592494010925,-0.1020035669207573,-0.17668911814689636,0.033741701394319534,0.08709609508514404,-0.08787219226360321,0.633764386177063,0.24717289209365845,0.013018539175391197,0.5468995571136475,-0.09200116991996765,-0.5838958621025085,-0.2740967273712158,-0.3403142988681793,-0.9116895198822021,-1.2822400331497192,-0.5491651892662048,-0.12291689962148666,-0.23108631372451782,0.2206728607416153,-0.16037490963935852,-0.482912540435791,-0.0856371819972992],[-0.2170732319355011,-0.06468506157398224,-0.8904295563697815,-0.03249194473028183,0.29020920395851135,0.11807012557983398,0.5435400605201721,0.013559075072407722,-0.08132041245698929,0.3050929307937622,-0.3519022464752197,0.023704174906015396,-1.3624927997589111,0.009757190942764282,-0.6542080640792847,-0.978488564491272,0.6791406869888306,-0.1918742060661316,0.06612881273031235,-0.13354431092739105,-0.0552261620759964,0.8978939652442932,-0.17496289312839508,-0.11044442653656006,-0.6109561324119568,-0.09515812247991562,-0.42599737644195557,0.21588222682476044,0.49375173449516296,0.0951453372836113,-0.40287506580352783,0.4579606056213379,0.17391428351402283,0.11814238131046295,-1.0916998386383057,-0.14829383790493011,0.1708158552646637,-0.7538838386535645,-0.7722258567810059,0.002287693088874221],[0.17214205861091614,0.16784228384494781,-1.1864728927612305,-0.5768599510192871,0.04077461361885071,-1.0337516069412231,0.003978275693953037,-0.2162041813135147,-0.6984843015670776,-0.3248262107372284,-0.795327365398407,0.48894813656806946,-0.18896949291229248,-0.36257001757621765,-0.4196341633796692,0.2083204984664917,0.16190890967845917,-0.2812664806842804,0.3783023953437805,-0.26067718863487244,0.4185461699962616,-0.3700711131095886,0.1185392439365387,0.10519442707300186,-0.79338538646698,0.08313555270433426,0.272303968667984,-0.11192821711301804,0.10032551735639572,-0.5672757625579834,-0.029011260718107224,0.16727477312088013,-0.48480990529060364,-0.4618869721889496,-0.015732094645500183,-0.038273319602012634,0.28347256779670715,-0.08758924901485443,-0.7644924521446228,-0.31013116240501404],[-0.12649299204349518,-0.9643048048019409,-0.4855474829673767,0.3000596761703491,0.1857152134180069,0.811159610748291,-0.25011304020881653,0.5793094038963318,0.6380541324615479,0.2067701369524002,-0.39504140615463257,-0.1324445903301239,-0.558380126953125,0.10284222662448883,-0.22995753586292267,-0.21731358766555786,-0.338860422372818,-0.060709062963724136,-0.8818114995956421,-0.11135794222354889,0.13865871727466583,-0.01615769974887371,-0.7979474663734436,-0.15930218994617462,-0.2749707102775574,-0.12391330301761627,0.6604177951812744,0.20962437987327576,0.0653078705072403,-0.5018407106399536,-0.16608859598636627,-0.29905760288238525,-0.28561216592788696,0.22436387836933136,0.48775964975357056,-0.22507910430431366,-1.415310025215149,0.3653034567832947,-0.6252672672271729,0.40749430656433105],[0.10660038143396378,-0.07701513171195984,-0.0007593940827064216,0.3888443410396576,-0.039800044149160385,-0.01358042098581791,0.5945500731468201,-0.36066344380378723,-0.3420051038265228,0.10052873194217682,-0.20486220717430115,-0.478496789932251,-0.3433186709880829,-0.1470063030719757,-0.05580918863415718,0.3131999969482422,-0.24553389847278595,-0.2316436618566513,-0.08249739557504654,0.35448458790779114,0.48804914951324463,-0.6946921348571777,-0.3801226019859314,-0.8034619688987732,-0.2161625772714615,0.010708393529057503,0.2638797163963318,0.4850033223628998,-0.3875963091850281,0.8169111013412476,-0.09314445406198502,-0.30185869336128235,0.342989057302475,-0.20514650642871857,-0.010226026177406311,-0.24983370304107666,-0.23534606397151947,-0.8961024880409241,-0.1714152991771698,0.06785845756530762],[-0.04115413501858711,0.1457798033952713,-0.8024711608886719,-0.08240538090467453,0.06103584170341492,-0.6611307859420776,0.5865791440010071,0.34629595279693604,-0.141531839966774,0.5780938863754272,-0.25349223613739014,-1.416333794593811,0.05641983076930046,-0.5277758836746216,-0.5098289251327515,-0.12403574585914612,-0.47604846954345703,0.03230013698339462,-0.791334867477417,-0.47545677423477173,-0.3128715455532074,0.11101020872592926,0.3397136926651001,-0.3540777862071991,-0.06607876718044281,-0.08377011865377426,0.3193245232105255,0.2230907827615738,0.004575076047331095,-0.5233960151672363,0.261868417263031,-0.0847998559474945,0.7414541840553284,-0.4969922602176666,0.21808870136737823,0.009808601811528206,-0.3189462721347809,-0.5148429274559021,0.030607493594288826,0.19833460450172424],[-0.07897015661001205,-0.5214764475822449,-0.6138253211975098,0.5188652276992798,0.005493133794516325,0.1781773418188095,0.006846478208899498,0.13336578011512756,0.12154093384742737,-0.48655882477760315,0.38432547450065613,-0.6308927536010742,0.2810245752334595,-0.0616881437599659,-0.25071650743484497,0.010300888679921627,0.01903596892952919,0.2503668963909149,-0.5305570960044861,0.38093745708465576,0.27555039525032043,0.27851539850234985,-0.2928130030632019,-0.44349151849746704,-0.4211665391921997,0.1496681123971939,-0.24668896198272705,-0.2037333846092224,0.013456217013299465,0.2499164193868637,0.19078148901462555,-0.423824280500412,0.2727915942668915,0.11390909552574158,-0.1262698918581009,0.06364230811595917,-0.07881880551576614,-0.23479604721069336,0.23075880110263824,0.18583577871322632],[-0.5860980153083801,0.3447191119194031,0.4866805076599121,0.3017733693122864,-0.025680825114250183,-0.26110225915908813,0.04704827070236206,-0.31377148628234863,-0.831893265247345,-0.45810237526893616,-0.6576076149940491,-0.8626458048820496,-0.19557392597198486,0.17637483775615692,-0.3668789863586426,-0.45326128602027893,0.09653424471616745,0.31449154019355774,0.12377970665693283,-0.5557147264480591,-0.14251522719860077,0.42882266640663147,0.29957830905914307,0.42192360758781433,0.764090895652771,-0.07001426070928574,-0.5802701711654663,-0.25915780663490295,0.2824496626853943,-0.201836496591568,-0.206796795129776,0.08418815582990646,-0.645107626914978,-2.100414991378784,-0.046097394078969955,0.11721166968345642,0.4164974093437195,-0.350871205329895,0.14581765234470367,-0.48919132351875305],[-0.1812261939048767,-0.30733752250671387,-0.4271356761455536,-0.4376489520072937,0.26998791098594666,0.12808945775032043,0.1432444155216217,-0.022893888875842094,-0.06426914036273956,0.31787192821502686,-0.7609640955924988,0.8145179748535156,0.5257296562194824,0.15874849259853363,0.477627694606781,-0.0671682134270668,0.1745009571313858,-0.4035849869251251,0.055069517344236374,0.30753934383392334,-0.43349215388298035,-0.2060416042804718,-0.06837931275367737,-0.18665052950382233,0.06685799360275269,0.15059404075145721,-0.16558729112148285,-0.2889834940433502,-1.210908055305481,-0.5536596775054932,0.08252867311239243,-0.4767937958240509,0.32992222905158997,-0.28464046120643616,0.20819291472434998,0.08866186439990997,0.6229888200759888,-0.1946033537387848,-0.6719329357147217,-0.30624955892562866],[-0.01169679407030344,0.017149752005934715,0.24204394221305847,-0.5643185377120972,-0.2293752282857895,0.07830898463726044,0.3989535868167877,-0.006247528363019228,-0.2788226306438446,-0.6766272187232971,-0.3893436789512634,0.19583635032176971,-0.3300640881061554,-0.3556206524372101,0.4901358187198639,-0.19991609454154968,0.0697249174118042,0.16052894294261932,0.09424830973148346,-0.3607425391674042,-0.425402969121933,-0.09423260390758514,0.26707178354263306,0.07970984280109406,-0.14097601175308228,0.10878092050552368,0.19002360105514526,-0.7619024515151978,-1.0675177574157715,-0.6967306137084961,-0.06544003635644913,0.12663646042346954,-0.12238094955682755,0.5662063360214233,0.1615709662437439,0.11593195050954819,-0.08001867681741714,-0.945886492729187,-0.1693737953901291,-0.25550758838653564],[0.22990794479846954,-0.33011364936828613,0.48058968782424927,0.35811108350753784,0.027255510911345482,-0.5225843191146851,0.05755561217665672,0.27782925963401794,-0.678756594657898,-0.3573001027107239,-1.3726240396499634,-0.016870874911546707,0.0166977196931839,-0.26766327023506165,0.5476396679878235,-0.8853520154953003,0.19552600383758545,0.14102181792259216,0.7952881455421448,-0.7812245488166809,-0.5063519477844238,0.7117699980735779,0.2253464311361313,0.05455441027879715,-0.24489726126194,-0.16169026494026184,-0.6047419309616089,-0.9758331775665283,-0.358030766248703,0.3364332318305969,-0.19083881378173828,0.004939141683280468,-0.6045256853103638,-0.24432875216007233,0.07344325631856918,-0.12831632792949677,-0.5283560156822205,-0.6923753619194031,-0.5461143851280212,0.4266332983970642],[-0.2330167442560196,0.10230306535959244,0.5200291275978088,0.010523376986384392,-0.061280932277441025,-0.34143081307411194,-0.01502745971083641,0.045943956822156906,-0.005145701114088297,-0.2207946479320526,-0.14711713790893555,-0.26617103815078735,0.4899411201477051,0.14450125396251678,-0.7144322991371155,-1.099976658821106,-0.5130343437194824,0.019877735525369644,-0.1376674324274063,0.19132155179977417,-0.38608089089393616,-0.4730832278728485,0.095827117562294,-0.5645804405212402,-0.35878241062164307,-0.18958528339862823,-0.8517305254936218,0.279079794883728,0.18716952204704285,-0.14076027274131775,0.3051511347293854,-0.685907244682312,0.5247851610183716,0.3332657814025879,0.4795917868614197,0.16730278730392456,-0.06414081156253815,-0.10545258224010468,-0.2650427222251892,0.38062724471092224],[-0.357034295797348,0.6462382078170776,-0.5833577513694763,0.4314476549625397,-0.1547165811061859,-0.009655391797423363,0.2379310578107834,-0.3184109926223755,-0.44353342056274414,-0.38456499576568604,0.2169644981622696,-0.07898332923650742,0.0834035649895668,0.02053123526275158,-0.35315021872520447,-0.5887091159820557,0.0425955168902874,-0.2062441110610962,0.18201765418052673,0.02892395853996277,-0.4691127836704254,0.124074786901474,0.14684519171714783,-0.10023284703493118,-0.539349377155304,0.03784126788377762,-0.4346543550491333,-0.4202761650085449,-0.38126784563064575,-0.15517817437648773,0.27844491600990295,0.5406415462493896,1.0558277368545532,-0.8476027250289917,0.3729657232761383,-0.09323791414499283,0.16889001429080963,-0.24382096529006958,-0.07089045643806458,-0.22242477536201477],[-0.20294497907161713,-0.046060364693403244,0.4320690929889679,-0.09966902434825897,0.5460043549537659,-0.5675151348114014,0.6868245005607605,-0.566234827041626,0.12882155179977417,-1.053804874420166,0.055402424186468124,-0.28058359026908875,-0.13018694519996643,-0.05440562590956688,0.3405991196632385,-0.2314612716436386,-0.2294059842824936,0.0430920273065567,-0.41137516498565674,-0.3380334973335266,0.38400766253471375,0.6433886289596558,0.03796327859163284,-0.5919663310050964,-1.1878126859664917,0.10016908496618271,-1.2638075351715088,-0.6568111777305603,0.07235626131296158,-0.3432421386241913,0.2446812093257904,-0.15000469982624054,0.07914181053638458,0.1616024672985077,-0.49205920100212097,-0.2777366638183594,-0.0070486669428646564,-1.3701387643814087,-0.5042014122009277,-0.13826969265937805],[-0.45099276304244995,-0.6832048892974854,-0.8023334741592407,-0.5400205850601196,-0.2069316953420639,0.3117196261882782,0.4712255597114563,0.09813663363456726,-0.08463989198207855,0.49599289894104004,0.18972261250019073,0.4514313340187073,-0.13927078247070312,-0.2075294852256775,0.19326265156269073,-0.4392333924770355,-0.03633417189121246,-0.025013161823153496,-0.9224852919578552,-0.42989760637283325,-0.2302567958831787,-0.7928077578544617,0.2088581919670105,-0.4259469509124756,-0.4777487814426422,0.101364865899086,0.5767868161201477,-0.1481410264968872,-0.26390692591667175,-0.647662878036499,0.16582521796226501,0.20080383121967316,0.25231388211250305,-0.044802259653806686,0.1659049242734909,-0.0712420791387558,-0.4534777104854584,0.24732694029808044,-0.056220199912786484,0.568858802318573]],"biases":[-0.19452576339244843,-0.16803233325481415,-0.3007888197898865,0.3353445827960968,-0.18129201233386993,-0.0832584872841835,0.1170072853565216,-0.10997983813285828,0.12320484966039658,-0.5248393416404724,0.08405546844005585,-0.001704822527244687,-0.21696391701698303,-0.23825861513614655,-0.40736261010169983,0.05958101898431778,-0.2167135775089264,-0.007753854617476463,-0.24293339252471924,-0.2913255989551544,-0.2475229799747467,-0.29816728830337524,0.09322754293680191,-0.22909115254878998,0.3892592191696167,-0.05944948270916939,0.1873556524515152,0.5139816999435425,-0.2381809800863266,-0.026129785925149918,-0.2200273871421814,-0.36644458770751953,0.33422279357910156,0.07754912227392197,0.47660812735557556,0.14941708743572235,0.07859643548727036,0.17401936650276184,0.14547961950302124,0.029648197814822197]},{"weights":[[-0.4264589250087738,-0.056080810725688934,0.11597143113613129,-0.21504312753677368,-0.01266665942966938,0.18337880074977875,-0.3486338257789612,0.1444638967514038,-0.05519505590200424,-1.0350618362426758,-0.15048818290233612,-0.3295228183269501,-0.08038660138845444,-0.1084422692656517,-0.20792266726493835,-0.14493289589881897,-0.1911482810974121,-0.3022734522819519,-0.013779976405203342,-0.07403575628995895,0.06890779733657837,0.23463191092014313,0.051773883402347565,-0.06563131511211395,0.05754246562719345,0.1497068852186203,0.022763893008232117,0.08465451002120972,0.12964189052581787,-0.0911344364285469,0.31258490681648254,-0.04547499120235443,0.3170516788959503,-0.14253370463848114,0.26781922578811646,0.20224668085575104,-0.046186018735170364,-0.14617057144641876,-0.19228942692279816,0.2230556756258011],[-0.8118657469749451,-0.7866678237915039,-0.07419001311063766,0.18975603580474854,-0.42818862199783325,-0.482474684715271,-0.1760968118906021,-0.22823579609394073,0.10680893808603287,-0.1113070547580719,-0.26377058029174805,0.06479594856500626,0.08493585884571075,-0.17686666548252106,-0.47998905181884766,0.12826977670192719,0.5856509208679199,0.2402675896883011,0.04130958765745163,-0.1948595643043518,-0.04915717616677284,-0.4675295948982239,-0.1261363923549652,0.20230160653591156,0.34943655133247375,0.10731077194213867,-1.9242503643035889,-0.6113942861557007,-0.5219329595565796,0.6063586473464966,-0.5934510231018066,-0.3810441792011261,-1.4720885753631592,0.44501793384552,0.8223439455032349,-1.0356183052062988,0.48526158928871155,0.7713892459869385,-0.9858579039573669,-0.4022091329097748],[-0.05594940483570099,0.4343031644821167,0.2765577435493469,-1.2098203897476196,-0.21601270139217377,-0.7201435565948486,-0.024223145097494125,0.5767754912376404,0.017983391880989075,-0.07894084602594376,-0.7582616209983826,-0.5787438154220581,-0.7361427545547485,-0.9560458064079285,0.11475711315870285,0.16225101053714752,0.18209315836429596,-0.31678345799446106,-0.9038244485855103,-0.3299562335014343,0.4855732023715973,0.5996780395507812,0.5323285460472107,0.41939446330070496,0.16637872159481049,-0.14961762726306915,-0.7324042916297913,0.2259882092475891,0.05564571171998978,0.02795838937163353,0.3385620713233948,-0.0956021398305893,0.18327638506889343,-0.9935886263847351,0.8915811777114868,0.43297794461250305,-0.7372413277626038,0.46275460720062256,-0.28139081597328186,0.25087305903434753],[-0.13667376339435577,-0.15131589770317078,-0.5290057063102722,0.032523080706596375,0.04562271758913994,0.34565579891204834,-0.14565111696720123,-0.1651640087366104,0.2001396268606186,0.3656451106071472,-0.05043959245085716,-0.401018887758255,-0.314657986164093,-0.09485521167516708,-0.0702652558684349,0.2778395414352417,0.01360100507736206,-0.010014672763645649,0.33943241834640503,0.483158141374588,0.37042590975761414,-0.6204103827476501,-0.2878216803073883,0.6927670240402222,-0.40760815143585205,0.23041805624961853,-0.6248407363891602,0.22809717059135437,-0.3313559293746948,0.028205985203385353,-0.7273642420768738,-0.07445880770683289,-0.22941754758358002,0.16010046005249023,-0.14138954877853394,-0.0008150494541041553,-0.6665483713150024,0.3200143575668335,0.6262645125389099,-0.3107476532459259],[0.23988480865955353,-0.04300340265035629,-0.21185638010501862,-0.059114009141922,0.01538068987429142,-0.2545379102230072,-0.2851545810699463,-0.3503054082393646,-0.6973132491111755,-0.10064435750246048,-0.18635150790214539,-1.2745475769042969,-0.3228766918182373,0.05181097611784935,0.3636002242565155,-0.3688161075115204,0.030054684728384018,-0.28376972675323486,-0.11920458823442459,-0.09234334528446198,-0.23701678216457367,-0.017973335459828377,-0.020996488630771637,-0.05966079235076904,-0.018880782648921013,0.3859090209007263,0.01764500141143799,0.5008956789970398,0.8618721961975098,0.03848136216402054,0.3192945122718811,-0.2533619999885559,0.16674330830574036,0.01940249279141426,0.1697496920824051,-0.08822792023420334,0.1792905032634735,-0.08229067176580429,-0.011587138287723064,-0.0232265442609787],[-0.22332268953323364,-0.3617251217365265,-0.028800664469599724,0.3294495642185211,0.1260865479707718,-0.15839968621730804,0.13703608512878418,0.17330659925937653,-0.4026680588722229,-1.3038008213043213,0.01979982666671276,0.6327196955680847,-0.36273929476737976,-1.5500513315200806,0.17091268301010132,-0.1627543419599533,-0.4035797417163849,-0.8810797333717346,0.047696731984615326,0.1293916404247284,0.6316521167755127,0.5216594934463501,-0.08410397917032242,-1.1871387958526611,0.0939142033457756,-1.3388625383377075,-0.10992888361215591,0.41262197494506836,0.38092878460884094,0.2275112420320511,-0.0026947285514324903,-0.4772328734397888,0.5295314192771912,0.3894834518432617,-0.2363007366657257,-0.29116857051849365,-1.1301220655441284,0.09607375413179398,0.2447400689125061,-0.23868098855018616],[-0.3025495409965515,0.7659984827041626,-0.12313774228096008,-0.014419980347156525,-0.043804410845041275,-0.13446040451526642,0.26947885751724243,0.08280757069587708,0.47155821323394775,-0.823337197303772,-0.029426228255033493,0.13902878761291504,0.28783172369003296,-0.3111976683139801,-0.3922579884529114,0.24459248781204224,0.00465675862506032,-0.10844498872756958,-0.1981850564479828,-0.07593231648206711,0.28751423954963684,0.17033489048480988,0.45855212211608887,-0.4240891933441162,0.3453231751918793,-0.6544105410575867,0.056477878242731094,-0.34209248423576355,-0.7238736152648926,0.03554515540599823,0.12914159893989563,0.16367346048355103,0.002262770663946867,-0.2138589769601822,0.35273611545562744,-1.0297529697418213,0.22259502112865448,0.033997468650341034,-0.18354570865631104,0.03143690153956413],[-0.33168089389801025,-0.5377898812294006,-0.5731000304222107,-0.08489104360342026,-0.49583885073661804,0.03412485122680664,-1.3552870750427246,-0.3414227366447449,0.4924284517765045,-0.34574148058891296,-0.03606268763542175,-0.17397917807102203,-0.18802474439144135,-0.4222877323627472,0.21641428768634796,-0.4445127248764038,-0.3908548653125763,0.10977283865213394,-0.15753360092639923,-0.24789442121982574,-0.5073985457420349,-0.4877671003341675,0.16894976794719696,-0.2539033591747284,-0.16455061733722687,0.19877944886684418,0.2821533679962158,-0.12940160930156708,0.7317605018615723,-0.3948070704936981,0.12477202713489532,0.36527833342552185,0.8697904348373413,-0.7772006392478943,0.24005311727523804,-0.8182171583175659,0.032603874802589417,0.20126482844352722,-0.07098980247974396,0.04316612705588341],[0.13235434889793396,-0.1393308937549591,0.07118069380521774,-0.35850757360458374,-0.1445658802986145,0.21875932812690735,-0.016016006469726562,-0.5241886973381042,-0.7967483401298523,0.046769142150878906,-0.3434385061264038,0.18783634901046753,-1.2024718523025513,-1.0378526449203491,0.08716300874948502,-0.10203584283590317,-0.2523849606513977,0.7360888123512268,-0.4988064467906952,0.1474272459745407,-0.011677264235913754,0.7968745231628418,-0.17960599064826965,-0.23923374712467194,-0.9464481472969055,0.11569982767105103,-0.6759922504425049,-1.0534076690673828,0.30130934715270996,0.5288901925086975,0.15816135704517365,-0.6506114602088928,-0.7410569787025452,0.49803271889686584,0.008077300153672695,0.08779441565275192,0.025398684665560722,-0.21451245248317719,-0.8645128011703491,-1.3030941486358643],[-0.8367298245429993,0.4911082088947296,0.2576356828212738,0.14587752521038055,0.20601047575473785,0.5888723731040955,0.32275670766830444,-0.22189012169837952,-0.40722963213920593,-0.43858203291893005,0.5391278266906738,-0.4411802589893341,-1.0499825477600098,-0.3433743119239807,-1.053586483001709,-0.0060626789927482605,-1.31707763671875,-0.24745309352874756,-0.04668448492884636,0.07230038940906525,-0.8931951522827148,-0.5632491111755371,-0.4570752680301666,-0.4759511649608612,-0.4786069691181183,0.06700028479099274,0.19365721940994263,0.5203921794891357,-0.02512086182832718,0.26270556449890137,-0.594045102596283,-0.31616687774658203,-0.2492029070854187,0.040695395320653915,0.7934091687202454,0.18683886528015137,0.01529886107891798,-0.5338107347488403,0.41771718859672546,0.004978060256689787],[-0.2995814383029938,-0.2725730240345001,0.16117945313453674,-0.1687449812889099,-0.2518329322338104,-0.10748081654310226,-0.45583805441856384,0.4837513267993927,-0.35289421677589417,0.11383801698684692,0.07406211644411087,-0.17215058207511902,0.004715593531727791,-0.3868877589702606,0.3886772096157074,-0.1958722174167633,-0.41302815079689026,0.2657429277896881,0.18571721017360687,-0.5629522204399109,0.5215836763381958,-1.007451057434082,0.003951192833483219,-0.11126864701509476,0.36288541555404663,-0.04897110536694527,-0.025001587346196175,-0.11269731819629669,-0.21329902112483978,-0.26583075523376465,0.49751007556915283,0.26377418637275696,1.0193006992340088,-0.08601611107587814,0.14555588364601135,-0.052428990602493286,0.07393649965524673,-0.7699623107910156,-0.3279131352901459,0.3323036730289459],[0.12390629202127457,0.08900357782840729,-1.1602169275283813,-0.2657679617404938,0.21245886385440826,-0.5578569769859314,0.1247975304722786,-0.22385548055171967,0.43084654211997986,0.45944300293922424,0.08410750329494476,-1.379857063293457,0.1741277128458023,-0.07391299307346344,-0.7974728345870972,-0.7008267045021057,0.3765135705471039,-0.2011273354291916,0.14107969403266907,-0.18262942135334015,-0.1890556663274765,0.7802642583847046,-0.44223377108573914,-0.47646141052246094,0.1588299721479416,0.4564962685108185,-0.49432191252708435,0.44960150122642517,-0.42608004808425903,-0.3673733174800873,0.5189456343650818,-0.059175726026296616,-0.6765832304954529,0.21399568021297455,-0.3546642065048218,-0.10806979238986969,0.37465858459472656,-0.8899253010749817,0.4700802266597748,-0.7668076753616333],[0.3307105600833893,0.25025564432144165,0.22865483164787292,0.12600675225257874,-0.42251288890838623,-0.04381314292550087,-0.3118809163570404,-0.19908425211906433,-0.89464271068573,0.36831650137901306,-0.7876436710357666,-0.05034208670258522,0.09226538240909576,-0.17438259720802307,-0.37981417775154114,-0.44326552748680115,-0.09156390279531479,-0.30680862069129944,0.03593062981963158,-0.1865561306476593,0.1726844161748886,-0.050417013466358185,-0.6310276389122009,0.07399976253509521,-0.33497437834739685,0.05794377624988556,0.1831403374671936,-0.7268327474594116,-0.07698840647935867,0.02129126526415348,-0.6410817503929138,-0.29213568568229675,0.008497432805597782,-0.052595123648643494,-0.48102304339408875,0.5251059532165527,0.2603623867034912,-0.09942208975553513,-0.24678313732147217,0.11371146887540817],[-0.03656155988574028,-0.5456852912902832,-0.32437387108802795,-0.24980796873569489,-0.09807093441486359,-0.04668072611093521,0.1320679485797882,0.0038169114850461483,0.6314219236373901,-0.008475993759930134,-0.27501818537712097,-0.06503765285015106,-0.24985931813716888,0.2868158221244812,-0.21122923493385315,-0.20584945380687714,-0.4422042965888977,0.08430041372776031,0.16418033838272095,0.04771444946527481,-0.11678363382816315,0.14366541802883148,-0.01505646575242281,0.071303591132164,-0.6161941885948181,0.18375706672668457,-1.0047683715820312,-0.14006024599075317,-0.16727933287620544,-0.3412974178791046,-0.22115635871887207,-0.11729812622070312,-0.5022839307785034,-0.11720165610313416,0.35779455304145813,-0.7082729339599609,0.3209719657897949,0.8924582004547119,-0.5735845565795898,0.2159641683101654],[-0.6677642464637756,0.26072144508361816,0.15048770606517792,-0.31242507696151733,-1.5986595153808594,0.6436600089073181,0.33625033497810364,-0.6961560845375061,0.6174534559249878,-0.05587839335203171,-0.06673629581928253,-0.13100576400756836,-0.18748189508914948,-0.29827380180358887,-1.0439757108688354,0.34438538551330566,-0.3507125973701477,-0.04329654574394226,-0.22304368019104004,0.2165517359972,-0.18833832442760468,0.23074766993522644,-1.0673408508300781,-0.616608738899231,0.684939444065094,0.3477540612220764,-0.8439462780952454,0.9987916350364685,-0.8639894723892212,-0.7743741869926453,-0.2593555748462677,-0.16579534113407135,0.40405985713005066,0.29861336946487427,-0.39291462302207947,-0.39152610301971436,0.1176997497677803,-0.11703383922576904,-0.527494490146637,0.06204790621995926],[0.13390955328941345,-0.08685033768415451,-0.025008773431181908,-0.7747637033462524,-0.20575536787509918,0.19672101736068726,-1.2475641965866089,0.15769341588020325,-0.44007569551467896,0.303379625082016,0.5430101752281189,-0.25389090180397034,-0.41713303327560425,0.026020852848887444,-0.019897552207112312,-0.11767622083425522,-0.1401985138654709,0.04548081383109093,0.5251594185829163,-0.23161369562149048,0.11899794638156891,-0.25383538007736206,-0.15694454312324524,0.09317293018102646,-0.3982851207256317,0.1385945975780487,-0.2534211575984955,-0.6599080562591553,0.4719308912754059,-0.18953339755535126,0.5641442537307739,-0.05796949192881584,-0.5445984601974487,0.390436589717865,-0.4694918096065521,-0.34737321734428406,0.29686418175697327,-0.37067165970802307,-0.11161334812641144,0.2878558933734894],[0.011005936190485954,0.06705372035503387,-0.9703589081764221,0.5532119870185852,0.03686194494366646,-0.35194727778434753,-0.12250691652297974,-0.8489214777946472,-0.0515621155500412,0.21560166776180267,-0.4186534881591797,0.09108655899763107,-0.10641853511333466,-0.17725037038326263,-0.08322423696517944,-0.11930350959300995,0.17683349549770355,0.32817399501800537,-0.01795600913465023,-0.14502526819705963,-0.02962862327694893,-0.875368595123291,-0.11185283958911896,-0.20879264175891876,-0.16626761853694916,0.5806788206100464,-0.4670639932155609,-0.031069204211235046,0.042673856019973755,-0.31759682297706604,-0.10161364823579788,0.43384048342704773,-0.015191633254289627,-0.2857726514339447,-0.2596145272254944,-0.28976115584373474,0.14580824971199036,-0.363768070936203,0.1461869478225708,0.3621279001235962],[0.31202271580696106,0.03005201183259487,0.31526419520378113,0.4052291512489319,-0.9770612716674805,-0.0549197643995285,0.1959362030029297,0.1705285608768463,-0.9765538573265076,0.2242121398448944,-0.7645031213760376,-0.2000439465045929,-0.39847245812416077,-0.018645944073796272,0.3239898979663849,-0.9825599193572998,0.10056400299072266,0.09500370919704437,-0.14709681272506714,-0.7634453773498535,-0.1909920573234558,-0.14239943027496338,0.2851507067680359,-0.2157316952943802,-0.4604209363460541,0.5862762331962585,-0.25449034571647644,-0.14385434985160828,-0.5286462306976318,0.17782269418239594,0.8268531560897827,-0.7174943685531616,-0.03391622006893158,-0.1614585667848587,-0.20980669558048248,-0.34329402446746826,-0.38223835825920105,-0.6066123843193054,0.2931411564350128,-0.8485580682754517],[-0.13604174554347992,0.2614145576953888,-0.03064429759979248,0.0698588564991951,-0.2806735038757324,-0.2678601145744324,-0.5227963328361511,-0.5858042240142822,-0.03434395045042038,0.16860808432102203,0.008530627004802227,-0.24092891812324524,-0.03332507237792015,-0.3779303729534149,-0.11588255316019058,0.3589131236076355,0.07567116618156433,0.14335031807422638,0.2591581344604492,0.20572040975093842,0.2902364134788513,-0.4102548360824585,-0.15795016288757324,-0.18666972219944,-0.3312003016471863,0.3559972643852234,-0.9926450252532959,0.27845948934555054,-0.6100054383277893,0.014703848399221897,-0.2664882242679596,0.004213250707834959,0.3808870315551758,0.06013355404138565,-0.26914241909980774,0.17460723221302032,0.25060197710990906,-0.13640917837619781,-0.21216152608394623,-0.4338385760784149],[0.05959966778755188,-0.42666712403297424,0.01656913571059704,-0.6047229766845703,0.3631918430328369,-0.3738906681537628,0.020403999835252762,0.03553323447704315,-0.29020825028419495,0.16891176998615265,0.6776984333992004,-0.15483061969280243,-0.14857345819473267,0.37210968136787415,-0.4638901352882385,0.5083675384521484,0.2875264286994934,-0.01142636127769947,-0.11342556774616241,0.07455258071422577,-0.009356832131743431,0.5719196796417236,-0.4705335795879364,0.04224207624793053,0.17348328232765198,0.10856685042381287,-0.0385873019695282,-0.13365261256694794,-0.1695345789194107,0.3207242786884308,-0.6251375675201416,0.23087504506111145,0.3509516417980194,-0.4467061758041382,-0.30783647298812866,-0.3764289319515228,0.2791902422904968,-0.11105549335479736,0.13969005644321442,-0.5746336579322815]],"biases":[0.4032098352909088,0.30719810724258423,0.0288955457508564,-0.0494222491979599,0.07569365203380585,0.5004093647003174,0.20872816443443298,-0.2402205765247345,0.12650683522224426,0.11887595057487488,-0.14721930027008057,0.16600529849529266,-0.36744382977485657,0.14895875751972198,-0.18395684659481049,-0.24369598925113678,-0.024675296619534492,-0.5499681234359741,-0.1015896201133728,-0.23093019425868988]},{"weights":[[0.2677294611930847,0.3862973749637604,-0.6189092993736267,-0.12534569203853607,-0.7806029319763184,-0.34746119379997253,0.09306348860263824,-0.6728082299232483,0.3796735107898712,0.2887542247772217,0.1050795242190361,-0.5304754972457886,-0.09521295130252838,0.06410225480794907,0.48869019746780396,0.16981589794158936,0.3076511025428772,0.41817140579223633,-0.6625293493270874,0.19634102284908295],[0.12870873510837555,-0.4118533432483673,0.2550472319126129,0.22851377725601196,0.11107835173606873,0.31071069836616516,-0.1015128344297409,-0.26510486006736755,-0.48685866594314575,-0.2597242295742035,-0.2453870326280594,0.46632203459739685,-0.6099161505699158,-0.30548083782196045,-0.5537342429161072,-0.13066108524799347,-0.487686425447464,-0.44883713126182556,0.25586166977882385,-0.39940300583839417],[-0.08334774523973465,-0.3656570017337799,-0.08783169835805893,-0.1312749981880188,0.05749386176466942,-0.3338523805141449,-0.7577859163284302,0.267469584941864,0.27893978357315063,-0.5998624563217163,0.14290660619735718,-0.17805519700050354,0.3731749355792999,0.21835556626319885,0.5274499654769897,-0.18677455186843872,0.4131811261177063,0.12116345018148422,-0.07582337409257889,-0.14371085166931152],[0.3305252492427826,0.1298113912343979,0.05257304757833481,-0.48396703600883484,0.055096585303545,-0.436769038438797,-0.5617741346359253,0.19379626214504242,0.08542884141206741,-0.39791837334632874,0.11926396191120148,0.250637948513031,-0.0360112264752388,0.19856904447078705,-0.007736810017377138,0.036159127950668335,-0.2899845242500305,0.29787617921829224,0.25841060280799866,-0.16987217962741852],[-0.24009965360164642,-0.013749150559306145,-0.1308177262544632,0.011176795698702335,-0.009654120542109013,-0.00450338376685977,0.009632979519665241,0.03793160617351532,-0.04381800815463066,0.03617477789521217,-0.20082667469978333,-0.1325003206729889,-0.1058240681886673,0.01662628911435604,-0.07751043140888214,0.008101745508611202,-0.1035509929060936,-0.040198877453804016,-0.15869252383708954,-0.00007815935532562435],[-0.5421952605247498,-0.050912078469991684,-0.053511884063482285,0.0845881924033165,0.008826708421111107,-0.12346131354570389,-0.18064267933368683,-0.11017053574323654,0.09174641221761703,0.019954998046159744,-0.3083049952983856,0.12336452305316925,0.009228666312992573,-0.09113490581512451,-0.027279535308480263,-0.6239086985588074,-0.24883119761943817,0.3220432698726654,0.2474060356616974,0.14657966792583466],[-0.3752603828907013,-0.3027140498161316,0.12844055891036987,0.2536124885082245,-0.20649579167366028,-0.17634055018424988,-0.6230300068855286,0.45947274565696716,0.4100053608417511,-0.14818531274795532,0.20449914038181305,-0.01484820805490017,0.17131614685058594,-0.47613587975502014,-0.05805514380335808,0.2495208978652954,0.3702205717563629,-0.29896798729896545,-0.7826859951019287,-0.1960248053073883],[-0.3804575502872467,-0.15129467844963074,-0.4783681333065033,-0.2022741585969925,0.24913740158081055,-0.3604182302951813,-0.5181246399879456,0.24725931882858276,0.25107118487358093,-0.46270978450775146,-0.6597195863723755,-0.5362553596496582,0.12307945638895035,-0.24695909023284912,0.6655142903327942,-0.882915198802948,0.22891251742839813,0.0012315952917560935,0.6501796841621399,-0.33354413509368896],[0.13699235022068024,-0.0750483050942421,-0.12370194494724274,-0.30536869168281555,0.11122529953718185,-0.6497498750686646,-0.6683600544929504,-0.3091191053390503,-0.6630656719207764,-0.22402800619602203,0.25257012248039246,0.2493879348039627,0.21006186306476593,0.3503519296646118,-0.07998761534690857,-0.20849663019180298,-0.1508689671754837,0.3318111300468445,-0.2563804090023041,-0.17035000026226044]],"biases":[0.3982608914375305,0.6088414192199707,0.22434814274311066,-0.26339685916900635,-0.08935771882534027,-0.23103740811347961,-0.1643834114074707,0.059063833206892014,-0.13426779210567474]}],"inputLookup":{"heroInButton":0,"handGroup":1,"HS":2,"potOddsH":3,"initiative":4,"villainRaise":5,"villainAllIn":6},"inputLookupLength":7,"outputLookup":{"heroFold":0,"heroCall":1,"heroRaise":2,"heroAllIn":3,"betLevelH1":4,"betLevelH2":5,"betLevelH3":6,"betLevelH4":7,"betLevelH5":8},"outputLookupLength":9,"options":{"inputSize":0,"outputSize":0,"binaryThresh":0.5,"hiddenLayers":[20,40,40,20],"activation":"leaky-relu"},"trainOpts":{"activation":"leaky-relu","iterations":1000,"errorThresh":0.01,"log":true,"logPeriod":5,"leakyReluAlpha":0.01,"learningRate":0.001,"momentum":0.9,"callbackPeriod":10,"timeout":"Infinity","beta1":0.9,"beta2":0.999,"epsilon":1e-8}}