{"type":"NeuralNetwork","sizes":[8,20,40,20,10],"layers":[{"weights":[],"biases":[]},{"weights":[[-0.4227554202079773,-0.022546999156475067,-1.9163936376571655,0.07659559696912766,0.43232035636901855,0.2468860149383545,-0.16504085063934326,0.28458553552627563],[0.07753965258598328,-0.08912363648414612,-1.0953007936477661,0.07704956084489822,-0.8922367095947266,0.5369246602058411,0.007180629763752222,-0.14262379705905914],[0.40223076939582825,-0.004014125559478998,-1.2139066457748413,-0.17552557587623596,-0.18446657061576843,0.6943115592002869,-0.3183867633342743,0.1253339946269989],[-0.5976155996322632,-0.4176943600177765,1.2350621223449707,-0.2439441680908203,-0.9702348709106445,-0.262867271900177,-0.17384940385818481,0.16723604500293732],[-0.3937470614910126,0.5521903038024902,0.3581511080265045,0.9230090975761414,-0.37938421964645386,0.14005503058433533,-0.1495656967163086,-0.1316138058900833],[-0.09385564923286438,-0.05704016238451004,-0.19957755506038666,0.009526832029223442,0.03404555097222328,0.07543913275003433,-0.032079022377729416,-0.15776853263378143],[0.0029099429957568645,-0.3452187478542328,3.0720062255859375,-0.39408043026924133,-0.5190587043762207,-0.19338306784629822,-0.173041433095932,0.2975623309612274],[0.5156164169311523,-0.42601725459098816,-1.2582391500473022,0.5032292008399963,0.6635650396347046,-0.3007637560367584,0.717027485370636,0.18722766637802124],[0.1313554048538208,-0.358630895614624,0.5545986294746399,0.4213232696056366,-0.5396317839622498,0.30936601758003235,-0.24025887250900269,-0.3898192048072815],[-0.054330237209796906,-0.11767689138650894,-0.1289099156856537,-0.17016421258449554,0.11706516891717911,0.08779545873403549,-0.18127484619617462,0.1097625344991684],[0.9080921411514282,0.13596713542938232,1.2707233428955078,-1.3450340032577515,-0.9026747941970825,-0.018921567127108574,1.0389747619628906,0.007342145312577486],[-0.12186423689126968,-0.008141707628965378,-1.3573310375213623,0.08025972545146942,0.27888426184654236,0.27409645915031433,-0.2876998484134674,0.13129009306430817],[0.5144290328025818,-0.06647636741399765,1.091694951057434,-1.1173417568206787,-0.003935694694519043,-0.06952213495969772,0.4298762381076813,-0.371920108795166],[-0.1522025316953659,-0.2395232915878296,1.4640642404556274,0.3416307866573334,0.39300793409347534,-0.3046936094760895,0.11987965553998947,-0.5553126335144043],[0.015631526708602905,0.9634004235267639,-0.0893506407737732,0.9484318494796753,-0.10610241442918777,0.2617962062358856,0.1265479177236557,0.489300012588501],[0.8994874954223633,0.2713603675365448,-2.4210567474365234,0.5797862410545349,-0.9822477698326111,-0.4004107415676117,0.9704858064651489,0.6176483631134033],[-0.3715354800224304,-0.6313750743865967,-0.2391555905342102,-0.05898413434624672,0.9182408452033997,-0.2464817464351654,-0.28426656126976013,0.06940270215272903],[0.053379323333501816,0.3998244106769562,-0.6806712746620178,1.0795964002609253,0.5102721452713013,0.23701637983322144,-0.04814925417304039,0.3923403322696686],[0.23339857161045074,-0.1831403225660324,-1.2759146690368652,-0.057613469660282135,-1.0094610452651978,0.5362316966056824,-0.2816387116909027,0.07605867087841034],[-0.04082740470767021,0.05802574008703232,1.0086045265197754,0.5115256309509277,-2.2712559700012207,-0.013309403322637081,-0.0185575932264328,-0.2363434135913849]],"biases":[0.5941901803016663,0.10351213067770004,0.29973357915878296,-0.2476397603750229,-0.509549617767334,-0.12372054159641266,-1.217616081237793,-0.0009050195221789181,0.021256880834698677,-0.16303673386573792,-0.8861179351806641,0.39543214440345764,-0.6239092946052551,-0.4708508253097534,-0.6531345844268799,0.5594402551651001,0.003605520585551858,0.005892506334930658,0.10544859617948532,0.27038273215293884]},{"weights":[[-0.30847829580307007,-0.123130664229393,0.06937030702829361,0.15322141349315643,0.1200515627861023,0.1287098377943039,-0.4163306653499603,0.3772830367088318,0.18335264921188354,-0.12817153334617615,-0.02928350865840912,-0.12508346140384674,-0.07741095125675201,-0.08899641036987305,-0.13634860515594482,-0.16565319895744324,-0.08643429726362228,0.2720613181591034,-0.4758700430393219,0.25020018219947815],[0.3732047975063324,0.19421683251857758,-0.2569742202758789,0.08374009281396866,-0.19437596201896667,-0.1293758749961853,-0.06990306079387665,-0.0765436440706253,-0.1124764233827591,-0.05635539069771767,-0.2141522616147995,0.34230849146842957,0.09808182716369629,-0.2008945345878601,-0.2821464240550995,0.4153679311275482,0.10187893360853195,-0.16622613370418549,-0.13045087456703186,-0.1263759434223175],[-0.13221433758735657,0.003109060460701585,0.06515950709581375,-0.16616149246692657,-0.1668865829706192,0.13901136815547943,-0.20148150622844696,-0.07750501483678818,0.145199254155159,0.06723067164421082,0.002506443066522479,-0.01666569523513317,0.02228984236717224,-0.07959102094173431,0.005682468879967928,0.06987161189317703,0.15102849900722504,-0.10258848965167999,-0.1985349804162979,0.1450522094964981],[-0.09194587916135788,-0.00588008388876915,0.1533699482679367,0.28879931569099426,-0.1862270087003708,-0.17868098616600037,-0.13699515163898468,0.019009999930858612,0.13991433382034302,-0.05532124638557434,-0.1916240006685257,-0.1713857799768448,-0.49753138422966003,-0.30693531036376953,0.039781276136636734,0.05716955289244652,0.18254882097244263,0.09945020824670792,-0.2950553297996521,0.41916677355766296],[-0.20753803849220276,-0.09068138152360916,-0.18362434208393097,0.13110513985157013,-0.007978877983987331,0.1347893625497818,0.004326924681663513,0.2886464595794678,0.3246523439884186,-0.11941342800855637,-0.33379825949668884,-0.2784131169319153,-0.2964608669281006,0.2799164652824402,0.3621636629104614,0.5568015575408936,-0.21389877796173096,0.2706194818019867,0.0030377169605344534,0.21487116813659668],[0.3423021733760834,0.09197736531496048,-0.06927421689033508,-0.2210172712802887,0.005995880346745253,0.06572568416595459,-0.5260213017463684,0.014500509947538376,-0.22651903331279755,0.15997162461280823,-0.029985923320055008,0.09049514681100845,-0.49313610792160034,-0.05898432061076164,-0.09842747449874878,0.25022342801094055,-0.09692823886871338,0.16854165494441986,0.056338515132665634,0.5581834316253662],[0.05832049995660782,-0.06655101478099823,-0.22273212671279907,0.06233324110507965,-0.015947503969073296,-0.13524283468723297,0.0540817528963089,0.142215296626091,-0.048944152891635895,0.11751289665699005,-0.16187363862991333,0.18087631464004517,0.23455780744552612,0.1443914920091629,0.1297253966331482,-0.4559823274612427,0.20541951060295105,0.3576907217502594,0.08575529605150223,-0.382268488407135],[-0.2556518614292145,-0.10428931564092636,-0.21309754252433777,-0.2572641968727112,-0.024744471535086632,-0.15944398939609528,0.017318245023489,0.324998140335083,0.022474346682429314,0.008061789907515049,0.00715317577123642,-0.1467684954404831,0.16698096692562103,-0.005295196548104286,0.15375590324401855,-0.22592264413833618,-0.0077696978114545345,0.2261575162410736,-0.1335480660200119,0.13902471959590912],[0.041199591010808945,-0.053190235048532486,-0.11191409081220627,-0.09474212676286697,-0.12418264895677567,0.06299743056297302,-0.05204997584223747,-0.09859076887369156,-0.28371626138687134,-0.12953998148441315,0.42545005679130554,-0.012972848489880562,-0.2513379156589508,-0.13956664502620697,0.04829857870936394,0.2143974006175995,0.43447500467300415,-0.1447076052427292,0.06004084646701813,-0.23219244182109833],[-0.09185181558132172,0.2894883155822754,0.11034884303808212,-0.37851324677467346,0.2953183054924011,-0.09942956268787384,-0.05527661740779877,-0.11492571234703064,0.39905694127082825,-0.13184334337711334,-0.011294023133814335,-0.1364126056432724,-0.05868609994649887,0.28467974066734314,0.012745179235935211,-0.4629121720790863,-0.43996718525886536,0.10557831078767776,0.3208974301815033,-0.007859021425247192],[0.23730938136577606,0.32917383313179016,0.08942848443984985,-0.3358311355113983,-0.09640445560216904,0.035173121839761734,0.13200676441192627,0.16516296565532684,0.051463134586811066,-0.14595195651054382,0.14506646990776062,0.17054811120033264,-0.0458180196583271,0.02622661180794239,0.14602398872375488,-0.10672756284475327,0.1475561410188675,0.36199966073036194,0.23964127898216248,0.03896903991699219],[-0.4631267189979553,-0.36920955777168274,0.14390693604946136,0.4065540134906769,0.1671159565448761,0.11856746673583984,0.13330943882465363,0.3865412771701813,-0.022556394338607788,-0.05713405832648277,-1.0169548988342285,-0.483390748500824,0.06924961507320404,-0.2243703156709671,0.34767863154411316,-0.016150878742337227,-0.05598863959312439,-0.014026964083313942,-0.40967243909835815,0.4274221658706665],[-0.06787646561861038,-0.09369274973869324,-0.08343503624200821,0.33892345428466797,-0.0345117561519146,-0.19608008861541748,-0.1678394079208374,-0.4160445034503937,0.24205803871154785,0.140334814786911,-0.03179725259542465,0.04336395859718323,0.3362327218055725,-0.1969159096479416,-0.02918955869972706,-0.37262970209121704,-0.02323082648217678,-0.007736360654234886,0.04990413412451744,-0.39125949144363403],[-0.06590349972248077,-0.11944981664419174,-0.14550989866256714,0.1536215990781784,0.1996089071035385,-0.07605805993080139,-0.26399874687194824,0.0000868647257448174,-0.07282388210296631,-0.057593654841184616,-0.25394871830940247,-0.028832942247390747,-0.5188651084899902,0.256303608417511,0.19194959104061127,0.2757054269313812,-0.010908212512731552,0.13411033153533936,-0.10848861932754517,0.040224481374025345],[0.3366335928440094,0.1630459725856781,-0.12776616215705872,0.05093908682465553,-0.2996913194656372,0.20126648247241974,0.14182086288928986,0.16563279926776886,-0.35343462228775024,-0.13354457914829254,0.0366305448114872,0.23189637064933777,0.10415545850992203,0.03632644936442375,-0.0847150981426239,0.2748275399208069,0.17290997505187988,-0.33829036355018616,0.00007878631731728092,0.029960615560412407],[-0.09768093377351761,0.12602318823337555,-0.38831627368927,-0.6963644027709961,0.38166192173957825,-0.018797578290104866,0.1537240743637085,-0.09905266016721725,0.001391226309351623,-0.1315595656633377,0.30085310339927673,0.04081953689455986,0.017883868888020515,0.24375426769256592,0.17911574244499207,0.15360376238822937,-0.145309716463089,-0.2708826959133148,-0.21510174870491028,-0.12856929004192352],[-0.1371947079896927,0.08185180276632309,0.2005833238363266,-0.13101379573345184,-0.07118220627307892,-0.14561691880226135,-0.1759827882051468,-0.1349448561668396,0.04517730697989464,-0.11579682677984238,-0.08694055676460266,0.08517761528491974,0.10949785262346268,-0.06825848668813705,0.07657718658447266,0.032141219824552536,0.346014142036438,-0.07266544550657272,0.10948951542377472,0.1719512641429901],[-0.2210606336593628,-0.10833895951509476,-0.6591173410415649,0.17728400230407715,-0.47398024797439575,0.11901438236236572,-0.5167596340179443,0.2348572462797165,-0.10381104052066803,-0.08017128705978394,-0.06965936720371246,-0.1924821436405182,-0.048746101558208466,-0.1315845102071762,-0.29038476943969727,0.570156455039978,-0.2548764646053314,0.5519792437553406,-0.24937929213047028,0.26778411865234375],[0.12996621429920197,0.46062591671943665,-0.1993807852268219,-0.39408767223358154,0.044555727392435074,0.13785883784294128,0.1299683004617691,0.15561038255691528,0.06387528777122498,-0.1733035296201706,0.15083926916122437,0.08950180560350418,0.05136505141854286,-0.05347854271531105,-0.10496998578310013,0.39651575684547424,-0.03275409713387489,-0.02546454407274723,0.539667010307312,-0.2886350750923157],[0.29461488127708435,-0.06357001513242722,0.1792631596326828,-0.09705296903848648,0.2161128968000412,-0.025770656764507294,0.006894163321703672,0.23998166620731354,0.07945963740348816,0.0894937664270401,-0.5555693507194519,0.31927013397216797,0.010522842407226562,0.4986443519592285,-0.06547793745994568,-0.022023381665349007,0.17783516645431519,0.17494624853134155,0.06718240678310394,0.5113179087638855],[0.18648377060890198,0.13543668389320374,-0.03452424705028534,-0.11402817815542221,-0.12790852785110474,-0.08759358525276184,-0.14169014990329742,0.006405082996934652,-0.12303408980369568,-0.1638730764389038,0.060112401843070984,-0.08439990878105164,-0.18663795292377472,-0.15827402472496033,-0.12725017964839935,0.05579155683517456,-0.17483752965927124,-0.1545676589012146,-0.16746357083320618,-0.045084670186042786],[-0.23995669186115265,-0.24646835029125214,0.1921781599521637,-0.1809542328119278,0.5017291307449341,-0.1798172891139984,-0.3099747896194458,-0.47789400815963745,0.19765132665634155,-0.07593555003404617,-0.32061177492141724,-0.09450975805521011,0.14324931800365448,0.23539826273918152,0.3164824843406677,-0.3819696009159088,-0.0368802472949028,0.1364075392484665,-0.14833928644657135,0.25927606225013733],[0.18107187747955322,-0.1928040236234665,0.030719229951500893,0.15083663165569305,-0.19639483094215393,-0.05419227480888367,-0.3496891260147095,-0.2993970811367035,-0.14387334883213043,-0.16266052424907684,0.08068457990884781,-0.25507786870002747,-0.13671645522117615,-0.0381743423640728,0.09395474940538406,-0.12418464571237564,-0.016816161572933197,-0.21215762197971344,-0.10530157387256622,0.03888353332877159],[0.2572665512561798,-0.1929660588502884,-0.7546951770782471,-0.564279317855835,0.10256382077932358,-0.09068962931632996,0.572074830532074,-0.3549029231071472,-0.2635497748851776,-0.01391322910785675,0.11013700067996979,0.3167409598827362,-0.3347682058811188,0.25230711698532104,0.17308257520198822,-0.6894028186798096,0.20753128826618195,0.4199013113975525,-0.1829664409160614,0.48378995060920715],[0.13266371190547943,0.0182180255651474,-0.3458826243877411,0.026845624670386314,-0.07448282092809677,0.01176613848656416,-0.313740998506546,0.20241636037826538,-0.1460842788219452,-0.11823100596666336,0.1945379078388214,-0.11830822378396988,0.3577697277069092,0.09303884953260422,-0.2749100923538208,-0.14866545796394348,0.13465233147144318,0.023657437413930893,0.11431777477264404,-0.0009282053215429187],[0.2661154568195343,-0.4064444303512573,0.2129533439874649,-0.06774437427520752,-0.07043278962373734,0.11856496334075928,0.200611412525177,-0.25433579087257385,0.05582544952630997,-0.0592212900519371,0.15141229331493378,0.2915246784687042,0.46098145842552185,-0.731960654258728,-0.16046418249607086,0.34855666756629944,-0.0033167521469295025,-0.11960712820291519,-0.42971572279930115,-0.3770473897457123],[-0.21755458414554596,-0.12233749032020569,0.16017569601535797,0.325107604265213,-0.1330232471227646,0.17351049184799194,-0.29270264506340027,-0.47888392210006714,-0.33541399240493774,0.008185984566807747,0.25911080837249756,-0.212648406624794,0.03699721395969391,-0.2017793357372284,-0.3790254294872284,-0.8419178128242493,0.4204423129558563,-0.22514000535011292,-0.030965235084295273,0.3298163115978241],[-0.003708884585648775,0.24783416092395782,0.1183549165725708,-0.20275866985321045,-0.1646839678287506,-0.058721791952848434,-0.20701493322849274,0.1954542100429535,0.21489432454109192,-0.17284411191940308,0.11181284487247467,-0.0011736805317923427,-0.154082253575325,0.20764032006263733,0.2782459557056427,0.2540002763271332,-0.013912761583924294,-0.12229221314191818,0.11484399437904358,-0.2890795171260834],[-0.062057871371507645,0.05433342605829239,-0.2084929198026657,-0.23200340569019318,0.38992562890052795,-0.08044212311506271,0.06126902997493744,-0.14499828219413757,0.17115189135074615,-0.006641496904194355,0.294861763715744,0.13488397002220154,0.20772556960582733,0.34597307443618774,0.5711746215820312,0.018303094431757927,-0.17935077846050262,-0.10128753632307053,-0.07779748737812042,-0.7279965877532959],[0.162272647023201,0.0749325305223465,-0.2047039419412613,-0.21334196627140045,0.26845577359199524,0.10168415307998657,-0.1271846741437912,0.05991359427571297,-0.10634446889162064,-0.0638890266418457,0.02720460668206215,-0.07589573413133621,0.04575180634856224,-0.08884093910455704,-0.1957300752401352,0.25182798504829407,-0.018327895551919937,-0.3642071783542633,0.14683844149112701,0.383152037858963],[-0.7239925265312195,-0.31369832158088684,0.06962913274765015,0.48133474588394165,0.05128874629735947,-0.030439065769314766,-0.9939794540405273,-0.4597216248512268,-0.030086170881986618,-0.132665753364563,-0.36361417174339294,-0.5285263657569885,-0.30247989296913147,-0.12686802446842194,-0.3124677538871765,-1.0375083684921265,0.23379963636398315,0.5319594144821167,-0.42248809337615967,0.9457566738128662],[-0.2738204598426819,0.09848121553659439,0.30785834789276123,0.4701422452926636,-0.07027147710323334,0.09159735590219498,-0.2859942317008972,-0.3372259736061096,0.0939401239156723,0.12016937881708145,0.10236183553934097,-0.38055747747421265,0.037836331874132156,-0.13783378899097443,-0.09657377749681473,-0.4000563323497772,0.28931230306625366,0.1838538497686386,-0.12092537432909012,-0.08414606750011444],[0.2142186462879181,-0.18430078029632568,-0.3281228542327881,0.09588038176298141,-0.00014519295655190945,0.07837870717048645,-0.011208146810531616,0.008446848019957542,-0.34843379259109497,0.002770802704617381,-0.08223315328359604,0.08596600592136383,-0.24753838777542114,-0.12314300984144211,0.415834903717041,0.1527072787284851,0.03850562497973442,0.18810798227787018,0.1274072378873825,-0.3671501874923706],[-0.07256670296192169,0.06078691780567169,-0.17318393290042877,-0.19732503592967987,0.20075033605098724,0.18042147159576416,0.1349644511938095,0.2196272611618042,-0.1267974078655243,-0.013114018365740776,0.40419700741767883,0.14284774661064148,0.4123261570930481,0.1458558738231659,0.1213660016655922,-0.26569709181785583,0.0721164345741272,-0.0242827869951725,0.08518947660923004,-0.22282560169696808],[0.10744103044271469,0.2646286189556122,0.1516185849905014,-0.0009034196264110506,0.15975601971149445,0.1710168868303299,-0.2643807530403137,0.10679296404123306,0.18560966849327087,0.19532804191112518,0.4838351309299469,-0.17482948303222656,0.2510624825954437,0.1201670840382576,-0.23998229205608368,-0.07143600285053253,0.5639608502388,-0.17253978550434113,0.5191868543624878,-0.49006956815719604],[0.06936459243297577,-0.16647543013095856,-0.009663574397563934,-0.10742775350809097,0.19050389528274536,0.09691484272480011,-0.05827334150671959,-0.1875159740447998,-0.08071534335613251,-0.09538664668798447,-0.11070961505174637,-0.006635826546698809,0.14224526286125183,-0.04175479710102081,0.1253507137298584,-0.16427265107631683,0.03898181766271591,0.045448869466781616,0.13711020350456238,-0.08655992895364761],[-0.29093337059020996,0.05997886881232262,0.14438876509666443,-0.08023013174533844,-0.138921320438385,-0.18014438450336456,-0.3194480240345001,-0.39015260338783264,-0.22924886643886566,0.10685919970273972,-0.27918946743011475,0.012247206643223763,-0.123618945479393,0.3801332414150238,0.05686210095882416,0.017426475882530212,0.1414683759212494,-0.046429090201854706,0.11267175525426865,-0.47933319211006165],[0.09228546172380447,0.10756904631853104,0.22025755047798157,0.12593026459217072,-0.06968355923891068,-0.19454669952392578,-0.20807574689388275,0.012896539643406868,0.04244531691074371,-0.020047349855303764,0.01325830165296793,0.009945609606802464,0.15442337095737457,-0.16022437810897827,-0.3162424862384796,0.1931207925081253,-0.046314261853694916,0.0400208979845047,0.21282733976840973,-0.0012066063936799765],[-0.3257962763309479,-0.1618942767381668,0.023252716287970543,0.05334661528468132,0.031890496611595154,0.16465769708156586,-0.09590810537338257,-0.0017834707396104932,-0.00954474601894617,-0.12854909896850586,0.2812432050704956,-0.03093786910176277,-0.20152515172958374,0.07944352924823761,-0.20579126477241516,-0.10494448244571686,0.11503659188747406,0.061006661504507065,-0.08073573559522629,-0.08197760581970215],[-0.11777842789888382,0.2650637924671173,0.14980338513851166,-0.002620452083647251,0.09989245235919952,-0.1116025447845459,0.2192426174879074,0.02184605412185192,0.20739364624023438,0.12396317720413208,-0.08851980417966843,0.10446856170892715,-0.009725682437419891,0.1601560115814209,0.2215309739112854,-0.14906048774719238,-0.26268741488456726,-0.009314581751823425,0.16958481073379517,0.2169642597436905]],"biases":[0.28726521134376526,-0.12360500544309616,-0.2001330852508545,0.34029340744018555,-0.13860274851322174,0.11557196825742722,-0.3132860064506531,-0.09222064167261124,0.26213836669921875,0.10093597322702408,-0.15084439516067505,0.33420783281326294,0.3265343904495239,-0.10033061355352402,-0.031183013692498207,-0.078337661921978,0.1891450583934784,0.44161859154701233,0.04365360736846924,-0.3220466673374176,-0.11541464179754257,0.1039549708366394,0.5104625821113586,-0.22649553418159485,0.20564474165439606,-0.09407355636358261,0.531478226184845,0.14264364540576935,-0.1683942973613739,0.0807596817612648,0.8766091465950012,0.30702105164527893,-0.07782155275344849,-0.1944279670715332,0.10676516592502594,-0.07281408458948135,0.16848710179328918,0.05169091001152992,0.12352871894836426,-0.2343299388885498]},{"weights":[[-0.0027414364740252495,0.16654875874519348,-0.15108999609947205,0.05795888230204582,-0.06950575113296509,-0.1010584607720375,-0.04660786688327789,-0.10262638330459595,-0.06726277619600296,-0.1654432862997055,-0.1623782366514206,0.06927838921546936,-0.1788954883813858,0.10888120532035828,0.16322849690914154,0.1320103406906128,-0.16153663396835327,0.03537628799676895,-0.05302922800183296,0.09851668030023575,-0.07378608733415604,0.14402389526367188,-0.13102595508098602,0.01706792041659355,-0.23024572432041168,0.13335978984832764,0.15566961467266083,0.1413872390985489,-0.09551044553518295,-0.14964857697486877,-0.13212330639362335,-0.052834976464509964,0.011018386110663414,-0.19306451082229614,0.0007749848300591111,0.11261466145515442,0.015938775613904,0.16925597190856934,-0.07264702767133713,0.012235872447490692],[-0.3281155228614807,0.19259725511074066,0.18204447627067566,-0.36781296133995056,-0.6104509830474854,0.3626401126384735,0.005413636099547148,0.009383334778249264,0.09084558486938477,0.2237076610326767,-0.05854722857475281,0.04340345785021782,-0.32750847935676575,-0.3161625862121582,0.014370309188961983,0.14487984776496887,0.10987628996372223,-0.018492555245757103,-0.11415234208106995,-0.17130452394485474,0.03216295689344406,0.06721188873052597,0.38631671667099,0.25964242219924927,0.034460317343473434,0.23431271314620972,0.0944916307926178,-0.09581208974123001,0.20807231962680817,0.13841170072555542,-0.05363105982542038,-0.06607215851545334,0.018356123939156532,0.21589724719524384,0.012697689235210419,0.18917371332645416,0.09859932214021683,0.01385214552283287,-0.11489147692918777,-0.17770561575889587],[-0.1366245597600937,0.13930344581604004,-0.0003980561741627753,-0.436610609292984,0.13763320446014404,-0.0906972885131836,0.24830709397792816,0.14854200184345245,0.005134271923452616,0.38849738240242004,-0.0740368589758873,-0.27350154519081116,0.23067083954811096,-0.10812698304653168,-0.02766904979944229,0.361458957195282,-0.009090015664696693,-0.29855647683143616,0.1304621398448944,-0.21371538937091827,-0.18906152248382568,0.3786536455154419,0.19424717128276825,0.33149316906929016,-0.0429694727063179,0.18686415255069733,-0.12395338714122772,0.11090781539678574,-0.17725883424282074,0.14540480077266693,-0.4781867265701294,-0.19587749242782593,-0.06597689539194107,-0.16307096183300018,-0.0284633319824934,0.148367241024971,0.48187658190727234,-0.08421128243207932,0.1901462823152542,0.0625080093741417],[-0.30513912439346313,0.20463208854198456,0.045206040143966675,-0.37811383605003357,-0.24711674451828003,-0.020032376050949097,0.07926199585199356,0.15695224702358246,0.03286116570234299,0.11045348644256592,0.07920786738395691,-0.0793643444776535,-0.1508074402809143,-0.13382264971733093,-0.2520933151245117,-0.19042226672172546,0.09785014390945435,0.04475884884595871,0.22095926105976105,-0.10697678476572037,0.04387512430548668,0.018544388934969902,0.2058955281972885,0.3430629372596741,0.15765373408794403,-0.05193592980504036,-0.09365054965019226,0.49202534556388855,0.007187290117144585,-0.2608596086502075,0.018859567120671272,-0.16627392172813416,-0.17914676666259766,-0.04251207411289215,-0.07592403888702393,-0.17553257942199707,0.3251555860042572,-0.010509098879992962,-0.122132308781147,0.10381950438022614],[0.11350313574075699,0.4080689549446106,-0.048609718680381775,-0.25360822677612305,0.24014391005039215,-0.2969827353954315,-0.10879942774772644,0.25015708804130554,0.07288164645433426,-0.01226926688104868,0.20111095905303955,0.1290140300989151,0.09740288555622101,-0.15827324986457825,-0.056942373514175415,-0.1178819015622139,0.13980208337306976,0.15457266569137573,-0.2460583597421646,0.24799375236034393,0.04495196416974068,0.30491963028907776,0.29851585626602173,-0.2039012610912323,-0.218637153506279,0.5084031820297241,0.36219558119773865,0.2168603241443634,-0.9375550150871277,0.35096102952957153,0.3172379732131958,-0.016400137916207314,-0.27583906054496765,-0.43613627552986145,-0.09145986288785934,-0.15132394433021545,0.27896156907081604,-0.08803718537092209,0.10002150386571884,0.05221313238143921],[0.19838537275791168,0.09351690113544464,0.056976720690727234,0.11916953325271606,0.10205452144145966,-0.5606145262718201,-0.4227376878261566,-0.08756289631128311,-0.1972658932209015,0.5852763056755066,-0.2906007766723633,0.28454792499542236,0.06331955641508102,-0.11977384984493256,-0.03266988694667816,-0.08322165161371231,-0.05952635779976845,0.18460486829280853,-0.32167673110961914,-0.24999457597732544,0.054026585072278976,0.2518434524536133,0.037634916603565216,-0.04041518643498421,-0.14395709335803986,0.11728762090206146,-0.27356958389282227,-0.16182182729244232,-0.23662179708480835,-0.3034840524196625,0.3124626874923706,0.2732846438884735,-0.17095468938350677,-0.23071439564228058,-0.03480143845081329,-0.07024890929460526,-0.018606137484312057,0.030198173597455025,0.023729495704174042,0.46394026279449463],[-0.12118074297904968,-0.14694100618362427,-0.06261272728443146,0.04600941017270088,-0.2037413865327835,-0.28437697887420654,-0.22358091175556183,0.03268864005804062,0.18178117275238037,0.3453979194164276,-0.3830733597278595,0.0034536770544946194,-0.0944393128156662,0.2283707708120346,-0.25010940432548523,-0.33889490365982056,0.23704230785369873,0.24476031959056854,-0.10126163810491562,0.1933673471212387,0.15742914378643036,-0.014823843725025654,0.13855035603046417,0.034957293421030045,0.2177068591117859,0.1563093662261963,-0.0753723755478859,-0.1946336030960083,-0.2443477064371109,-0.11684893071651459,-0.08928052335977554,0.22724270820617676,-0.17262260615825653,-0.1793251484632492,0.01072294358164072,-0.1474120169878006,0.026123536750674248,-0.19428284466266632,-0.0580889992415905,0.14887623488903046],[0.09505372494459152,0.18969841301441193,0.0004112297319807112,-0.15502865612506866,-0.031232457607984543,-0.11637597531080246,0.07243940234184265,-0.029997816309332848,-0.026097876951098442,-0.042733896523714066,-0.006921001709997654,-0.020068183541297913,-0.11577484011650085,-0.0022679029498249292,-0.12444432824850082,-0.005865747574716806,-0.20032238960266113,0.019107460975646973,-0.10827256739139557,-0.09669631719589233,0.16443072259426117,0.01585141196846962,0.17023888230323792,-0.08085364103317261,0.208771213889122,0.06458054482936859,0.02346043288707733,0.08861890435218811,0.017943063750863075,-0.001716376980766654,-0.04885302484035492,-0.1354714184999466,-0.15656788647174835,-0.16294890642166138,0.23339727520942688,0.061698850244283676,-0.044875871390104294,0.029646212235093117,-0.052615437656641006,0.002575068036094308],[0.26013755798339844,-0.20260028541088104,0.14160391688346863,-0.1393832117319107,-0.15757988393306732,-0.03519659489393234,-0.025230828672647476,0.057155124843120575,0.16955721378326416,-0.15716102719306946,0.16056419909000397,-0.1894846260547638,-0.443329393863678,-0.12908540666103363,-0.1442928910255432,0.15306977927684784,0.10762125998735428,-0.18849992752075195,0.02759765274822712,-0.15589851140975952,0.00019204587442800403,-0.44632595777511597,0.20427513122558594,0.24291248619556427,0.21156609058380127,-0.2403285801410675,-0.03148776292800903,0.034884773194789886,0.14255642890930176,0.03111490234732628,-0.32806041836738586,-0.04744619503617287,-0.1974909007549286,0.07610426843166351,0.17996767163276672,-0.15622948110103607,-0.000313220894895494,0.25147560238838196,-0.07551321387290955,0.2891159653663635],[0.04427779093384743,-0.1014607846736908,0.176627054810524,0.03698505833745003,0.19181564450263977,0.08127506077289581,0.17619693279266357,0.1804170310497284,0.15854713320732117,0.37442415952682495,0.046760838478803635,-0.3004158139228821,0.005026092287153006,0.1720087081193924,-0.3930313289165497,0.12100169062614441,0.025723958387970924,0.19825078547000885,0.28152719140052795,-0.007774617522954941,0.14698834717273712,-0.16502520442008972,-0.1385168731212616,-0.2478707730770111,-0.030212515965104103,0.14475196599960327,-0.504790186882019,0.20338746905326843,0.17102976143360138,0.23042675852775574,-0.3324740529060364,0.36081787943840027,0.15170499682426453,0.2082851678133011,0.38225287199020386,0.17304342985153198,-0.010738524608314037,0.09996336698532104,-0.2065436989068985,0.1302407681941986],[-0.08233531564474106,-0.04238191619515419,0.006747929845005274,-0.19878236949443817,0.06812471151351929,0.08768647909164429,-0.17150436341762543,0.06692924350500107,-0.16546790301799774,-0.12263648211956024,0.010781237855553627,0.0006621075444854796,-0.13736243546009064,-0.18394124507904053,-0.179169699549675,0.1426357477903366,0.0006972000701352954,-0.2510979473590851,-0.03751566633582115,0.11733084917068481,0.1994803100824356,0.0459497794508934,-0.11745139211416245,0.27335554361343384,-0.23849350214004517,-0.07024087756872177,-0.29566776752471924,-0.060908664017915726,0.10706561803817749,0.004535451997071505,-0.2537272572517395,0.09277769923210144,0.1947895586490631,-0.09320182353258133,-0.04305474832653999,-0.07279379665851593,-0.006005088333040476,-0.11979997158050537,0.11325496435165405,0.18862633407115936],[-0.10375368595123291,0.15155452489852905,0.10642620921134949,-0.22143886983394623,-0.06264106929302216,-0.12688535451889038,-0.1823500245809555,0.12653979659080505,0.0182851180434227,-0.04976819455623627,-0.05539659783244133,-0.3437109887599945,-0.588854968547821,-0.21490393579006195,-0.0821818932890892,-0.08425143361091614,-0.01501044537872076,0.08769062906503677,0.10475677996873856,-0.04755208268761635,-0.09484630078077316,-0.125025674700737,-0.17209255695343018,0.011986189521849155,0.11645923554897308,-0.1781143844127655,0.32335376739501953,0.06399235874414444,0.09452194720506668,0.10521391779184341,-0.5058351159095764,-0.22841475903987885,-0.39740267395973206,0.24184347689151764,0.11363747715950012,0.1323283463716507,0.16777418553829193,-0.2105710357427597,0.10853932052850723,0.18361155688762665],[-0.06011360511183739,0.10269957035779953,-0.18969805538654327,0.12490387260913849,-0.19264823198318481,0.13587228953838348,-0.1410396546125412,0.21425238251686096,-0.5435429811477661,0.3538215458393097,-0.23110038042068481,-0.616232693195343,0.24214133620262146,0.04275551065802574,-0.044591933488845825,0.32428863644599915,-0.407188355922699,-0.7426610589027405,0.04711482301354408,0.11712390184402466,-0.07463718205690384,0.08021518588066101,0.3112962245941162,0.5552752614021301,0.1486756056547165,-0.0681968480348587,-0.11051656305789948,-0.3020881116390228,0.2000940591096878,-0.058292534202337265,-0.2129439115524292,0.2053016722202301,-0.15779055655002594,0.23430122435092926,0.14640094339847565,-0.10227780044078827,0.04138139635324478,-0.24176791310310364,0.014061594381928444,0.21662668883800507],[-0.1906704157590866,-0.2713170051574707,0.06773252785205841,0.04516198858618736,-0.5035679340362549,0.13889577984809875,-0.018072117120027542,-0.3047958016395569,0.0826374888420105,-0.0035522039979696274,0.15011517703533173,0.048748668283224106,0.22984451055526733,0.12427487224340439,0.023637892678380013,-0.14490428566932678,0.19757035374641418,-0.1706385314464569,0.16789178550243378,0.16431324183940887,-0.19027672708034515,-0.272626668214798,0.10139991343021393,0.09234362840652466,-0.042015012353658676,-0.16891461610794067,-0.24922910332679749,-0.15760549902915955,-0.01130561251193285,0.22463642060756683,0.07576525211334229,0.10474736243486404,-0.0016826371429488063,0.12314272671937943,-0.09698241949081421,-0.11670619249343872,-0.2079782634973526,0.01915781944990158,-0.004185697063803673,-0.011918489821255207],[0.18530085682868958,-0.13963057100772858,0.12021324783563614,-0.12354600429534912,-0.0253716129809618,-0.05582740530371666,0.09451912343502045,0.08435319364070892,-0.16142472624778748,0.143996462225914,-0.14357705414295197,0.004477731417864561,0.12435488402843475,0.17384275794029236,-0.08214298635721207,-0.1553020030260086,0.033797260373830795,-0.04694230481982231,-0.1274106651544571,0.06491652131080627,0.18772634863853455,-0.16626101732254028,0.18031497299671173,-0.14439179003238678,-0.1759897768497467,-0.014684513211250305,-0.1018301248550415,0.03835194557905197,-0.025036480277776718,-0.10199817270040512,-0.18471021950244904,-0.13548967242240906,-0.048600438982248306,-0.15046624839305878,-0.16681574285030365,-0.05302812159061432,0.06942308694124222,-0.1442485898733139,0.01859666220843792,0.16928088665008545],[-0.10288030654191971,-0.05889437347650528,-0.010627574287354946,0.060417626053094864,0.08358971029520035,0.10497994720935822,0.09875800460577011,0.03925299644470215,-0.0310836024582386,-0.2526988983154297,-0.040607742965221405,0.07084517180919647,-0.005066757556051016,-0.06626227498054504,0.0978008285164833,0.047322746366262436,-0.17381902039051056,0.01147129014134407,-0.1028020903468132,0.15701822936534882,0.1064329668879509,-0.05628718435764313,-0.1889280527830124,-0.03795967996120453,-0.025886204093694687,0.1840686798095703,0.044340915977954865,-0.023350268602371216,0.15398822724819183,-0.16363425552845,-0.06744399666786194,0.07759997248649597,0.029253927990794182,0.0026508308947086334,0.1813616156578064,-0.07931093871593475,0.001579048577696085,0.1379275619983673,0.03227928653359413,0.08357587456703186],[0.371185302734375,-0.17751048505306244,0.09836557507514954,-0.022581683471798897,0.22571080923080444,-0.30057570338249207,0.3638400733470917,0.1520436555147171,-0.08304103463888168,0.11743896454572678,-0.1897185742855072,-0.06002505123615265,-0.383584201335907,-0.1548883318901062,-0.2212224304676056,0.4513431787490845,-0.2629845142364502,0.2806922495365143,0.24792644381523132,-0.0572810098528862,0.1832793802022934,-0.06694930791854858,-0.21190327405929565,-0.008864055387675762,-0.049571048468351364,-0.06341845542192459,-0.7532591223716736,-0.03695857152342796,0.255420058965683,0.2988990247249603,-0.36651310324668884,-0.7714964747428894,-0.2250480204820633,0.07298018783330917,-0.27703577280044556,-0.1218167170882225,-0.2889366149902344,-0.18918345868587494,-0.10238702595233917,-0.011022531427443027],[0.12387524545192719,-0.01707310788333416,-0.1744731366634369,0.11095192283391953,0.17837359011173248,0.10682956129312515,0.16334141790866852,-0.2224079668521881,-0.13885986804962158,-0.09419907629489899,-0.1290150284767151,0.2072543501853943,0.14479920268058777,-0.11199109256267548,0.06602749228477478,-0.09713821858167648,0.14087212085723877,0.05975569412112236,-0.16473710536956787,0.061390385031700134,0.07013168185949326,-0.029580729082226753,-0.14913399517536163,-0.1427886039018631,0.06472155451774597,0.013486186973750591,-0.02862035483121872,-0.22123324871063232,-0.056438710540533066,0.052403632551431656,-0.18280833959579468,-0.17854534089565277,-0.22948066890239716,0.12406047433614731,-0.04988513141870499,0.12703581154346466,0.08319946378469467,0.05062072351574898,0.051285091787576675,-0.19549623131752014],[-0.01958754099905491,0.2783339321613312,-0.12110922485589981,0.01519390381872654,-0.07756282389163971,-0.4005228877067566,-0.2119000107049942,-0.16681566834449768,0.08764965087175369,-0.01889227144420147,-0.35463446378707886,-0.037135981023311615,0.05890602990984917,-0.23580026626586914,0.2911030352115631,0.10180608928203583,-0.20953816175460815,0.03203016147017479,0.11339444667100906,-0.46133530139923096,-0.12969589233398438,-0.32204559445381165,0.32766252756118774,0.336539089679718,0.10297566652297974,-0.292207807302475,0.2582964599132538,-0.19586797058582306,-0.10125511139631271,0.32065677642822266,0.0076980204321444035,-0.1303691416978836,-0.02015799656510353,-0.07703635841608047,0.31372785568237305,-0.007424394600093365,0.10639612376689911,0.2616759240627289,0.14597706496715546,-0.06411918252706528],[0.12844306230545044,-0.302177369594574,0.12913386523723602,-0.15829195082187653,-0.038162197917699814,-0.09810198843479156,0.3780946433544159,0.08883024007081985,0.07744941860437393,0.16242951154708862,-0.0313396193087101,-0.3001096248626709,-0.009704489260911942,-0.05964023619890213,-0.23774336278438568,-0.5411438345909119,-0.06595787405967712,0.26950013637542725,-0.36810851097106934,-0.21795403957366943,0.06485475599765778,-0.5837881565093994,0.11861961334943771,0.46127617359161377,0.21082355082035065,-0.6067777276039124,-0.17285941541194916,0.126312255859375,-0.09542553126811981,0.06592699885368347,-0.3006065785884857,-0.1019238606095314,-0.2752562165260315,-0.04403986781835556,0.18583358824253082,-0.16593433916568756,-0.36626705527305603,0.13377995789051056,0.039787933230400085,-0.05433860421180725]],"biases":[-0.14961211383342743,0.09729917347431183,0.29562273621559143,0.02321787364780903,-0.10156387835741043,0.07832370698451996,0.3153550326824188,-0.11277380585670471,0.14462339878082275,-0.10185704380273819,-0.14578217267990112,0.2686023712158203,-0.11459033191204071,0.250520795583725,0.032007329165935516,-0.20116321742534637,0.12406156212091446,-0.279521644115448,0.18936237692832947,0.43411552906036377]},{"weights":[[-0.24706147611141205,-0.1869092434644699,-0.23260708153247833,-0.37896883487701416,0.321798175573349,-0.3984546661376953,0.08415694534778595,-0.19497790932655334,-0.35081008076667786,0.1539134830236435,-0.17545142769813538,-0.2315700799226761,0.15230795741081238,-0.45711350440979004,0.20165251195430756,-0.19601048529148102,0.5177812576293945,-0.39824965596199036,-0.3266994059085846,-0.2829110622406006],[0.1875467151403427,0.041463036090135574,-0.4081582725048065,0.12625733017921448,0.14869378507137299,0.27076828479766846,0.4710857570171356,-0.1489705592393875,0.020567387342453003,-0.4925929009914398,0.1258867084980011,-0.472712904214859,0.2041151225566864,0.5094573497772217,0.1738586127758026,0.15812911093235016,0.19923721253871918,-0.13412532210350037,0.12945656478405,-0.2979094386100769],[0.020514370873570442,-0.7101593613624573,0.20637525618076324,0.030387643724679947,-0.5238713622093201,-0.01646587625145912,-0.3245735764503479,0.034964002668857574,0.48364922404289246,-0.19447191059589386,-0.19535793364048004,0.24331454932689667,-0.6429504156112671,-0.7225282788276672,0.12349877506494522,-0.146256685256958,0.34046849608421326,0.2275659441947937,0.3211137354373932,0.3283501863479614],[-0.04035418853163719,0.20312242209911346,0.3358437120914459,0.0470997579395771,-0.23331058025360107,-0.1798352152109146,0.0752808153629303,-0.21897941827774048,0.26563432812690735,0.2630899250507355,0.3266288638114929,-0.17534004151821136,0.3349142074584961,0.259268194437027,-0.11214005947113037,-0.10405120253562927,-0.8166458010673523,-0.19751808047294617,-0.24135085940361023,0.0598326176404953],[0.15319092571735382,0.0029437756165862083,0.020935483276844025,0.028943419456481934,0.20532362163066864,-0.23912771046161652,-0.18893995881080627,0.076653391122818,-0.0009638516348786652,-0.23456500470638275,0.29559534788131714,-0.36782968044281006,0.6201716661453247,0.01545817032456398,-0.1420578509569168,-0.009999198839068413,0.09535745531320572,0.17713139951229095,-0.42968425154685974,0.15930785238742828],[-0.1180947944521904,0.13413001596927643,0.14487019181251526,-0.16030897200107574,0.02865832857787609,0.04512609541416168,0.031435057520866394,-0.10532046854496002,0.03960388898849487,0.05756927654147148,0.0400727353990078,-0.21675333380699158,-0.06948898732662201,0.14402440190315247,0.10576259344816208,-0.04522676020860672,0.0045557692646980286,-0.10459862649440765,0.11068740487098694,-0.05635044723749161],[-0.17655591666698456,0.4520438015460968,0.13913020491600037,0.23579560220241547,-0.31344670057296753,0.07952495664358139,0.028735296800732613,0.1541709303855896,-0.022767972201108932,-0.13835729658603668,0.09362392872571945,0.0052025215700268745,-0.32850387692451477,0.19832122325897217,0.029049167409539223,-0.1779300570487976,-0.3276320695877075,0.18263481557369232,0.053808074444532394,-0.07174186408519745],[0.0756843090057373,-0.09498734772205353,0.19594459235668182,-0.39249885082244873,-0.1617325395345688,-0.2284688800573349,0.4121894836425781,0.04635119438171387,0.16134977340698242,0.2745572328567505,-0.20142816007137299,0.23681005835533142,0.18060152232646942,0.20843026041984558,0.014936504885554314,0.02919415943324566,-0.6199915409088135,-0.18010519444942474,-0.3945324420928955,-0.08319646865129471],[-0.14302662014961243,0.12408100813627243,-0.1698191910982132,0.21525563299655914,0.028823714703321457,0.1001751646399498,0.1643221378326416,-0.19105443358421326,0.17055965960025787,0.02041606232523918,0.28046783804893494,0.12158513069152832,0.25086432695388794,-0.11483964323997498,-0.10484865307807922,0.13380363583564758,0.13485398888587952,0.18764343857765198,-0.05789812654256821,-0.04001881182193756],[-0.18253527581691742,-0.3142124116420746,0.028712665662169456,0.030508939176797867,0.08836521953344345,0.03776619955897331,-0.4695650637149811,-0.15090620517730713,-0.056445684283971786,-0.0050085680559277534,0.030062364414334297,-0.14682896435260773,0.5768461227416992,0.46040186285972595,0.1690858155488968,-0.12307322025299072,-0.005087805446237326,-0.12434101104736328,-0.024823332205414772,0.21705248951911926]],"biases":[0.06875916570425034,0.2773406505584717,0.13642291724681854,0.3610452711582184,0.024680178612470627,-0.1770743727684021,0.12546825408935547,0.1829504668712616,-0.273799329996109,-0.044288475066423416]}],"inputLookup":{"heroInButton":0,"handGroup":1,"HS":2,"potOddsH":3,"initiative":4,"villainCheck":5,"villainRaise":6,"villainAllIn":7},"inputLookupLength":8,"outputLookup":{"heroFold":0,"heroCheck":1,"heroCall":2,"heroRaise":3,"heroAllIn":4,"betLevelH1":5,"betLevelH2":6,"betLevelH3":7,"betLevelH4":8,"betLevelH5":9},"outputLookupLength":10,"options":{"inputSize":0,"outputSize":0,"binaryThresh":0.5,"hiddenLayers":[20,40,20],"activation":"leaky-relu"},"trainOpts":{"activation":"leaky-relu","iterations":500,"errorThresh":0.01,"log":true,"logPeriod":5,"leakyReluAlpha":0.01,"learningRate":0.001,"momentum":0.6,"callbackPeriod":10,"timeout":"Infinity","beta1":0.9,"beta2":0.999,"epsilon":1e-8}}