{"type":"NeuralNetwork","sizes":[9,20,40,40,20,9],"layers":[{"weights":[],"biases":[]},{"weights":[[-0.25682225823402405,0.318808913230896,0.36328354477882385,0.5594456195831299,1.5085058212280273,-1.30414879322052,0.2318894863128662,-0.37651222944259644,0.05268039554357529],[-0.00023994065122678876,-0.2620563805103302,-0.28561124205589294,0.03964400291442871,-0.09029489010572433,-0.0030476239044219255,0.3341292142868042,0.06870599836111069,-0.18697771430015564],[0.4798629581928253,0.18529729545116425,0.19865232706069946,-0.25319573283195496,0.023730989545583725,0.5346742868423462,-0.2370075285434723,-0.14693285524845123,0.3703221380710602],[0.25570258498191833,-0.36191117763519287,0.039999961853027344,-0.18629485368728638,-0.288592129945755,-0.6432477235794067,1.3261202573776245,0.08653968572616577,-0.15936869382858276],[0.24382303655147552,-0.0610581673681736,0.9117469191551208,-0.323676735162735,0.7115440368652344,0.22316627204418182,0.36185765266418457,-0.7218838334083557,-0.19067132472991943],[0.1914004683494568,0.07980965822935104,-0.12290092557668686,-0.09974633902311325,0.11981385201215744,-0.1724880337715149,-0.04812970012426376,-0.17422911524772644,-0.02528061531484127],[0.05297224223613739,0.0767819732427597,0.2602789103984833,0.1447257250547409,-1.3745886087417603,0.9378241300582886,-1.372478723526001,0.2627747058868408,0.0036214375868439674],[-0.1683267205953598,0.03882851451635361,0.13592296838760376,0.09991715103387833,-0.08048013597726822,0.08275460451841354,-0.03995880112051964,-0.19708769023418427,0.03904237598180771],[-0.22109559178352356,-0.5704251527786255,0.8075046539306641,-1.1522806882858276,1.0704748630523682,-0.8577510714530945,-0.1696811467409134,0.1505892425775528,0.062129490077495575],[-0.06092077121138573,0.3054596185684204,0.2027801126241684,0.28929969668388367,0.27951279282569885,0.01653701812028885,-0.3294523358345032,-0.2378355711698532,-0.40185147523880005],[-0.008848479948937893,0.0485837422311306,-0.39858847856521606,1.1227951049804688,0.15739396214485168,0.03786015510559082,-0.3361714780330658,-0.10886266827583313,-0.1808617264032364],[0.007846376858651638,-0.14084772765636444,-0.112508624792099,-0.07111045718193054,0.11371845006942749,0.014384306035935879,0.006264252122491598,-0.08586255460977554,0.12650929391384125],[-0.466206818819046,0.2621036767959595,-0.524732768535614,1.6760741472244263,0.9428329467773438,-0.7067365646362305,0.2536678910255432,-0.4236486256122589,-0.027890784665942192],[-0.06128440797328949,0.5036178827285767,0.27932700514793396,0.31911590695381165,-0.09882399439811707,-0.8052218556404114,-0.3444487750530243,0.19422487914562225,-0.06649989634752274],[0.12415389716625214,0.10684686154127121,-0.14023472368717194,0.032638970762491226,-0.12105276435613632,-0.14441877603530884,-0.18593597412109375,0.12133803218603134,-0.03698054328560829],[-0.8264089822769165,-0.227723628282547,-0.41219791769981384,0.05789095535874367,-0.7787906527519226,0.5097005367279053,1.435204029083252,-0.4134356677532196,0.6236631274223328],[-0.08089639991521835,-0.1613732874393463,-0.11220350116491318,0.6833431124687195,1.61732816696167,-1.2516264915466309,0.06275899708271027,-0.07941525429487228,0.21459545195102692],[-0.19869060814380646,-0.29474490880966187,-0.3063865602016449,1.0299229621887207,0.16020597517490387,-0.010575028136372566,-0.32417190074920654,0.09602762013673782,0.5474426746368408],[0.07501216977834702,-0.19761820137500763,0.1498142033815384,-0.027395013719797134,-0.09557763487100601,-0.1676194816827774,-0.15610207617282867,-0.13338270783424377,-0.1178305372595787],[0.24914436042308807,0.6962427496910095,-0.5663484334945679,0.49202761054039,0.39669668674468994,0.008612933568656445,0.4919551908969879,-0.37404218316078186,-0.7879678010940552]],"biases":[-0.07320186495780945,-0.025189202278852463,-0.18400508165359497,0.04488709941506386,-0.24916820228099823,-0.18620091676712036,0.270870178937912,-0.15096823871135712,0.19073036313056946,-0.11623427271842957,0.03394388034939766,-0.17337006330490112,0.0578516349196434,0.020672671496868134,-0.16443996131420135,0.06874177604913712,0.17968665063381195,-0.09953981637954712,-0.11614672094583511,0.011624336242675781]},{"weights":[[0.030020885169506073,-0.1871391385793686,-0.10027817636728287,0.012875940650701523,0.13657495379447937,-0.16597479581832886,0.14280639588832855,0.1547456681728363,-0.24448402225971222,-0.22264115512371063,0.2632518410682678,0.15641431510448456,-0.21325618028640747,-0.1925935447216034,0.08563121408224106,-0.11787010729312897,0.22971466183662415,0.073671855032444,-0.03875186666846275,0.27636247873306274],[-0.0423385351896286,0.037399761378765106,0.048709094524383545,-0.05409246310591698,-0.014161759056150913,-0.1908404529094696,0.16201534867286682,0.02732195146381855,0.06486198306083679,-0.18803507089614868,-0.0148500120267272,0.05373719707131386,0.019425667822360992,-0.06832007318735123,-0.1400701403617859,-0.09169439226388931,-0.12204007059335709,0.04979986697435379,-0.08131926506757736,-0.19594313204288483],[0.024850880727171898,0.07275961339473724,0.25664323568344116,0.056267376989126205,-0.4442923665046692,0.12707290053367615,0.40206873416900635,0.18985451757907867,0.0036141416057944298,0.4687406122684479,-0.25977370142936707,0.004561769776046276,-0.23571759462356567,0.01928475871682167,0.056858986616134644,0.44384825229644775,-0.29767099022865295,-0.6555112600326538,0.15939807891845703,-0.1724013090133667],[-0.3381757140159607,0.05468109995126724,0.0039084311574697495,-0.08901505917310715,0.09264107048511505,-0.1948920488357544,0.04881668463349342,0.19328728318214417,0.11306356638669968,0.1372367888689041,0.1623011976480484,0.05897510051727295,0.08472739160060883,-0.060812219977378845,0.06792600452899933,0.17456108331680298,-0.025033840909600258,-0.13542523980140686,-0.1779867708683014,-0.5145066976547241],[0.10003446042537689,-0.0009118179441429675,0.44215822219848633,0.11692604422569275,-0.4843887984752655,0.15343420207500458,-0.04824427515268326,0.09341087937355042,-0.4315676689147949,0.057909026741981506,0.1377389132976532,-0.05880003422498703,0.15839090943336487,0.3720301687717438,0.11071891337633133,0.059458792209625244,0.23192010819911957,0.03164229914546013,-0.0332796685397625,0.10320672392845154],[0.09540953487157822,0.07141104340553284,-0.009775588288903236,0.19437967240810394,-0.0675056129693985,0.05027078092098236,-0.10199473798274994,-0.10946989059448242,-0.12253808230161667,-0.08788616955280304,0.12483374774456024,0.0020067596342414618,-0.026919886469841003,-0.044988829642534256,-0.14899346232414246,-0.025872422382235527,-0.11702387779951096,0.13760988414287567,0.12172986567020416,-0.1403799206018448],[-0.0039223977364599705,-0.039373960345983505,-0.07974042743444443,-0.18120022118091583,0.10359763354063034,0.10030505806207657,-0.11358562856912613,0.09099593013525009,-0.19519880414009094,-0.05587553232908249,0.18195652961730957,0.16848601400852203,-0.06464244425296783,-0.15118619799613953,0.11588028818368912,0.08323043584823608,0.08067463338375092,0.08310835808515549,-0.11464456468820572,0.03232762962579727],[0.022685471922159195,0.11888046562671661,-0.22076749801635742,0.06979112327098846,0.010038420557975769,-0.08139609545469284,-0.2714983820915222,-0.025414161384105682,0.2282170206308365,0.10668327659368515,0.1371179074048996,-0.026432141661643982,0.4035974442958832,0.13667181134223938,0.12172437459230423,-0.45535948872566223,0.15809845924377441,-0.08075721561908722,-0.056551121175289154,-0.028722543269395828],[-0.3443324863910675,-0.04589412361383438,0.11047107726335526,0.20113824307918549,0.5058391690254211,-0.04805643856525421,0.015703191980719566,0.08307647705078125,-0.05902674421668053,-0.269704669713974,0.047469090670347214,0.06155223026871681,-0.22664810717105865,-0.21191716194152832,-0.04404650628566742,-0.1295466423034668,0.0594540536403656,0.14762473106384277,-0.01688467338681221,0.21719323098659515],[0.4596671760082245,0.0303344763815403,0.25902992486953735,-0.482967734336853,0.3016904890537262,0.17861171066761017,-0.055615562945604324,-0.039159707725048065,0.04013118892908096,0.350516140460968,0.22194425761699677,-0.11369015276432037,-0.1026681512594223,-0.009193455800414085,0.11263809353113174,-0.20883919298648834,-0.13940858840942383,-0.1286519467830658,0.07431212067604065,0.06996209174394608],[-0.04006299749016762,-0.03948751837015152,0.19170767068862915,-0.18797622621059418,-0.09775825589895248,0.19545608758926392,-0.1379977911710739,-0.07731106877326965,0.10068827122449875,-0.18001645803451538,0.04764643311500549,-0.13271892070770264,-0.07123801857233047,0.062472958117723465,0.08603283017873764,0.0293419286608696,-0.15558773279190063,0.007328578736633062,-0.1034616008400917,0.1793612390756607],[-0.053463906049728394,0.07617630064487457,-0.08197547495365143,-0.07474995404481888,0.04659544676542282,-0.11750777810811996,-0.3316973149776459,-0.014833244495093822,0.5240363478660583,-0.18019375205039978,0.23721878230571747,0.10993322730064392,0.38658371567726135,-0.35517895221710205,-0.06701008975505829,-0.05035168677568436,-0.17544780671596527,-0.12001003324985504,0.04900689050555229,0.07202906161546707],[-0.10407128930091858,-0.1506064087152481,-0.0249240193516016,-0.030714895576238632,0.05681329965591431,0.06862372905015945,-0.13014435768127441,0.09503450989723206,-0.11813657730817795,-0.054719679057598114,-0.19632552564144135,0.09458291530609131,-0.1361413598060608,-0.12187762558460236,-0.19983814656734467,-0.09326714277267456,0.10792625695466995,-0.10059142857789993,0.0683756098151207,0.14153452217578888],[0.3289516270160675,0.2380775511264801,-0.10775981843471527,-0.039760053157806396,-0.19965001940727234,-0.07770554721355438,0.10536256432533264,-0.16381879150867462,0.2840045988559723,0.16295509040355682,-0.07670007646083832,-0.1530332863330841,-0.0043651689775288105,-0.2104235291481018,-0.18563337624073029,-0.20700640976428986,0.19105027616024017,-0.19113370776176453,-0.1659708321094513,0.05739418417215347],[0.005126547068357468,0.06905825436115265,0.026596488431096077,0.002306837122887373,0.04329337179660797,0.046395622193813324,-0.020589744672179222,0.10848820954561234,-0.08296630531549454,0.07744349539279938,-0.14050164818763733,-0.1935582160949707,0.13634876906871796,0.1642838567495346,0.16439740359783173,-0.04164115712046623,-0.13386847078800201,-0.10936049371957779,-0.03772162273526192,-0.16573858261108398],[0.23695068061351776,-0.07764904201030731,-0.1482616811990738,-0.22772088646888733,-0.12385927885770798,0.03671735152602196,-0.17189618945121765,0.13945987820625305,-0.2147388905286789,0.29053881764411926,0.09420634806156158,0.1726195067167282,0.06640618294477463,0.37014296650886536,0.1408570110797882,-0.14019367098808289,0.14975446462631226,0.11066163331270218,0.04150249809026718,-0.24081014096736908],[-0.11007989943027496,0.1178029254078865,-0.049950383603572845,0.15155552327632904,-0.1650431752204895,-0.18728020787239075,-0.19713041186332703,0.08431500196456909,-0.12871067225933075,0.13084274530410767,0.14673693478107452,-0.04189221188426018,0.03983196243643761,-0.1884506642818451,0.1367838978767395,-0.07294003665447235,0.15648379921913147,-0.08967824280261993,0.14786382019519806,-0.08915730565786362],[-0.22176909446716309,0.051961660385131836,-0.09051357209682465,0.0756392627954483,-0.07488076388835907,0.11709956079721451,0.20475511252880096,-0.16763289272785187,-0.10954643785953522,0.027960069477558136,-0.21945959329605103,0.14203526079654694,-0.07067990303039551,0.12804768979549408,-0.15889696776866913,-0.016176795586943626,0.06926104426383972,-0.22376039624214172,-0.08825882524251938,-0.2006612867116928],[0.007109678350389004,0.13717955350875854,0.3095439374446869,-0.20948252081871033,-0.24488049745559692,0.19776546955108643,-0.3592252731323242,0.10525978356599808,-0.09814497083425522,-0.07126364856958389,-0.027701670303940773,-0.02659841813147068,0.14802227914333344,0.03812021762132645,0.18353523313999176,-0.38049736618995667,0.18490464985370636,0.189584881067276,-0.13097256422042847,-0.03327131271362305],[-0.09658897668123245,-0.18718025088310242,0.09928238391876221,-0.10292608290910721,-0.25511568784713745,-0.12063954770565033,-0.10341015458106995,0.04171766713261604,0.14782410860061646,-0.197808638215065,0.11572203785181046,-0.17159928381443024,0.37735429406166077,-0.21782946586608887,0.1633380949497223,0.1213158443570137,-0.011320867575705051,0.13517315685749054,-0.06712988018989563,-0.0025079648476094007],[0.025114936754107475,-0.07598849385976791,-0.09345519542694092,0.09113994985818863,-0.17477481067180634,0.04124582186341286,0.1477178931236267,-0.11414278298616409,-0.03124534711241722,0.1864306926727295,-0.07718739658594131,0.16164124011993408,0.15784087777137756,-0.041255686432123184,-0.02759956382215023,-0.16813760995864868,-0.12713095545768738,-0.18903876841068268,0.18657809495925903,-0.06955009698867798],[0.295833945274353,0.05127523094415665,0.11402485519647598,-0.32632729411125183,0.1891346424818039,0.10658236593008041,-0.4171149730682373,0.17439334094524384,0.43230363726615906,0.10353774577379227,0.01661914587020874,0.19389522075653076,0.3916771709918976,-0.33289721608161926,0.01947428286075592,-0.01950755901634693,-0.15134237706661224,0.04685119166970253,-0.0005359745700843632,0.2207280844449997],[-0.40994349122047424,0.030484262853860855,-0.3742024302482605,-0.008089578710496426,0.00005576449984801002,0.16341152787208557,0.30640095472335815,-0.18536369502544403,0.20385780930519104,-0.018873712047934532,-0.4665476381778717,-0.1657598912715912,-0.33782848715782166,-0.1758672297000885,0.08571864664554596,0.7152400016784668,-0.477439820766449,-0.3216656744480133,0.10225600749254227,-0.3379652500152588],[-0.3728472888469696,0.13608357310295105,-0.1575155407190323,-0.37741661071777344,-0.20910586416721344,0.07975243777036667,-0.45917683839797974,-0.11385401338338852,0.4868890345096588,-0.14061684906482697,-0.030438503250479698,-0.05591752380132675,-0.2181587517261505,-0.05725765973329544,0.12166929990053177,-0.12940320372581482,0.08754931390285492,-0.13580180704593658,0.06709177792072296,-0.06336575001478195],[0.026359720155596733,0.1958266645669937,-0.007924321107566357,0.09423433989286423,-0.0635712742805481,0.06874076277017593,0.0592128224670887,-0.04718177393078804,0.022207891568541527,-0.07361631095409393,-0.12195251882076263,0.06881731003522873,0.0144448671489954,0.16830584406852722,0.1045754998922348,-0.11370094865560532,-0.12225222587585449,0.10575795918703079,0.007958552800118923,-0.1989283412694931],[-0.23683440685272217,-0.08895820379257202,0.011975442059338093,0.45853114128112793,-0.3754429221153259,-0.037557102739810944,0.2868625819683075,-0.038180120289325714,0.026640940457582474,-0.10607248544692993,-0.33563679456710815,0.08600349724292755,-0.03386949002742767,0.060089897364377975,-0.02729085087776184,-0.22966650128364563,0.30645596981048584,0.05037924647331238,0.10358589887619019,-0.07472013682126999],[-0.47639593482017517,-0.1556365191936493,0.019270045682787895,0.026850730180740356,0.23031093180179596,-0.05230725556612015,0.1793810874223709,-0.0068608676083385944,-0.03175956383347511,-0.041815631091594696,0.05481792613863945,0.014507316052913666,-0.2603713870048523,0.07491030544042587,0.16128027439117432,0.4721824526786804,-0.28465235233306885,0.28514736890792847,-0.024523135274648666,0.29432520270347595],[0.03919896483421326,0.09595096111297607,0.0329962894320488,-0.2562713921070099,-0.5953130722045898,0.029317617416381836,-0.2094649225473404,0.09992184489965439,0.1681925505399704,-0.028825793415308,-0.2358504682779312,-0.18293815851211548,-0.05150577798485756,0.448349267244339,0.14462071657180786,0.3583051264286041,-0.02614256739616394,-0.2424619048833847,0.12151167541742325,0.19899527728557587],[-0.09214799851179123,0.1907273381948471,0.005134974606335163,0.14912670850753784,-0.0025486028753221035,0.02055267058312893,0.019523777067661285,0.12177478522062302,0.0010564137483015656,-0.11842314898967743,-0.0429643839597702,0.06501765549182892,-0.19727672636508942,0.023289185017347336,0.08127876371145248,-0.13756586611270905,-0.17456446588039398,-0.0039763255044817924,-0.15629325807094574,-0.11239063739776611],[0.19239208102226257,-0.006252513732761145,-0.18140551447868347,0.4014407694339752,-0.1659901738166809,-0.1812141388654709,0.05416514724493027,0.1717270314693451,-0.06152942404150963,-0.03446418046951294,0.0356132835149765,-0.022029554471373558,-0.131255641579628,0.0351577028632164,0.19419531524181366,0.41463345289230347,0.24911677837371826,-0.08155352622270584,-0.11538189649581909,-0.4732776880264282],[-0.08446190506219864,-0.05246065929532051,-0.09425888955593109,-0.17082479596138,0.05110461264848709,-0.06302157044410706,0.002313069999217987,-0.018460040912032127,-0.18594145774841309,-0.0989566370844841,-0.14459523558616638,-0.17348042130470276,-0.1480802595615387,-0.16328103840351105,-0.0307605043053627,0.17219194769859314,-0.01238339301198721,-0.1204008162021637,0.1297987550497055,-0.14928917586803436],[-0.17289847135543823,0.2352968007326126,0.2550075650215149,-0.02109936624765396,0.0654965341091156,0.08940654247999191,-0.4450882077217102,0.09988220781087875,0.37341660261154175,0.04267631471157074,-0.05656583979725838,0.03578653931617737,0.028041668236255646,-0.08501941710710526,-0.050210192799568176,-0.2984088361263275,0.13200350105762482,-0.2149418741464615,-0.1527242511510849,0.3551208972930908],[-0.02564539946615696,0.2566998600959778,-0.14848975837230682,-0.36842939257621765,0.15080612897872925,-0.16674785315990448,-0.15688304603099823,-0.0877157598733902,0.25201764702796936,0.15562859177589417,-0.1603584736585617,-0.0016972619341686368,-0.12794585525989532,0.05966956913471222,-0.04377464950084686,-0.018677815794944763,0.3067288398742676,0.03296012058854103,-0.10825955867767334,-0.4722549021244049],[-0.3069411814212799,0.19804877042770386,-0.14060792326927185,0.15285590291023254,0.3271124064922333,-0.06762764602899551,-0.012401209212839603,-0.19191685318946838,0.10264240950345993,-0.13189180195331573,-0.06774601340293884,0.04562646895647049,0.13039261102676392,-0.0628247931599617,-0.06946444511413574,0.03004060685634613,0.10226099193096161,-0.08965074270963669,0.17136308550834656,0.0017297398298978806],[0.31630489230155945,0.0811658501625061,0.11154145002365112,0.3620762228965759,0.03687229007482529,0.034400179982185364,-0.1041569709777832,-0.12672288715839386,-0.34335485100746155,0.0020597127731889486,-0.4048680365085602,-0.016024380922317505,-0.5002638101577759,0.151060089468956,-0.16715210676193237,0.21173804998397827,0.14145241677761078,-0.4455636143684387,-0.13241131603717804,-0.14027535915374756],[-0.13498510420322418,0.0678030475974083,-0.06914152950048447,-0.1188058853149414,-0.187520369887352,-0.09629977494478226,-0.03380707651376724,-0.0009994364809244871,0.3813040256500244,0.0666520968079567,0.26567503809928894,0.1367558240890503,0.21101811528205872,0.10401079058647156,0.03248599171638489,-0.28886279463768005,-0.09251905232667923,0.14435285329818726,0.10590502619743347,0.4405190646648407],[-0.05481209233403206,-0.11936900019645691,0.007056672591716051,-0.09094559401273727,0.0032559134997427464,0.15557505190372467,0.18685132265090942,0.1156061589717865,-0.1076577678322792,-0.024459578096866608,-0.22694243490695953,0.1925898641347885,-0.2063412368297577,-0.07029281556606293,0.1749088317155838,0.019515857100486755,-0.01841397024691105,-0.1379898339509964,0.04309000447392464,-0.12039916962385178],[0.43275192379951477,0.15779520571231842,-0.1519622951745987,0.27496030926704407,-0.1308673471212387,0.0119240190833807,-0.20866245031356812,0.14327296614646912,0.17098897695541382,0.04203847050666809,0.24600060284137726,-0.09924908727407455,0.3599720299243927,0.10807427763938904,-0.12681101262569427,0.030332155525684357,0.2902567982673645,0.010187262669205666,0.09040669351816177,-0.29097241163253784],[0.11513330787420273,-0.12958917021751404,0.025540340691804886,0.06357412785291672,0.1887635886669159,-0.16256771981716156,-0.17207841575145721,-0.030727803707122803,0.007967537268996239,0.175211101770401,-0.16545645892620087,0.08683206886053085,-0.1442454308271408,-0.12321669608354568,0.17689655721187592,0.004767667036503553,-0.25154632329940796,-0.14728687703609467,-0.09035961329936981,-0.21748539805412292],[0.07460123300552368,-0.10580741614103317,0.1712408810853958,-0.13608136773109436,-0.4017709195613861,-0.05777570977807045,-0.004924760200083256,-0.009159456007182598,-0.047994159162044525,-0.12553144991397858,0.05632654204964638,0.009890572167932987,0.30873584747314453,0.14824660122394562,-0.08021185547113419,0.44457510113716125,0.01652861014008522,0.02163052372634411,0.016748687252402306,-0.19163520634174347]],"biases":[0.07139737159013748,-0.17694544792175293,0.15919214487075806,0.0995655506849289,-0.1610918492078781,-0.15769733488559723,-0.1545482873916626,-0.014078125357627869,0.14659255743026733,-0.28284794092178345,-0.054831117391586304,-0.01734866574406624,-0.09407000988721848,0.0011175436666235328,-0.034955888986587524,-0.14360468089580536,-0.13169531524181366,0.1950094848871231,0.17233261466026306,-0.17690551280975342,-0.14367203414440155,-0.08516069501638412,0.38174405694007874,0.010813414119184017,-0.08200627565383911,0.20491281151771545,0.22739176452159882,0.1504579782485962,-0.1778767853975296,-0.08997711539268494,-0.14534002542495728,-0.06465552002191544,0.28168049454689026,0.06368942558765411,0.20975753664970398,-0.0011073520872741938,0.00984982680529356,-0.377445787191391,-0.07121991366147995,0.06040193513035774]},{"weights":[[-0.16446003317832947,0.07899630814790726,0.17494189739227295,0.009148911572992802,0.0829218327999115,-0.18804633617401123,0.035272568464279175,-0.1119372770190239,0.11275190114974976,-0.009855862706899643,-0.06767643988132477,-0.13711322844028473,-0.005946355406194925,-0.1264130026102066,-0.1368492692708969,-0.19382759928703308,-0.1800350844860077,0.02299610525369644,0.001584099605679512,0.2000756710767746,0.19296012818813324,-0.14189039170742035,0.05794929713010788,0.027282139286398888,0.12391885370016098,0.18619728088378906,0.15388886630535126,-0.09731151908636093,0.16912759840488434,-0.29302969574928284,-0.012572974897921085,-0.14008724689483643,-0.02815159037709236,0.040140777826309204,0.1495038866996765,-0.06623862683773041,0.14179793000221252,-0.05453508719801903,-0.06715474277734756,-0.13698160648345947],[0.05796736106276512,-0.03724198043346405,-0.27245503664016724,-0.19991283118724823,-0.21959188580513,0.1371525526046753,-0.09816108644008636,-0.11756537854671478,-0.1504235416650772,-0.012356188148260117,-0.10345449298620224,0.17836377024650574,0.09988238662481308,0.16652260720729828,0.10532571375370026,0.0226284246891737,-0.0741300880908966,-0.04812346771359444,-0.13708315789699554,-0.04070368409156799,-0.13596543669700623,-0.05808854103088379,-0.04411975294351578,-0.23771952092647552,0.18428753316402435,0.24215537309646606,-0.05206560343503952,-0.15915246307849884,-0.14487828314304352,0.00983250979334116,-0.20005817711353302,-0.09676533192396164,0.2330452799797058,-0.016550729051232338,-0.14042767882347107,-0.04933719336986542,0.1387641876935959,-0.07867822796106339,0.1296979933977127,-0.020108824595808983],[0.12143498659133911,0.08034117519855499,0.05295288562774658,-0.11435014009475708,0.14116400480270386,-0.1669289469718933,-0.08230090886354446,0.07674112915992737,0.16123397648334503,0.33000582456588745,-0.06242051348090172,-0.2194891721010208,0.01358582079410553,0.14899684488773346,0.18559178709983826,0.18619348108768463,0.11265679448843002,-0.0789930447936058,-0.1363050639629364,-0.06531457602977753,-0.03952561691403389,0.09598422050476074,0.03886857256293297,-0.042141400277614594,0.08092188090085983,0.06202925741672516,0.18356254696846008,0.25097015500068665,0.09005828946828842,0.0436980202794075,-0.1269829273223877,0.17555293440818787,-0.007320291828364134,-0.17247681319713593,-0.15407919883728027,-0.05303312838077545,0.09991031140089035,0.1581418365240097,0.11555813997983932,0.10770987719297409],[-0.06952767819166183,-0.11762244999408722,-0.27846795320510864,-0.13044236600399017,0.0421481616795063,-0.10877439379692078,-0.006917495746165514,0.17659714818000793,-0.09297825396060944,0.15186306834220886,0.1011379137635231,-0.29271823167800903,0.14251181483268738,0.12962937355041504,-0.03374185413122177,-0.05248145014047623,0.17025841772556305,-0.06997817754745483,0.2421325147151947,-0.21160826086997986,0.032529186457395554,-0.051355551928281784,0.21650448441505432,-0.20001891255378723,0.008694345131516457,0.28629928827285767,-0.16016101837158203,-0.3476313054561615,0.014139355160295963,0.13853640854358673,-0.04747191444039345,-0.1406734585762024,0.058718036860227585,-0.2197062075138092,-0.012046010233461857,0.15146195888519287,0.18312615156173706,0.09284744411706924,0.04991355165839195,-0.2651984989643097],[-0.028417812660336494,-0.11689771711826324,0.20357780158519745,0.17622260749340057,-0.037243060767650604,-0.19308194518089294,0.13992741703987122,-0.2249033898115158,0.11131174117326736,0.007092813961207867,0.016832418739795685,-0.02928527072072029,-0.002087036846205592,-0.030422279611229897,0.16860811412334442,-0.18505209684371948,0.15311230719089508,-0.08063523471355438,-0.020518755540251732,0.23061811923980713,0.17959879338741302,0.03207435458898544,0.2057892084121704,0.04643814265727997,-0.15797825157642365,-0.011035557836294174,0.2717319428920746,0.04097384586930275,0.16446805000305176,0.028748327866196632,-0.06220071017742157,-0.32681357860565186,0.12680377066135406,-0.07717902213335037,0.1253686398267746,-0.11117760092020035,-0.2241906076669693,0.2084834724664688,0.0044628712348639965,-0.03963498771190643],[0.0988699421286583,-0.1509506106376648,-0.06985809653997421,-0.14205478131771088,-0.03717080131173134,-0.12629124522209167,0.06021718308329582,-0.3753601610660553,-0.16684997081756592,-0.25323060154914856,0.04390263184905052,-0.07131995260715485,0.08462166041135788,-0.00327023072168231,-0.11702873557806015,0.022659102454781532,0.007538382429629564,-0.05252784863114357,0.06825719773769379,0.14436136186122894,0.1755034625530243,0.11367890983819962,0.31941553950309753,-0.18219789862632751,0.0028767981566488743,-0.19232848286628723,-0.20905080437660217,0.11818763613700867,0.1317622810602188,0.10610570013523102,0.1416514813899994,0.01728295534849167,0.17131507396697998,-0.16775795817375183,0.016204845160245895,0.177758127450943,0.05912899225950241,-0.2281971424818039,0.19686558842658997,0.1173669621348381],[0.07572905719280243,-0.054317906498909,0.07778853178024292,0.08764228224754333,0.019763296470046043,-0.15754593908786774,-0.15660803020000458,-0.15957120060920715,-0.1873583197593689,-0.042397692799568176,-0.15995344519615173,0.1360045224428177,-0.19988378882408142,-0.21438966691493988,-0.16186107695102692,0.11307093501091003,0.09262286871671677,-0.04944281280040741,-0.0105087636038661,0.08442483097314835,0.10040212422609329,0.06862422078847885,0.07378754764795303,0.04843300208449364,0.09390343725681305,-0.058406852185726166,-0.20028182864189148,-0.1707792729139328,-0.059313368052244186,0.20031599700450897,-0.16058588027954102,-0.012107768096029758,0.15185284614562988,-0.1247788593173027,0.06812494993209839,0.14139972627162933,0.10234320908784866,-0.05536910146474838,-0.1327538639307022,0.13548734784126282],[0.060234326869249344,0.12562058866024017,0.1901666671037674,-0.10048557817935944,-0.05507352575659752,0.048638395965099335,0.09576383233070374,-0.06004153564572334,-0.1579452008008957,-0.14600151777267456,-0.15026523172855377,-0.06403885036706924,0.12083388864994049,-0.22187075018882751,0.05625386908650398,-0.3116648495197296,-0.12950696051120758,0.08137619495391846,-0.2488979548215866,0.22095614671707153,-0.16972865164279938,-0.09827138483524323,-0.058096420019865036,-0.18388517200946808,-0.11293166130781174,0.21991686522960663,0.36755335330963135,-0.017262347042560577,0.03280416876077652,0.19468024373054504,0.14183539152145386,0.06301776319742203,-0.21580344438552856,-0.13885609805583954,0.08787810802459717,0.07286636531352997,-0.20399345457553864,0.19544480741024017,-0.1345541775226593,0.17796258628368378],[0.17083725333213806,-0.15824159979820251,0.0007445788942277431,0.09988793730735779,-0.07657495141029358,-0.016684139147400856,0.16832558810710907,0.13115724921226501,0.13497772812843323,-0.0801328718662262,-0.19458931684494019,-0.02154717780649662,0.1915043145418167,0.161682590842247,-0.020783759653568268,0.10922612994909286,-0.16547246277332306,-0.09973785281181335,-0.126117542386055,-0.11227159947156906,-0.12723574042320251,0.0629291906952858,-0.033244743943214417,0.014305969700217247,-0.005198280792683363,-0.011764575727283955,0.1512036919593811,-0.04229845106601715,-0.06471061706542969,-0.059766802936792374,0.010596824809908867,0.09470493346452713,0.05427101254463196,-0.08242704719305038,0.0028907612431794405,-0.07777167111635208,-0.13321420550346375,-0.10443432629108429,-0.06061958149075508,0.15458643436431885],[0.050816431641578674,-0.04018455743789673,0.06945627927780151,0.17089436948299408,-0.07869451493024826,0.17469459772109985,0.15249858796596527,-0.09328987449407578,-0.16323238611221313,0.1432749330997467,0.006885424721986055,-0.10678841918706894,-0.002946300432085991,-0.23316362500190735,0.059915054589509964,-0.23357275128364563,-0.0911831185221672,0.12419546395540237,0.05687013268470764,-0.07058484852313995,-0.15041601657867432,0.18546096980571747,-0.09758310765028,-0.21114380657672882,-0.16087089478969574,0.051921818405389786,0.1618373543024063,-0.20718379318714142,0.006282900460064411,-0.005657268688082695,0.17106322944164276,0.14699022471904755,-0.06556424498558044,-0.20676252245903015,-0.07370980829000473,0.105650395154953,0.027775265276432037,0.17531763017177582,-0.06153339892625809,0.0027264077216386795],[0.14618419110774994,0.17372305691242218,0.1504954844713211,0.057319752871990204,0.29541611671447754,-0.18472221493721008,-0.10757911950349808,-0.12100186198949814,0.16049523651599884,0.2954786717891693,-0.19075481593608856,-0.2248319834470749,-0.10581948608160019,0.12709584832191467,-0.019164808094501495,0.3427426815032959,-0.032576899975538254,-0.1918029934167862,0.002179639181122184,-0.2025023251771927,0.01969354785978794,0.377211332321167,-0.21917571127414703,0.10535389184951782,0.04744713753461838,-0.384929358959198,0.03845146298408508,0.04914378374814987,-0.022166460752487183,0.04534739628434181,0.14430628716945648,0.15442970395088196,0.09351762384176254,-0.03790735825896263,0.011416535824537277,0.11506781727075577,0.023386146873235703,-0.0785396546125412,-0.004829741083085537,-0.13822630047798157],[-0.11268345266580582,0.06922413408756256,0.10735101252794266,-0.03723656013607979,0.06269455701112747,0.04181133583188057,-0.1714940220117569,0.1349138617515564,-0.140485942363739,0.11937913298606873,-0.04592081904411316,-0.18545104563236237,-0.07245056331157684,-0.20814597606658936,-0.019367611035704613,0.008510855957865715,0.13519465923309326,-0.046674322336912155,-0.20056937634944916,-0.006116118747740984,-0.14644797146320343,-0.17274533212184906,-0.19709409773349762,-0.08572965860366821,-0.02608785219490528,0.04662933573126793,-0.02697310596704483,0.16492047905921936,0.19564127922058105,0.1742313802242279,-0.13115403056144714,0.06738350540399551,-0.17315912246704102,0.06430131942033768,0.0977213978767395,0.10955066978931427,0.15005339682102203,0.030225511640310287,-0.02768382988870144,0.04975666478276253],[-0.15008121728897095,-0.1252058446407318,0.08156510442495346,0.14005397260189056,0.2710481882095337,0.010890367440879345,0.1532769650220871,-0.12229403853416443,0.09869207441806793,-0.06899603456258774,-0.12604866921901703,-0.1144867092370987,0.015756642445921898,-0.150382399559021,0.10892558842897415,0.10171981900930405,0.10716763138771057,0.1516084522008896,-0.1014576256275177,0.1396789699792862,0.13632868230342865,0.0949389860033989,0.2042253464460373,-0.08470099419355392,-0.19173039495944977,-0.07662524282932281,-0.09119289368391037,0.046429187059402466,-0.13266214728355408,0.020006395876407623,-0.09674307703971863,0.15224051475524902,-0.16648420691490173,-0.034195948392152786,-0.0010672971839085221,-0.3392804265022278,0.11425364017486572,-0.3210645318031311,-0.020151017233729362,0.2369709461927414],[-0.17175361514091492,-0.16873008012771606,0.06924945116043091,0.10472051799297333,-0.17416521906852722,-0.10480514913797379,-0.021926362067461014,-0.19162778556346893,-0.07007955759763718,-0.1891796737909317,-0.13663479685783386,0.018581274896860123,-0.11474133282899857,0.10023384541273117,0.18714924156665802,0.05415518581867218,-0.19647464156150818,0.0460137240588665,-0.048589061945676804,0.05001648887991905,-0.04915134608745575,-0.07798247784376144,-0.05739295482635498,-0.18779411911964417,-0.044199757277965546,-0.003839819459244609,0.022738154977560043,0.09627705812454224,-0.1958332508802414,0.11137837171554565,-0.013998419046401978,0.06332595646381378,-0.15348395705223083,0.17425282299518585,-0.13145330548286438,-0.1684962809085846,-0.1655866950750351,-0.01785822957754135,-0.06150843948125839,0.09269092231988907],[0.16469815373420715,-0.17198209464550018,-0.024499231949448586,0.15674471855163574,-0.079911969602108,-0.0264403335750103,-0.09813788533210754,0.052043937146663666,0.05117771402001381,-0.16842660307884216,-0.06488405168056488,-0.03697728365659714,-0.17906033992767334,0.25786903500556946,0.11030758172273636,-0.07135830074548721,0.13164009153842926,-0.08169248700141907,0.07945849001407623,0.10197064280509949,-0.15035471320152283,0.1703534722328186,0.13651955127716064,-0.212727889418602,-0.07364824414253235,0.13716746866703033,-0.21165618300437927,-0.16878154873847961,-0.16577187180519104,0.1471855789422989,-0.05255008861422539,-0.004249236546456814,0.12248168885707855,-0.15864332020282745,-0.16420018672943115,-0.001466436660848558,0.14351697266101837,0.09581455588340759,0.13049766421318054,-0.04589030146598816],[0.05423066392540932,0.10825581848621368,0.05363490805029869,-0.09777867794036865,0.28093940019607544,0.16242201626300812,-0.1884886622428894,0.08229156583547592,0.07455538958311081,-0.13912230730056763,0.15532375872135162,-0.23069648444652557,0.029417620971798897,-0.05255243927240372,-0.11317508667707443,0.03884723037481308,0.008785909973084927,-0.22689805924892426,0.09799391031265259,-0.1028217151761055,0.01771211251616478,-0.25474295020103455,0.004548977129161358,0.22789494693279266,0.09721013903617859,0.0900595635175705,-0.30615726113319397,-0.17818714678287506,-0.07797300070524216,0.011768280528485775,0.12809138000011444,0.192081019282341,-0.03395635262131691,0.11146358400583267,0.30910781025886536,0.06089150905609131,0.1338871419429779,0.01836235821247101,0.11450116336345673,-0.058246634900569916],[0.15408502519130707,0.06265506893396378,-0.16072651743888855,0.04689742997288704,0.22209832072257996,-0.07078729569911957,-0.01251283846795559,-0.18744657933712006,0.054152343422174454,-0.10810286551713943,0.034593429416418076,0.09799632430076599,-0.10571249574422836,0.038071028888225555,0.1899469494819641,-0.2023368626832962,0.013220889493823051,-0.18263371288776398,0.13197103142738342,0.10685095191001892,-0.12080654501914978,0.002392555819824338,0.16148197650909424,-0.23340146243572235,-0.1520742028951645,0.23497223854064941,-0.11464536190032959,-0.07238657772541046,0.08716665953397751,-0.15549321472644806,0.13891853392124176,0.10975062102079391,-0.0861448124051094,0.13637042045593262,-0.10069127380847931,-0.14684437215328217,-0.07215996086597443,0.08117727190256119,0.2297539860010147,-0.03940006345510483],[0.06471788138151169,-0.05885535478591919,-0.1856817603111267,-0.08621353656053543,-0.11992649734020233,-0.14978612959384918,0.12439440935850143,0.12466713041067123,-0.15087071061134338,0.08148252964019775,-0.11198481917381287,-0.1274227499961853,0.03910640627145767,-0.18363119661808014,-0.11331676691770554,-0.1460227072238922,-0.15460094809532166,-0.0116982227191329,-0.16564583778381348,0.19609826803207397,-0.11882422864437103,-0.19048480689525604,-0.07977531105279922,0.07170071452856064,0.018550973385572433,-0.03604043275117874,-0.11544856429100037,-0.18382935225963593,0.07850192487239838,-0.16174402832984924,-0.18168814480304718,-0.18213523924350739,0.08142013847827911,-0.049202609807252884,0.15606673061847687,-0.18576586246490479,0.03576883673667908,0.19635535776615143,-0.06988080590963364,-0.13822494447231293],[-0.1769414097070694,0.18848839402198792,0.07798552513122559,-0.11464602500200272,0.01150297187268734,-0.16357992589473724,-0.07926417142152786,-0.016796229407191277,-0.14484338462352753,0.12142151594161987,0.11208008974790573,-0.17069068551063538,0.14983731508255005,-0.12654641270637512,0.008160389959812164,-0.016834521666169167,0.0592179149389267,0.19419480860233307,0.04911518096923828,-0.18730227649211884,-0.1218264251947403,0.04278678819537163,-0.1013917401432991,0.16056828200817108,-0.1255933940410614,-0.03095049411058426,-0.04506983980536461,0.04249413311481476,-0.13599075376987457,0.16549472510814667,0.1600896418094635,-0.15587498247623444,-0.10592533648014069,0.08362232893705368,0.17557653784751892,-0.16605816781520844,-0.10316146165132523,0.011541297659277916,0.19770976901054382,0.1098218560218811],[-0.05967408046126366,-0.1392287313938141,-0.16169825196266174,0.10787419229745865,-0.3129464089870453,0.058988671749830246,-0.14119303226470947,0.09417455643415451,-0.16217203438282013,-0.2680107057094574,-0.0978914126753807,-0.08239972591400146,-0.04500584304332733,0.08416039496660233,-0.1985151171684265,-0.04005488380789757,0.09531620889902115,0.07747890800237656,0.2585844099521637,-0.12968453764915466,-0.06545565277338028,-0.08341754227876663,0.0919518917798996,-0.1751057505607605,0.010342121124267578,0.051675062626600266,0.06503427028656006,-0.04942747578024864,-0.006297491490840912,0.19921350479125977,-0.14427635073661804,0.14267168939113617,-0.1521843522787094,-0.223769411444664,-0.22137360274791718,0.08952125906944275,-0.11231646686792374,-0.03818122670054436,0.17652280628681183,-0.1829909384250641],[0.19604957103729248,-0.03181350231170654,0.021779438480734825,0.1720973551273346,-0.17399945855140686,-0.16056939959526062,-0.0629451647400856,-0.06684902310371399,0.1657407134771347,-0.256719172000885,0.08171393722295761,0.040255479514598846,0.14269982278347015,0.10481241345405579,-0.04174328222870827,0.08011328428983688,0.18380233645439148,0.23641768097877502,-0.06463612616062164,0.1361326277256012,-0.023904576897621155,-0.03731749579310417,0.028555046766996384,0.20895247161388397,-0.04645588994026184,-0.02630132995545864,-0.23978132009506226,0.13030846416950226,-0.05599314719438553,0.023561056703329086,0.12027621269226074,0.0647139623761177,0.18213966488838196,0.09825752675533295,0.06644818186759949,-0.21021583676338196,0.18371738493442535,-0.028761891648173332,0.04796713963150978,-0.04675206542015076],[0.013751115649938583,-0.10363415628671646,-0.03809896484017372,-0.04811876267194748,0.2510433793067932,-0.09369219839572906,-0.06232060492038727,0.1369534134864807,0.02515975944697857,-0.036959730088710785,-0.1186683252453804,-0.2679557204246521,0.08397658169269562,-0.08184073120355606,0.1669122278690338,-0.055328626185655594,-0.01697065494954586,-0.04310484975576401,0.27328234910964966,0.2074379175901413,-0.059274714440107346,-0.2342333048582077,0.20970401167869568,0.07905590534210205,-0.06558728218078613,0.3125099837779999,0.22437168657779694,0.10061188042163849,-0.02607779949903488,-0.16534055769443512,0.03999042510986328,-0.18220730125904083,0.18794620037078857,0.06651104241609573,0.06467005610466003,0.1988701969385147,-0.17861980199813843,-0.08949365466833115,-0.00395940849557519,0.3329688012599945],[-0.08239942044019699,0.18851938843727112,-0.5109062790870667,-0.27314257621765137,-0.08662205934524536,0.17181292176246643,-0.008349605835974216,-0.0009132529376074672,0.07617123425006866,0.028614232316613197,-0.1824970543384552,-0.07852696627378464,-0.11884310096502304,-0.04788445681333542,0.1711534559726715,0.13248832523822784,-0.11618056893348694,-0.15166418254375458,-0.13294793665409088,0.053121887147426605,0.0836309865117073,0.10516060888767242,-0.28337958455085754,-0.10308309644460678,-0.19753782451152802,0.2858337461948395,-0.19179828464984894,-0.13264064490795135,-0.14727923274040222,0.41257956624031067,0.1397809386253357,0.2454730123281479,0.21158257126808167,0.07579810172319412,-0.3019147217273712,0.19771359860897064,-0.03655095025897026,0.12441270798444748,0.23157580196857452,-0.1311737447977066],[0.005504818633198738,0.04903765022754669,-0.19259649515151978,0.10039983689785004,-0.14328742027282715,-0.03630418702960014,-0.17224037647247314,0.043587081134319305,0.09810648113489151,-0.17669950425624847,-0.013108751736581326,-0.04431435093283653,-0.16205422580242157,-0.17943669855594635,-0.1167396828532219,0.01393832452595234,0.10431274771690369,0.07411161065101624,0.12876315414905548,0.046963442116975784,-0.19300834834575653,0.001048572943545878,-0.13277818262577057,-0.1800602674484253,-0.1573106050491333,-0.06537985056638718,-0.17059801518917084,0.19091708958148956,0.04887784644961357,0.18149711191654205,-0.1466500163078308,0.17520247399806976,-0.03722964599728584,0.07603040337562561,-0.001360686612315476,0.047143615782260895,-0.03666137531399727,-0.14436019957065582,0.11722295731306076,-0.18802227079868317],[-0.13907332718372345,0.08559812605381012,-0.40382707118988037,-0.013097668997943401,-0.12283357977867126,0.16711939871311188,-0.14231045544147491,0.07511526346206665,-0.1424780935049057,-0.030200760811567307,-0.13692200183868408,0.06663566827774048,0.07321856170892715,0.08625958114862442,-0.04043440893292427,-0.03474428132176399,0.021983185783028603,-0.12605798244476318,0.11503913998603821,-0.1702095866203308,-0.1743019074201584,-0.005670853890478611,-0.027838921174407005,-0.2692517340183258,0.15361818671226501,0.06177014112472534,-0.16297391057014465,-0.07625133544206619,0.1514778882265091,0.19419625401496887,0.16550089418888092,0.26127198338508606,0.10518980771303177,0.05835903808474541,-0.2605275809764862,0.25888484716415405,0.16463249921798706,0.11373873054981232,-0.12061765789985657,-0.1669013947248459],[0.16767318546772003,0.199116051197052,-0.09782332926988602,0.07505950331687927,-0.14061462879180908,-0.031154992058873177,0.08686505258083344,0.12298254668712616,0.052948206663131714,-0.19592516124248505,0.14183278381824493,0.011267310008406639,0.11101287603378296,-0.05467432737350464,0.1703723967075348,0.13674196600914001,-0.12672767043113708,0.12728139758110046,-0.19517113268375397,0.1173766627907753,-0.18128451704978943,0.16625070571899414,-0.007876656018197536,0.17307938635349274,-0.08343663066625595,0.1430249810218811,0.09153372049331665,0.021854085847735405,0.19479331374168396,0.14834190905094147,-0.1892722249031067,-0.16425170004367828,-0.06988248229026794,-0.17369753122329712,-0.1774618923664093,-0.1278035193681717,-0.008889086544513702,0.16924205422401428,-0.15447747707366943,0.014065282419323921],[0.026161955669522285,-0.13184912502765656,0.14545831084251404,0.05458052456378937,-0.07399076223373413,0.14429865777492523,-0.1445709466934204,-0.050897955894470215,-0.03173784166574478,-0.10329009592533112,0.1812702864408493,0.21098649501800537,-0.04322630912065506,-0.06534769386053085,-0.11609010398387909,0.1519387662410736,0.16721539199352264,0.046671077609062195,0.08157965540885925,0.10893231630325317,-0.011700396426022053,0.1330488920211792,0.043087780475616455,0.034550923854112625,0.007440311834216118,-0.16930826008319855,-0.0066904122941195965,0.05670056492090225,-0.05907541140913963,-0.0789627805352211,-0.08002372831106186,0.16196085512638092,0.07314938306808472,0.1414342224597931,-0.006825116463005543,0.06795219331979752,-0.04803040996193886,-0.07573217153549194,-0.09632742404937744,-0.1388815939426422],[0.1605912148952484,0.1789776086807251,-0.036219000816345215,0.03420393541455269,0.02359614707529545,0.021935418248176575,-0.08437933027744293,-0.1756383627653122,-0.057815663516521454,-0.1510298252105713,-0.19305063784122467,0.02461136318743229,-0.17083516716957092,-0.11137167364358902,-0.07774826884269714,0.11480259150266647,-0.11092985421419144,-0.15258890390396118,0.07540369033813477,0.05981111899018288,-0.020864535123109818,0.04398735985159874,-0.03499826416373253,0.03274666145443916,-0.058999065309762955,0.1964160054922104,-0.09468681365251541,-0.11645159125328064,-0.007675420492887497,-0.144949808716774,0.18920546770095825,0.007805232424288988,0.03944236785173416,-0.1682259887456894,-0.16994813084602356,-0.10880821198225021,0.1576533317565918,-0.07610106468200684,-0.0010665706358850002,-0.10156791657209396],[-0.2270546704530716,0.16498993337154388,-0.003619906958192587,-0.03356145694851875,0.08112798631191254,-0.06242957338690758,-0.0767497569322586,0.1008712649345398,-0.21306945383548737,0.13788282871246338,-0.13850776851177216,0.15146279335021973,0.14338326454162598,0.1187807023525238,-0.09092824161052704,0.07459817081689835,0.12729346752166748,0.18080545961856842,0.15122388303279877,-0.07072793692350388,-0.14322908222675323,-0.09441319108009338,-0.015373018570244312,-0.03434181958436966,0.00938577950000763,0.07042105495929718,0.2273576408624649,0.12082367390394211,0.17776241898536682,0.11347687244415283,-0.13839378952980042,-0.11668700724840164,0.1611337661743164,0.10742703825235367,0.008717931807041168,-0.2961438298225403,-0.025974785909056664,0.1385529488325119,0.1358489692211151,-0.0285403560847044],[0.01415320672094822,-0.02217930741608143,-0.44752657413482666,-0.005136239342391491,-0.21820655465126038,-0.10113482177257538,-0.07428162544965744,0.1214754730463028,-0.07176308333873749,0.15494312345981598,0.18138852715492249,0.40742507576942444,0.10975179821252823,0.15688791871070862,0.023601926863193512,0.22217248380184174,-0.12918414175510406,0.2792522609233856,0.10989288240671158,-0.07985195517539978,0.03330664709210396,0.2387375384569168,-0.4326852560043335,0.24159756302833557,0.0836232453584671,-0.08543264120817184,0.015737174078822136,0.23217320442199707,0.17724400758743286,-0.026386931538581848,0.18596449494361877,0.18383868038654327,0.192048117518425,-0.0973123162984848,-0.1748136281967163,0.0428759790956974,-0.17451705038547516,0.31070107221603394,-0.05191214010119438,0.08287020772695541],[-0.08522018045186996,0.10437914729118347,-0.04391322284936905,0.0054086497984826565,-0.20997776091098785,-0.011263995431363583,-0.17152389883995056,0.03972013294696808,-0.1480950266122818,0.03542877361178398,0.03739055246114731,-0.1439869999885559,-0.006402764935046434,0.06022387742996216,-0.032747745513916016,-0.10480006784200668,0.19395647943019867,-0.0017539751715958118,-0.1033402755856514,0.10541603714227676,0.18989574909210205,-0.09094423055648804,0.16545933485031128,-0.14074881374835968,0.1919938623905182,-0.11668142676353455,-0.10107332468032837,0.08021371066570282,-0.1561199575662613,0.034607816487550735,0.012850581668317318,-0.1968727707862854,0.13624857366085052,0.1658160537481308,0.04372784122824669,-0.17787958681583405,0.09294717758893967,-0.09044359624385834,-0.08530078828334808,-0.031741611659526825],[-0.215705007314682,-0.08370120078325272,0.11977339535951614,0.09254513680934906,0.14796055853366852,-0.07987137138843536,0.07408884167671204,0.034293223172426224,0.000684047641698271,-0.031035084277391434,0.10888414084911346,0.12702178955078125,0.048304442316293716,-0.09164483845233917,0.19044895470142365,0.018564708530902863,-0.008643615059554577,-0.11147287487983704,0.12982608377933502,-0.00882952194660902,0.17587652802467346,-0.06279116123914719,-0.006651659030467272,0.06142571195960045,-0.13377255201339722,0.11827216297388077,-0.24931426346302032,-0.2265021950006485,0.04014724865555763,0.14429479837417603,0.03340692073106766,-0.07157942652702332,-0.07298924773931503,-0.15610255300998688,0.045793093740940094,0.06457993388175964,-0.07333803921937943,0.03212924674153328,-0.0083854915574193,-0.031097400933504105],[0.04376237839460373,-0.17226804792881012,-0.0407412052154541,-0.06766661256551743,-0.2351333498954773,-0.09987884759902954,-0.13784554600715637,0.08753753453493118,-0.06633350253105164,-0.08534679561853409,0.19326096773147583,0.08997412770986557,-0.11787629872560501,0.1456885188817978,0.12502586841583252,-0.027684343978762627,0.008102447725832462,-0.22856052219867706,0.014236511662602425,-0.07140990346670151,0.042103081941604614,0.0036353315226733685,-0.06378660351037979,-0.20070293545722961,-0.1936235874891281,0.07831582427024841,-0.09657935798168182,-0.3380346894264221,-0.18549716472625732,0.2391917109489441,-0.1296919286251068,0.15355560183525085,-0.13732482492923737,-0.1315680891275406,-0.031122054904699326,-0.0803404375910759,-0.16678668558597565,0.14346957206726074,-0.06272375583648682,-0.012800323776900768],[0.12457284331321716,-0.07009363919496536,-0.19417381286621094,-0.25937992334365845,0.015757087618112564,0.022716931998729706,-0.1731446385383606,0.017703384160995483,0.25730040669441223,0.17702344059944153,-0.11778581887483597,0.22825093567371368,-0.08875612169504166,0.18290522694587708,0.039704423397779465,0.2722419798374176,-0.02387637086212635,0.11611021310091019,-0.09171145409345627,-0.08223481476306915,0.14078772068023682,0.14990247786045074,-0.4966401755809784,0.1505649983882904,0.18001043796539307,0.05292113497853279,0.09291044622659683,-0.17656688392162323,0.19325700402259827,0.24174800515174866,0.16854938864707947,0.2897752523422241,0.3011331856250763,-0.15732987225055695,-0.2939121723175049,0.31048086285591125,-0.18616949021816254,0.2735060453414917,-0.2064163088798523,-0.012666406109929085],[0.027396880090236664,-0.14946790039539337,-0.020487191155552864,-0.23529019951820374,0.04907846450805664,-0.12857022881507874,0.13207750022411346,-0.016324298456311226,-0.051527999341487885,-0.06133060157299042,0.02526651695370674,0.12907935678958893,-0.10713337361812592,-0.0023887003771960735,-0.11454135179519653,-0.006867638789117336,0.1265483796596527,-0.08070375770330429,-0.0003286979626864195,-0.052649594843387604,0.05586819350719452,-0.017737122252583504,-0.16613875329494476,-0.27099278569221497,-0.10162797570228577,0.032004907727241516,-0.20268817245960236,-0.24938753247261047,-0.00799400731921196,0.05174298956990242,0.09374229609966278,0.2223406285047531,0.10161152482032776,0.060261476784944534,-0.2213553935289383,0.02686406299471855,0.07534825801849365,0.3927707374095917,0.08575616031885147,0.054340410977602005],[0.029972560703754425,-0.1717144399881363,-0.006239345297217369,0.18525128066539764,0.17232996225357056,0.07779628783464432,-0.024099156260490417,-0.18871837854385376,0.014555559493601322,-0.2610171139240265,-0.059506867080926895,-0.2391231209039688,-0.13452941179275513,0.03281271085143089,0.17607319355010986,0.051526930183172226,-0.05141220986843109,-0.10743360966444016,0.14990967512130737,-0.23715531826019287,0.1334163248538971,-0.09398075938224792,0.2148885577917099,-0.13899749517440796,0.07876093685626984,0.13027212023735046,0.05742092803120613,0.35649174451828003,-0.1900128424167633,-0.1569254994392395,-0.006822873372584581,0.20026691257953644,0.2796439230442047,0.042990099638700485,0.2758358418941498,-0.2493043839931488,0.12121229618787766,-0.464486300945282,0.05139607936143875,0.06101355329155922],[-0.32017409801483154,-0.053516071289777756,0.0326930433511734,0.05250832065939903,-0.32641342282295227,-0.19555999338626862,-0.07386454194784164,-0.20308849215507507,-0.11678816378116608,0.011898456141352654,-0.18605996668338776,0.14408303797245026,-0.16566094756126404,0.046746548265218735,0.012998299673199654,-0.016293777152895927,-0.10316553711891174,-0.015023107640445232,0.05931870639324188,-0.04969072341918945,0.11106623709201813,-0.17432601749897003,0.31710943579673767,-0.19847214221954346,-0.003206706140190363,0.22461292147636414,0.17194701731204987,0.12032429873943329,-0.13694411516189575,0.08864777535200119,0.12400689721107483,-0.20301616191864014,0.5094087719917297,-0.12246567010879517,0.036232270300388336,-0.08502180129289627,0.03145575895905495,-0.009952817112207413,-0.10338205099105835,0.23616397380828857],[0.1869056671857834,0.06297994405031204,0.16894738376140594,-0.03058549202978611,0.3005962669849396,-0.06975259631872177,-0.002163016702979803,-0.20043402910232544,0.18949148058891296,0.052112214267253876,-0.10863400250673294,0.12410525232553482,0.11128650605678558,-0.10139014571905136,-0.1420094519853592,-0.33986955881118774,0.03996361047029495,0.02648695930838585,-0.22221054136753082,0.2923014760017395,-0.18828178942203522,-0.07879526168107986,0.0884326919913292,-0.0619751401245594,0.1277361363172531,0.08978559821844101,0.02826746553182602,0.22269773483276367,0.11433208733797073,-0.12296038120985031,0.17097333073616028,0.017009809613227844,-0.17870426177978516,0.14974774420261383,0.10899323970079422,0.11720626056194305,-0.16439509391784668,-0.3008303940296173,0.009728258475661278,0.23511745035648346],[-0.10801424831151962,0.013783500529825687,0.005560517311096191,-0.11623207479715347,0.1780555099248886,-0.12103720754384995,0.030852755531668663,0.08818411827087402,-0.11779995262622833,0.06605704873800278,-0.16409486532211304,0.19481930136680603,-0.12129426002502441,-0.25759395956993103,0.09574414789676666,0.11400722712278366,0.11855429410934448,-0.059735920280218124,0.12629245221614838,-0.03056575357913971,0.013866754248738289,0.18536050617694855,-0.01764495298266411,0.011804372072219849,0.07337428629398346,-0.08986607939004898,0.1540670543909073,0.03495067358016968,0.14197924733161926,0.03890795260667801,-0.07058876752853394,0.051910944283008575,-0.25690045952796936,0.13982230424880981,0.14225360751152039,0.0027228540275245905,-0.024452608078718185,-0.11759987473487854,-0.11541332304477692,0.08746565133333206],[0.04188103601336479,0.14791430532932281,0.14153972268104553,0.3458019196987152,0.09416840225458145,0.19376440346240997,-0.0973338931798935,-0.20799630880355835,0.27125269174575806,-0.11895494163036346,0.08223452419042587,0.07334767282009125,0.0467614009976387,-0.3227233290672302,-0.05873575434088707,-0.2005188763141632,-0.17274294793605804,0.06237485259771347,-0.029848910868167877,0.25397464632987976,0.16124197840690613,-0.23553958535194397,0.34653031826019287,0.159774050116539,-0.18679440021514893,0.09093843400478363,0.17342260479927063,0.18859130144119263,0.006963109131902456,-0.35208937525749207,0.1415908932685852,-0.044253136962652206,-0.298017293214798,-0.08306992053985596,-0.00032532832119613886,0.05890592932701111,0.18508118391036987,-0.19065867364406586,0.10699683427810669,0.22961561381816864]],"biases":[0.13337434828281403,0.2031303197145462,0.004438130185008049,0.18471206724643707,0.1983463168144226,0.2553044259548187,0.168861985206604,0.05112062022089958,-0.21994580328464508,0.07032123953104019,-0.3032534420490265,-0.15379777550697327,0.13141709566116333,-0.1734941154718399,-0.05206947401165962,0.10722681879997253,0.19890742003917694,-0.08379216492176056,-0.04780497029423714,0.3162458539009094,0.04925200343132019,-0.008549369871616364,0.1838477998971939,-0.1937107890844345,0.18520605564117432,-0.120882049202919,-0.2385254055261612,-0.15318918228149414,0.0748588815331459,0.05915149301290512,0.13009685277938843,0.18146008253097534,0.20060493052005768,-0.004452714696526527,0.17327389121055603,0.2904849052429199,0.10784094035625458,-0.011897374875843525,-0.05928425490856171,0.1489296704530716]},{"weights":[[-0.09633191674947739,0.1536100059747696,0.1864418387413025,-0.1242644265294075,0.10781262814998627,-0.1310676783323288,0.03432316705584526,-0.03377094492316246,-0.12556582689285278,0.12862728536128998,-0.03722427040338516,0.1261243373155594,0.09742327034473419,-0.18637023866176605,-0.1320553869009018,0.023213643580675125,-0.007687596138566732,-0.1991247981786728,-0.19134080410003662,-0.21025508642196655,0.013333349488675594,0.15050436556339264,-0.19430096447467804,-0.15954986214637756,-0.17427073419094086,-0.042400382459163666,0.04890655726194382,-0.026414508000016212,-0.09359873831272125,0.12668198347091675,-0.14110392332077026,-0.015138826332986355,0.048966944217681885,-0.05206938832998276,-0.03266361355781555,-0.01210662443190813,-0.028974590823054314,-0.14213532209396362,0.09028606861829758,-0.13162115216255188],[-0.3317371904850006,0.22690972685813904,0.3183688819408417,0.2713826298713684,0.0600760392844677,-0.030997326597571373,0.0960969552397728,0.23412078619003296,0.1065220907330513,-0.07586934417486191,-0.028797168284654617,-0.16752779483795166,-0.33286798000335693,-0.07113780826330185,-0.1226344034075737,-0.17799653112888336,0.22449013590812683,0.09426721930503845,0.05137432739138603,0.08979871869087219,0.17050962150096893,0.10752765834331512,0.3152701258659363,-0.1399046629667282,0.03887462988495827,-0.08707839250564575,-0.13504153490066528,0.08143197000026703,-0.005783540662378073,0.0812215805053711,-0.03368701413273811,-0.10255513340234756,0.01576368883252144,0.22836335003376007,0.08135057985782623,-0.17574302852153778,-0.2032061070203781,-0.1535031646490097,-0.15804798901081085,-0.3966563045978546],[-0.14954544603824615,0.025987276807427406,-0.10082005709409714,-0.28918442130088806,0.045690782368183136,0.06929679214954376,0.1667719930410385,0.051762472838163376,0.05903429165482521,-0.12449909746646881,0.22538085281848907,0.15264678001403809,-0.04050734266638756,0.028828714042901993,-0.08525294810533524,-0.221368670463562,0.10278277844190598,-0.13827010989189148,0.16527517139911652,-0.04672694951295853,0.07661043107509613,-0.07869080454111099,-0.10436957329511642,0.15714450180530548,0.13692063093185425,-0.12759073078632355,-0.13648468255996704,0.009767965413630009,0.09250368177890778,0.3023424744606018,-0.0922967717051506,0.21838203072547913,-0.12415327876806259,0.11429599672555923,-0.11157335340976715,-0.07665392756462097,-0.19199880957603455,0.18076050281524658,-0.05265650525689125,0.052056439220905304],[-0.08252216130495071,-0.06271127611398697,0.06855547428131104,0.030722619965672493,0.2442699521780014,-0.025102728977799416,-0.047903481870889664,0.19715218245983124,-0.13867320120334625,0.0035448286216706038,-0.12127874046564102,-0.1440357118844986,-0.1671198308467865,0.18039031326770782,0.012737970799207687,-0.10403447598218918,0.21043936908245087,-0.06538449972867966,-0.0513748899102211,0.0018097327556461096,0.15373894572257996,0.14835625886917114,-0.1151484027504921,-0.19611656665802002,-0.17945581674575806,-0.11736001074314117,-0.08938893675804138,-0.15632350742816925,-0.13524287939071655,-0.08838479220867157,0.15098468959331512,-0.15219950675964355,-0.18489812314510345,0.011987028643488884,0.02317790314555168,-0.00011684402852552012,-0.022479914128780365,0.006222055293619633,-0.004687219392508268,-0.04764782637357712],[-0.14731493592262268,0.09178749471902847,0.15422272682189941,0.15946877002716064,-0.09295182675123215,0.20402882993221283,-0.08396229147911072,0.023231707513332367,-0.08986109495162964,0.15480656921863556,-0.09852033108472824,-0.15669967234134674,-0.21424120664596558,-0.045120805501937866,-0.15756505727767944,0.10164923965930939,0.026698308065533638,-0.0958930179476738,-0.012207353487610817,-0.026942450553178787,-0.13571584224700928,0.0521274209022522,0.16562752425670624,-0.1368882656097412,-0.17560379207134247,0.10141268372535706,0.13129819929599762,-0.15881451964378357,-0.0466085709631443,0.04194813594222069,0.13047505915164948,0.21655812859535217,-0.16256555914878845,0.008946404792368412,-0.12161729484796524,0.07978154718875885,-0.08967386931180954,-0.0006412746151909232,0.06333788484334946,0.026716815307736397],[0.08616756647825241,-0.06005924567580223,-0.1728455126285553,-0.141396164894104,-0.11680859327316284,0.09340022504329681,0.0878356546163559,-0.16819646954536438,-0.07226970791816711,-0.033018141984939575,0.10283002257347107,-0.15356086194515228,-0.029605254530906677,0.019626598805189133,-0.19574692845344543,-0.0473247729241848,-0.030121034011244774,0.11923645436763763,0.011789748445153236,0.0835915133357048,0.13082227110862732,0.16262571513652802,0.05456846207380295,0.10279808193445206,-0.07578834146261215,0.08810688555240631,-0.036206915974617004,-0.05634060129523277,-0.1041979119181633,0.08001219481229782,-0.054537225514650345,-0.17497430741786957,0.1531035155057907,0.027532201260328293,0.05199392884969711,-0.13345618546009064,0.1620160937309265,-0.09760113805532455,0.1162535697221756,-0.10783964395523071],[-0.042953696101903915,-0.19801729917526245,0.009574538096785545,0.058011822402477264,-0.10241639614105225,0.10957153141498566,-0.0375579409301281,-0.2889966368675232,0.029757725074887276,-0.1642208695411682,-0.17594994604587555,-0.02084762416779995,0.23273591697216034,-0.052082110196352005,-0.061299391090869904,0.2945832908153534,0.24173083901405334,-0.07758159935474396,-0.09690959751605988,-0.026020508259534836,0.14614546298980713,0.26380568742752075,-0.5261223316192627,-0.19349698722362518,-0.26398831605911255,-0.017002345994114876,0.1774720996618271,0.19007566571235657,-0.17458923161029816,-0.5716742873191833,0.07726538926362991,-0.08649052679538727,-0.157596156001091,-0.5262541174888611,-0.2003181278705597,0.2857680320739746,-0.034351687878370285,-0.0071206544525921345,0.016190575435757637,0.17379070818424225],[0.07177941501140594,-0.26187270879745483,0.22974476218223572,-0.3118320405483246,-0.3032349646091461,-0.12342611700296402,-0.0262187197804451,-0.19006332755088806,0.1557753086090088,-0.34939685463905334,0.07596427947282791,-0.1731778234243393,-0.17425990104675293,0.12320614606142044,-0.018337763845920563,-0.09052889049053192,-0.20124074816703796,-0.16449721157550812,0.10461031645536423,-0.4387517273426056,0.115360789000988,0.13075493276119232,-0.10921088606119156,0.006335909478366375,0.07558215409517288,0.04078618809580803,0.17071667313575745,0.01486049685627222,-0.01760866679251194,0.28842347860336304,-0.18071947991847992,-0.1144462451338768,-0.23522646725177765,0.4445629119873047,0.09184610843658447,-0.3463577628135681,-0.2331569343805313,0.047406312078237534,0.18357177078723907,-0.07577794790267944],[0.07741007208824158,-0.07158304005861282,0.05472823604941368,-0.00003144396760035306,-0.16106443107128143,-0.1163201853632927,-0.07651529461145401,-0.12208697944879532,-0.0509151928126812,0.1407223492860794,-0.051321983337402344,0.04649758338928223,0.1180499866604805,-0.027341516688466072,-0.08005832135677338,-0.17144183814525604,0.025601642206311226,-0.07375000417232513,0.022905416786670685,0.004392112605273724,0.13058605790138245,-0.10674377530813217,-0.09713984280824661,-0.02418120950460434,-0.11014115810394287,-0.1696271300315857,-0.06363081187009811,0.12283939123153687,-0.10928591340780258,-0.0016276785172522068,-0.0402335599064827,-0.16233843564987183,-0.03405419737100601,0.0016343849711120129,-0.060794614255428314,0.07302957773208618,0.06776484102010727,0.19984522461891174,0.024952972307801247,-0.15060649812221527],[0.1147419884800911,0.1707555502653122,0.027471425011754036,-0.028946027159690857,-0.09520857781171799,0.2133389711380005,0.13901680707931519,0.013094393536448479,-0.021347107365727425,0.21406306326389313,-0.3216545879840851,-0.128965362906456,-0.019970165565609932,0.1144031286239624,-0.17796805500984192,0.047086939215660095,-0.01969827525317669,0.07222232967615128,-0.12221688777208328,0.12185277044773102,-0.22418197989463806,0.023093773052096367,0.19157862663269043,-0.0957232266664505,0.1717691570520401,0.16321061551570892,0.028312085196375847,0.08674905449151993,-0.1490362137556076,-0.20170050859451294,0.1492944359779358,0.1793133169412613,0.020406357944011688,0.05976085737347603,0.007483876775950193,0.14866380393505096,0.14579026401042938,-0.25706496834754944,0.00997473020106554,-0.04002925381064415],[-0.048753589391708374,0.022231249138712883,-0.057225920259952545,-0.1750359684228897,0.08478498458862305,-0.13923750817775726,-0.12222083657979965,0.17856530845165253,-0.16227620840072632,-0.19067244231700897,0.062471628189086914,-0.0887741968035698,-0.17180147767066956,-0.01580909639596939,-0.11514167487621307,0.13407813012599945,-0.1717825084924698,-0.18648889660835266,0.14126957952976227,0.00805671140551567,0.05294707417488098,0.06659397482872009,-0.011292187497019768,0.09447447955608368,0.09194006025791168,0.16027335822582245,-0.1909993588924408,-0.0618881992995739,-0.11814100295305252,0.08556662499904633,-0.11534623056650162,-0.1639755666255951,0.17915107309818268,0.025396529585123062,-0.1104896143078804,-0.004381644539535046,-0.055051740258932114,-0.14201843738555908,0.07758846133947372,-0.015004531480371952],[-0.09942139685153961,0.1759355515241623,0.26834240555763245,-0.1801001876592636,-0.11772571504116058,0.08179322630167007,0.01474613044410944,0.10169776529073715,-0.10400145500898361,0.16758589446544647,-0.008461935445666313,-0.18515266478061676,0.22697164118289948,0.05709142982959747,0.12288768589496613,0.025855373591184616,0.20565515756607056,-0.05118417739868164,0.06414717435836792,-0.08991476893424988,-0.1468900889158249,-0.29951024055480957,0.03552159667015076,0.052748069167137146,-0.056558869779109955,-0.12212248146533966,-0.17999021708965302,0.031554825603961945,-0.19460445642471313,-0.1876717209815979,-0.14317934215068817,0.040979862213134766,0.0816691666841507,-0.0014197881100699306,-0.15826140344142914,-0.08712584525346756,-0.028804872184991837,-0.2862570285797119,-0.19295953214168549,0.04323051869869232],[-0.13613489270210266,-0.1143614649772644,0.05057595297694206,-0.18082231283187866,0.2221398502588272,0.04558253288269043,-0.16739970445632935,0.11095273494720459,-0.0563042126595974,-0.055821493268013,-0.13363169133663177,-0.1831827461719513,-0.08269788324832916,-0.16295751929283142,-0.06404104083776474,-0.17867350578308105,-0.1745365709066391,0.04983954504132271,-0.1348712295293808,0.09811495989561081,0.16224300861358643,-0.06884094327688217,0.1329648792743683,0.130769744515419,-0.07851716130971909,-0.09158111363649368,-0.022100618109107018,-0.0334613136947155,0.11420164257287979,-0.1967925727367401,-0.022609055042266846,-0.1373695731163025,-0.19570858776569366,-0.12043324112892151,-0.19380252063274384,-0.023937001824378967,0.0008788448758423328,-0.03864648938179016,-0.15981608629226685,-0.0211458969861269],[0.14348872005939484,-0.10847879201173782,-0.19035843014717102,0.027423996478319168,-0.02064712531864643,0.17749559879302979,0.0755123421549797,-0.13558107614517212,0.18080127239227295,-0.04805983975529671,-0.019166497513651848,0.07098231464624405,0.1277056187391281,0.13981454074382782,-0.006275301333516836,-0.20227201282978058,-0.17378509044647217,-0.025955265387892723,-0.06724182516336441,-0.10807592421770096,0.05107513815164566,0.05430198833346367,-0.07086177170276642,-0.17385952174663544,-0.059448350220918655,0.16207727789878845,-0.12354861199855804,-0.0743352398276329,-0.06418611854314804,-0.01914895512163639,0.15003655850887299,-0.11101188510656357,0.036187853664159775,0.2424604445695877,-0.04252752289175987,0.07783055305480957,-0.22191986441612244,0.12343502044677734,0.04446297883987427,0.1953534483909607],[-0.0618397518992424,0.02237994782626629,-0.09281454235315323,0.30416977405548096,-0.42007967829704285,-0.06374750286340714,-0.04992881789803505,-0.33289945125579834,-0.13847357034683228,-0.010290015488862991,-0.3145000636577606,0.09432889521121979,-0.2615874707698822,0.05049557983875275,0.07571900635957718,0.45348837971687317,0.22168098390102386,-0.1251019686460495,0.1905069798231125,-0.033097825944423676,-0.19821074604988098,-0.26437291502952576,0.34103867411613464,0.17255675792694092,0.3060353398323059,0.1881081610918045,-0.18824502825737,-0.15190662443637848,-0.20366385579109192,-0.13147005438804626,-0.07891684025526047,0.22370263934135437,0.23103593289852142,0.1364365965127945,0.25670135021209717,0.13550850749015808,0.09530326724052429,-0.2778463661670685,0.0002611826057545841,-0.5363001227378845],[-0.13569287955760956,0.04189014434814453,-0.17957033216953278,0.17692631483078003,0.07947532087564468,0.45063838362693787,0.10612957179546356,-0.30868977308273315,-0.14157232642173767,0.023860640823841095,-0.4103100001811981,-0.040725745260715485,0.15143103897571564,0.0061665796674788,0.17547649145126343,-0.022969210520386696,0.25202280282974243,0.16565054655075073,0.12930439412593842,0.2965029776096344,-0.002788060810416937,-0.34922435879707336,-0.0737852156162262,0.009475700557231903,0.2077740877866745,-0.19509179890155792,-0.1271926760673523,-0.11909240484237671,-0.00782036129385233,-0.02615448273718357,-0.1886202096939087,-0.08889705687761307,0.05190783366560936,-0.17369556427001953,0.1160198450088501,0.48154589533805847,0.48154571652412415,-0.24888375401496887,0.10844174027442932,-0.06548947095870972],[-0.18154393136501312,-0.149796262383461,0.06790575385093689,0.019322847947478294,0.0209136251360178,-0.1933966875076294,-0.11954741925001144,-0.20799513161182404,0.14594943821430206,-0.12256774306297302,0.07255634665489197,0.15404018759727478,0.16349956393241882,-0.05344206094741821,0.16249345242977142,-0.1719008982181549,0.15264892578125,-0.08782098442316055,0.016738146543502808,-0.3056785762310028,-0.09491964429616928,-0.22292383015155792,0.07739267498254776,0.05629126355051994,-0.04623069614171982,-0.01749306172132492,0.09543891996145248,-0.005943163298070431,-0.029854251071810722,-0.0185876302421093,0.1237163096666336,-0.02780083939433098,-0.05622095987200737,0.21641407907009125,0.20971716940402985,-0.38544633984565735,-0.40115121006965637,0.01627817191183567,-0.2507002055644989,-0.262523353099823],[0.053831521421670914,-0.15684904158115387,0.1648491621017456,0.3517734408378601,0.14296725392341614,0.19527730345726013,0.041538771241903305,-0.17485076189041138,0.14313524961471558,0.19247324764728546,-0.33381006121635437,-0.1094859316945076,-0.03520481288433075,-0.07172296196222305,0.07520041614770889,0.20802929997444153,-0.12505635619163513,0.04337041825056076,-0.15888628363609314,0.11027052998542786,-0.16544058918952942,-0.2965109348297119,-0.013706106692552567,-0.09151481091976166,0.06453762948513031,-0.08378730714321136,0.012056475505232811,-0.11373811215162277,0.04525459557771683,-0.10027299076318741,-0.22891831398010254,0.03576050326228142,-0.08061715215444565,0.13921205699443817,0.12604469060897827,0.2086806744337082,0.16063643991947174,-0.20232349634170532,0.18223904073238373,-0.21599477529525757],[0.1387213170528412,-0.05620724335312843,-0.044358596205711365,0.029254062101244926,-0.07000918686389923,0.10630543529987335,0.03871839493513107,-0.18188759684562683,0.11088291555643082,0.06581249088048935,-0.0825856551527977,0.16796277463436127,0.010304619558155537,-0.04565348103642464,-0.19650399684906006,0.03589876741170883,0.18233570456504822,-0.19542406499385834,0.1315642148256302,0.06866437941789627,0.17847205698490143,0.22219814360141754,-0.13283075392246246,0.17005610466003418,-0.29926013946533203,0.05597110837697983,0.12362673133611679,0.06787312030792236,-0.09429115802049637,-0.48629337549209595,-0.2719586193561554,0.12806104123592377,-0.13914531469345093,-0.44332027435302734,-0.1950978934764862,0.17800843715667725,-0.32076242566108704,0.36598700284957886,0.1746305376291275,0.2940746545791626],[-0.047747157514095306,-0.04443236067891121,0.1920640915632248,0.04154207929968834,0.14193664491176605,0.03445431962609291,0.09496588259935379,-0.09117624908685684,-0.029288319870829582,0.12070241570472717,-0.0003592024149838835,0.030883802101016045,0.09847237914800644,0.003439781954512,0.12948115170001984,-0.19102832674980164,-0.11905752122402191,-0.14901329576969147,-0.08854284882545471,-0.15110835433006287,0.14516843855381012,0.027313504368066788,-0.15449923276901245,-0.07897618412971497,-0.08600863814353943,-0.15747813880443573,0.08820738643407822,-0.18480467796325684,0.00008404646359849721,0.07900884747505188,-0.14560456573963165,-0.046659864485263824,-0.1606701761484146,-0.10649855434894562,-0.17998658120632172,-0.16905993223190308,-0.07716075330972672,-0.15993134677410126,-0.1701623648405075,0.02099921554327011]],"biases":[0.054305046796798706,0.17813566327095032,0.09621084481477737,0.08088568598031998,0.0987420603632927,-0.17194724082946777,0.2851863503456116,-0.28923431038856506,-0.140676811337471,0.08543464541435242,-0.17017139494419098,0.34973758459091187,0.023139355704188347,0.08502137660980225,-0.11883056908845901,0.0814095214009285,0.11741729825735092,-0.06457425653934479,0.16776029765605927,-0.13426321744918823]},{"weights":[[0.10545402765274048,-0.6145784854888916,0.1362551748752594,-0.2040414959192276,0.06743404269218445,-0.12566617131233215,0.54148930311203,-0.018040673807263374,0.15251164138317108,0.0435100719332695,-0.09691501408815384,0.38681745529174805,-0.20859652757644653,0.056852225214242935,-0.5145078301429749,0.1301642656326294,-0.30394330620765686,-0.1108403354883194,0.5843815803527832,-0.056390177458524704],[0.06446124613285065,0.10532321035861969,-0.07629267871379852,-0.22654694318771362,0.2542838454246521,0.18275901675224304,-0.7017144560813904,-0.9020441174507141,0.010607314296066761,0.24397602677345276,0.0643477812409401,0.5142920613288879,-0.19198700785636902,-0.10566987842321396,0.6103930473327637,0.24731238186359406,-0.560569167137146,0.11586996912956238,-0.4933741092681885,-0.1331811100244522],[0.15222817659378052,0.5650578737258911,0.39306020736694336,0.056281525641679764,0.14439834654331207,-0.06353266537189484,-0.04799872636795044,0.395047664642334,0.10691354423761368,-0.24196934700012207,-0.022935932502150536,0.04814784228801727,0.02962522767484188,-0.041315771639347076,-0.5534313321113586,-0.6627770662307739,0.10352425277233124,-0.4954390227794647,-0.045843806117773056,-0.03948087990283966],[0.06479644030332565,0.18719938397407532,-0.09255198389291763,-0.09365306794643402,0.04397447034716606,0.011687438935041428,-0.013736006803810596,-0.15107116103172302,-0.11807483434677124,0.10984551906585693,-0.13215512037277222,0.23469193279743195,-0.13323231041431427,0.031812313944101334,-0.1827576607465744,-0.3103451728820801,0.1363309919834137,-0.10136829316616058,-0.1285557746887207,0.16086624562740326],[-0.04730713367462158,-0.07059670984745026,-0.074661023914814,-0.034004051238298416,-0.11448589712381363,0.13440950214862823,0.04978145658969879,0.1220550388097763,-0.03854602575302124,0.002711240202188492,0.13758447766304016,-0.213850736618042,0.13301745057106018,-0.11431906372308731,0.14875222742557526,0.09184985607862473,0.05747804418206215,-0.061172742396593094,-0.05871758982539177,-0.14695823192596436],[-0.05721926689147949,0.24267375469207764,-0.10741680860519409,0.0680236890912056,0.025675270706415176,0.013112738728523254,0.04366860166192055,0.3675033152103424,0.08195023983716965,-0.19798104465007782,0.03550756350159645,-0.10028707981109619,0.18361793458461761,-0.20212054252624512,-0.1183895468711853,-0.29739296436309814,-0.1465301215648651,0.06671227514743805,0.04450163245201111,-0.09074243158102036],[-0.01933579333126545,0.2907159626483917,-0.10587567836046219,0.12804889678955078,-0.11491519957780838,-0.07267129421234131,-0.06679883599281311,0.20748737454414368,0.17946003377437592,-0.2664727568626404,-0.16688880324363708,0.21442700922489166,0.06179286539554596,0.21626976132392883,-0.2381458431482315,-0.2580699324607849,0.13732725381851196,-0.09615825861692429,-0.0692802220582962,0.058651912957429886],[0.2079225778579712,0.06750352680683136,0.2584536671638489,-0.056959740817546844,-0.051809608936309814,-0.03848102688789368,-0.17281050980091095,-0.09012211114168167,-0.19726265966892242,0.028451265767216682,-0.034455910325050354,-0.2401091456413269,-0.12647894024848938,0.04571012035012245,-0.1057739183306694,-0.21958231925964355,-0.09002452343702316,-0.31006327271461487,0.04766630008816719,0.11979565024375916],[-0.0824233815073967,-0.04427274689078331,0.15508921444416046,0.0894831120967865,0.027640201151371002,-0.02125120721757412,-0.07629872113466263,-0.010810458101332188,0.042532093822956085,0.1145615428686142,0.0916166603565216,0.13201572000980377,-0.16707049310207367,0.06830368936061859,-0.16918252408504486,-0.08615251630544662,0.09139696508646011,-0.10566318780183792,0.05161421000957489,-0.08815525472164154]],"biases":[0.3018726408481598,0.3302973508834839,0.15274794399738312,0.0006628818809986115,-0.02801218256354332,0.051401641219854355,0.06787215173244476,0.14544588327407837,-0.05530928820371628]}],"inputLookup":{"heroInButton":0,"handGroup":1,"HS":2,"PPot":3,"EHS":4,"potOddsH":5,"initiative":6,"villainRaise":7,"villainAllIn":8},"inputLookupLength":9,"outputLookup":{"heroFold":0,"heroCall":1,"heroRaise":2,"heroAllIn":3,"betLevelH1":4,"betLevelH2":5,"betLevelH3":6,"betLevelH4":7,"betLevelH5":8},"outputLookupLength":9,"options":{"inputSize":0,"outputSize":0,"binaryThresh":0.5,"hiddenLayers":[20,40,40,20],"activation":"leaky-relu"},"trainOpts":{"activation":"leaky-relu","iterations":500,"errorThresh":0.01,"log":true,"logPeriod":5,"leakyReluAlpha":0.01,"learningRate":0.001,"momentum":0.6,"callbackPeriod":10,"timeout":"Infinity","beta1":0.9,"beta2":0.999,"epsilon":1e-8}}