{"type":"NeuralNetwork","sizes":[10,20,40,40,20,10],"layers":[{"weights":[],"biases":[]},{"weights":[[0.1770734041929245,-0.6813952922821045,0.7166740894317627,1.2857617139816284,0.8609107136726379,-0.7671366930007935,0.7145213484764099,-0.5398754477500916,0.6008718013763428,-0.27054286003112793],[0.7243494987487793,-0.6141430139541626,-0.6010414958000183,-0.6422257423400879,-0.46232882142066956,0.1542350798845291,0.08505956083536148,0.9177559614181519,0.06489945203065872,0.04858716204762459],[0.26543688774108887,0.5561934113502502,-0.931283712387085,0.6777742505073547,-0.2217160016298294,-0.17026188969612122,0.3518536686897278,0.29495158791542053,-0.26750418543815613,-0.11408250778913498],[-0.017383961006999016,0.4688870310783386,-1.0449517965316772,1.1294136047363281,-0.15725091099739075,-0.03996802493929863,-0.33986756205558777,-0.36907774209976196,0.37338873744010925,-0.4894782304763794],[-0.17923931777477264,0.048500917851924896,0.05324140563607216,-1.5881088972091675,-1.1693929433822632,1.3214532136917114,1.0248428583145142,-0.702171802520752,0.517485499382019,0.4452859163284302],[0.6976908445358276,0.4377594292163849,-0.3715503513813019,-0.09048779308795929,-0.32365041971206665,-0.29967188835144043,0.36838585138320923,-0.2161521166563034,0.9855521321296692,0.14509789645671844],[-0.21524277329444885,-0.14872916042804718,-2.3866381645202637,0.7391635179519653,-1.1350775957107544,0.15842270851135254,1.4390414953231812,0.034834858030080795,-0.25827643275260925,-0.17996831238269806],[0.019524501636624336,0.030231496319174767,-0.24503563344478607,0.006520663388073444,-0.1841949075460434,-0.11804480850696564,-0.016199752688407898,0.06239040195941925,0.2035076916217804,0.010143106803297997],[0.24477526545524597,0.01395662035793066,0.09084286540746689,1.3691105842590332,0.5537973642349243,-0.4235696494579315,0.46106526255607605,-0.4429026246070862,0.2705947458744049,-0.051954809576272964],[-0.7901811003684998,-0.8041448593139648,-0.42203521728515625,0.019333332777023315,1.4937317371368408,-0.1327752023935318,0.26079195737838745,-0.6558717489242554,-0.23963306844234467,-0.16819213330745697],[0.08673258870840073,0.5924122333526611,-0.2803172767162323,-1.1234124898910522,1.8840852975845337,-0.5985963940620422,-0.15110760927200317,0.12766237556934357,0.17827916145324707,-0.43023255467414856],[-0.1282409131526947,0.017880508676171303,0.3255452513694763,-1.0773460865020752,0.8141054511070251,0.11478633433580399,-0.2101578563451767,-0.12612685561180115,0.148467019200325,0.09693513810634613],[-0.4212247431278229,-0.03299392759799957,0.08929169178009033,-0.16997931897640228,-0.06123771890997887,0.8263170719146729,-1.2916672229766846,-0.3092183470726013,-0.12883594632148743,0.17013005912303925],[-0.0007274598465301096,-0.6644688844680786,-0.15830561518669128,-0.29737406969070435,-0.514847993850708,0.3592521846294403,-0.2101229727268219,-0.2690180540084839,0.13393808901309967,-0.2446109503507614],[-0.138163760304451,-0.18411870300769806,0.25571057200431824,-0.05618319287896156,0.21317847073078156,0.11969222128391266,-0.3599039614200592,0.19927291572093964,-0.019408605992794037,0.228509321808815],[0.11232639849185944,0.030671561136841774,-0.021465672180056572,1.5715404748916626,-0.7387354373931885,-0.036440666764974594,-0.23315109312534332,-0.14668695628643036,0.04526494815945625,-0.3285039961338043],[-0.5139544010162354,0.6644598245620728,-0.15495240688323975,0.08291233330965042,1.286745309829712,0.4002154767513275,-1.5020270347595215,-0.6572117209434509,0.20653532445430756,-0.3768702745437622],[0.1131049320101738,-0.22819387912750244,4.033233165740967,-0.1155080646276474,-1.277850866317749,-1.4243488311767578,0.09213456511497498,-0.6085147857666016,0.7148911952972412,0.12662699818611145],[0.08384143561124802,0.0355951301753521,-0.14419016242027283,0.0008477939409203827,-0.01947873644530773,-0.022368652746081352,0.06229659542441368,-0.0898694172501564,-0.02552974596619606,-0.14007779955863953],[0.07714713364839554,-0.00714800925925374,-0.2371833771467209,-0.8506433367729187,-0.5370383858680725,0.7223959565162659,1.711514949798584,0.5211383104324341,-0.3082016110420227,-0.06503918021917343]],"biases":[-0.8718342185020447,0.06607557833194733,-0.24639137089252472,-0.13257373869419098,0.4742613136768341,-0.189919576048851,0.6029961705207825,-0.03656429052352905,-0.6845620274543762,0.3842101991176605,-0.7214367985725403,-0.6144170165061951,0.6653618216514587,0.5050127506256104,-0.20935381948947906,0.19651740789413452,-0.12229429185390472,-1.2248612642288208,-0.11585494130849838,-0.23541800677776337]},{"weights":[[-0.21105830371379852,-0.38146713376045227,0.3906096816062927,0.24174350500106812,0.2267506718635559,-0.19434411823749542,0.2642359137535095,-0.07814795523881912,-0.07191085815429688,-0.35331952571868896,0.06152442470192909,0.11532406508922577,0.18575619161128998,0.1010880172252655,0.15539775788784027,-0.08909779042005539,0.08402964472770691,0.0869012400507927,0.11190957576036453,0.3825250566005707],[-0.2527469992637634,0.07532301545143127,-0.1650056689977646,-0.2049788534641266,-0.15179362893104553,0.058373648673295975,-0.08426828682422638,0.1342974454164505,-0.10325231403112411,-0.0046374015510082245,-0.07047106325626373,-0.133212149143219,-0.03516991436481476,-0.07669911533594131,-0.025788351893424988,-0.15061387419700623,0.17180214822292328,-0.12291393429040909,0.04292425140738487,-0.0461970753967762],[0.22048673033714294,-0.33264628052711487,-0.13095253705978394,0.11046408861875534,-0.07093675434589386,-0.18749316036701202,-0.10197918117046356,0.12594358623027802,0.32969409227371216,-0.3701727092266083,-0.05401461571455002,0.17697609961032867,-0.20244689285755157,-0.0879325345158577,0.14738796651363373,-0.04028264060616493,-0.6286234855651855,0.5310291051864624,0.006128580309450626,-0.14120827615261078],[0.47625628113746643,-0.3334268629550934,-0.35710951685905457,-0.0184809360653162,0.46940845251083374,-0.5736581683158875,0.3495330512523651,-0.04019058868288994,0.026669936254620552,0.25433042645454407,0.05298050493001938,-0.04748351871967316,0.05351203680038452,-0.054483186453580856,-0.15510523319244385,-0.0064627788960933685,-0.14254029095172882,0.22243858873844147,0.04467892274260521,-0.17531783878803253],[0.33436471223831177,0.09024045616388321,-0.0644230768084526,-0.2123357355594635,0.25078827142715454,0.561700165271759,-0.5113231539726257,-0.11361619830131531,0.5735474824905396,-0.16069798171520233,-0.07279016077518463,-0.5017626285552979,-0.04496380686759949,0.1985926330089569,-0.17265896499156952,-0.28609105944633484,0.1101432740688324,-0.20720386505126953,0.09860221296548843,-0.18628743290901184],[0.14283634722232819,-0.281852662563324,-0.33074063062667847,-0.09046775102615356,0.12252210825681686,0.599743127822876,0.05912298336625099,-0.22700200974941254,0.2344845086336136,-0.08774832636117935,-0.5176759362220764,-0.06212823837995529,0.16169144213199615,0.23438279330730438,-0.12023092806339264,-0.29573291540145874,-0.2627827227115631,0.04704508185386658,0.007985521107912064,-0.46860718727111816],[0.2175183743238449,-0.2568229138851166,0.30368655920028687,0.3920738399028778,-0.23675619065761566,0.35022494196891785,-0.17354844510555267,-0.04962757229804993,0.037544578313827515,0.24150331318378448,0.09894058853387833,-0.08997893333435059,0.1794290542602539,-0.23433823883533478,-0.019237864762544632,-0.3172549307346344,0.1296977698802948,-0.2593547999858856,0.10136163234710693,-0.36175501346588135],[0.043283846229314804,-0.09088458120822906,-0.09429357200860977,-0.1770050823688507,-0.0033533386886119843,-0.04444033280014992,0.08887866139411926,-0.03554769232869148,-0.10591815412044525,-0.0968339666724205,-0.05704822763800621,-0.11895498633384705,-0.13829635083675385,-0.019314082339406013,0.15508343279361725,0.0073943790048360825,0.08945494145154953,0.13192757964134216,0.05092642083764076,-0.0011682386975735426],[-0.09193352609872818,-0.0732169970870018,-0.24090559780597687,0.18413548171520233,0.39924079179763794,0.38086044788360596,0.8562995791435242,-0.1772134006023407,-0.07765986025333405,-0.5764910578727722,-1.128192663192749,-0.21919167041778564,0.33268341422080994,0.3380078971385956,0.0845407247543335,-0.22463038563728333,-0.03777032345533371,0.29547229409217834,0.017623156309127808,0.05961589515209198],[0.08228964358568192,0.13506481051445007,0.23298542201519012,0.12295027077198029,0.10176976025104523,0.008441491052508354,0.04933839291334152,0.18598578870296478,0.20499368011951447,0.08153002709150314,0.18081215023994446,0.014317925088107586,-0.3730534017086029,-0.002256361534819007,-0.0846707746386528,-0.5009680390357971,-0.026790818199515343,-0.25706422328948975,0.07316655665636063,-0.5639799237251282],[-0.3208391070365906,0.03190251439809799,-0.2879367768764496,0.09597179293632507,-0.14704997837543488,-0.36726799607276917,0.20622949302196503,-0.04085894301533699,-0.05605567619204521,-0.3347167670726776,0.44251465797424316,0.20343734323978424,-0.01775052584707737,-0.024841852486133575,-0.014502325095236301,0.08859626948833466,0.045838773250579834,-0.23802241683006287,-0.011965328827500343,-0.39847880601882935],[-0.23607268929481506,-0.1008535698056221,-0.043760500848293304,0.03440289571881294,0.613166332244873,-0.18525707721710205,-0.557889461517334,0.1361122727394104,-0.042410045862197876,0.6569111943244934,0.3090326189994812,0.05752765014767647,0.6778401136398315,0.3204748332500458,-0.10141237825155258,0.0934547558426857,0.1867075115442276,-0.7733903527259827,-0.022278524935245514,0.42884522676467896],[-0.11971300095319748,0.030565151944756508,-0.020558014512062073,-0.082624152302742,0.06531831622123718,-0.33877843618392944,0.11953483521938324,-0.11178799718618393,0.06266345083713531,0.18462513387203217,0.07206129282712936,-0.2904304563999176,0.1630057394504547,-0.20014703273773193,0.07029697299003601,-0.33239009976387024,0.27677109837532043,0.16553887724876404,0.02616136334836483,-0.16954447329044342],[-0.11268699914216995,-0.33043351769447327,0.4881361126899719,-0.04280532896518707,-0.06119246408343315,0.06229124963283539,0.02105483040213585,-0.096734419465065,0.11900012940168381,-0.2558697462081909,-0.2095637172460556,0.280288428068161,-0.383720725774765,-0.24259865283966064,-0.052049119025468826,0.23293937742710114,-0.13964630663394928,0.48881247639656067,0.027043798938393593,0.08089609444141388],[-0.07736115902662277,0.24613627791404724,-0.008665544912219048,-0.14556057751178741,-0.29808685183525085,-0.03240998089313507,-0.16685082018375397,0.15006010234355927,0.11464117467403412,-0.18803459405899048,-0.18367278575897217,-0.05638405308127403,0.02205529808998108,-0.1280198097229004,-0.13100682199001312,0.6877223253250122,0.3212510049343109,0.010620681568980217,-0.03553770110011101,-0.12730903923511505],[0.19713984429836273,-0.3353372812271118,0.20020931959152222,-0.30162137746810913,-0.048745885491371155,0.2809261977672577,-0.32959964871406555,0.027306294068694115,0.13959431648254395,-0.33365389704704285,-0.13147751986980438,0.0382644459605217,-0.018870029598474503,0.13903601467609406,-0.04456331208348274,0.2209952473640442,-0.304949551820755,-0.3394172787666321,0.11511027067899704,0.303287148475647],[0.06710979342460632,0.03558245673775673,0.4318584203720093,0.24978740513324738,-0.15120342373847961,0.7869402766227722,0.1544727087020874,-0.11034823954105377,-0.2138221263885498,-0.06364952027797699,-0.8255096673965454,-0.02877029962837696,0.0743902251124382,-0.222057044506073,-0.03732824698090553,0.28338512778282166,0.13757705688476562,0.37325263023376465,-0.1566334366798401,-0.9803439974784851],[0.5611031651496887,-0.49615561962127686,-0.007143372669816017,-0.18130426108837128,0.6165386438369751,0.2344880849123001,-0.6406256556510925,-0.1708131730556488,0.4355504512786865,-0.33964547514915466,0.7349642515182495,0.36404988169670105,-0.1359596848487854,-0.40545421838760376,-0.1595214605331421,-0.5310145020484924,0.18038412928581238,0.4126235544681549,0.1829286366701126,0.03890552371740341],[-0.26607927680015564,-0.012302816845476627,0.0007989620789885521,-0.16897337138652802,0.0686292052268982,0.10360202938318253,-0.05633263662457466,-0.06651441007852554,-0.1542178988456726,-0.044009558856487274,-0.041019510477781296,0.01035234984010458,0.20845168828964233,-0.16560699045658112,-0.007181067019701004,-0.24672798812389374,-0.14291857182979584,0.09068900346755981,-0.027277735993266106,0.1347419172525406],[-0.7458863258361816,0.2571059763431549,-0.15456528961658478,-0.03879571706056595,0.24525780975818634,0.13039660453796387,-0.12868817150592804,-0.10285744071006775,-0.9486850500106812,-0.37911128997802734,-0.19997116923332214,0.005797915160655975,0.5611013174057007,0.02203337848186493,-0.08855830132961273,0.4140348732471466,0.5644420385360718,0.3691613972187042,0.11429911851882935,0.19640816748142242],[-0.21823646128177643,0.3281213641166687,-0.29536324739456177,0.3963676393032074,-0.16001532971858978,-0.13644438982009888,-0.13264299929141998,0.06476495414972305,0.07817107439041138,-0.2317473441362381,-0.13485006988048553,-0.11754506081342697,0.07409931719303131,-0.14861008524894714,0.012497205287218094,-0.025686223059892654,-0.13690532743930817,-0.3609221875667572,-0.16225582361221313,-0.23026590049266815],[-0.23990164697170258,0.1780659407377243,-0.38073527812957764,-0.15718957781791687,0.6383422017097473,-0.43600746989250183,-0.075515978038311,0.14816798269748688,0.06617178022861481,-0.11198640614748001,0.09000878781080246,-0.366732656955719,0.29291337728500366,0.19155526161193848,-0.1852942556142807,0.1815953552722931,0.242997944355011,-0.15940392017364502,-0.11505632847547531,0.20365136861801147],[0.19110046327114105,-0.2364961802959442,0.1966133862733841,-0.337025910615921,0.4462886452674866,-0.08872414380311966,-0.4052342176437378,-0.17908285558223724,-0.04383847489953041,0.10957429558038712,-0.11956881731748581,-0.06358581781387329,0.03425130993127823,0.0041219936683773994,-0.10475728660821915,-0.015347758308053017,-0.13615088164806366,-0.12813107669353485,-0.11220268905162811,0.5180122256278992],[-0.0039102062582969666,0.11400145292282104,-0.134784996509552,0.2808707356452942,-0.28191256523132324,-0.10005640983581543,0.2582785189151764,0.09911930561065674,-0.0790206789970398,-0.11173946410417557,0.003064095741137862,0.22897671163082123,-0.07978857308626175,-0.06781505048274994,0.17009462416172028,0.1252921223640442,-0.007173552643507719,0.29052042961120605,-0.1612415462732315,0.23508097231388092],[0.48300066590309143,-0.45666906237602234,0.17043030261993408,-0.19295819103717804,0.27338579297065735,0.004212749656289816,-0.009299064055085182,0.027584493160247803,0.1603141874074936,-0.6431371569633484,0.6631492972373962,0.5609704852104187,-0.2838423550128937,-0.31466835737228394,0.13200362026691437,0.1981153041124344,0.4544063210487366,-0.26686277985572815,-0.11999771744012833,0.04752861708402634],[0.3789603114128113,-0.02592780999839306,-0.053339481353759766,0.22318419814109802,-0.5745450854301453,0.45854347944259644,0.5145020484924316,-0.09371280670166016,-0.10349346697330475,-0.11864472180604935,-0.23583301901817322,0.21694990992546082,-0.27102604508399963,-0.24604550004005432,0.19442416727542877,0.06531812995672226,-0.675614595413208,0.7314783334732056,0.14554919302463531,-0.4968416094779968],[-0.21303269267082214,0.24101582169532776,0.302778035402298,0.265762597322464,0.019745508208870888,0.226387158036232,0.017815640196204185,0.19069348275661469,-0.16192564368247986,-0.3694637417793274,-0.687727153301239,0.1603485643863678,0.1350637823343277,-0.08114217966794968,0.05291453376412392,0.09236390143632889,0.1787278652191162,-0.3581060767173767,0.049071017652750015,0.3787238299846649],[0.43429577350616455,0.16635194420814514,0.37823256850242615,-0.2941897213459015,-0.04463900625705719,-0.26853689551353455,-1.3659578561782837,0.02040700428187847,-0.029107000678777695,0.21383145451545715,0.42512282729148865,0.09093088656663895,-0.0509517565369606,-0.08047685772180557,-0.10218974202871323,0.06347386538982391,0.06398849934339523,-0.45734599232673645,0.06692757457494736,0.0720938965678215],[0.3277994692325592,-0.1475335955619812,-0.060232482850551605,0.2540137767791748,-0.5868736505508423,0.03429831936955452,0.061038173735141754,0.08280575275421143,0.369035929441452,-0.46382251381874084,-0.29438886046409607,-0.11659270524978638,0.011837266385555267,-0.0778859481215477,0.25893086194992065,0.19721321761608124,-0.4943505525588989,-0.07348918914794922,0.1464468389749527,-0.2864244878292084],[-0.062339700758457184,-0.15254731476306915,0.019658053293824196,0.24476344883441925,0.175577312707901,-0.12169210612773895,0.5767067074775696,-0.06478943675756454,0.05126155912876129,-0.5275143384933472,0.04261590167880058,0.32056674361228943,-0.0963803231716156,-0.16411688923835754,0.04981757700443268,0.28963083028793335,-0.6556980609893799,0.7579030990600586,-0.06689208745956421,-0.30949103832244873],[0.2799941301345825,0.38624462485313416,0.27225324511528015,0.04061339795589447,0.110442154109478,-0.1641409546136856,0.042094092816114426,0.0724043920636177,0.010059192776679993,0.45774805545806885,-0.12810103595256805,0.14669989049434662,0.22314421832561493,0.03241896629333496,-0.1282246708869934,0.08359917253255844,0.2028205394744873,-0.6617902517318726,-0.05105767399072647,0.13493488729000092],[-0.10300475358963013,-0.14706267416477203,0.2703161835670471,0.13792161643505096,-0.2603262960910797,0.09000050276517868,-0.007026042323559523,-0.12284079194068909,-0.2791979908943176,-0.374411940574646,0.2299703061580658,-0.07647792249917984,-0.14527054131031036,0.11406991630792618,-0.19306640326976776,0.25690069794654846,-0.08555945754051208,-0.14486412703990936,-0.09533065557479858,0.15176662802696228],[0.2656402587890625,0.005691591650247574,-0.009328700602054596,-0.1528904139995575,-0.20181627571582794,-0.0029323457274585962,-0.03340567275881767,0.10931631922721863,-0.07720527797937393,-0.1358913630247116,-0.05694783478975296,-0.03451467305421829,0.07124443352222443,0.06601393222808838,0.0849149078130722,-0.2277614325284958,0.16450071334838867,-0.323370099067688,-0.18772293627262115,0.10029207915067673],[-0.42823755741119385,0.3938279151916504,0.1324486881494522,0.22626419365406036,-0.026759032160043716,0.14924520254135132,-0.43853041529655457,0.09943834692239761,-0.2751343846321106,0.06304579973220825,-0.038219574838876724,-0.1641412079334259,-0.14881764352321625,0.15924227237701416,-0.20815792679786682,0.26333221793174744,-0.07397229969501495,-0.14689339697360992,-0.009830838069319725,0.1596980094909668],[0.3067690432071686,-0.28273388743400574,-0.14753562211990356,0.2128244787454605,-0.507985532283783,-0.03634258359670639,0.6190311312675476,0.17576688528060913,0.37737125158309937,-0.4881576895713806,0.027409786358475685,0.0349629707634449,-0.3909813165664673,-0.26688992977142334,-0.15489432215690613,-0.3842701315879822,0.037183236330747604,0.047646138817071915,0.14162024855613708,0.15755324065685272],[-0.061851616948843,0.02638918161392212,0.2944185435771942,-0.2413777858018875,-0.3036518692970276,0.3361431658267975,0.3255772888660431,0.07631439715623856,0.31339555978775024,-0.3830541968345642,-0.105437271296978,-0.09655377268791199,-0.0557912178337574,0.028014782816171646,-0.21924147009849548,0.3209775686264038,0.09913627058267593,0.31009313464164734,-0.18313519656658173,-0.41367387771606445],[0.5704289078712463,0.253866583108902,-0.26385223865509033,0.1452074944972992,0.0054578701965510845,0.06088906526565552,0.21623049676418304,0.0997357964515686,0.3197545111179352,-0.3503316640853882,-0.036430440843105316,0.04347371682524681,-0.4906647205352783,0.13860097527503967,-0.012037639506161213,-0.34554311633110046,0.7233210206031799,-0.1936715692281723,0.14013811945915222,0.00576536962762475],[0.11374521255493164,0.022314971312880516,0.01291083637624979,-0.11894325911998749,0.1388564556837082,-0.12376749515533447,-0.05367210879921913,-0.002607345348224044,-0.145967498421669,0.13535113632678986,-0.03169538080692291,-0.059372253715991974,0.06131194904446602,-0.04690776392817497,0.14793765544891357,-0.08872663974761963,0.1043793261051178,-0.0006242259405553341,-0.059725284576416016,-0.15298736095428467],[0.10118276625871658,-0.040945008397102356,0.10931380093097687,0.6221498847007751,-0.5076664090156555,0.3280329406261444,0.1519395262002945,-0.15990233421325684,0.031432442367076874,-0.08357493579387665,0.08513001352548599,0.0369148924946785,-0.16099819540977478,-0.25279659032821655,0.11627165228128433,0.15940746665000916,-0.2191513329744339,0.44903114438056946,0.06064246967434883,-0.11066783219575882],[-0.06869928538799286,0.029966294765472412,0.2888433337211609,-0.509484052658081,0.14367830753326416,0.1711224615573883,0.025316281244158745,-0.1274820864200592,-0.10859125852584839,0.356334388256073,-0.3467126190662384,-0.23139911890029907,0.16877417266368866,0.2827215790748596,0.14865648746490479,-0.13843216001987457,0.1703898161649704,-0.5364909768104553,0.14476278424263,0.44918256998062134]],"biases":[-0.1808604747056961,0.03735232725739479,0.14708244800567627,-0.13656893372535706,0.2403213232755661,0.25434863567352295,0.2571330964565277,-0.07587146013975143,-0.29620489478111267,0.2897235155105591,0.08133749663829803,0.2589370608329773,-0.1674603372812271,0.035832371562719345,0.2747461795806885,0.24053506553173065,0.10266556590795517,-1.0504323244094849,-0.15257130563259125,0.36583229899406433,0.15557874739170074,0.3183876574039459,0.054624781012535095,0.024071048945188522,-0.5507307052612305,0.04959278926253319,-0.25516918301582336,0.08688508719205856,0.47902336716651917,0.13321584463119507,-0.07307881861925125,0.02632472850382328,-0.13577602803707123,0.18979188799858093,0.12225431203842163,-0.1281290054321289,-0.13269107043743134,-0.20372401177883148,-0.04998445510864258,0.09864725917577744]},{"weights":[[0.21157477796077728,0.15330761671066284,-0.023733485490083694,-0.014856098219752312,0.12542270123958588,-0.030599283054471016,-0.002811666578054428,-0.19037875533103943,0.0025985201355069876,-0.05075642466545105,-0.002699627075344324,-0.12713240087032318,0.04490746930241585,0.11939737945795059,-0.13987211883068085,-0.02178090251982212,-0.12393728643655777,-0.10371819883584976,-0.1789698749780655,-0.06034906581044197,0.03279237821698189,-0.19882799685001373,0.05068456754088402,-0.09069499373435974,0.018848776817321777,0.09463225305080414,0.0771816074848175,-0.06239301338791847,-0.2124316394329071,0.06416133046150208,-0.11790512502193451,0.14060619473457336,0.11769672483205795,0.18394532799720764,-0.07733511179685593,0.23350775241851807,-0.2300012856721878,-0.14205008745193481,0.138088658452034,0.0048685818910598755],[0.18939915299415588,-0.22869032621383667,0.09105833619832993,-0.0185374952852726,0.3669135272502899,0.12449945509433746,0.3083753287792206,-0.11000441014766693,-0.20679381489753723,0.2844800353050232,0.26349323987960815,0.16692209243774414,-0.09120680391788483,-0.35557055473327637,-0.3348926901817322,-0.1726188063621521,0.010102365165948868,-0.20801155269145966,0.022602682933211327,0.03916266933083534,0.2572867274284363,0.03868046775460243,-0.0921047180891037,-0.12129804491996765,0.26714685559272766,0.3054373264312744,-0.23516471683979034,-0.04259100183844566,-0.017924215644598007,-0.13732494413852692,-0.02370496094226837,0.13241006433963776,0.00582021102309227,-0.1718670129776001,-0.033676739782094955,-0.38149717450141907,-0.3216843605041504,-0.2070264369249344,0.2436935007572174,-0.30848610401153564],[-0.19295859336853027,0.07638297230005264,-0.05527448654174805,0.02553451806306839,-0.3851334750652313,-0.029925735667347908,-0.21972545981407166,0.002239387249574065,-0.12744276225566864,-0.2745518386363983,-0.07831694930791855,-0.14686709642410278,-0.15338808298110962,0.14219899475574493,0.14635255932807922,-0.24627898633480072,-0.1808842420578003,0.29835984110832214,-0.052031952887773514,-0.12202112376689911,-0.03372315689921379,-0.029196107760071754,-0.369958758354187,-0.010684764944016933,-0.1267702728509903,0.2657800316810608,0.4313841760158539,0.2412908971309662,-0.11914843320846558,0.16883811354637146,0.290345698595047,0.24428790807724,0.16702905297279358,0.2091016173362732,-0.2378673404455185,-0.277415931224823,-0.12531010806560516,0.17324912548065186,-0.1373988687992096,0.19373834133148193],[0.004240075126290321,-0.13495378196239471,0.49016958475112915,-0.4073656499385834,0.13786230981349945,-0.09295781701803207,-0.3744071424007416,0.08043674379587173,0.19119927287101746,-0.3389725685119629,0.26107800006866455,-0.06426646560430527,-0.0433477982878685,0.23495016992092133,-0.11932075768709183,0.1740650087594986,-0.2529987394809723,0.3653736710548401,-0.21014870703220367,-0.15187378227710724,-0.026757221668958664,-0.12443813681602478,-0.152095764875412,-0.0009211684809997678,-0.28112587332725525,0.058736640959978104,-0.19714327156543732,0.34249064326286316,-0.19474543631076813,0.5254451632499695,-0.27641716599464417,0.23093751072883606,-0.05419406294822693,-0.07671332359313965,0.19798064231872559,0.14745600521564484,-0.23461587727069855,0.1383763700723648,0.16357487440109253,0.023681122809648514],[0.10364913940429688,-0.06021033599972725,-0.005394356790930033,-0.09371259063482285,0.1777280569076538,-0.201064795255661,-0.010532965883612633,-0.1806478351354599,-0.01784609630703926,0.047537561506032944,0.09211153537034988,-0.14412829279899597,-0.05052933096885681,-0.09998209029436111,-0.14614951610565186,-0.08034750074148178,0.059490446001291275,0.2498389482498169,0.04177810996770859,0.03894183039665222,0.09675717353820801,-0.05529981851577759,-0.026004545390605927,-0.07635430246591568,0.09138426929712296,-0.12042118608951569,-0.1332077533006668,0.024436399340629578,-0.24865108728408813,-0.17136666178703308,0.07073595374822617,-0.0649591013789177,0.10132495313882828,-0.10832419246435165,0.04373603314161301,-0.13214844465255737,-0.015627672895789146,-0.08367770165205002,0.07004095613956451,0.0649840235710144],[-0.05214780196547508,-0.0689697265625,0.1291346400976181,-0.3050827085971832,0.11239225417375565,0.039272207766771317,-0.410930335521698,-0.1283411681652069,0.3647332191467285,0.115397609770298,0.20212078094482422,-0.1255834549665451,-0.28977295756340027,0.19992615282535553,-0.2686757743358612,-0.20046059787273407,0.07216695696115494,0.13266050815582275,-0.18337948620319366,0.2006826549768448,0.2675037682056427,0.3330157697200775,0.04344864562153816,-0.3272220492362976,0.014797822572290897,-0.25659042596817017,-0.11918297410011292,-0.01299228984862566,0.13350306451320648,0.3077678680419922,-0.07055781781673431,-0.2332499772310257,0.06375893950462341,-0.09855686873197556,-0.2006608098745346,-0.18694965541362762,-0.3268682658672333,0.0553291030228138,-0.35879161953926086,-0.19798864424228668],[0.062387287616729736,0.03517480567097664,-0.01721816696226597,0.011516164056956768,0.2729181945323944,0.13202981650829315,0.32650795578956604,-0.19688108563423157,-0.14195910096168518,0.1737518608570099,0.1451983004808426,-0.14768658578395844,0.09537464380264282,0.2561180591583252,-0.12434202432632446,0.18716678023338318,-0.006884632632136345,0.02293975092470646,0.10756800323724747,-0.19168952107429504,0.09842754900455475,-0.33501437306404114,0.3164339065551758,0.032331984490156174,0.13890360295772552,-0.1409069150686264,-0.40106043219566345,0.0827975645661354,0.17015865445137024,-0.2853758931159973,-0.20091763138771057,0.0407475121319294,-0.018006587401032448,-0.14172041416168213,0.1567235291004181,-0.3049201965332031,0.2501485049724579,0.1378297358751297,0.21886703372001648,-0.26794669032096863],[-0.0518370121717453,-0.13688558340072632,0.045075636357069016,-0.09494353830814362,0.1467527449131012,-0.17046064138412476,-0.005030405707657337,-0.07880367338657379,-0.05524340644478798,0.009665271267294884,-0.11795695871114731,-0.30723798274993896,0.17254354059696198,0.2098139524459839,-0.28977975249290466,0.294942170381546,-0.056120600551366806,0.1726195216178894,0.13333214819431305,0.28446075320243835,-0.19797322154045105,0.0442490428686142,-0.14319851994514465,-0.25464940071105957,-0.10944925993680954,0.026436368003487587,0.052621953189373016,-0.2536528706550598,-0.05300620198249817,0.1790274977684021,0.006948898080736399,-0.0390702560544014,-0.023451494053006172,0.15283674001693726,0.2092752456665039,-0.1328945755958557,0.10712920129299164,0.1742643117904663,0.02386944368481636,-0.23658142983913422],[0.12141289561986923,-0.0955096185207367,-0.24916578829288483,-0.4286176562309265,0.07542581856250763,-0.0403408408164978,-0.039874784648418427,-0.10499552637338638,-0.11285050213336945,-0.3841755986213684,0.1610838919878006,-0.25062355399131775,0.21712535619735718,0.17677338421344757,-0.06285925954580307,0.09598389267921448,-0.031296905130147934,0.2902667224407196,-0.0026773600839078426,-0.4311409890651703,-0.1749696582555771,-0.4269329011440277,-0.14233122766017914,0.16962388157844543,0.3924424350261688,0.09041361510753632,0.29435521364212036,-0.5199787616729736,0.08010823279619217,0.3205482065677643,0.08589395880699158,-0.08851557970046997,-0.08655322343111038,-0.2704194486141205,0.14102238416671753,0.1506085991859436,0.23625627160072327,-0.07200958579778671,0.21560317277908325,-0.03639654442667961],[-0.09224150329828262,-0.055585794150829315,-0.03157828375697136,0.14981472492218018,-0.14291444420814514,-0.021945033222436905,-0.09029846638441086,-0.13022935390472412,-0.21407248079776764,-0.05398595705628395,0.055357906967401505,-0.052171479910612106,-0.07351160794496536,-0.14288504421710968,-0.00741919968277216,-0.18109343945980072,0.2561492621898651,0.1149933710694313,0.12173154205083847,0.0884326845407486,0.17971470952033997,0.08648911118507385,-0.04490289464592934,-0.19172821938991547,0.012656395323574543,-0.14848248660564423,-0.1933918446302414,-0.1987510770559311,-0.18938672542572021,0.21239446103572845,0.05382644385099411,-0.12347379326820374,-0.1790831834077835,-0.06669871509075165,-0.13788242638111115,0.03382950648665428,-0.17351923882961273,-0.18743497133255005,0.07708404213190079,-0.09430013597011566],[-0.2268134206533432,0.04700595885515213,-0.07635921239852905,-0.14024989306926727,0.025329604744911194,0.2095642387866974,0.023712238296866417,-0.13577689230442047,-0.22499039769172668,-0.25423622131347656,0.08121704310178757,0.16190283000469208,-0.0027072157245129347,-0.09207741171121597,-0.12016120553016663,-0.07815106213092804,-0.02690318040549755,0.0034415684640407562,-0.09768059104681015,-0.4079708158969879,-0.0013216863153502345,0.05449938029050827,0.19306842982769012,0.14608721435070038,-0.1782071739435196,-0.07807790488004684,-0.102706179022789,0.017351778224110603,0.11370813101530075,-0.058868151158094406,-0.14441874623298645,-0.1319568008184433,-0.10477868467569351,-0.22314822673797607,0.08952367305755615,0.036025725305080414,-0.13627031445503235,0.17833423614501953,-0.01341909822076559,0.17548735439777374],[0.04939304664731026,-0.012845631688833237,-0.25619378685951233,0.1482578068971634,0.002099494216963649,0.16985194385051727,0.09486113488674164,-0.03411169722676277,0.16121692955493927,0.38435494899749756,0.028851903975009918,0.14364811778068542,0.17900678515434265,-0.16215035319328308,-0.006182693876326084,-0.16281351447105408,-0.026449963450431824,-0.3447052836418152,-0.08151917159557343,-0.23537714779376984,0.30841949582099915,-0.11569925397634506,0.20182791352272034,0.23796233534812927,-0.018740275874733925,-0.18740329146385193,-0.1111951693892479,0.2656223475933075,0.017116056755185127,0.019594509154558182,-0.1593220829963684,-0.11098785698413849,-0.05648406594991684,0.09726182371377945,-0.28267213702201843,0.11374998837709427,-0.3812267482280731,0.04574597254395485,0.046620454639196396,0.014294466003775597],[0.09994475543498993,-0.18887096643447876,-0.39890870451927185,0.028572896495461464,0.30962494015693665,0.40572506189346313,0.14266400039196014,0.05284319072961807,0.2916702628135681,-0.35882848501205444,-0.04564308375120163,0.20705075562000275,0.040070559829473495,-0.2912598252296448,0.3908993899822235,0.2245684117078781,0.3648800849914551,0.20699311792850494,-0.19991391897201538,-0.2664234936237335,0.07290990650653839,0.1798143833875656,0.3149879574775696,-0.2130371779203415,-0.10094759613275528,-0.4199918508529663,0.4669971168041229,-0.2554689645767212,-0.03089059330523014,-0.24211148917675018,0.48092761635780334,0.35531726479530334,-0.05375821888446808,-0.032153334468603134,-0.41654548048973083,-0.028462493792176247,0.2041032612323761,-0.07405386120080948,-0.21122844517230988,0.3431960642337799],[-0.1652297079563141,0.07458236068487167,-0.07503058016300201,-0.22534650564193726,0.36028826236724854,0.07394364476203918,-0.014329091645777225,-0.19359596073627472,-0.07586001604795456,0.022870559245347977,0.12542301416397095,-0.216627836227417,-0.13073204457759857,0.07438148558139801,-0.28929316997528076,-0.028561968356370926,0.3331342339515686,0.11285343021154404,-0.17460450530052185,-0.1045539379119873,-0.05261320620775223,-0.03831322491168976,0.015251846052706242,-0.08398827910423279,-0.036029133945703506,-0.19616921246051788,0.09933313727378845,-0.1984809935092926,-0.043336790055036545,-0.2786855697631836,-0.3063212037086487,-0.09497292339801788,0.07827036827802658,0.02285846136510372,0.0799693688750267,0.20131301879882812,0.11447062343358994,0.13337065279483795,-0.10762146860361099,0.09459581226110458],[-0.09853491932153702,-0.02070009708404541,-0.041144371032714844,-0.22591325640678406,0.5764857530593872,0.27336999773979187,-0.07945992797613144,0.07144922018051147,-0.05179233103990555,0.13610270619392395,-0.05688488110899925,0.04459499195218086,0.0475158616900444,-0.1860768049955368,-0.4195713400840759,0.007357861381024122,0.2342061698436737,0.1856723129749298,0.03326185792684555,0.11903825402259827,-0.21641482412815094,0.1326218545436859,-0.23465761542320251,-0.18754242360591888,0.02432992123067379,-0.2004881352186203,0.16910840570926666,-0.6161800622940063,0.10590571910142899,-0.019513800740242004,0.1380455046892166,-0.02507079392671585,0.22951893508434296,-0.07732511311769485,-0.0008162566227838397,0.23894353210926056,0.29045578837394714,0.08960302919149399,-0.2750237286090851,-0.04983215779066086],[0.05086786299943924,0.1027165949344635,0.09226492047309875,-0.03176048398017883,-0.2659209668636322,-0.11625120788812637,-0.29799577593803406,0.012304140254855156,-0.21418510377407074,0.06669435650110245,0.2434011697769165,-0.23375637829303741,-0.01640363782644272,-0.1649208664894104,0.1562253087759018,0.07379771023988724,-0.06814387440681458,0.003641338786110282,-0.06486483663320541,-0.005852344445884228,0.1523360162973404,0.17390663921833038,0.04020603373646736,0.126984640955925,0.13613584637641907,-0.1347803920507431,-0.24095052480697632,0.15341144800186157,-0.01992538571357727,-0.2056206613779068,0.2973043918609619,0.007508210372179747,-0.04472969472408295,0.18793848156929016,0.044048331677913666,-0.13295647501945496,0.317803293466568,-0.09531830251216888,-0.4393029510974884,0.289029985666275],[-0.2746100425720215,0.07083094120025635,0.25949540734291077,0.05440033599734306,-0.12693236768245697,-0.3927803039550781,-0.013523010537028313,0.19814153015613556,0.06124700605869293,-0.2132490575313568,0.10747427493333817,-0.06853898614645004,0.023975148797035217,-0.05727684870362282,0.2571370303630829,-0.014523375779390335,-0.39123502373695374,-0.12762300670146942,-0.017556658014655113,-0.12978316843509674,0.031132830306887627,-0.20025686919689178,0.22636531293392181,0.08196616172790527,0.01928788051009178,0.3975760042667389,0.28679564595222473,-0.471030056476593,0.5447065234184265,0.02653309516608715,0.23409664630889893,-0.08849401026964188,0.1634996384382248,-0.34582996368408203,0.3154808580875397,0.11922252923250198,0.041447535157203674,-0.058455124497413635,0.09894797950983047,0.24797634780406952],[-0.16081582009792328,0.05727606639266014,0.3012967109680176,0.07971467822790146,0.0038626736495643854,0.2818758487701416,0.08920999616384506,-0.05931814759969711,0.2777267396450043,-0.0013805909547954798,0.2055130898952484,0.040062710642814636,0.1754789501428604,0.022089863196015358,-0.0026347993407398462,-0.09231739491224289,0.1247292309999466,-0.3672887682914734,0.09983719885349274,0.19874809682369232,0.2580655813217163,-0.05579546093940735,0.19843952357769012,0.09848461300134659,-0.2794738709926605,0.3373076617717743,0.23318777978420258,0.19686715304851532,-0.2126777172088623,0.02537224255502224,-0.12272537499666214,-0.07513488084077835,-0.07521140575408936,-0.10139261186122894,-0.07582800090312958,0.025743387639522552,-0.24569720029830933,-0.08872965723276138,-0.1764279156923294,0.26597514748573303],[0.12611918151378632,0.004506694618612528,-0.1272049993276596,-0.09848568588495255,-0.3442862629890442,-0.24785171449184418,-0.37452003359794617,0.1797388345003128,-0.2538210153579712,-0.18127788603305817,-0.03312214836478233,-0.5370149612426758,-0.027724701911211014,0.10206389427185059,0.3980777859687805,-0.18867440521717072,0.12320908904075623,0.21101759374141693,0.002870766678825021,-0.05339619517326355,-0.16792497038841248,0.15852567553520203,-0.0511961467564106,0.1316412389278412,0.3698764145374298,-0.10697555541992188,-0.15407176315784454,-0.13043473660945892,0.3531295359134674,0.3998219966888428,-0.11548987776041031,-0.18862737715244293,-0.20881609618663788,0.16273124516010284,0.13604329526424408,-0.0261840783059597,0.06979098170995712,-0.008251296356320381,-0.023325687274336815,0.08469085395336151],[0.19021514058113098,0.03390271216630936,-0.15232008695602417,0.31472042202949524,0.05928218364715576,0.18811549246311188,-0.06776358187198639,0.03578629717230797,0.33969077467918396,-0.23165525496006012,0.0486886240541935,0.17464697360992432,0.11521176993846893,-0.02743712067604065,-0.17912834882736206,0.03720393404364586,-0.040814366191625595,-0.2714807093143463,-0.21763327717781067,0.11741951107978821,-0.10530133545398712,-0.19295774400234222,-0.15780289471149445,-0.3642815351486206,-0.014114171266555786,0.03870220109820366,0.2068241685628891,-0.29343000054359436,-0.37270164489746094,-0.21916788816452026,0.2568870782852173,-0.053334981203079224,-0.17799168825149536,0.09149767458438873,0.02779412642121315,0.14880818128585815,0.07595977187156677,-0.10827986150979996,-0.276069700717926,0.17528773844242096],[-0.15303033590316772,-0.12753920257091522,0.08342307060956955,-0.13301309943199158,-0.11937115341424942,-0.11712206155061722,-0.07814385741949081,-0.12087921053171158,-0.18646183609962463,-0.10360920429229736,-0.10143396258354187,-0.15929783880710602,0.015985403209924698,0.049278464168310165,0.18568536639213562,-0.02370334602892399,0.04074757918715477,-0.16342896223068237,0.09093025326728821,0.055653251707553864,-0.16414372622966766,-0.09219125658273697,0.0033178189769387245,0.11809992790222168,0.0902809351682663,0.013584890402853489,0.12810389697551727,-0.19202129542827606,-0.09299379587173462,0.018971314653754234,0.06374645233154297,-0.18151667714118958,-0.18981902301311493,-0.16248740255832672,0.03827354311943054,-0.16662335395812988,-0.1967364400625229,0.07289297133684158,-0.10646232217550278,-0.004276348277926445],[0.40098288655281067,0.11644028127193451,-0.024148376658558846,-0.5609838962554932,0.29060500860214233,0.2539253234863281,-0.39206528663635254,0.1605382263660431,0.30712592601776123,-0.15304794907569885,0.017950909212231636,-0.4819152355194092,0.05166059359908104,0.06357470899820328,-0.25052353739738464,0.07826077938079834,0.28491201996803284,0.06819288432598114,0.1432558000087738,0.48057326674461365,0.059940848499536514,0.10938958078622818,0.05641932412981987,-0.11942501366138458,-0.15021726489067078,-0.07016251981258392,-0.4332604706287384,0.047065719962120056,-0.04550856724381447,0.040976885706186295,-0.22727234661579132,0.27350500226020813,-0.04169755429029465,0.014923036098480225,0.11223846673965454,0.10751283913850784,0.16780900955200195,-0.02179776318371296,-0.19057267904281616,-0.4374835193157196],[-0.009252029471099377,0.10893790423870087,0.09130791574716568,-0.04739246144890785,-0.013507530093193054,-0.056661996990442276,-0.13494873046875,-0.11078663170337677,-0.24579758942127228,-0.17828409373760223,0.16234813630580902,0.09091342240571976,-0.1770399659872055,0.01389582920819521,-0.07902058213949203,-0.1562040001153946,0.06702413409948349,0.06740227341651917,-0.15011470019817352,0.10510595142841339,-0.04241878539323807,0.0386657752096653,0.14848776161670685,-0.00996639858931303,0.16067442297935486,0.1530945748090744,0.1184021458029747,-0.180952250957489,-0.05133391171693802,-0.2273590862751007,-0.0301448293030262,-0.023588765412569046,-0.062424562871456146,-0.040223535150289536,-0.00920562632381916,-0.05607984960079193,-0.1976855844259262,-0.1049913689494133,0.09837444871664047,0.14631816744804382],[-0.08329510688781738,0.1648380309343338,0.06935945153236389,0.11051565408706665,0.07789754867553711,0.1083705723285675,-0.0059525505639612675,-0.08484252542257309,-0.07625878602266312,-0.06596150249242783,-0.0756290853023529,-0.013713208958506584,-0.1715073585510254,-0.13314202427864075,0.1445470154285431,-0.08239691704511642,-0.031821273267269135,-0.091328926384449,0.12060073018074036,-0.18418267369270325,0.08676502853631973,0.02561401017010212,-0.17037345468997955,-0.12208352982997894,0.21646687388420105,-0.1827174872159958,0.1702517718076706,-0.20823779702186584,0.030238354578614235,-0.013437445275485516,-0.1469944566488266,0.18030740320682526,0.16105397045612335,-0.13176140189170837,-0.13762272894382477,-0.0813412070274353,0.02866153046488762,-0.1290043443441391,-0.056668441742658615,0.040396757423877716],[0.11360213905572891,0.08336963504552841,-0.04926003888249397,-0.05744645372033119,0.18426984548568726,0.1516420692205429,-0.13913379609584808,0.11371806263923645,-0.1349055916070938,0.0426197424530983,-0.26603707671165466,-0.442852646112442,-0.20644477009773254,0.26710954308509827,0.3911827802658081,-0.14096559584140778,0.2828737497329712,0.2566637694835663,0.17802803218364716,-0.441944420337677,0.04023291543126106,-0.3761512339115143,-0.1141289696097374,0.005231647286564112,0.049025535583496094,0.23045116662979126,-0.07948865741491318,-0.5479945540428162,-0.031011855229735374,0.049855075776576996,0.261536568403244,0.20631535351276398,0.1880491077899933,-0.03673582151532173,-0.29375338554382324,-0.05338418111205101,-0.1358332484960556,-0.06324077397584915,-0.0588148795068264,0.09341893345117569],[0.03485368564724922,-0.14431914687156677,0.17554005980491638,0.24751536548137665,-0.11814305931329727,0.5486968159675598,0.044100113213062286,0.10107821226119995,-0.25629082322120667,-0.0817723348736763,0.23619750142097473,0.09872201085090637,-0.2694372832775116,-0.13663794100284576,-0.18072113394737244,-0.6250302195549011,0.3046780526638031,0.1581990271806717,0.18011680245399475,0.03794371336698532,-0.06464680284261703,0.21428966522216797,-0.10612190514802933,-0.01937619410455227,0.07831115275621414,0.008551149629056454,0.16155500710010529,-0.10121586918830872,0.12609457969665527,0.2082560509443283,-0.21895742416381836,-0.212513267993927,0.0984875038266182,0.3300780653953552,-0.24764437973499298,0.08150297403335571,0.29376256465911865,-0.08290091156959534,-0.047596972435712814,-0.3601909577846527],[0.22381530702114105,-0.16434961557388306,0.05833808332681656,0.32581406831741333,0.3914066553115845,0.21631209552288055,-0.15627190470695496,0.11946945637464523,0.22789275646209717,0.07003626972436905,-0.05961151421070099,0.1944051831960678,-0.11732852458953857,-0.0592377595603466,0.21392680704593658,0.25680217146873474,-0.7077483534812927,-0.5883868336677551,-0.012612622231245041,0.258457213640213,0.3596838116645813,0.25907906889915466,0.1668565422296524,-0.21647945046424866,-0.16377291083335876,-0.4267900288105011,-0.24298472702503204,0.18814541399478912,-0.25889846682548523,-0.13172365725040436,-0.4334273040294647,0.020992383360862732,-0.05896752327680588,-0.17072215676307678,-0.035414911806583405,-0.34229859709739685,-0.3255094289779663,0.05698368325829506,-0.34588250517845154,-0.029046250507235527],[-0.3259601593017578,0.081436887383461,-0.21266378462314606,0.05498579889535904,-0.10549581050872803,-0.17819441854953766,-0.30525749921798706,0.11888031661510468,-0.48063358664512634,0.02180558443069458,-0.024745279923081398,0.016576409339904785,-0.03138205409049988,-0.053490567952394485,0.09478595107793808,0.1935890018939972,-0.057759840041399,-0.16887660324573517,0.27197521924972534,0.2107039988040924,-0.2414301335811615,0.27477553486824036,-0.11007996648550034,-0.134402796626091,0.17303107678890228,-0.19672450423240662,-0.022504717111587524,-0.5046433210372925,-0.028313977643847466,-0.4151780307292938,0.2696245610713959,0.12238980084657669,0.25238099694252014,0.29841652512550354,0.1791130006313324,0.3064003586769104,-0.2886204719543457,0.05774198845028877,-0.23428775370121002,0.3714715540409088],[0.0494813472032547,-0.09431694447994232,0.06391134113073349,-0.0898706391453743,-0.03984309732913971,0.15804274380207062,-0.18823008239269257,-0.04163976386189461,-0.10917586088180542,-0.0994851365685463,-0.006937690079212189,0.12442749738693237,-0.021647926419973373,0.15855772793293,-0.06885630637407303,-0.024000918492674828,0.04063302278518677,-0.07398085296154022,0.08322390913963318,-0.13262470066547394,-0.1419828087091446,0.002599650528281927,0.014612030237913132,0.04080190882086754,0.10214453935623169,-0.07996530085802078,-0.01695813424885273,-0.06313979625701904,-0.14643384516239166,-0.05657581984996796,0.12540990114212036,0.1345313936471939,-0.02195146307349205,0.03599321097135544,0.04333359748125076,0.07638473063707352,-0.17220407724380493,0.021595168858766556,-0.16889552772045135,-0.030367491766810417],[-0.005833073053508997,-0.006417927332222462,-0.10752488672733307,0.09777895361185074,-0.15648484230041504,-0.10551025718450546,0.10551632940769196,-0.013113489374518394,0.27040913701057434,-0.16925984621047974,0.10301618278026581,0.09951726347208023,0.0694197416305542,0.004551207181066275,-0.25761470198631287,-0.3869510591030121,-0.10683944821357727,-0.04754943400621414,-0.03250588849186897,0.1583922803401947,-0.13465431332588196,-0.03716745972633362,0.19679884612560272,0.0479184091091156,-0.20283621549606323,0.06839422881603241,-0.14822499454021454,-0.1642269790172577,-0.40280917286872864,0.20091690123081207,0.0319918654859066,-0.3379021883010864,0.1573074460029602,-0.1684311479330063,-0.025091664865612984,-0.013055766932666302,0.1745213121175766,0.038136254996061325,-0.08229295164346695,-0.020556297153234482],[-0.03782980516552925,0.14952951669692993,-0.006917275954037905,-0.14138305187225342,-0.05974005162715912,-0.3265170454978943,-0.2327060103416443,0.1487129181623459,-0.07806649059057236,0.03810913860797882,0.03978540748357773,-0.29020926356315613,0.070046566426754,-0.19143237173557281,-0.18896353244781494,-0.07389114797115326,-0.14983895421028137,0.17400303483009338,0.043893713504076004,0.06980246305465698,-0.01538814790546894,0.01610971800982952,-0.2410525232553482,0.07178036868572235,0.22978651523590088,0.03384241834282875,0.1558859497308731,0.04342834651470184,0.34150397777557373,0.017644718289375305,0.17069286108016968,-0.12728194892406464,0.1288164108991623,0.12634342908859253,0.34676817059516907,-0.05274447426199913,0.06369204819202423,0.16852395236492157,0.14407677948474884,-0.07690409570932388],[0.048676516860723495,-0.13504835963249207,-0.18904374539852142,-0.13146694004535675,0.25632113218307495,-0.12697650492191315,-0.08120109885931015,0.06151913106441498,-0.09576539695262909,0.06860582530498505,-0.33680495619773865,-0.08618079125881195,0.11437319219112396,-0.20798124372959137,0.243621826171875,-0.0387069471180439,0.07582798600196838,-0.558415949344635,-0.13202452659606934,0.46185171604156494,0.008527018129825592,0.16000109910964966,-0.4395442008972168,0.11956382542848587,-0.7687673568725586,-0.20698781311511993,-0.14587730169296265,0.015335693024098873,-0.23992016911506653,-0.23385758697986603,-0.11773353815078735,-0.12955255806446075,-0.08964594453573227,0.015623539686203003,0.09333045780658722,0.3278312087059021,0.24080826342105865,0.11391671001911163,-0.10513778775930405,-0.2273854911327362],[0.07101809978485107,0.034677162766456604,-0.02415013499557972,-0.3954600691795349,0.38146737217903137,0.1453167051076889,0.2510821223258972,-0.1234208419919014,-0.06926082074642181,0.05877067148685455,-0.006448761094361544,0.11520270258188248,0.18967612087726593,-0.04707149788737297,-0.05087004974484444,0.39901918172836304,-0.2587588429450989,-0.2815457284450531,0.12715236842632294,0.3785463869571686,0.23698651790618896,0.12613871693611145,0.2767336368560791,0.20349103212356567,-0.11843875795602798,0.04769241809844971,0.15149348974227905,-0.24670922756195068,-0.09796690195798874,-0.1636173576116562,0.0799567922949791,-0.1684441715478897,-0.0798785537481308,-0.1387755572795868,0.029431169852614403,0.04665191471576691,0.13737668097019196,-0.03469882532954216,0.12829826772212982,-0.41272684931755066],[-0.009489448741078377,-0.22023451328277588,-0.2770586311817169,-0.3143375813961029,0.3489810824394226,-0.07071105390787125,-0.05778159201145172,-0.0426839254796505,-0.5418842434883118,0.09070877730846405,0.3195711076259613,-0.06358353048563004,-0.08968233317136765,-0.06862903386354446,0.4886319935321808,0.06771284341812134,0.16164466738700867,0.015112455934286118,-0.11502980440855026,-0.04055073484778404,0.09064974635839462,0.11914563179016113,0.3542218804359436,0.06780659407377243,0.2072419971227646,-0.20201878249645233,0.16317877173423767,0.18801620602607727,0.3811279535293579,-0.12609145045280457,-0.07881352305412292,-0.09528706222772598,0.021931273862719536,-0.10052134096622467,-0.38149571418762207,-0.05841928347945213,0.07864421606063843,-0.1389314979314804,-0.06260186433792114,0.014540476724505424],[0.19377219676971436,0.09918273240327835,-0.3068241775035858,-0.17745819687843323,0.2025613933801651,-0.15601126849651337,0.2741304636001587,-0.11064885556697845,0.25850507616996765,0.22894872725009918,-0.3037104904651642,0.19826777279376984,0.23639172315597534,-0.07251512259244919,-0.01943909004330635,0.007179568521678448,-0.6631190180778503,-1.0188146829605103,-0.10234083235263824,0.5322069525718689,0.12357835471630096,-0.31378835439682007,0.055838149040937424,-0.045237407088279724,-0.24528513848781586,-0.05213500186800957,0.1948777586221695,0.3106800615787506,0.2559988796710968,-0.028561534360051155,-0.30839547514915466,0.17671090364456177,0.10781417787075043,-0.16943800449371338,-0.03722479194402695,-0.243047833442688,-0.20191767811775208,0.12545514106750488,-0.0344402901828289,0.07415013015270233],[0.1904844045639038,-0.010585189796984196,0.08386209607124329,0.2793976962566376,-0.14323726296424866,-0.32486405968666077,0.12132027000188828,0.1608889102935791,0.004387351684272289,0.21953201293945312,-0.06217673420906067,-0.08727632462978363,0.027063624933362007,-0.09977445006370544,-0.10249346494674683,0.05061958357691765,-0.02752910554409027,0.11994560807943344,-0.1314544528722763,-0.26773571968078613,-0.19809487462043762,-0.166592076420784,-0.00414269557222724,0.0964546874165535,-0.21993499994277954,0.04012063890695572,-0.1375325620174408,-0.06891472637653351,-0.3261035680770874,-0.08371028304100037,-0.17873460054397583,-0.09378468245267868,0.05416402220726013,-0.08617647737264633,0.0025546392425894737,0.1277775913476944,-0.0627526342868805,-0.11918271332979202,-0.12660415470600128,0.19073787331581116],[0.10303297638893127,0.08039022237062454,-0.19802750647068024,0.07905370742082596,-0.20377740263938904,0.0869508907198906,0.16764134168624878,0.11676261574029922,-0.048590779304504395,-0.025868022814393044,-0.0748446136713028,0.053596265614032745,0.058251600712537766,0.15484042465686798,0.06119372323155403,-0.1436837613582611,-0.12148837000131607,-0.20188918709754944,-0.18588334321975708,0.012738274410367012,-0.17435073852539062,-0.15249328315258026,-0.08872626721858978,-0.06579632312059402,-0.0691000372171402,0.18645961582660675,-0.016957014799118042,-0.06847631931304932,0.18263642489910126,-0.15780510008335114,-0.07462569326162338,0.071198970079422,-0.0920577421784401,0.08155032247304916,-0.18124042451381683,-0.17454253137111664,-0.15572939813137054,0.01722625456750393,0.18035385012626648,-0.018901169300079346],[0.03560996055603027,-0.0890297219157219,0.13863155245780945,0.055730801075696945,-0.20153583586215973,0.03468703106045723,0.04414611682295799,-0.06530092656612396,0.1281127780675888,-0.1514616310596466,-0.07875220477581024,0.15900634229183197,-0.022686226293444633,0.1537262350320816,-0.07413816452026367,0.19992372393608093,0.2221241295337677,0.15545760095119476,-0.15101468563079834,-0.047097887843847275,0.17162717878818512,-0.06688686460256577,-0.1596294343471527,0.04623996466398239,0.14211374521255493,-0.013493428938090801,-0.0013767804484814405,-0.10378513485193253,0.14338329434394836,-0.04486072435975075,-0.09191981703042984,0.09026311337947845,0.1378515064716339,-0.24827007949352264,-0.12904025614261627,-0.02872292697429657,-0.15200194716453552,0.18822692334651947,0.24388112127780914,0.13701631128787994],[-0.36608320474624634,0.014553672634065151,0.4119220972061157,-0.6086125373840332,-0.15783600509166718,-0.11891413480043411,-0.015000442042946815,-0.11327575147151947,-0.40420132875442505,0.157680943608284,-0.03750930353999138,0.0020545555744320154,-0.12152786552906036,0.00866223406046629,0.0675971582531929,-0.25668638944625854,0.3951398730278015,0.14484573900699615,0.09232702106237411,-0.30614981055259705,-0.18172866106033325,0.051742374897003174,0.005042851436883211,0.15092094242572784,0.22476837038993835,0.16104166209697723,0.42759302258491516,0.057335417717695236,0.2128274291753769,0.4426819086074829,0.08821853995323181,-0.008477908559143543,0.16373902559280396,-0.5676274299621582,0.07239387929439545,0.273999959230423,0.2339717596769333,-0.1956903040409088,0.07040160894393921,0.1381574422121048],[-0.03147536516189575,-0.19790977239608765,-0.19692490994930267,0.11086864769458771,-0.12042474001646042,0.19720903038978577,0.14798620343208313,-0.15359903872013092,-0.17426826059818268,-0.09922388195991516,0.13106368482112885,-0.07673043757677078,0.08445464074611664,0.16078470647335052,-0.14480403065681458,-0.013458263128995895,-0.14763176441192627,-0.05902569741010666,-0.1350957751274109,0.00996526051312685,0.04003851115703583,0.04666020721197128,-0.12318640202283859,-0.05604921281337738,-0.02343326434493065,-0.12429524213075638,-0.18380966782569885,-0.08162615448236465,-0.1244920939207077,0.1332845389842987,-0.06980225443840027,-0.1617019772529602,-0.02608928084373474,-0.13417430222034454,-0.08044589310884476,0.12226714193820953,0.02163206785917282,0.11248084157705307,0.1828710436820984,0.15580078959465027]],"biases":[-0.1498258411884308,0.1636722832918167,0.06285246461629868,-0.2795860767364502,-0.2034665048122406,0.17913131415843964,-0.34155651926994324,0.10747820138931274,0.006220466457307339,-0.023038525134325027,0.21655090153217316,0.2954214811325073,-0.1472974717617035,-0.14216990768909454,-0.08767493069171906,0.1851622760295868,-0.11915457248687744,-0.0333319753408432,-0.07012219727039337,-0.0636868104338646,-0.17088918387889862,0.14187516272068024,-0.19458365440368652,0.0029031604062765837,0.25714051723480225,0.07760339975357056,0.316355437040329,-0.043055325746536255,-0.17047347128391266,0.20569130778312683,-0.24750563502311707,0.5147815346717834,-0.08436783403158188,0.1458113044500351,0.19531236588954926,-0.0883607268333435,-0.14799290895462036,-0.25997480750083923,0.04852593317627907,-0.19832080602645874]},{"weights":[[0.031471021473407745,0.11273955553770065,-0.014961482025682926,-0.19777150452136993,0.11687447875738144,-0.0003057252906728536,0.01607772521674633,0.0436755046248436,-0.03570817410945892,0.15328258275985718,0.025280721485614777,0.08029193431138992,0.05235006660223007,-0.011864987201988697,-0.6703946590423584,0.09760230034589767,0.04742484912276268,-0.12042196840047836,0.17456337809562683,0.0008794405730441213,-0.01971718668937683,0.049743037670850754,0.12866941094398499,-0.09707394987344742,-0.004831565544009209,0.09560000151395798,0.06144450977444649,-0.11462411284446716,0.15712161362171173,0.006937321275472641,0.11428892612457275,0.002882980275899172,0.02237056940793991,-0.10657601803541183,0.05005219951272011,0.14941543340682983,-0.01096557080745697,-0.014540920965373516,-0.013366892002522945,0.08633390069007874],[-0.00046687680878676474,-0.09569571167230606,0.1830338090658188,0.11890215426683426,-0.04082195460796356,0.012424209155142307,0.16032838821411133,-0.17442260682582855,0.08552331477403641,-0.11645925045013428,0.057998962700366974,-0.047872044146060944,-0.02991705946624279,0.13393725454807281,-0.15458211302757263,0.19790393114089966,-0.07939410209655762,0.19652247428894043,0.138937309384346,0.029636621475219727,0.10730402171611786,0.024995137006044388,-0.17319373786449432,-0.1996837854385376,-0.12406283617019653,-0.11980265378952026,-0.20321832597255707,0.09401197731494904,0.09151686728000641,-0.19023239612579346,-0.1473020613193512,0.09853887557983398,-0.025882206857204437,0.014428749680519104,-0.0011170054785907269,0.026422586292028427,-0.11525418609380722,-0.013182708993554115,-0.1890028864145279,-0.02311428263783455],[0.25476282835006714,-0.0125214122235775,-0.16628262400627136,-0.08703003823757172,-0.07462072372436523,-0.1015365868806839,-0.17320816218852997,-0.24722152948379517,-0.436911404132843,0.13678322732448578,0.18575133383274078,0.20358961820602417,0.06293655931949615,-0.11950620263814926,-0.2806698679924011,0.37104398012161255,0.1853889375925064,0.4648541808128357,-0.2832286059856415,0.11117885261774063,0.1383780539035797,-0.30100226402282715,-0.18412314355373383,-0.0836615264415741,0.08429957926273346,-0.3784216344356537,0.008177283219993114,-0.02617483213543892,0.10402467846870422,0.07452017068862915,-0.11630035936832428,-0.10979556292295456,0.17080311477184296,-0.21335752308368683,0.07229991257190704,-0.059065528213977814,-0.13826540112495422,0.12005605548620224,0.267108678817749,-0.03427693247795105],[0.03176521509885788,0.2327812761068344,-0.3968828618526459,-0.06712302565574646,-0.036459825932979584,0.1709873080253601,0.17972968518733978,0.13454584777355194,0.32462602853775024,0.17089271545410156,-0.04692309349775314,-0.14659292995929718,-0.16207610070705414,-0.43966540694236755,0.004633969161659479,0.3946649134159088,-0.3607144057750702,-0.09137600660324097,-0.17514480650424957,-0.04742847755551338,0.03921608626842499,0.3328690230846405,-0.06185266748070717,0.24071504175662994,0.05092253163456917,-0.10775197297334671,-0.7695832848548889,0.49901312589645386,0.18198195099830627,0.27316129207611084,0.0014881497481837869,-0.0073471167124807835,0.10811934620141983,0.14748771488666534,-0.23197656869888306,-0.25387439131736755,0.034743405878543854,0.11603076010942459,0.03933162987232208,0.1572815179824829],[0.054644033312797546,-0.04662788286805153,-0.011340995319187641,-0.30126601457595825,0.03181527182459831,-0.12245873361825943,-0.017069287598133087,-0.026373952627182007,-0.7557003498077393,0.172163724899292,-0.06575912237167358,0.06885026395320892,-0.09202160686254501,-0.123267762362957,-0.6214045882225037,0.047463558614254,-0.27223408222198486,-0.14866560697555542,0.0804755836725235,0.3329876661300659,-0.17959368228912354,-0.3043992221355438,-0.2041969895362854,-0.10626161843538284,-0.23241513967514038,0.43185511231422424,0.06846466660499573,0.0465305931866169,0.026932954788208008,-0.21740086376667023,0.11707108467817307,-0.02167440764605999,0.058260586112737656,-0.1026199460029602,-0.02100551687180996,-0.39848870038986206,0.11641184985637665,0.11832217872142792,0.21872933208942413,-0.06953216344118118],[-0.03908093273639679,0.33991578221321106,-0.10705076158046722,-0.307740718126297,-0.2973749339580536,0.12370706349611282,-0.1562822014093399,0.4482482075691223,-0.2531079053878784,0.22110220789909363,0.023794889450073242,-0.21664758026599884,0.0993828997015953,-0.38465696573257446,0.13631407916545868,-0.2793767750263214,-0.35854509472846985,-0.5930055975914001,-0.6609137654304504,0.2718636691570282,-0.11192604899406433,0.5452603101730347,-0.008844750002026558,0.05898032337427139,0.22679947316646576,-0.3041079044342041,-0.3655475378036499,0.042799826711416245,-0.116208516061306,-0.31837034225463867,0.14159703254699707,0.09411516785621643,-0.012234882451593876,-0.049084972590208054,-0.11814848333597183,0.12552833557128906,0.1217607855796814,0.008364983834326267,0.2558038830757141,0.10744142532348633],[0.15184548497200012,0.2270859032869339,-0.1124262660741806,-0.08979184925556183,-0.06067315861582756,0.03341701254248619,-0.06448383629322052,0.061329420655965805,0.0857398509979248,-0.10574179142713547,-0.05637278035283089,0.0183291994035244,-0.07571027427911758,-0.09010063856840134,0.4466992914676666,-0.18780529499053955,0.04485283046960831,-0.0918441116809845,-0.29504844546318054,-0.07509008795022964,0.07899288088083267,0.2630726993083954,0.17954839766025543,0.025617044419050217,-0.025994397699832916,0.1074008047580719,0.024713031947612762,0.1357412338256836,-0.12846726179122925,-0.20362083613872528,-0.030233239755034447,0.12179838865995407,-0.1158214583992958,0.0034687325824052095,0.04876886308193207,-0.07582410424947739,0.10189926624298096,0.018579084426164627,-0.08779080957174301,0.19062209129333496],[0.14582037925720215,0.11456909030675888,-0.2198375165462494,0.06995029002428055,0.16803544759750366,0.065840944647789,-0.2119303196668625,-0.05500872805714607,-0.2374076247215271,0.16279059648513794,0.06942098587751389,-0.2543911635875702,0.24103721976280212,0.21307525038719177,-0.1757965236902237,0.30913442373275757,-0.16742004454135895,0.09389075636863708,-0.30908098816871643,-0.21835246682167053,-0.056861717253923416,-0.06266845762729645,0.029292531311511993,0.12715773284435272,0.07005664706230164,-0.27253085374832153,-0.2404792457818985,-0.04600101709365845,0.11704102903604507,0.14724795520305634,-0.19476141035556793,-0.11486595124006271,-0.0446539968252182,-0.13172218203544617,0.12174541503190994,0.08009951561689377,0.0024269679561257362,-0.18891878426074982,0.2226380556821823,-0.16993410885334015],[0.1581660658121109,-0.17210346460342407,-0.371795117855072,0.12374697625637054,0.036014288663864136,-0.267434298992157,0.01641114056110382,0.14346909523010254,-0.1194852963089943,-0.10540574043989182,0.13087931275367737,-0.011737434193491936,-1.000455379486084,-0.19134901463985443,-0.12403728067874908,0.3871972858905792,0.09263169765472412,-0.06605125218629837,-0.1054566353559494,0.04091281816363335,-0.14337949454784393,0.04678171128034592,0.09213277697563171,0.19423721730709076,0.2331075817346573,-0.030764810740947723,-0.18636836111545563,0.2348111867904663,0.08029012382030487,-0.2796008586883545,-0.2582276165485382,0.28692391514778137,-0.5884543657302856,0.21500088274478912,-0.28409314155578613,-0.11317944526672363,0.039393819868564606,0.010675972327589989,-0.10563822090625763,-0.010524782352149487],[0.10479506850242615,0.13960908353328705,0.18195199966430664,0.17554046213626862,0.13113515079021454,0.15730805695056915,0.05858563631772995,-0.008992762304842472,0.015116596594452858,-0.1903786063194275,-0.06349574774503708,-0.0812416523694992,-0.1383018046617508,-0.17692773044109344,0.12076402455568314,0.11556325107812881,-0.16430748999118805,0.12038998305797577,-0.11211752146482468,-0.09508350491523743,0.02092771790921688,-0.16839738190174103,-0.05528095364570618,0.19276346266269684,0.040509335696697235,-0.006345500238239765,0.009639556519687176,0.013556858524680138,-0.06162290275096893,0.05443374067544937,-0.008815732784569263,-0.14812247455120087,-0.07604657113552094,-0.16569580137729645,0.021403515711426735,0.005790087394416332,0.00463310768827796,-0.16263505816459656,-0.12169063091278076,-0.05894595757126808],[0.10939455777406693,0.05987956374883652,-0.2113020122051239,0.25173860788345337,0.1905878633260727,-0.2059309035539627,-0.2114311158657074,0.3031957149505615,-0.08968494087457657,-0.1514650583267212,0.09082908928394318,0.1731915920972824,-0.1853952705860138,-0.041757382452487946,-0.14240464568138123,-0.4692252278327942,-0.09659367799758911,-0.290151447057724,0.014298457652330399,-0.14853771030902863,0.15668992698192596,0.1169324517250061,0.19182954728603363,0.17714303731918335,0.12441510707139969,-0.43132656812667847,0.40095293521881104,-0.1725226789712906,0.16029469668865204,-0.09238242357969284,-0.009615382179617882,-0.10204701125621796,0.16603577136993408,-0.4867919683456421,0.1615447998046875,-0.16347172856330872,0.0005229019443504512,0.14842981100082397,0.04229740425944328,0.19745305180549622],[-0.12378059327602386,-0.04371721297502518,-0.06322696059942245,0.2598519027233124,0.0792023167014122,-0.4195363223552704,-0.18139593303203583,-0.00962047092616558,0.0037792688235640526,-0.19981259107589722,0.17179065942764282,-0.2366042584180832,0.35943603515625,-0.2176484316587448,0.15512914955615997,0.04510939121246338,0.34771135449409485,-0.13731883466243744,-0.019126582890748978,0.23937128484249115,0.14783228933811188,0.4985203444957733,0.09399662166833878,0.07726043462753296,0.02323281764984131,-0.21300172805786133,0.0991847813129425,0.11385458707809448,0.06527350842952728,-0.04978795722126961,0.17759713530540466,0.27886369824409485,0.051647428423166275,0.21854804456233978,0.06229681894183159,-0.0802994817495346,0.04803577437996864,0.30634450912475586,-0.06173587217926979,0.14197081327438354],[-0.14811494946479797,0.10775702446699142,-0.1904589980840683,0.23646670579910278,0.272689551115036,-0.15760400891304016,-0.4002760946750641,-0.07672306150197983,0.010064922273159027,0.07875822484493256,0.06799976527690887,0.5748098492622375,-0.6623899936676025,-0.19436609745025635,-0.2859528064727783,0.033315155655145645,0.10240039229393005,0.11826533079147339,-0.04712551087141037,0.4933023154735565,0.15495111048221588,-0.3584830164909363,-0.1378963440656662,0.13353081047534943,0.28856220841407776,0.010441132821142673,-0.39369097352027893,0.24571439623832703,-0.08628992736339569,-0.08034365624189377,-0.389871209859848,-1.085945963859558,-0.4437366724014282,0.5550523400306702,-1.1307365894317627,0.02581806853413582,0.12518008053302765,0.33271363377571106,-0.04527793824672699,0.011453093960881233],[-0.108262799680233,0.5751583576202393,0.06727316975593567,-0.09255985170602798,0.15117023885250092,0.4642951190471649,-0.5591579675674438,0.07887999713420868,0.09306894242763519,-0.023212037980556488,-0.4494776725769043,-0.005662062671035528,0.4728848934173584,-0.1027274802327156,-0.37316346168518066,0.19908449053764343,-0.6798279881477356,-0.02269674651324749,-0.18779601156711578,-0.135995551943779,0.07325003296136856,-0.3281991481781006,0.19491246342658997,0.13410471379756927,-0.7120358347892761,-0.08414788544178009,0.1951279491186142,-0.27407824993133545,0.07447151094675064,0.12443625926971436,0.2421565055847168,0.244984969496727,0.12458070367574692,0.26747560501098633,-0.0662800669670105,0.2299189418554306,-0.009146232157945633,0.016576843336224556,-1.0113540887832642,0.09472303092479706],[0.1690671294927597,-0.3337238132953644,0.147693932056427,0.2145346999168396,-0.040723297744989395,-0.09497682750225067,-0.2992922365665436,-0.03869935870170593,-0.10469091683626175,-0.02281923033297062,0.09115713089704514,0.04302700236439705,0.04029087722301483,0.16681165993213654,-0.25711706280708313,0.0722310021519661,-0.42517557740211487,-0.2796197235584259,0.23407991230487823,0.1884012669324875,-0.17312443256378174,0.032381750643253326,-0.005044521298259497,-0.07506196200847626,0.09557036310434341,0.029404854401946068,-0.11508927494287491,-0.3372620940208435,0.08972804993391037,-0.12697859108448029,-0.09367840737104416,-0.23351308703422546,-0.16814355552196503,0.41308754682540894,-0.03929457440972328,-0.11330313235521317,-0.1415475308895111,-0.07566780596971512,-0.0623396635055542,0.10072649270296097],[-0.05910620465874672,-0.24002563953399658,-0.32356300950050354,0.2375546246767044,0.11440058052539825,-0.5130026936531067,-0.37350863218307495,0.12497496604919434,-0.06501356512308121,-0.2760787606239319,-0.3959164321422577,0.18146535754203796,0.20270414650440216,0.05180919170379639,0.19936059415340424,-0.01147692184895277,-0.19034014642238617,-0.04789269343018532,-0.22332391142845154,0.4189150333404541,-0.061633046716451645,0.4411543309688568,0.17015045881271362,0.18881411850452423,-0.0026119600515812635,0.05375420302152634,0.3917727768421173,-0.04935704171657562,-0.005817272234708071,-0.1658962517976761,-0.11931503564119339,0.21741896867752075,0.00029132701456546783,-0.3123340308666229,-0.03559599444270134,0.1012895479798317,-0.10866743326187134,-0.026715973392128944,-0.47060999274253845,0.025812087580561638],[-0.003387348959222436,-0.15317080914974213,-0.05840599164366722,0.09012560546398163,-0.07881318032741547,-0.10815355181694031,-0.19828982651233673,-0.1474260687828064,-0.14872825145721436,0.1926598995923996,0.04084296151995659,-0.06983619183301926,-0.10134093463420868,-0.16540436446666718,0.08485449850559235,0.16431301832199097,-0.07095425575971603,-0.18306393921375275,-0.1084442064166069,-0.19835279881954193,-0.1814829260110855,-0.13060708343982697,-0.07611653953790665,-0.1582341343164444,-0.11247802525758743,-0.15035104751586914,0.13789671659469604,0.1294693499803543,0.1351856142282486,-0.015223918482661247,0.09756913781166077,-0.008550199680030346,-0.11980360001325607,0.15293921530246735,-0.1234225332736969,-0.028094355016946793,0.1641128808259964,0.1652051955461502,0.018596980720758438,0.02414424903690815],[-0.2774096131324768,-0.35520416498184204,-0.10850150883197784,0.30650514364242554,0.055448248982429504,0.22212794423103333,-0.15598872303962708,-0.051655225455760956,-0.05795072764158249,-0.16311682760715485,0.144297257065773,-0.21224170923233032,0.10112221539020538,-0.10190503299236298,0.17374059557914734,0.040780384093523026,0.18718168139457703,0.06637094169855118,-0.030310669913887978,0.12379284203052521,0.17670130729675293,0.034918978810310364,-0.16900289058685303,-0.13398750126361847,-0.062401726841926575,-0.5883657932281494,0.06735260039567947,0.4146250784397125,-0.11101032793521881,-0.3076246678829193,0.003306848229840398,-0.23855628073215485,0.04387643188238144,0.046494755893945694,-0.04706018045544624,-0.03751947730779648,0.035628173500299454,-0.09673602879047394,0.5487737655639648,-0.1144387423992157],[-0.18318980932235718,-0.05837089195847511,-0.11767006665468216,0.1946578025817871,0.034214843064546585,-0.06088102608919144,0.1880013644695282,0.12547269463539124,-0.07724829018115997,-0.16645973920822144,-0.04542148858308792,0.06730366498231888,0.014519092626869678,-0.0783490464091301,-0.4566046893596649,-0.11618698388338089,-0.07695315033197403,0.23480549454689026,-0.2146930992603302,0.1901755928993225,-0.008765333332121372,-0.032910313457250595,-0.1163221076130867,0.04804033413529396,-0.03922438621520996,-0.34578636288642883,-0.06960655003786087,0.183399960398674,-0.11902739107608795,-0.042989227920770645,-0.04844273626804352,-0.028223766013979912,0.09175825864076614,0.11104119569063187,-0.23021076619625092,-0.148281529545784,-0.01843610219657421,0.09797011315822601,0.15262316167354584,-0.035077378153800964],[-0.11034300923347473,-0.14972740411758423,0.1286417841911316,0.07576777786016464,-0.1053253784775734,0.0019307355396449566,-0.13250289857387543,-0.0622376911342144,0.20641323924064636,0.004433225374668837,-0.03896160051226616,0.011788076721131802,-0.08183717727661133,-0.025476530194282532,-0.251961350440979,-0.01971041038632393,0.08516769856214523,0.018273962661623955,-0.040557488799095154,-0.03437047824263573,0.018558787181973457,-0.0474298931658268,-0.11767067760229111,-0.20070378482341766,0.07838433980941772,0.12151328474283218,0.09581483900547028,0.021635401993989944,0.17640353739261627,0.023180600255727768,-0.02243833802640438,0.11643451452255249,-0.019859571009874344,0.06053455173969269,0.10253417491912842,-0.032792314887046814,-0.17705808579921722,-0.039580363780260086,-0.15435828268527985,0.08375284820795059]],"biases":[0.2847369611263275,-0.15482164919376373,-0.031879913061857224,0.2728656232357025,0.3711899220943451,0.2255803942680359,-0.21811163425445557,0.2118341326713562,0.4332919120788574,-0.16991961002349854,-0.06532876938581467,-0.41974955797195435,0.2109014391899109,-0.051137201488018036,-0.07540025562047958,-0.2083425372838974,-0.17527608573436737,-0.24371127784252167,0.25819820165634155,0.15520472824573517]},{"weights":[[-0.3859409987926483,0.13482144474983215,-0.1814839243888855,-0.621183454990387,-0.5082694292068481,0.19601809978485107,-0.02516232430934906,-0.0634760707616806,-0.06285302340984344,-0.054539795964956284,0.07872418314218521,0.019083958119153976,-0.0984920784831047,0.22509075701236725,0.12131506949663162,0.28331002593040466,0.1322031468153,-0.03674919903278351,-0.36412978172302246,-0.48335450887680054],[0.7549009919166565,-0.0731910988688469,0.13555358350276947,-0.26579704880714417,0.2843148708343506,0.27692368626594543,-0.34162023663520813,0.11454824358224869,-0.2830992043018341,-0.06371171027421951,-0.39650997519493103,-0.3083899915218353,-0.5196117162704468,0.31974923610687256,0.481377512216568,-0.23245865106582642,-0.09804055094718933,-0.19323989748954773,0.41403403878211975,0.4932258725166321],[-0.6106390953063965,0.10260059684515,-0.10309235006570816,0.18696248531341553,-0.30418112874031067,0.37148013710975647,-0.305015504360199,-0.4209077060222626,-0.5589668154716492,0.0647493526339531,0.13608095049858093,-0.10472652316093445,-0.5565256476402283,-0.027075178921222687,0.12662778794765472,-0.3550480902194977,0.008300850167870522,-0.2223355770111084,-0.7993369102478027,-0.4582333564758301],[0.25954005122184753,-0.0583566352725029,-0.3108687698841095,0.26476097106933594,-0.20668180286884308,-0.39977097511291504,0.02511916495859623,0.23536604642868042,0.3113027811050415,-0.15554264187812805,0.46822476387023926,0.1645388901233673,0.5686652660369873,-0.4082394242286682,-0.5013376474380493,0.059899721294641495,0.07242080569267273,0.1753343790769577,0.2785224914550781,0.22089913487434387],[-0.10831788182258606,-0.16269993782043457,-0.17357756197452545,0.1389356553554535,0.10194574296474457,-0.15917620062828064,-0.007807503454387188,-0.3005625009536743,-0.18802550435066223,0.1923220306634903,0.09959255158901215,0.06196914240717888,0.032630547881126404,-0.02550463378429413,-0.07091014832258224,-0.0416988879442215,0.18617214262485504,-0.09102847427129745,0.06612055003643036,0.05826408788561821],[0.03208853676915169,0.12125647813081741,-0.18056565523147583,-0.10181944072246552,0.062333934009075165,-0.1086580902338028,-0.11274337023496628,-0.19302502274513245,0.032994139939546585,-0.05988940969109535,0.007748550735414028,0.13169801235198975,-0.09812207520008087,-0.10329046100378036,0.14623823761940002,0.03495726361870766,0.011143467389047146,-0.085826076567173,-0.11704341322183609,0.06751575320959091],[0.2283785045146942,0.10863587260246277,-0.25133463740348816,0.15124721825122833,0.2856670022010803,-0.5954223871231079,-0.053863275796175,-0.04509507864713669,0.23433800041675568,0.01762956567108631,0.4137814939022064,0.25995078682899475,0.4372950792312622,-0.3872024416923523,-0.08266903460025787,0.1445397585630417,0.023854250088334084,-0.1830105185508728,0.21902455389499664,0.10798553377389908],[0.15648382902145386,-0.17973390221595764,-0.12585356831550598,0.1309429556131363,-0.510943591594696,0.046481963247060776,-0.3213328719139099,0.39071598649024963,0.1130777969956398,-0.11317717283964157,0.13788485527038574,-0.07422301918268204,0.12409928441047668,-0.08727822452783585,-0.38169535994529724,-0.05261292681097984,-0.03349137306213379,0.2991058826446533,0.14805051684379578,0.17044690251350403],[-0.17056940495967865,-0.1245650053024292,-0.05868009850382805,0.0336616225540638,0.011054856702685356,-0.03812803328037262,-0.030699482187628746,-0.022505391389131546,0.07982858270406723,-0.08000940084457397,0.045929327607154846,0.02314487285912037,-0.04884358495473862,-0.1607019007205963,0.033337924629449844,0.011039943434298038,0.11193869262933731,0.08393561094999313,-0.16683760285377502,-0.0285809226334095],[-0.3230530321598053,-0.04093525931239128,0.12088913470506668,0.029941115528345108,0.06090178340673447,-0.008973195217549801,-0.013067356310784817,-0.17697127163410187,0.08600796014070511,0.06874143332242966,0.16942362487316132,0.06533967703580856,0.0874200090765953,-0.00705496734008193,0.12010256201028824,-0.07565941661596298,-0.16326476633548737,-0.021405264735221863,0.0016976561164483428,0.07367757707834244]],"biases":[0.2999833822250366,0.1436631977558136,0.5877092480659485,0.14351020753383636,-0.014436903409659863,-0.047286223620176315,0.00982625037431717,0.053590189665555954,0.05698278173804283,-0.023340340703725815]}],"inputLookup":{"heroInButton":0,"handGroup":1,"HS":2,"PPot":3,"EHS":4,"potOddsH":5,"initiative":6,"villainCheck":7,"villainRaise":8,"villainAllIn":9},"inputLookupLength":10,"outputLookup":{"heroFold":0,"heroCheck":1,"heroCall":2,"heroRaise":3,"heroAllIn":4,"betLevelH1":5,"betLevelH2":6,"betLevelH3":7,"betLevelH4":8,"betLevelH5":9},"outputLookupLength":10,"options":{"inputSize":0,"outputSize":0,"binaryThresh":0.5,"hiddenLayers":[20,40,40,20],"activation":"leaky-relu"},"trainOpts":{"activation":"leaky-relu","iterations":400,"errorThresh":0.01,"log":true,"logPeriod":5,"leakyReluAlpha":0.01,"learningRate":0.001,"momentum":0.6,"callbackPeriod":10,"timeout":"Infinity","beta1":0.9,"beta2":0.999,"epsilon":1e-8}}